tree
version=v4
num_class=1
num_tree_per_iteration=1
label_index=0
max_feature_idx=11
objective=regression
feature_names=hour_of_day day_of_week hour_sin hour_cos is_burst burst_ratio lag_requests_5m lag_requests_15m rolling_max_1h rolling_mean_1h lag_requests_6h lag_requests_1d
feature_infos=[0:23] [0:6] [-1:1] [-1:1] [0:1] [0:11.999998678899228] [0:405] [0:405] [0:405] [0:300.83333333333331] [0:405] [0:405]
tree_sizes=5013 5232 4976 5072 4996 4964 5065 5054 5098 5070 5183 4749 5025 4984 5119 4827 4818 4970 4663 4666 4656 4841 4761 4603 4786 4495 4738 4511 4682 4682 4313 4246 4607 4929 4604 4407 4757 4498 4586 4579 4404 4369 4421 4621 4255 4342 4140 4512 4482 4334 4115 4192 3940 4267 3481 3848 3916 4185 3942 3511 3255 3494 3574 3292 3160 3747 3583 2641 3759 2902 3225 3033 3114 3737 3072 3393 1933 1920 1849 2869 1845 2012 2101 1666 1739 2710 2115 2278 2719 2809 3031 2289 2446 2258 2587 2322 2241 1907 2745 2238 2298 1936 1743 1834 2023 2187 1735 1473 1645 1406 1577 1575 1304 1298 2600 3331

Tree=0
num_leaves=58
num_cat=0
split_feature=9 9 9 6 6 9 9 9 8 6 6 6 6 6 6 6 6 6 6 9 9 6 6 9 6 9 6 8 9 6 6 6 6 6 6 9 9 9 6 9 9 8 9 9 5 9 5 6 6 9 8 6 7 8 11 0 8
split_gain=2.80238e+07 4.87664e+06 4.46245e+06 1.86407e+06 1.11312e+06 792407 769261 570719 331235 247646 218289 160322 141349 141272 108571 98701.2 53696.4 47176.4 46183.5 46099 43001.1 40933.5 39772.2 39073.7 36406.2 35060 31793 31504.3 29195.7 27849.9 25754.4 23099.3 22361.3 20657.8 18260 17670.8 16571.4 15902.4 12858.8 12375.1 11780.6 11692.9 11682.6 11639.8 11284.2 10762.4 9862.34 9683.03 8881.25 6972.99 6819.26 1543.88 906.128 640.776 633.265 679.984 81.567
threshold=47.125000000000007 21.458333333333339 79.875000000000014 161.50000000000003 2.5000000000000004 64.208333333333357 36.208333333333336 102.20833333333336 261.50000000000006 58.500000000000007 30.500000000000004 70.500000000000014 39.500000000000007 89.500000000000014 118.50000000000001 18.500000000000004 16.500000000000004 34.500000000000007 51.500000000000007 30.708333333333339 130.79166666666671 95.500000000000014 72.500000000000014 55.291666666666679 63.500000000000007 13.625000000000002 90.500000000000014 203.50000000000003 27.708333333333339 54.500000000000007 110.50000000000001 26.500000000000004 17.500000000000004 50.500000000000007 42.500000000000007 4.4583333333333348 71.458333333333357 59.125000000000007 36.500000000000007 15.458333333333334 41.875000000000007 82.500000000000014 53.958333333333336 40.541666666666679 0.45801524969407453 71.458333333333357 0.28301885590957693 3.5000000000000004 12.500000000000002 8.7083333333333339 105.50000000000001 1.5000000000000002 1.5000000000000002 26.500000000000004 2.5000000000000004 6.5000000000000009 1.0000000180025095e-35
decision_type=10 8 10 10 10 10 8 10 10 10 10 10 8 10 10 10 10 10 10 10 10 10 10 10 10 10 10 10 10 10 10 10 10 10 10 10 10 10 10 10 10 10 10 10 10 10 10 10 10 10 10 10 10 10 10 2 10
left_child=1 4 5 7 35 9 10 13 27 17 16 18 31 24 26 25 47 32 44 38 -16 36 37 -19 -4 49 -9 -5 -18 40 -15 46 -2 -21 39 54 -13 -11 -12 -17 -14 -31 -24 -33 -7 -20 -8 -3 -27 -6 -23 52 -37 -53 56 -56 -1
right_child=2 6 3 8 15 11 12 14 -10 22 19 21 29 30 20 34 28 23 45 33 -22 50 42 -25 -26 48 -28 -29 -30 41 -32 43 -34 -35 -36 51 -38 -39 -40 -41 -42 -43 -44 -45 -46 -47 -48 -49 -50 -51 -52 53 -54 -55 55 -57 -58
leaf_value=36.378248329291004 37.725632133215946 36.850892549654958 39.955432833570853 43.804193816181701 36.812644527966988 38.690460539982105 37.403236288968031 40.998033285044684 49.074355289548222 39.241762379269794 37.825779886816768 39.923499375912726 38.44918363666708 40.875187342628024 42.269469743219844 37.251851660036408 37.636809335354656 38.854781859651382 39.65857042382256 38.132585146396742 43.412596279520407 40.330597236003584 39.426566021236702 39.15440606853273 40.488165786332054 37.129257149784863 41.752984206361347 45.391802614459493 37.83658986184966 38.7856055088495 41.309405315731681 38.181050645016462 38.648548771422583 38.495255032882881 38.127394925235983 36.49918984919038 40.20218353217539 39.532490656401961 38.017291657427322 37.460770981511217 38.654155727772377 39.334869534891482 39.764396766790668 38.392618904410703 39.364572619089031 39.891578735085467 38.044191922018562 37.474853705014411 37.271446586966597 37.01184770711167 40.682071502222236 36.762539609363586 36.704835345178687 36.9638713549381 36.407544419545289 36.544162856404917 36.407413374411924
leaf_weight=5341 72 64 414 62 564 68 64 194 62 1573 1748 1012 1457 1068 380 931 3665 2587 1155 2584 105 227 348 1878 1423 2181 496 63 3650 1128 502 1333 742 463 91 78 1128 671 1758 2970 1351 106 967 1269 713 868 964 2184 2212 1987 352 109 171 62 453 114 251
leaf_count=5341 72 64 414 62 564 68 64 194 62 1573 1748 1012 1457 1068 380 931 3665 2587 1155 2584 105 227 348 1878 1423 2181 496 63 3650 1128 502 1333 742 463 91 78 1128 671 1758 2970 1351 106 967 1269 713 868 964 2184 2212 1987 352 109 171 62 453 114 251
internal_value=38.2859 37.5531 39.868 41.1932 36.92 39.4279 38.0193 40.9935 46.0864 39.1343 37.8231 39.8977 38.4314 40.6658 41.9437 37.2291 37.6708 38.917 39.6325 38.0454 42.517 40.1713 39.4566 38.9808 40.3681 37.1152 41.5407 44.6043 37.7365 38.6348 41.014 38.205 38.5669 38.1877 37.4272 36.4061 40.0704 39.3287 37.9218 37.4109 38.5478 38.8328 39.675 38.2842 39.3059 39.7585 38.0043 37.4571 37.2009 36.9678 40.5443 36.7199 36.6404 36.8355 36.3847 36.435 36.3796
internal_weight=60433 41303 19130 4769 17515 14361 23788 4582 187 8838 16116 5523 7672 3407 1175 10936 9563 5279 2804 6553 485 2719 3559 4465 1837 6944 690 125 7315 4042 1570 3630 814 3047 3992 6579 2140 2244 3506 3901 2808 1234 1315 2602 781 2023 1028 2248 4393 2551 579 420 249 171 6159 567 5592
internal_count=60433 41303 19130 4769 17515 14361 23788 4582 187 8838 16116 5523 7672 3407 1175 10936 9563 5279 2804 6553 485 2719 3559 4465 1837 6944 690 125 7315 4042 1570 3630 814 3047 3992 6579 2140 2244 3506 3901 2808 1234 1315 2602 781 2023 1028 2248 4393 2551 579 420 249 171 6159 567 5592
is_linear=0
shrinkage=1


Tree=1
num_leaves=59
num_cat=0
split_feature=9 9 9 6 6 9 9 9 8 6 6 6 6 6 6 6 6 6 8 6 8 9 6 9 6 9 6 7 6 6 6 9 9 10 9 6 6 6 9 9 6 6 6 9 8 9 6 6 6 9 8 7 6 7 10 8 2 8
split_gain=2.52915e+07 4.40117e+06 4.03303e+06 1.57495e+06 1.00459e+06 913825 695308 402902 298940 235694 185632 169502 137607 97985.7 91678.2 89077.9 59143.6 42961.6 40734.4 37936.4 37860.5 37604.7 34555.2 34427 34366.3 31641.6 28693.2 28577.7 28174.1 27636.2 22600.2 22424.4 20853.1 17854.5 17352.3 16829.2 16802.2 16556.7 16091.9 15947.9 15773.1 13306.5 12941.8 12504.3 12295.4 10992.5 10176.4 8015.33 6922.87 6293.12 6164.49 4693.26 1393.35 817.782 703.24 578.301 300.413 119.736
threshold=47.125000000000007 21.458333333333339 83.375000000000014 161.50000000000003 2.5000000000000004 64.625000000000014 33.458333333333336 102.20833333333336 261.50000000000006 58.500000000000007 39.500000000000007 76.500000000000014 26.500000000000004 118.50000000000001 97.500000000000014 18.500000000000004 51.500000000000007 35.500000000000007 169.50000000000003 72.500000000000014 99.500000000000014 39.875000000000007 39.500000000000007 55.291666666666679 25.500000000000004 13.625000000000002 90.500000000000014 158.50000000000003 58.500000000000007 15.500000000000002 17.500000000000004 71.458333333333357 40.541666666666679 62.500000000000007 27.708333333333339 89.500000000000014 38.500000000000007 130.50000000000003 59.125000000000007 4.4583333333333348 67.500000000000014 33.500000000000007 60.500000000000007 27.208333333333339 58.500000000000007 15.458333333333334 14.500000000000002 12.500000000000002 4.5000000000000009 8.7083333333333339 44.500000000000007 69.500000000000014 1.5000000000000002 1.5000000000000002 1.0000000180025095e-35 26.500000000000004 0.37940952255126054 1.0000000180025095e-35
decision_type=10 8 10 10 10 10 8 10 10 10 8 10 10 10 10 10 10 10 10 10 10 10 10 10 10 10 10 10 10 10 10 10 10 10 10 10 10 10 10 10 10 10 10 10 10 10 10 10 10 10 10 10 10 10 10 10 2 10
left_child=1 4 5 7 39 9 12 14 27 17 24 16 29 26 28 25 41 30 -15 38 51 42 34 -19 46 49 -9 -5 -4 48 -2 -18 -26 -21 -14 -22 45 -16 -11 54 -23 -7 -12 -31 -24 -17 -8 -27 -3 -6 -38 -13 53 -41 57 -54 -56 -1
right_child=2 6 3 8 15 11 10 13 -10 19 21 20 22 18 37 36 31 23 -20 33 35 40 44 -25 32 47 -28 -29 -30 43 -32 -33 -34 -35 -36 -37 50 -39 -40 52 -42 -43 -44 -45 -46 -47 -48 -49 -50 -51 -52 -53 55 -55 56 -57 -58 -59
leaf_value=-1.8131263309241559 -0.55269585431438606 -1.2894073037724747 1.5191874386971458 5.2384986439058858 -1.4015365029903171 0.40108948662338489 -0.69257696883458841 2.5745829359772281 10.247088758407102 0.90612547831954426 0.077501857585083711 1.4895828240665427 -0.50179470231788681 3.7183111305096568 2.6826263983860219 -0.99101650589348189 1.3472184629001116 0.54327126392191172 4.7192285794225235 1.1871122915701906 1.8862853209038128 0.36170814112270544 -0.19639507181252011 0.82511507417746854 -0.15253542443508744 -1.1007544694445321 3.2917863188011034 6.7505700762309733 2.197871434414453 -0.66208452626211622 0.36351920805552052 1.6225213034352184 0.092035719151953854 1.5592359378518394 -0.31411259412254605 2.2008703193431987 -0.56185214762687685 3.4345297950506208 1.1904420290674482 -1.699318524201711 0.7834436357910497 1.0711199106726736 0.48585939287311497 -0.50174871733970083 0.20312972949185504 -0.79251479871346231 -0.30116575369484194 -0.96567448364405706 -0.80151383294252165 -1.2122934734861723 0.041546841314993803 1.7417081649835566 -1.4491361202449973 -1.5039551984496982 -1.7601729407322173 -1.2578709700355128 -1.6394831027241723 -1.7745910069588839
leaf_weight=5677 73 76 171 62 564 83 190 194 62 1573 1907 342 2320 340 863 920 1425 2509 145 848 801 2530 1651 1907 2558 2181 496 63 1446 2766 863 1538 1322 520 2625 906 125 80 728 78 243 691 216 2170 218 2883 1318 2212 1678 1987 64 401 109 171 204 62 69 209
leaf_count=5677 73 76 171 62 564 83 190 194 62 1573 1907 342 2320 340 863 920 1425 2509 145 848 801 2530 1651 1907 2558 2181 496 63 1446 2766 863 1538 1322 520 2625 906 125 80 728 78 243 691 216 2170 218 2883 1318 2212 1678 1987 64 401 109 171 204 62 69 209
internal_value=-0.00195198 -0.698076 1.50103 2.93062 -1.29958 1.13235 -0.255193 2.70642 7.40852 0.811372 0.0545702 1.60036 -0.491094 3.47294 2.3546 -1.00587 1.38846 0.599763 4.01755 1.12005 1.92358 0.277418 -0.332943 0.664982 -0.147929 -1.11407 3.09014 6.00058 2.1261 -0.652176 0.292062 1.49012 -0.0692047 1.32856 -0.402166 2.05325 -0.817667 2.74641 0.996079 -1.78779 0.398665 0.999269 0.119049 -0.591597 -0.149795 -0.840535 -0.350481 -1.03274 -0.822654 -1.25413 -0.357527 1.62566 -1.48968 -1.56515 -1.80812 -1.37979 -1.72967 -1.81176
internal_weight=60433 41303 19130 3922 17515 15208 23788 3735 187 9021 10284 6187 13504 1175 2560 10936 3737 5352 485 3669 2450 4896 6814 4416 5388 6944 690 125 1617 6690 936 2963 3880 1368 4945 1707 3992 943 2301 6579 2773 774 2123 4936 1869 3803 1508 4393 1754 2551 189 743 420 249 6159 171 273 5886
internal_count=60433 41303 19130 3922 17515 15208 23788 3735 187 9021 10284 6187 13504 1175 2560 10936 3737 5352 485 3669 2450 4896 6814 4416 5388 6944 690 125 1617 6690 936 2963 3880 1368 4945 1707 3992 943 2301 6579 2773 774 2123 4936 1869 3803 1508 4393 1754 2551 189 743 420 249 6159 171 273 5886
is_linear=0
shrinkage=0.05


Tree=2
num_leaves=56
num_cat=0
split_feature=9 9 9 6 6 9 9 9 8 6 6 6 6 6 6 6 6 6 6 9 6 9 9 6 5 8 9 6 6 6 8 9 9 6 6 10 9 9 6 9 9 9 9 6 8 6 8 6 9 6 5 10 8 0 8
split_gain=2.28256e+07 3.97357e+06 3.64303e+06 1.51736e+06 970674 646592 583475 463308 269793 168732 165956 161406 116028 114632 94523.2 88432.1 43252.9 39780.6 38742.5 36808.5 35375.3 34835.6 32990.7 31252.4 30597.6 27058.6 27053.8 25931.1 23701.6 23686.9 23048.8 20737.6 20102 18715.7 17328.6 16627.3 14384.7 13461.7 12475 12315.5 11739 10554.7 9265.53 9065.91 9039.76 8908.68 8585.88 8324.25 6263.52 6024 1414.68 1030.33 458.619 384.505 128.628
threshold=47.125000000000007 22.208333333333339 79.875000000000014 161.50000000000003 2.5000000000000004 62.041666666666679 36.208333333333336 102.20833333333336 261.50000000000006 55.500000000000007 69.500000000000014 30.500000000000004 89.500000000000014 39.500000000000007 19.500000000000004 118.50000000000001 51.500000000000007 94.500000000000014 15.500000000000002 130.79166666666671 72.500000000000014 30.708333333333339 13.625000000000002 44.500000000000007 0.38399998464000068 203.50000000000003 52.291666666666679 88.500000000000014 55.500000000000007 45.500000000000007 126.50000000000001 28.875000000000004 71.958333333333357 26.500000000000004 50.500000000000007 57.500000000000007 6.4583333333333348 65.458333333333357 30.500000000000004 17.708333333333339 52.291666666666679 44.458333333333336 40.541666666666679 12.500000000000002 70.500000000000014 37.500000000000007 105.50000000000001 14.500000000000002 8.7083333333333339 6.5000000000000009 1.0000000180025095e-35 1.0000000180025095e-35 27.500000000000004 3.5000000000000004 1.0000000180025095e-35
decision_type=10 8 10 10 10 10 8 10 10 10 10 10 10 8 10 10 10 10 10 10 10 10 10 10 10 10 10 10 10 10 10 10 10 10 10 10 10 10 10 10 10 10 10 10 10 10 10 10 10 10 10 10 10 2 10
left_child=1 4 5 7 36 9 11 12 25 24 16 18 23 33 22 27 38 32 49 -17 40 45 48 -4 -2 -5 -26 -9 41 39 -14 -20 -12 47 -23 -22 51 -18 -7 -16 -11 -15 -35 -24 -30 -13 -19 -8 -6 -3 -38 54 -52 -53 -1
right_child=2 6 3 8 14 10 13 15 -10 20 17 21 30 28 29 19 37 46 31 -21 35 34 43 -25 26 -27 -28 -29 44 -31 -32 -33 -34 42 -36 -37 50 -39 -40 -41 -42 -43 -44 -45 -46 -47 -48 -49 -50 -51 52 53 -54 -55 -56
leaf_value=-1.7224698710949757 -0.39788111089004413 -1.0700300430397054 0.88541776565344721 4.958999881436748 -1.333195630792986 0.26335902418196205 -0.6587218319684004 2.4177378870255453 9.7347343644788182 0.71108875796001747 1.4438101647180732 -0.39645449693352952 2.326949581780581 0.18452192916806673 -0.87016259108017902 3.5877081891894345 1.0660170202272841 1.7919176266710952 -0.56505673361507991 4.6453252501714806 1.0436632702797901 -0.13995106166369939 -1.0413242763263437 1.9209879151935234 0.38853079265822754 6.430336120393541 0.6442914997921898 3.1170455100834955 0.40376667305929631 0.2023731038432855 2.7322629021561666 -0.39453328370184004 1.7323292020610106 -0.09392387795430418 0.19221217960791087 1.4407745313215055 -1.5616297689817287 1.3456614459510217 0.93310392887838745 -0.6898495542106966 0.94598876768904838 0.40584906797809073 0.094837402097346563 -0.90700785462542877 0.69995229234522149 -0.23221926616142261 2.1544427738892726 -0.2038497524004165 -1.1459080863767541 -0.73044012785254919 -1.3892273043408807 -1.7086687601529638 -1.2569374500621449 -1.5919970334118063 -1.6831583053977401
leaf_weight=5677 90 143 76 62 570 75 113 179 62 756 1399 1852 1041 2203 1548 380 576 281 4127 105 597 2584 2308 1761 1820 63 2394 511 727 65 529 3139 1062 1333 463 472 93 1702 953 2439 1794 713 1269 2757 399 1490 390 915 2059 1505 162 104 110 220 216
leaf_count=5677 90 143 76 62 570 75 113 179 62 756 1399 1852 1041 2203 1548 380 576 281 4127 105 597 2584 2308 1761 1820 63 2394 511 727 65 529 3139 1062 1333 463 472 93 1702 953 2439 1794 713 1269 2757 399 1490 390 915 2059 1505 162 104 110 220 216
internal_value=-0.00185437 -0.663172 1.42598 2.62333 -1.21226 1.02836 -0.225147 2.44316 7.03809 0.725931 1.40055 -0.403557 2.14789 0.13072 -0.939873 3.2993 1.15346 1.66136 -0.541032 3.81668 0.977563 -0.211751 -1.04281 1.87814 0.514347 5.70055 0.53383 2.93563 0.313877 -0.744423 2.46352 -0.491389 1.56832 -0.0732259 -0.0894779 1.219 -1.69835 1.27495 0.884241 -0.759858 0.876348 0.238639 -0.00186467 -0.968213 0.508721 -0.323232 2.00263 -0.25385 -1.18651 -0.759907 -1.39329 -1.71626 -1.33573 -1.62945 -1.72103
internal_weight=60433 41303 19130 4769 18328 14361 22975 4582 187 7923 6438 15303 3407 7672 11746 1175 3306 3132 8914 485 3619 6389 7694 1837 4304 125 4214 690 4042 4052 1570 7266 2461 3630 3047 1069 6582 2278 1028 3987 2550 2916 2602 5065 1126 3342 671 1028 2629 1648 365 6217 272 324 5893
internal_count=60433 41303 19130 4769 18328 14361 22975 4582 187 7923 6438 15303 3407 7672 11746 1175 3306 3132 8914 485 3619 6389 7694 1837 4304 125 4214 690 4042 4052 1570 7266 2461 3630 3047 1069 6582 2278 1028 3987 2550 2916 2602 5065 1126 3342 671 1028 2629 1648 365 6217 272 324 5893
is_linear=0
shrinkage=0.05


Tree=3
num_leaves=57
num_cat=0
split_feature=9 9 9 8 9 9 9 9 8 5 9 5 5 5 9 9 9 5 9 4 5 9 5 9 9 5 9 5 8 5 5 5 5 5 5 5 5 5 7 5 5 0 0 5 5 5 0 5 0 8 5 5 8 1 10 8
split_gain=2.06001e+07 3.58639e+06 3.29349e+06 1.21786e+06 811996 809098 568945 289050 248566 132946 121603 116186 84753.8 64124 61402.7 59393.6 59180.6 58081.6 47211.3 46884.3 45343.3 38185.1 27704.6 26620.1 25387.9 23836.6 23799.8 22934.8 22733.8 21005.7 18990.7 17710.3 16233.4 15097.5 15018.1 15003.8 14550.7 14218.7 13925.6 12879.9 12282.3 11890.2 11511.6 10815.7 9604.36 9361.76 9137.89 8484.82 7570.61 7459.7 6512.95 2278.09 1426.15 899.104 579.649 217.67
threshold=47.125000000000007 21.458333333333339 84.875000000000014 196.00000000000003 64.625000000000014 6.4583333333333348 36.208333333333336 107.45833333333336 261.50000000000006 0.97995592090099481 28.875000000000004 0.92774385680423033 1.0134202433347876 1.0264071105337422 71.958333333333357 15.208333333333334 54.958333333333336 1.2158590040559694 55.291666666666679 1.0000000180025095e-35 0.93103444262782598 73.458333333333357 0.85117248105570364 40.541666666666679 130.79166666666671 0.75086172313981858 41.541666666666679 0.69930068463005579 131.50000000000003 1.3670885608716572 1.2204305053955438 1.2711543385544386 0.55548785247689525 0.75889325903544913 0.38399998464000068 0.7179486964716203 0.55548785247689525 1.2828856058283156 165.50000000000003 0.57692302699704634 0.74693794860793661 10.500000000000002 10.500000000000002 0.19903256450102161 0.57692302699704634 1.6859502878218806 11.500000000000002 0.69930068463005579 19.500000000000004 59.500000000000007 0.4316546483101309 0.13273786046515368 15.500000000000002 4.5000000000000009 59.500000000000007 11.500000000000002
decision_type=10 8 10 10 10 10 8 10 10 10 10 10 8 10 10 10 10 10 10 2 10 10 10 10 10 10 10 10 10 10 10 10 10 10 10 10 10 10 10 10 10 2 2 10 10 10 2 10 2 10 10 10 10 2 10 10
left_child=1 5 4 7 9 43 10 13 38 18 20 21 23 27 30 36 37 25 34 35 44 33 50 47 -21 -12 45 -4 -15 -16 -13 -18 -20 -6 -2 -9 51 -11 -5 -23 -25 -38 -22 54 -3 -14 -24 -8 -28 -19 -17 -7 53 -45 55 -1
right_child=2 6 3 8 11 15 12 19 -10 16 17 14 26 28 29 22 31 49 32 24 42 39 46 40 -26 -27 48 -29 -30 -31 -32 -33 -34 -35 -36 -37 41 -39 -40 -41 -42 -43 -44 52 -46 -47 -48 -49 -50 -51 -52 -53 -54 -55 -56 -57
leaf_value=-1.635071215885169 -0.3937773035418603 -0.77765441281461933 1.5634523393201434 4.7311683589761904 0.84125149254044307 -1.4149707048711644 -0.3145703704876831 2.1672250512422937 8.9657682657241828 0.64532837315534941 -0.47676390021588155 1.2983481249227777 0.15407751770805161 2.3500722833936147 1.7611096702825184 -1.0857393360482044 1.0042049135502176 -0.062520691711921247 0.26741252909509505 3.4244375044489139 -0.31532050376307974 0.9298765896272565 -0.54008530656966836 -0.059609394478332148 4.3210862879850422 -0.26082510935105335 0.40258974091440458 2.0971475020094572 2.8285751578038334 2.2346522180891752 1.6521356770071898 1.3029988946071998 0.74458272746831833 1.1728636476441503 0.39544945144162802 3.0035731883315773 -0.32814123938007961 0.91184640518113835 5.7582845069792583 1.4621912469482614 0.17816417200241996 -1.0215201477248392 -0.48096004795053943 -1.4985230188333354 -0.60462838787171735 0.60544273354173672 -0.76501772476112428 -0.090727161647668017 0.71615637341021421 0.19631286447795901 -0.90084499787095762 -1.1977565614036891 -1.1719990816609613 -1.3146519583463669 -1.4802580031656452 -1.555856655402617
leaf_weight=5970 62 1136 242 66 594 142 642 66 68 1492 1940 1126 1740 723 1856 616 1678 1600 196 406 1606 126 519 883 98 3745 1407 1197 378 268 572 704 1967 813 2169 286 63 753 66 1158 1411 3324 3024 131 2728 123 3473 1243 223 337 2100 805 87 135 62 88
leaf_count=5970 62 1136 242 66 594 142 642 66 68 1492 1940 1126 1740 723 1856 616 1678 1600 196 406 1606 126 519 883 98 3745 1407 1197 378 268 572 704 1967 813 2169 286 63 753 66 1158 1411 3324 3024 131 2728 123 3473 1243 223 337 2100 805 87 135 62 88
internal_value=-0.00176165 -0.630014 1.35468 2.71823 1.03903 -1.17299 -0.230222 2.49493 6.50988 0.731863 -0.398936 1.46447 0.124184 2.22714 1.64167 -0.912799 0.918914 -0.253947 0.534894 3.28954 -0.52904 1.21279 -0.819589 -0.0277515 3.59879 -0.334514 0.305958 2.00739 2.51435 1.82086 1.41753 1.09251 0.701344 1.03287 0.373517 2.84676 -1.05707 0.734722 5.24473 1.40995 0.086641 -1.00862 -0.423505 -1.61684 -0.655497 0.183878 -0.735774 -0.166964 0.445489 -0.0174887 -0.94278 -1.23033 -1.34773 -1.4052 -1.63236 -1.63392
internal_weight=60433 41303 19130 3596 15534 17515 23788 3396 200 9021 16116 6513 7672 2540 3822 11042 4627 7622 4394 856 8494 2691 6708 4179 504 5685 3493 1439 1101 2124 1698 2382 2163 1407 2231 352 4334 2245 132 1284 2294 3387 4630 6473 3864 1863 3992 1885 1630 1937 2716 947 353 266 6120 6058
internal_count=60433 41303 19130 3596 15534 17515 23788 3396 200 9021 16116 6513 7672 2540 3822 11042 4627 7622 4394 856 8494 2691 6708 4179 504 5685 3493 1439 1101 2124 1698 2382 2163 1407 2231 352 4334 2245 132 1284 2294 3387 4630 6473 3864 1863 3992 1885 1630 1937 2716 947 353 266 6120 6058
is_linear=0
shrinkage=0.05


Tree=4
num_leaves=56
num_cat=0
split_feature=9 9 9 6 6 6 9 9 8 8 6 6 6 9 6 6 6 9 6 8 6 9 6 9 6 6 6 6 5 9 9 6 9 3 6 6 9 8 5 6 3 9 8 9 5 5 9 6 6 9 6 7 10 9 8
split_gain=1.85916e+07 3.24075e+06 2.97702e+06 1.25103e+06 790323 530180 474477 377064 218131 178453 134223 95710.2 93972.4 91763.9 79054.9 72146.6 46658.1 34866.1 32065.2 31859 29307.8 27230.7 26703.3 24968.6 21904.4 21013.5 20252.5 19652 19411.7 16940.2 16074.4 15426.7 15119.9 13157.4 12634.3 11978.6 11478.5 11462.8 11457.7 11336.7 9989.61 9957.9 9537.39 8502.19 8131.6 7758.02 7597.63 7243.15 5612.44 5302.26 1134.15 642.75 533.571 473.265 215.226
threshold=47.125000000000007 22.208333333333339 79.875000000000014 161.50000000000003 2.5000000000000004 58.500000000000007 36.208333333333336 102.20833333333336 253.50000000000003 93.500000000000014 30.500000000000004 89.500000000000014 39.500000000000007 56.375000000000007 19.500000000000004 118.50000000000001 80.500000000000014 59.125000000000007 15.500000000000002 169.50000000000003 43.500000000000007 13.625000000000002 44.500000000000007 64.625000000000014 88.500000000000014 45.500000000000007 54.500000000000007 110.50000000000001 0.61538459888829189 29.958333333333339 27.458333333333339 26.500000000000004 71.458333333333357 -0.12940952255126034 106.50000000000001 42.500000000000007 4.4583333333333348 58.500000000000007 0.46965803942206646 69.500000000000014 0.60355339059327384 17.708333333333339 82.500000000000014 44.458333333333336 0.38399998464000068 0.28301885590957693 40.541666666666679 12.500000000000002 4.5000000000000009 8.7083333333333339 1.5000000000000002 1.5000000000000002 44.500000000000007 12.208333333333334 1.5000000000000002
decision_type=10 8 10 10 10 10 8 10 10 10 10 10 8 10 10 10 10 10 10 10 10 10 10 10 10 10 10 10 10 10 10 10 10 2 10 10 10 10 10 10 2 10 10 10 10 10 10 10 10 10 10 10 10 10 10
left_child=1 4 5 7 36 13 10 11 -5 17 18 22 31 28 21 24 32 40 48 -17 30 49 -4 38 -9 41 43 -13 44 -20 -12 45 -11 -30 -18 -25 52 -22 -15 -19 -7 -16 -28 -14 -2 -8 -33 -23 -3 -6 51 -38 54 -52 -1
right_child=2 6 3 8 14 9 12 15 -10 16 20 27 26 23 25 19 34 39 29 -21 37 47 -24 35 -26 -27 42 -29 33 -31 -32 46 -34 -35 -36 -37 50 -39 -40 -41 -42 -43 -44 -45 -46 -47 -48 -49 -50 -51 53 -53 -54 -55 -56
leaf_value=-1.5542829489860648 -0.3896263534176177 -1.1200048773652977 0.77672952837065656 5.0570828071007368 -1.2082604397643815 0.75499184323607615 -0.7637540618423373 2.1736231888722441 8.5857276434557779 1.1761580295318048 -0.39220706772771358 2.1047430056394933 0.16057462572128434 0.076829000787907525 -0.78358752810064158 3.180762762672761 1.6012836318881636 0.98982209642374785 -0.49973830758788262 4.0659466999974745 -0.082369001512625786 -0.94032208483756574 1.7339696521947479 0.6591419599147943 2.8163447126017158 0.22190337726703058 0.41002693368263998 2.4840453561944553 0.32381053358581746 -0.33940969143999689 -0.19167355762555999 -0.085254584693553223 1.4375166799073373 0.54211645435554556 1.9996769737276396 1.0379689707016342 -1.4679811796603295 0.22589445475011299 0.70385625615593295 1.2457239947948189 0.98276204278947277 -0.62144926399498113 0.90608781677372052 0.36397322705084328 0.20412475459829527 -0.19527619222403192 0.085674861601316821 -0.82026519297201073 -0.66858561574741449 -1.0359426484365901 -1.2451992201148918 -1.295096075741542 -1.4363278256784573 -1.0730509248990863 -1.5094726173903172
leaf_weight=5777 69 72 76 117 570 1374 64 179 70 1124 1449 1068 2131 76 1548 340 1364 759 4741 145 1330 2308 1761 260 511 65 1128 502 1039 2525 3220 1333 1090 2056 233 1057 78 390 1761 1007 741 2439 106 677 351 964 1269 2757 1576 2059 109 173 101 63 281
leaf_count=5777 69 72 76 117 570 1374 64 179 70 1124 1449 1068 2131 76 1548 340 1364 759 4741 145 1330 2308 1761 260 511 65 1128 502 1039 2525 3220 1333 1090 2056 233 1057 78 390 1761 1007 741 2439 106 677 351 964 1269 2757 1576 2059 109 173 101 63 281
internal_value=-0.00167357 -0.598513 1.28694 2.36933 -1.09439 0.927506 -0.202936 2.20573 6.37797 1.21038 -0.363821 1.93936 0.117975 0.601235 -0.848607 2.97809 1.45342 0.971735 -0.489186 3.44541 -0.18891 -0.942741 1.69437 0.797032 2.64961 -0.669863 0.283808 2.22602 0.425546 -0.444023 -0.253908 -0.0666803 1.30483 0.468831 1.65941 0.963182 -1.533 -0.0124721 0.677915 1.13574 0.834792 -0.684401 0.452638 0.209613 0.10658 -0.230668 -0.00189199 -0.874972 -0.688308 -1.0733 -1.28105 -1.34882 -1.5503 -1.18214 -1.5522
internal_weight=60433 41303 19130 4769 18328 14361 22975 4582 187 7692 15303 3407 7672 6669 11746 1175 3811 3881 8914 485 6389 7694 1837 3154 690 4052 4042 1570 3515 7266 4669 3630 2214 3095 1597 1317 6582 1720 1837 1766 2115 3987 1234 2808 420 1028 2602 5065 1648 2629 423 251 6159 172 6058
internal_count=60433 41303 19130 4769 18328 14361 22975 4582 187 7692 15303 3407 7672 6669 11746 1175 3811 3881 8914 485 6389 7694 1837 3154 690 4052 4042 1570 3515 7266 4669 3630 2214 3095 1597 1317 6582 1720 1837 1766 2115 3987 1234 2808 420 1028 2602 5065 1648 2629 423 251 6159 172 6058
is_linear=0
shrinkage=0.05


Tree=5
num_leaves=56
num_cat=0
split_feature=9 9 9 9 9 6 9 6 6 6 6 6 6 6 6 9 6 9 6 9 6 6 0 6 6 9 9 6 0 9 9 6 9 9 9 6 5 3 6 0 7 5 10 9 6 6 6 9 9 5 9 9 10 7 9
split_gain=1.69019e+07 3.04028e+06 2.67103e+06 944226 781178 749117 479860 201815 170162 149988 123145 119025 97020 74941.4 56090 53317.5 47491.3 45438.7 28386.7 27091.5 26230.4 25846.1 25161.1 23433.9 22495.8 20630 20567.8 18906.7 18133.9 17635.6 17255.5 15883.7 14964.9 12824.5 12813.3 11951.7 10680.9 10415.8 9552.45 9412.12 8924.62 8797.38 8447.7 7895.28 7343.62 7078.96 5174.32 5164.21 5091.75 3385.31 1221.27 678.838 430.216 409.079 192.595
threshold=48.125000000000007 22.458333333333339 90.375000000000014 161.41666666666671 65.458333333333357 2.5000000000000004 36.208333333333336 124.50000000000001 51.500000000000007 69.500000000000014 30.500000000000004 218.50000000000003 44.500000000000007 17.500000000000004 104.50000000000001 107.45833333333336 74.500000000000014 122.70833333333336 30.500000000000004 72.958333333333357 15.500000000000002 81.500000000000014 18.500000000000004 29.500000000000004 46.500000000000007 13.958333333333334 78.708333333333357 29.500000000000004 11.500000000000002 57.958333333333336 29.958333333333339 88.500000000000014 44.791666666666679 29.541666666666668 53.958333333333336 126.50000000000001 1.0000000180025095e-35 0.60355339059327384 26.500000000000004 9.5000000000000018 119.50000000000001 2.0245480802535365 62.500000000000007 37.958333333333336 16.500000000000004 4.5000000000000009 8.5000000000000018 9.5416666666666696 30.708333333333339 1.4910710458817473 9.5416666666666696 4.4583333333333348 15.500000000000002 9.5000000000000018 1.0000000180025095e-35
decision_type=10 8 8 10 8 10 8 10 10 10 10 10 10 10 10 10 10 10 10 10 10 10 2 8 10 10 10 10 2 10 10 10 10 10 10 10 10 2 10 2 10 10 10 8 10 10 10 10 10 10 10 10 10 10 10
left_child=1 5 4 7 8 36 10 15 27 18 20 -5 23 25 19 21 29 40 -6 -11 45 -4 -19 44 33 47 -20 39 41 -10 -22 -17 42 -12 -29 -16 51 -18 -30 -2 -9 -15 -14 -25 -8 -3 -27 -7 -26 -34 52 54 -38 -52 -1
right_child=2 6 3 11 9 13 12 17 16 14 24 -13 32 28 35 31 37 22 26 -21 30 -23 -24 43 48 46 -28 34 38 -31 -32 -33 49 -35 -36 -37 50 -39 -40 -41 -42 -43 -44 -45 -46 -47 -48 -49 -50 -51 53 -53 -54 -55 -56
leaf_value=-1.4773037075732527 -0.15576441412995337 -1.1593578036536092 1.7439553638351744 5.3394314423374745 0.13195769910667418 -1.1273091210133355 -0.4693088262987079 2.8488137010915349 0.70369196154109093 1.3235685794984513 -0.30982958331960531 8.1675255608558661 0.22517726001616511 -0.48769098697831076 1.9467872468645497 2.0891561634676612 1.0024220951301541 3.557010660552979 1.0732752291780672 1.6120772341092717 -0.48436063232731819 2.2244582870003473 4.7760593654587868 -0.088523446623566426 -0.11438014093824406 -0.94341323067309757 1.4057375625977797 0.3582969939927737 -0.74199570614635557 0.91667911366910904 -0.32217115093862458 2.8124254479776845 0.45982321849148566 -0.15062050595291254 0.55852476314786537 2.6025107996957377 -1.3393365893099043 1.2965625885432881 -0.58372419760144023 0.39292020192301536 3.4015412680153712 0.057496810035712755 0.50475389387317093 0.10127611706346798 -0.12942523209642112 -0.63026367187649024 -0.80766062716558751 -0.97136476416522122 0.10020786029587028 0.7259390869007929 -1.2084503351847333 -1.3537769753708799 -1.1835343368351461 -1.0593528720511107 -1.4352857363807572
leaf_weight=5873 196 66 380 87 71 736 179 251 2325 1230 2303 65 1864 682 529 92 596 125 2172 2404 4608 1062 64 682 442 891 592 1532 3030 1670 2546 434 936 2806 1670 80 144 608 1391 130 103 83 316 2787 1417 1500 3308 1905 738 137 75 117 64 119 286
leaf_count=5873 196 66 380 87 71 736 179 251 2325 1230 2303 65 1864 682 529 92 596 125 2172 2404 4608 1062 64 682 442 891 592 1532 3030 1670 2546 434 936 2806 1670 80 144 608 1391 130 103 83 316 2787 1417 1500 3308 1905 738 137 75 117 64 119 286
internal_value=-0.00357264 -0.557546 1.25721 2.72212 1.01038 -1.03245 -0.176761 2.49047 0.693811 1.40071 -0.345584 6.54881 0.127863 -0.79665 1.58885 2.25502 0.875686 3.34384 1.11913 1.51443 -0.467213 2.09783 3.96981 -0.00898683 -0.176941 -0.905332 1.14448 0.425793 -0.653305 0.792725 -0.42664 2.68592 0.340941 -0.222388 0.462726 2.03292 -1.45708 1.15096 -0.692198 0.0630362 3.00964 -0.42854 0.265703 0.0639618 -0.167545 -0.652563 -0.836466 -1.01482 0.0198283 0.493801 -1.20723 -1.47309 -1.2914 -1.11699 -1.47535
internal_weight=60499 42031 18468 2663 15805 18704 23327 2511 8727 7078 15009 152 8318 12026 4243 1968 5199 543 2835 3634 8720 1442 189 5065 6289 6840 2764 3528 5186 3995 7154 526 3253 5109 3202 609 6678 1204 4421 326 354 765 2180 3469 1596 1566 4199 2641 1180 1073 402 6276 208 194 6159
internal_count=60499 42031 18468 2663 15805 18704 23327 2511 8727 7078 15009 152 8318 12026 4243 1968 5199 543 2835 3634 8720 1442 189 5065 6289 6840 2764 3528 5186 3995 7154 526 3253 5109 3202 609 6678 1204 4421 326 354 765 2180 3469 1596 1566 4199 2641 1180 1073 402 6276 208 194 6159
is_linear=0
shrinkage=0.05


Tree=6
num_leaves=57
num_cat=0
split_feature=9 9 9 8 9 9 6 9 8 6 6 6 6 6 6 6 6 6 6 6 6 6 6 6 8 6 9 6 9 9 9 9 9 7 6 9 9 10 8 6 2 10 9 6 2 6 6 6 2 9 10 8 11 7 9 1
split_gain=1.52561e+07 2.70602e+06 2.38378e+06 1.14384e+06 529215 473698 434571 305685 203451 164096 104751 103448 96250.6 73523.7 62329.9 33103.6 32921.4 32054.3 28370.8 25828.3 25620.3 24691.9 23129.4 22186.2 20070.9 18422.6 17404 17359.2 16738.1 15026.3 14717.9 13513.6 13210.4 12899.2 11309.9 11090.9 10978.6 10638 10093.7 9976.91 8296.89 8058.66 7934.53 6662.01 6590.25 6422.85 5359.97 4555.58 3300.65 2695.64 1928.36 327.616 429.061 275.364 350.388 69.3904
threshold=44.791666666666679 78.708333333333357 18.458333333333339 190.00000000000003 62.041666666666679 31.708333333333339 1.5000000000000002 97.958333333333357 238.00000000000003 50.500000000000007 70.500000000000014 23.500000000000004 40.500000000000007 106.50000000000001 86.500000000000014 72.500000000000014 16.500000000000004 97.500000000000014 35.500000000000007 29.500000000000004 43.500000000000007 30.500000000000004 51.500000000000007 75.500000000000014 83.500000000000014 10.500000000000002 113.95833333333336 132.50000000000003 52.291666666666679 23.708333333333339 51.958333333333336 23.958333333333339 38.458333333333336 162.50000000000003 13.500000000000002 37.958333333333336 10.208333333333334 75.500000000000014 122.50000000000001 29.500000000000004 0.78656609248549325 62.500000000000007 40.541666666666679 57.500000000000007 -1.0000000180025095e-35 30.500000000000004 2.5000000000000004 5.5000000000000009 -0.37940952255126059 4.4583333333333348 26.500000000000004 1.0000000180025095e-35 3.5000000000000004 1.5000000000000002 9.5416666666666696 2.5000000000000004
decision_type=10 10 8 10 10 8 10 10 10 10 10 10 8 10 10 10 10 10 10 10 10 10 10 10 10 10 10 10 10 10 10 10 8 10 10 10 10 10 10 10 2 10 10 10 2 10 10 10 2 10 10 10 10 10 10 2
left_child=2 4 6 7 9 11 49 14 33 19 22 25 21 23 20 28 36 37 29 34 -3 42 45 -9 32 46 -15 -16 -11 -13 -21 -27 -14 -5 -2 -23 50 -12 -19 48 -24 -17 -7 -20 -41 -6 -4 -38 -18 51 -8 55 -53 -51 -55 -1
right_child=1 3 5 8 10 12 16 13 -10 15 17 18 24 26 27 41 39 38 43 30 -22 35 40 -25 -26 31 -28 -29 -30 -31 -32 -33 -34 -35 -36 -37 47 -39 -40 44 -42 -43 -44 -45 -46 -47 -48 -49 -50 53 -52 52 -54 54 -56 -57
leaf_value=-1.3976803834402998 -0.64705701758784639 0.50846116452788315 -1.2466762280464172 3.8346490314207884 0.30027760107815271 -0.27549509454688292 -1.0841806749545453 1.4591562217941472 7.1763133382918882 0.53321931412507073 1.2148906351077859 -0.5272395968925776 0.046030187529904232 2.6422454794818027 1.868406085485292 0.87238906697047836 -0.77058867722703805 1.652990937180947 -0.21914860129412453 0.26574658852328759 1.5119455769924637 -0.13040909979590892 1.0826645773483692 2.2664279086203662 0.84946933055965657 -0.64529919290321125 3.104838420647793 2.6963814797049221 0.74542744917914749 -0.34881833196771139 0.46466958825879162 -0.49722252281128132 0.22832772283855418 4.759794291897097 0.070371408598242466 0.057059122824166843 -1.0157739150978049 1.4452445319890321 2.3385060002726892 -0.57315555132238105 0.84836075696311575 1.1529446789961659 -0.065181463126345249 0.18410956497504333 -0.064973671953193854 0.78165160394881972 -0.77631184284529142 -0.85838151718670608 -0.62580021038389422 -1.3064391965928832 -0.82537781305802183 -1.3890971333527369 -1.2659754034280777 -1.2799933433532715 -1.1290123476627025 -1.4085682935892807
leaf_weight=2767 62 66 65 83 75 2856 932 102 98 1524 1562 1727 1877 440 1550 734 1937 401 2392 2020 1754 1816 1832 514 103 3120 378 66 2381 3726 1723 3044 2112 69 482 1395 531 738 62 315 476 393 532 107 80 911 888 3426 494 76 78 242 100 65 94 3106
leaf_count=2767 62 66 65 83 75 2856 932 102 98 1524 1562 1727 1877 440 1550 734 1937 401 2392 2020 1754 1816 1832 514 103 3120 378 66 2381 3726 1723 3044 2112 69 482 1395 531 738 62 315 476 393 532 107 80 911 888 3426 494 76 78 242 100 65 94 3106
internal_value=-0.00339401 1.10585 -0.57173 2.10146 0.774331 -0.284729 -1.0908 1.93213 5.39992 0.537844 1.13818 -0.465328 -0.0301743 2.54532 1.67622 0.731504 -0.839541 1.36521 -0.341391 0.310528 1.47556 -0.148313 0.947743 2.13276 0.160343 -0.603805 2.85601 1.90222 0.662609 -0.405325 0.357316 -0.572174 0.142549 4.25462 -0.0113943 -0.0489646 -0.917058 1.2888 1.74479 -0.703297 1.03434 0.970223 -0.242471 -0.201882 -0.470233 0.745036 -0.808393 -0.879502 -0.741166 -1.39438 -1.06419 -1.40067 -1.3531 -1.22815 -1.19073 -1.40344
internal_weight=60499 20496 40003 5120 15376 25760 14243 4870 250 9319 6057 15069 10691 1434 3436 5032 7793 2763 7952 4287 1820 6599 3294 616 4092 7117 818 1616 3905 5453 3743 6164 3989 152 544 3211 4967 2300 463 2826 2308 1127 3388 2499 395 986 953 3957 2431 6450 1010 6215 342 235 159 5873
internal_count=60499 20496 40003 5120 15376 25760 14243 4870 250 9319 6057 15069 10691 1434 3436 5032 7793 2763 7952 4287 1820 6599 3294 616 4092 7117 818 1616 3905 5453 3743 6164 3989 152 544 3211 4967 2300 463 2826 2308 1127 3388 2499 395 986 953 3957 2431 6450 1010 6215 342 235 159 5873
is_linear=0
shrinkage=0.05


Tree=7
num_leaves=57
num_cat=0
split_feature=9 9 9 8 6 9 9 6 6 6 6 6 6 6 9 6 6 6 6 6 9 6 6 6 9 6 9 11 3 6 2 9 8 9 9 9 9 3 8 5 9 8 6 2 6 9 6 5 8 6 9 8 6 9 5 8
split_gain=1.37736e+07 2.47836e+06 2.1854e+06 817687 609344 608665 390636 143516 143489 138502 116663 100923 79970.3 61388.3 49316 40335.7 38985.6 25064.5 23212.3 21878 20933.6 18806.6 18720.3 18297.7 18285.1 17730.9 17002.1 16948.6 16501.6 15546.9 14729 14267.4 12611.6 11906.1 11806.1 10443.5 9652.71 9168.2 8736.81 8695.96 8077.88 7673.36 7406.23 6658.48 6498.43 6300.89 5938.38 5399.83 4706.96 4309.42 4170.86 1370.37 540.653 538.408 191.743 154.283
threshold=48.125000000000007 22.458333333333339 89.208333333333357 196.00000000000003 2.5000000000000004 65.458333333333357 36.208333333333336 218.50000000000003 106.50000000000001 51.500000000000007 82.500000000000014 30.500000000000004 44.500000000000007 17.500000000000004 113.95833333333336 60.500000000000007 74.500000000000014 53.500000000000007 105.50000000000001 15.500000000000002 79.291666666666671 46.500000000000007 29.500000000000004 30.500000000000004 99.875000000000014 132.50000000000003 13.958333333333334 53.500000000000007 0.60355339059327384 33.500000000000007 0.12940952255126043 29.958333333333339 131.50000000000003 43.541666666666679 97.958333333333357 29.541666666666668 52.625000000000007 0.60355339059327384 99.500000000000014 1.0000000180025095e-35 16.958333333333339 81.500000000000014 34.500000000000007 0.60355339059327384 11.500000000000002 40.208333333333336 4.5000000000000009 1.4910710458817473 58.500000000000007 8.5000000000000018 8.7083333333333339 18.500000000000004 1.5000000000000002 4.4583333333333348 0.46965803942206646 1.0000000180025095e-35
decision_type=10 8 10 10 10 10 8 10 10 10 10 10 10 10 10 10 10 10 10 10 10 10 8 10 10 10 10 10 2 10 2 10 10 10 10 10 10 2 10 10 10 10 10 2 10 8 10 10 10 10 10 10 10 10 10 10
left_child=1 4 5 8 39 9 11 27 17 29 15 19 22 26 34 23 28 -4 38 46 -17 35 44 -7 -19 -16 50 -5 -11 43 40 -21 -20 41 -10 -13 -31 -18 -12 53 -15 -14 -32 -2 -8 -24 -3 -35 -23 -28 -6 54 -53 55 -41 -1
right_child=2 6 3 7 13 10 12 -9 14 16 18 21 33 30 25 20 37 24 32 31 -22 48 45 -25 -26 -27 49 -29 -30 36 42 -33 -34 47 -36 -37 -38 -39 -40 51 -42 -43 -44 -45 -46 -47 -48 -49 -50 -51 -52 52 -54 -55 -56 -57
leaf_value=-1.3332666227810634 0.30437187833101059 -1.0553911554994007 0.86713517784110972 5.1628274682968387 -1.0387246324140678 0.11059796525084453 -0.64027719759024115 7.407769470214844 2.0987825148091184 0.63063419716037206 1.2676710773169342 -0.27962192727207957 0.20060564866892472 -0.71279734422332874 2.7282030966198239 1.1336056004734574 0.90003749734578331 1.7618900795164874 1.7263617942730587 -0.4373719514808323 1.4280620697126569 -0.038727949995517597 -0.022426050714513604 0.94271356160755482 2.1381728441211356 3.3794271555589273 -0.85286764346505939 4.0503916575113932 0.8374810013872529 0.31104921869901181 -0.446751734050709 -0.28989277394972773 2.388261466802553 0.37557824889368069 2.5101331942325289 -0.13595090970265564 0.50169892371699309 1.1760002445426501 1.5211824641543581 -1.1561366474744186 -0.57286846021471882 0.75830785150174052 0.004133041342285192 -0.020677398455639682 -0.12983503680515629 0.11397755129175756 -0.57079247742096584 0.65598549315978705 0.18841178091815569 -0.7289792847280907 -0.88469986274137724 -1.0963709877087522 -0.94342118785931517 -1.2232474949624805 -1.2658119062276987 -1.2956594325237341
leaf_weight=5873 357 66 62 63 557 69 65 65 289 2369 455 2303 1699 1616 228 2119 596 918 441 4608 844 871 1467 1553 498 193 891 75 1626 1034 612 2546 86 1292 440 2806 1855 608 1343 103 2851 64 107 282 1531 2002 1500 198 309 3308 2084 104 130 117 65 286
leaf_count=5873 357 66 62 63 557 69 65 65 289 2369 455 2303 1699 1616 228 2119 596 918 441 4608 844 871 1467 1553 498 193 891 75 1626 1034 612 2546 86 1292 440 2806 1855 608 1343 103 2851 64 107 282 1531 2002 1500 198 309 3308 2084 104 130 117 65 286
internal_value=-0.00322431 -0.50331 1.13491 2.41321 -0.932086 0.903483 -0.15951 5.47065 2.17704 0.625903 1.25405 -0.311832 0.115338 -0.719421 2.59588 1.10776 0.789988 1.85114 1.54256 -0.421941 1.21748 -0.15916 -0.0089065 0.907315 1.89423 3.02675 -0.817785 4.55824 0.714823 0.3841 -0.589683 -0.384886 1.83438 0.30879 2.34706 -0.200714 0.433464 1.03939 1.45703 -1.31506 -0.62349 0.220851 -0.379652 0.160923 -0.150624 0.056294 -0.591216 0.41284 0.0207519 -0.755268 -0.917184 -1.08962 -1.0114 -1.3295 -1.19857 -1.33152
internal_weight=60499 42031 18468 2831 18704 15637 23327 203 2628 8727 6910 15009 8318 12026 1150 4585 5199 1478 2325 8720 2963 6289 5065 1622 1416 421 6840 138 3995 3528 5186 7154 527 3253 729 5109 2889 1204 1798 6678 4467 1763 719 639 1596 3469 1566 1490 1180 4199 2641 402 234 6276 168 6159
internal_count=60499 42031 18468 2831 18704 15637 23327 203 2628 8727 6910 15009 8318 12026 1150 4585 5199 1478 2325 8720 2963 6289 5065 1622 1416 421 6840 138 3995 3528 5186 7154 527 3253 729 5109 2889 1204 1798 6678 4467 1763 719 639 1596 3469 1566 1490 1180 4199 2641 402 234 6276 168 6159
is_linear=0
shrinkage=0.05


Tree=8
num_leaves=57
num_cat=0
split_feature=9 9 9 8 9 9 9 8 9 5 9 5 5 5 5 9 9 5 5 9 9 9 5 9 8 5 9 9 5 5 5 9 7 5 5 10 5 5 8 5 9 3 0 5 0 5 2 5 5 5 10 5 11 8 11 1
split_gain=1.24315e+07 2.21394e+06 1.94439e+06 817453 618349 419674 327152 168240 152412 98550.1 85085.7 56846.1 50166.5 46816.7 38106.7 37624 36791.7 35634 31110.2 28694.4 26742.6 26325.6 23280.3 21567.9 17128.5 15985.3 15736 15034.9 12879.6 12127.7 11691.3 11486.2 11145.7 10886.1 10419.7 9829.46 9342.9 8401.5 8221.93 8208.88 8033.35 7716 6565.62 6301.71 6044.65 4887.45 4767.22 4716.42 4158.77 3258.13 2337.72 2226.49 1157.17 218.765 218.895 62.6253
threshold=44.791666666666679 84.875000000000014 19.958333333333339 190.00000000000003 62.041666666666679 6.4583333333333348 31.708333333333339 238.00000000000003 102.20833333333336 0.99692304931597731 73.458333333333357 1.0036167156566489 1.0921902905566994 0.85117248105570364 0.76300574065288096 51.625000000000007 52.291666666666679 1.0815864272046081 1.0264071105337422 23.708333333333339 37.958333333333336 38.208333333333336 0.85117248105570364 117.70833333333336 121.50000000000001 0.75889325903544913 26.625000000000004 15.208333333333334 0.52173910170132498 0.58407077320072165 1.2307691455621363 93.708333333333357 160.50000000000003 0.61538459888829189 1.4482758407707916 62.500000000000007 1.3891337813339446 0.69930068463005579 83.500000000000014 0.73469386512762569 13.958333333333334 0.60355339059327384 11.500000000000002 0.19903256450102161 10.500000000000002 0.4316546483101309 1.0000000180025095e-35 0.38399998464000068 0.45801524969407453 0.38399998464000068 17.500000000000004 0.38399998464000068 2.5000000000000004 1.0000000180025095e-35 3.5000000000000004 2.5000000000000004
decision_type=10 10 8 10 10 10 8 10 10 10 10 8 10 10 10 10 10 10 10 10 10 8 10 10 10 10 10 10 10 10 10 10 10 10 10 10 10 10 10 10 10 2 2 10 2 10 2 10 10 10 10 10 10 10 10 2
left_child=2 4 5 8 9 43 13 32 18 15 12 20 25 26 -10 29 41 28 37 44 45 34 40 -16 -14 -6 47 42 -12 -2 -21 -20 -5 -17 -13 -18 -19 -3 -23 -22 51 -11 -24 53 -15 -8 -29 -4 -28 -42 52 -7 -45 55 -55 -1
right_child=1 3 6 7 10 22 11 -9 14 16 17 21 24 19 23 33 35 36 31 30 39 38 27 -25 -26 -27 48 46 -30 -31 -32 -33 -34 -35 -36 -37 -38 -39 -40 -41 49 -43 -44 50 -46 -47 -48 -49 -50 -51 -52 -53 -54 54 -56 -57
leaf_value=-1.2611330149877706 -0.14324237289670991 1.2316792749647389 -0.76835889587444928 3.4250166494352152 0.64592288801722508 -1.0117278152902922 -0.46723515357352002 6.4934610123537029 1.5501072414404105 0.44365319955385235 0.48752421610283125 -0.054710665082601952 1.1539350153520302 -0.31283309153706124 2.3272363486602088 0.21636376889571635 0.7098922609333882 1.4628520368582991 1.7564367040557771 -0.3242062435722195 -0.12521746957901411 0.20855977040189116 -0.27966149680211511 2.8192264630492914 2.0024841583544211 0.90641445778780716 -0.57856339457233441 -0.61772445576942647 1.1976721711329776 0.21218373463377738 -0.18077702303542065 2.1104907908855561 4.2819974203632309 0.48996978846173755 0.17664876906977345 0.91997987854012919 1.8475690625108703 1.5716931085979562 0.71608157329351074 0.058744544191237459 -0.88733361905271357 0.6672979780231767 -0.76732796811345871 -1.2657765637996585 -0.50487458076420944 -0.21535608417475072 -0.45257917768889816 -0.5693404027796235 -0.38465944553158554 -0.74092868883345819 -0.7954102210802575 -0.87700772697061513 -1.0456080140822974 -1.2539712858649921 -1.1670449407805097 -1.2714765615411059
leaf_weight=2767 278 220 336 79 810 450 206 98 121 1582 66 2211 1458 515 677 431 1579 846 618 3367 1002 2070 71 332 62 2158 326 2426 1958 1756 2458 364 73 2323 624 860 194 1043 83 1536 473 510 2474 86 2005 2959 533 2611 1822 1933 73 963 195 212 110 3106
leaf_count=2767 278 220 336 79 810 450 206 98 121 1582 66 2211 1458 515 677 431 1579 846 618 3367 1002 2070 71 332 62 2158 326 2426 1958 1756 2458 364 73 2323 624 860 194 1043 83 1536 473 510 2474 86 2005 2959 533 2611 1822 1933 73 963 195 212 110 3106
internal_value=-0.0030631 0.998249 -0.516097 2.11932 0.757368 -0.945918 -0.233385 4.87809 1.91497 0.484871 1.09362 -0.0269674 0.954953 -0.397583 2.38857 0.326697 0.652016 1.29674 1.67659 -0.324666 -0.134793 0.0963146 -0.730431 2.48912 1.18855 0.835323 -0.517012 -0.664617 1.17452 0.163605 -0.263683 1.88767 3.83659 0.447151 -0.00378711 0.78397 1.53462 1.51247 0.228125 -0.0138835 -0.825284 0.498175 -0.753723 -1.25268 -0.465628 -0.23175 -0.587977 -0.592031 -0.414088 -0.769711 -1.0475 -0.919912 -1.11299 -1.2644 -1.22428 -1.2666
internal_weight=60499 20496 40003 3625 16871 15872 24131 250 3375 9319 7552 10691 4488 13440 1130 4788 4531 3064 2245 8345 5703 4988 9323 1009 1520 2968 5095 5504 2024 2034 5825 982 152 2754 2835 2439 1040 1263 2153 2538 3819 2092 2545 6549 2520 3165 2959 2947 2148 2406 354 1413 281 6195 322 5873
internal_count=60499 20496 40003 3625 16871 15872 24131 250 3375 9319 7552 10691 4488 13440 1130 4788 4531 3064 2245 8345 5703 4988 9323 1009 1520 2968 5095 5504 2024 2034 5825 982 152 2754 2835 2439 1040 1263 2153 2538 3819 2092 2545 6549 2520 3165 2959 2947 2148 2406 354 1413 281 6195 322 5873
is_linear=0
shrinkage=0.05


Tree=9
num_leaves=57
num_cat=0
split_feature=9 9 9 8 9 6 9 6 6 6 6 6 6 6 9 6 6 6 5 6 6 6 9 0 6 9 9 11 6 10 8 9 6 9 9 0 9 8 6 6 3 3 0 9 6 10 3 6 0 9 7 10 8 10 0 1
split_gain=1.12243e+07 2.01969e+06 1.78542e+06 649165 523878 419522 379918 131378 121144 108430 88759.8 88527 79791.9 39739.1 37487.7 36744.4 24399 23398.6 20835.1 19208.3 17823.6 17439 17364.7 16615.2 15470.1 15326.8 13948.9 13924.8 12956.7 12693.2 11719.6 11398.1 10585.1 10077.8 9880.15 9374.55 9295.85 8905.27 8724.76 8160.15 8060.89 7616.19 7333.21 7290.64 6669.95 6478.45 5286.17 4914.12 3672.65 2129.58 2118.42 522.247 258.525 227.278 175.041 56.5193
threshold=48.125000000000007 20.708333333333339 90.375000000000014 196.00000000000003 67.291666666666671 1.5000000000000002 33.958333333333336 58.500000000000007 218.50000000000003 106.50000000000001 69.500000000000014 42.500000000000007 26.500000000000004 16.500000000000004 113.95833333333336 104.50000000000001 49.500000000000007 78.500000000000014 0.56214013127104834 29.500000000000004 36.500000000000007 43.500000000000007 40.541666666666679 9.5000000000000018 132.50000000000003 107.45833333333336 59.125000000000007 53.500000000000007 29.500000000000004 79.500000000000014 131.50000000000003 11.875000000000002 26.500000000000004 80.541666666666671 37.958333333333336 2.5000000000000004 25.458333333333339 134.50000000000003 7.5000000000000009 54.500000000000007 0.60355339059327384 0.37940952255126043 17.500000000000004 30.541666666666668 62.500000000000007 42.500000000000007 0.37940952255126043 31.500000000000004 12.500000000000002 8.7083333333333339 2.5000000000000004 6.5000000000000009 1.0000000180025095e-35 34.500000000000007 15.500000000000002 2.5000000000000004
decision_type=10 8 10 10 10 10 8 10 10 10 10 8 10 10 10 10 10 10 10 10 10 10 10 2 10 10 10 10 10 10 10 10 10 10 10 2 10 10 10 10 2 2 2 10 10 10 2 10 2 10 10 10 10 10 2 2
left_child=1 5 4 9 7 50 12 16 27 18 21 19 23 31 37 29 28 26 -4 42 43 47 44 38 -16 -20 -9 -5 -2 -12 -17 49 48 -23 -21 -19 -25 -11 -3 -22 -18 -24 -8 -14 -13 -34 -33 -6 -15 -7 52 -52 55 -54 -53 -1
right_child=2 6 3 8 10 13 11 17 -10 14 15 22 20 32 24 30 40 35 25 34 39 33 41 36 -26 -27 -28 -29 -30 -31 -32 46 45 -35 -36 -37 -38 -39 -40 -41 -42 -43 -44 -45 -46 -47 -48 -49 -50 -51 51 54 53 -55 -56 -57
leaf_value=-1.1980763552892844 0.041513719791102979 -0.88610310045206075 0.84989446526852219 4.6494948027625922 0.15675470204122607 -0.94766549100808062 -0.21695156353614142 0.63528450931483249 6.7195124270365802 1.9439610960977474 1.1848264952723053 0.076489241598549973 -0.31815800305977504 -0.48860367994085641 2.4562980898655953 1.5870730974109299 0.47551797550892644 1.3274988763769333 1.6579877371708123 -0.096003805375169171 -0.1461368742757968 0.92769948822081594 0.26016355789215284 -0.55951010500393616 3.064589650535213 2.099241525204584 0.84362692272521667 3.6411629842122397 0.36952141228676083 1.3885906751445383 2.1930790527243365 -0.73639662984692067 -0.46815211425627112 1.2013271763120603 0.069348919630084785 0.9332408397947296 -0.42601038189356066 2.3036334178036433 -0.31921118228106704 0.15007359217194949 0.67972951123456227 0.44747710529541385 0.012601049292063069 -0.17180362583266481 0.39229269860748284 0.041521180398536452 -0.50817520957288931 0.6684227940023254 -0.63776298001389076 -0.8319260552763148 -1.158820536080748 -1.0507020773868712 -1.1786098165876548 -1.077169893103749 -0.94044942522332775 -1.2079027242454805
leaf_weight=2767 336 70 69 63 62 633 1898 1776 65 321 2156 1511 3248 488 228 498 1209 185 1035 1448 2636 1709 1763 2810 193 243 1467 75 2896 1184 95 3981 1127 419 2402 815 2433 371 2233 255 805 784 426 1153 188 66 271 193 2674 1068 64 63 314 67 84 3106
leaf_count=2767 336 70 69 63 62 633 1898 1776 65 321 2156 1511 3248 488 228 498 1209 185 1035 1448 2636 1709 1763 2810 193 243 1467 75 2896 1184 95 3981 1127 419 2402 815 2433 371 2233 255 805 784 426 1153 188 66 271 193 2674 1068 64 63 314 67 84 3106
internal_value=-0.00290994 -0.45435 1.02451 2.2222 0.822715 -0.879675 -0.171905 0.587861 4.93977 1.99794 1.17555 0.0594984 -0.334408 -0.681642 2.36313 1.32145 0.420543 0.794731 1.6962 -0.0613611 -0.216458 0.934754 0.235237 -0.448388 2.73516 1.74189 0.72953 4.10149 0.335422 1.25706 1.68416 -0.765611 -0.566862 0.981576 0.00715912 1.00618 -0.49756 2.13679 -0.336442 -0.12001 0.557142 0.317821 -0.174874 -0.279815 0.111434 -0.439956 -0.721851 0.544017 -0.614743 -0.874997 -1.19543 -1.0396 -1.20068 -1.16077 -0.987701 -1.20327
internal_weight=60499 42031 18468 2663 15805 16773 25258 9489 203 2460 6316 10420 14838 10308 1113 3933 5246 4243 1347 6174 7292 2383 4246 7546 421 1278 3243 138 3232 3340 593 5953 4355 2128 3850 1000 5243 692 2303 2891 2014 2547 2324 4401 1699 1193 4252 255 3162 1701 6465 211 6254 381 147 5873
internal_count=60499 42031 18468 2663 15805 16773 25258 9489 203 2460 6316 10420 14838 10308 1113 3933 5246 4243 1347 6174 7292 2383 4246 7546 421 1278 3243 138 3232 3340 593 5953 4355 2128 3850 1000 5243 692 2303 2891 2014 2547 2324 4401 1699 1193 4252 255 3162 1701 6465 211 6254 381 147 5873
is_linear=0
shrinkage=0.05


Tree=10
num_leaves=58
num_cat=0
split_feature=8 6 6 8 6 6 6 8 8 8 8 8 6 6 8 6 8 10 0 3 0 6 10 6 6 3 8 8 10 8 3 6 6 5 3 6 8 6 8 2 8 6 10 10 3 8 6 10 10 6 1 3 3 11 1 10 3
split_gain=9.91197e+06 1.71257e+06 1.66484e+06 725667 383800 383708 291078 263867 144493 134849 96681.4 78857.3 67650.5 49131.7 45915.6 39306.6 36349.4 30790.3 30606.8 24705.8 24249.5 21758 17249 16009 15254.3 14262.2 13322 12657.6 12091.6 11996.3 11978 11319.3 11055.9 10818.2 10353.8 9611.95 9275.17 7262.4 7229.56 6861.6 6435.26 5790.16 5498.03 4771.86 3415.49 2609.08 2447.99 1761.52 1649.26 1300.26 1077.12 478.557 242.577 54.4033 112.951 35.6746 28.6454
threshold=70.500000000000014 82.500000000000014 15.500000000000002 191.50000000000003 52.500000000000007 34.500000000000007 1.5000000000000002 126.50000000000001 96.500000000000014 238.00000000000003 46.500000000000007 55.500000000000007 33.500000000000007 132.50000000000003 103.50000000000001 9.5000000000000018 95.500000000000014 75.500000000000014 11.500000000000002 0.60355339059327384 11.500000000000002 49.500000000000007 109.50000000000001 25.500000000000004 8.5000000000000018 0.37940952255126043 33.500000000000007 46.500000000000007 102.50000000000001 130.50000000000003 0.60355339059327384 63.500000000000007 61.500000000000007 0.77538459391242676 0.37940952255126043 161.50000000000003 157.50000000000003 64.500000000000014 62.500000000000007 0.12940952255126043 30.500000000000004 69.500000000000014 43.500000000000007 51.500000000000007 -0.9159756150367534 18.500000000000004 24.500000000000004 21.500000000000004 1.0000000180025095e-35 10.500000000000002 1.0000000180025095e-35 0.60355339059327384 -0.78656609248549325 3.5000000000000004 4.5000000000000009 50.500000000000007 -0.12940952255126034
decision_type=10 10 8 10 10 8 10 10 10 10 10 8 10 10 10 10 10 10 2 2 2 10 10 10 10 2 10 10 10 10 2 10 10 10 2 10 10 10 10 2 10 10 8 10 2 10 10 10 10 10 2 2 2 10 2 10 2
left_child=2 4 6 7 12 10 48 14 19 35 18 27 15 22 30 -2 34 41 46 32 47 42 -9 43 45 -17 -20 39 -16 -18 -3 -19 -6 -25 -14 -5 -15 -21 -23 -7 -26 -10 -13 -12 -29 -22 -4 50 53 -49 -8 52 -50 56 -55 -53 -1
right_child=1 3 5 9 8 11 20 13 17 -11 23 21 16 36 28 25 29 31 26 37 24 38 -24 33 40 -27 -28 44 -30 -31 -32 -33 -34 -35 -36 -37 -38 -39 -40 -41 -42 -43 -44 -45 -46 -47 -48 49 51 -51 -52 55 -54 54 -56 -57 -58
leaf_value=-1.1397384467343299 -0.87298696731266223 0.86295050857011546 -0.36498037030592378 3.0529407249370095 0.45740630097835872 -0.30449143208228124 -0.38972747004949132 1.8114087512302839 0.887807437163183 5.9409710851947919 -0.3249945522056279 0.020373993160907884 0.25681010427240081 2.3758500609815734 1.3949943512083092 -0.053960778714334412 0.6446700968191601 1.0427882805094988 -0.58668784163812326 0.70195717646659717 -0.93167354062337582 0.17164548385396169 2.1908879460360127 0.0034119603149393666 -0.72528120083851222 0.28260586082371292 -0.45125873658784887 -0.17373247242934037 1.7336134945416757 1.3642281509214833 1.1808279206376928 1.3466856260971114 0.65619640040134908 -0.19299141837641481 0.42946366691484539 3.8672975462836194 2.9055222532815406 0.88442836541938863 0.3529222406650141 -0.11224667936069779 -0.60219477057693394 1.0506297987252837 0.15697344623784174 -0.12407311681699731 -0.026937784711974406 -0.79471693902448315 -0.27036225560378785 -0.51947281858638716 -1.0926325245698292 -0.38585333988632192 -0.6200200468671091 -1.102358893247751 -0.99885626343852385 -1.0939688189085139 -1.1502546171239905 -1.1532886126270032 -1.1469288569459128
leaf_weight=2817 114 468 1308 71 1153 1053 65 961 1162 89 2507 1850 1761 194 1731 706 881 431 3262 1016 432 931 435 935 1993 568 4096 478 311 62 808 1060 1778 2803 1713 74 144 1177 1344 830 2273 1030 1224 335 2317 1783 1432 266 90 577 232 65 295 172 185 73 2725
leaf_count=2817 114 468 1308 71 1153 1053 65 961 1162 89 2507 1850 1761 194 1731 706 881 431 3262 1016 432 931 435 935 1993 568 4096 478 311 62 808 1060 1778 2803 1713 74 144 1177 1344 830 2273 1030 1224 335 2317 1783 1432 266 90 577 232 65 295 172 185 73 2725
internal_value=0.000879771 0.915619 -0.445804 1.68684 0.636623 -0.214045 -0.886531 1.56076 0.844666 4.40891 -0.361001 0.0303883 0.320991 2.06062 1.29954 0.0165009 0.416674 1.08355 -0.458178 0.672964 -0.677566 0.161517 1.92966 -0.211868 -0.714973 0.096094 -0.511298 -0.11955 1.44657 0.691979 1.06424 1.25884 0.577996 -0.143864 0.341944 3.46854 2.60151 0.799891 0.278738 -0.219753 -0.659699 0.964316 0.0747649 -0.301311 -0.0520426 -0.821428 -0.31553 -0.464907 -1.13451 -0.428016 -0.569619 -1.04941 -1.02078 -1.14206 -1.12314 -1.1293 -1.14327
internal_weight=60646 19898 40748 5286 14612 26705 14043 5052 8807 234 16678 10027 5805 1734 3318 1388 4417 3683 10098 5124 7621 5349 1396 6580 6481 1274 7358 4678 2042 943 1276 1491 2931 3738 3474 145 338 2193 2275 1883 4266 2192 3074 2842 2795 2215 2740 1140 6422 843 297 523 385 5899 357 138 5542
internal_count=60646 19898 40748 5286 14612 26705 14043 5052 8807 234 16678 10027 5805 1734 3318 1388 4417 3683 10098 5124 7621 5349 1396 6580 6481 1274 7358 4678 2042 943 1276 1491 2931 3738 3474 145 338 2193 2275 1883 4266 2192 3074 2842 2795 2215 2740 1140 6422 843 297 523 385 5899 357 138 5542
is_linear=0
shrinkage=0.05


Tree=11
num_leaves=53
num_cat=0
split_feature=9 9 9 8 9 6 9 6 6 6 6 6 6 6 8 6 6 9 9 6 6 6 9 6 9 3 5 9 10 10 5 6 9 3 5 8 9 5 9 8 8 6 9 3 7 6 6 10 10 7 3 11
split_gain=9.26195e+06 1.6691e+06 1.45005e+06 487262 421600 401638 265508 154769 124772 68541.8 61434.7 48005.4 37973.7 36911.1 35599.2 31981.9 26487.2 23878.7 22097 17920.5 17612.1 16046.3 14425.2 13588.2 13247.3 12506.2 11920.9 11459.2 10271.8 9471.35 8940.05 8893.23 8464.06 8220.37 8127.2 7995.47 7753.12 6764.06 6546.52 6292.7 5076.47 5001.11 4174.36 3852.68 3734.99 2459.44 1458.45 1626.85 455.43 363.285 274.533 60.6268
threshold=48.458333333333336 22.708333333333339 90.375000000000014 238.00000000000003 69.041666666666671 5.5000000000000009 36.208333333333336 130.50000000000003 62.500000000000007 30.500000000000004 64.500000000000014 40.500000000000007 22.500000000000004 91.500000000000014 191.50000000000003 96.500000000000014 50.500000000000007 97.958333333333357 4.4583333333333348 46.500000000000007 80.500000000000014 15.500000000000002 17.458333333333339 38.500000000000007 43.541666666666679 0.60355339059327384 0.38399998464000068 79.291666666666671 63.500000000000007 54.500000000000007 0.28301885590957693 126.50000000000001 27.458333333333339 0.60355339059327384 0.54706048517900541 160.50000000000003 41.541666666666679 1.5407983451221392 29.041666666666668 82.500000000000014 58.500000000000007 4.5000000000000009 10.208333333333334 0.78656609248549303 65.500000000000014 11.500000000000002 1.5000000000000002 21.500000000000004 1.0000000180025095e-35 1.0000000180025095e-35 0.78656609248549303 3.5000000000000004
decision_type=10 8 10 10 10 10 8 10 10 10 10 8 10 10 10 10 10 10 10 10 10 10 10 10 10 2 10 10 8 10 10 10 10 2 10 10 10 10 10 8 10 10 10 2 10 10 10 10 10 10 2 10
left_child=1 5 4 7 8 18 9 13 16 21 23 30 22 34 35 27 26 -15 48 32 33 41 42 -6 39 -18 -2 -12 -22 43 -8 -17 -11 -10 -4 -9 -32 -26 -23 -13 -21 -3 -7 -14 -25 -24 49 -48 51 -20 -50 -1
right_child=2 6 3 -5 10 12 11 14 20 19 15 24 29 17 -16 31 25 -19 46 40 28 38 45 44 37 -27 -28 -29 -30 -31 36 -33 -34 -35 -36 -37 -38 -39 -40 -41 -42 -43 -44 -45 -46 -47 47 -49 50 -51 -52 -53
leaf_value=-1.0862938843345198 -0.19909321833767146 -0.9189682977217617 0.91282424892698022 5.5693109834706913 0.30674174392017828 -0.78916653638756817 -0.56745071874277009 2.2643079930307843 0.64094215684196576 -0.27024905763778134 1.040617076421761 0.12321797766051668 -0.44811675915330307 1.5803570578015051 3.4723521858958879 1.4071116062288074 0.44791875000044779 2.0158234368110963 -1.0550726705127293 -0.016840587185422411 0.82575384574689203 -0.35565992188421536 -0.62693855682011512 0.75141511760564561 0.28345091034749903 0.6631121755605941 0.34941627124106267 1.234277582943764 1.1488253883271557 0.16096899439306822 -0.071407944307637514 1.999514156930587 -0.12805978019619352 0.81209672284680368 1.4784759535606711 2.7646909308252914 0.067840255316167428 0.61462907558141733 -0.25854537995524773 0.63358578506496643 0.21391711313425585 -0.47378121905266224 -0.66207835510521673 -0.18138337422844392 0.92725228954238625 -0.52492437346212517 -0.85730544633782313 -0.70851869806986467 -0.98444993803578051 -0.9169656487000295 -1.084674049306799 -1.0648691112159665
leaf_weight=5571 102 66 70 93 116 764 74 202 1470 1461 1813 2335 2903 488 118 927 1571 887 63 879 563 3955 762 447 1758 1184 3432 1320 437 68 2381 68 3690 1342 684 132 1723 169 3092 62 327 1428 4188 142 931 2630 664 254 186 195 108 351
leaf_count=5571 102 66 70 93 116 764 74 202 1470 1461 1813 2335 2903 488 118 927 1571 887 63 879 563 3955 762 447 1758 1184 3432 1320 437 68 2381 68 3690 1342 684 132 1723 169 3092 62 327 1428 4188 142 931 2630 664 254 186 195 108 351
internal_value=0.000835782 -0.406906 0.937222 2.01363 0.754158 -0.757066 -0.124848 1.88551 0.560999 -0.25208 1.10121 0.0981005 -0.571675 1.7071 2.72581 1.20064 0.424184 1.86127 -1.04441 -0.127769 0.786714 -0.344605 -0.627275 0.826464 0.214888 0.540401 0.333585 1.12221 0.966936 -0.422645 -0.022768 1.4476 -0.16839 0.722624 1.42596 2.46206 -0.0129468 0.312496 -0.313049 0.136419 0.045728 -0.493448 -0.681686 -0.435678 0.870214 -0.547841 -0.845657 -0.816138 -1.08201 -0.950689 -1.02127 -1.08502
internal_weight=60646 42249 18397 2674 15723 18849 23400 2581 10101 14898 5622 8502 11457 2129 452 4128 6289 1375 7392 6357 3812 8541 8344 1494 4324 2755 3534 3133 1000 3113 4178 995 5151 2812 754 334 4104 1927 7047 2397 1206 1494 4952 3045 1378 3392 1176 918 6216 258 294 5922
internal_count=60646 42249 18397 2674 15723 18849 23400 2581 10101 14898 5622 8502 11457 2129 452 4128 6289 1375 7392 6357 3812 8541 8344 1494 4324 2755 3534 3133 1000 3113 4178 995 5151 2812 754 334 4104 1927 7047 2397 1206 1494 4952 3045 1378 3392 1176 918 6216 258 294 5922
is_linear=0
shrinkage=0.05


Tree=12
num_leaves=56
num_cat=0
split_feature=8 6 6 8 6 6 6 8 8 8 8 8 6 3 7 6 10 2 2 3 8 6 6 6 6 8 6 7 8 7 6 8 6 6 7 10 8 7 6 2 8 7 5 3 3 8 1 10 6 5 3 8 11 11 3
split_gain=8.08425e+06 1.39629e+06 1.35775e+06 563433 343427 311683 264625 187624 131976 116948 74814.8 70460.8 58989.6 40233.7 33335.4 29970.8 27838.2 24601.1 22347.7 21862.3 18989.7 17779.6 17761.5 17759.2 16698.9 13540.6 13243.7 12927.8 12924.8 10382.8 10323.7 9306.58 9227.21 8940.53 8522.07 8226.47 7602.19 7446.71 5948.15 5926.4 5792.62 5779.67 5103.08 3736.29 3367.21 3090.83 1795.02 1441.67 1300.59 581.739 366.569 138.853 73.4543 52.7739 27.5417
threshold=71.500000000000014 16.500000000000004 86.500000000000014 191.50000000000003 52.500000000000007 34.500000000000007 1.5000000000000002 131.50000000000003 96.500000000000014 261.50000000000006 46.500000000000007 57.500000000000007 9.5000000000000018 0.37940952255126043 72.500000000000014 132.50000000000003 75.500000000000014 -1.0000000180025095e-35 -1.0000000180025095e-35 0.60355339059327384 100.50000000000001 162.50000000000003 49.500000000000007 29.500000000000004 104.50000000000001 46.500000000000007 9.5000000000000018 31.500000000000004 134.50000000000003 57.500000000000007 107.50000000000001 33.500000000000007 80.500000000000014 66.500000000000014 39.500000000000007 101.50000000000001 157.50000000000003 32.500000000000007 25.500000000000004 0.12940952255126043 61.500000000000007 25.500000000000004 0.53097343018247434 -0.9159756150367534 -0.9159756150367534 18.500000000000004 4.5000000000000009 4.5000000000000009 9.5000000000000018 1.0000000180025095e-35 0.60355339059327384 25.500000000000004 3.5000000000000004 35.500000000000007 -0.12940952255126034
decision_type=10 8 10 10 10 8 10 10 10 10 10 8 10 2 10 10 10 2 2 2 10 10 10 10 10 10 10 10 10 10 10 10 10 10 8 8 10 8 10 2 10 10 10 2 2 10 2 10 10 10 2 10 10 10 2
left_child=1 6 4 7 12 10 47 14 19 21 18 25 -2 23 35 30 32 26 31 29 -15 -5 37 -14 -16 39 45 38 -18 -6 -9 -3 -10 -21 -24 -4 -17 -13 -12 -7 -29 -27 -28 -20 48 -8 -46 52 -19 50 -49 -51 54 -54 -1
right_child=2 5 3 9 8 11 17 15 16 -11 27 22 13 20 24 36 28 44 43 33 -22 -23 34 -25 -26 41 42 40 -30 -31 -32 -33 -34 -35 -36 -37 -38 -39 -40 -41 -42 -43 -44 -45 46 -47 -48 49 -50 51 -52 -53 53 -55 -56
leaf_value=-1.028231084937334 -0.84216672697582762 -0.53285495265292437 0.97227860369498742 2.7231273824518381 0.44734855460685374 -0.27537245956600664 -0.84436623230880636 1.6573583669669134 0.85467088194096508 5.742031300769133 -0.33355270397775522 -0.058988226866752286 -0.12655327911411196 0.37616616470258973 1.2614856345119414 2.1480401605757713 1.110309658212467 -0.6271090208271537 -0.36794379644255476 0.64551052520137375 0.6749904728923396 3.7634932276877495 0.15036505707573039 0.23302551921009909 1.5866370050907135 -0.14216104722742379 -0.43438697225890482 -0.15857109405728306 1.5415272902165142 0.63519194727639394 1.9661166185861108 -0.40746683897853464 1.1208456569074507 0.84241366892093517 0.35200655762161903 1.4111260971178612 2.6275699950754645 0.13339819042187775 -0.19369005250177304 -0.096708340555407016 -0.013782825606571156 0.0064511320918102608 -0.6075171797978971 -0.26099825384988096 -0.31897519775376809 -0.70507365957898194 -0.44718530163766368 -0.93220018256966231 -0.47875757109644734 -0.9003557377692426 -1.0433439198662253 -0.7977928885907839 -0.96999210766383581 -1.0178668284121855 -1.0352565413075225
leaf_weight=2826 111 2687 970 77 1515 1053 490 537 2052 68 1437 662 413 2262 1155 194 1532 202 1354 1151 695 88 836 2037 600 870 483 2470 196 1430 546 3294 387 1155 1404 120 144 2094 1614 830 959 2638 3583 2058 563 2127 530 197 550 66 119 66 70 324 2755
leaf_count=2826 111 2687 970 77 1515 1053 490 537 2052 68 1437 662 413 2262 1155 194 1532 202 1354 1151 695 88 836 2037 600 870 483 2470 196 1430 546 3294 387 1155 1404 120 144 2094 1614 830 959 2638 3583 2058 563 2127 530 197 550 66 119 66 70 324 2755
internal_value=0.000793994 -0.395643 0.84142 1.60288 0.612054 -0.17604 -0.781355 1.47211 0.795574 3.99711 -0.315386 0.0369029 0.298828 0.322251 1.23777 1.9413 1.00568 -0.598799 -0.405547 0.628838 0.4464 3.27799 0.172179 0.172411 1.37265 -0.0884617 -0.64342 -0.184694 1.15922 0.538559 1.81302 -0.463798 0.896905 0.744133 0.276751 1.02059 2.35234 0.0871864 -0.259564 -0.19662 -0.118078 -0.0304054 -0.586951 -0.303438 -0.437173 -0.731154 -0.381145 -1.02374 -0.518607 -0.93723 -0.974055 -0.849074 -1.03023 -1.00936 -1.0317
internal_weight=60646 41211 19435 4499 14936 26260 14951 4266 9418 233 15873 10387 5518 5407 2845 1421 4167 8528 9393 5251 2957 165 4996 2450 1755 5391 6683 6480 1728 2945 1083 5981 2439 2306 2240 1090 338 2756 3051 1883 3429 3508 4066 3412 1845 2617 1093 6423 752 448 316 132 5975 394 5581
internal_count=60646 41211 19435 4499 14936 26260 14951 4266 9418 233 15873 10387 5518 5407 2845 1421 4167 8528 9393 5251 2957 165 4996 2450 1755 5391 6683 6480 1728 2945 1083 5981 2439 2306 2240 1090 338 2756 3051 1883 3429 3508 4066 3412 1845 2617 1093 6423 752 448 316 132 5975 394 5581
is_linear=0
shrinkage=0.05


Tree=13
num_leaves=56
num_cat=0
split_feature=9 9 9 6 6 6 9 9 8 9 9 6 6 6 6 6 9 6 8 6 6 8 6 9 6 6 9 11 8 10 10 0 5 9 9 0 5 9 1 5 11 0 10 11 6 6 7 9 0 0 6 10 10 7 11
split_gain=7.56238e+06 1.36267e+06 1.19086e+06 446975 325961 257885 216435 130890 83909.1 66299 55744.1 55629 38708 31349.8 27419.2 26328.6 17677.6 16649.1 16036.9 15095 14796.8 13238.9 12948.5 12061.9 11838 11005 10972.1 8821.68 8318.64 7884.84 7790.46 7705.43 8202.34 7635.72 7461.65 7018.22 5532.07 5343.81 4996.22 4991.41 4956.99 4879.2 4845.55 4555.27 4464.35 4316.96 3661.04 3524.92 2686.46 2120.6 1135.31 1420.33 399.639 314.737 169.02
threshold=48.458333333333336 22.708333333333339 83.375000000000014 161.50000000000003 5.5000000000000009 63.500000000000007 36.208333333333336 102.20833333333336 238.00000000000003 70.541666666666671 62.041666666666679 30.500000000000004 40.500000000000007 22.500000000000004 120.50000000000001 110.50000000000001 4.4583333333333348 43.500000000000007 191.50000000000003 93.500000000000014 49.500000000000007 80.500000000000014 15.500000000000002 17.458333333333339 41.500000000000007 69.500000000000014 43.541666666666679 80.500000000000014 51.500000000000007 62.500000000000007 72.500000000000014 18.500000000000004 0.28301885590957693 69.041666666666671 27.208333333333339 21.500000000000004 1.2828856058283156 28.208333333333339 4.5000000000000009 0.38399998464000068 20.500000000000004 11.500000000000002 57.500000000000007 81.500000000000014 29.500000000000004 6.5000000000000009 110.50000000000001 10.208333333333334 4.5000000000000009 12.500000000000002 1.5000000000000002 21.500000000000004 61.500000000000007 1.0000000180025095e-35 3.5000000000000004
decision_type=10 8 10 10 10 10 8 10 10 10 10 10 10 10 10 10 10 10 10 10 10 10 10 10 10 10 10 10 10 8 10 2 10 10 10 2 10 10 2 10 10 2 8 10 10 10 10 10 2 2 10 10 10 10 10
left_child=1 4 5 7 16 10 11 15 -5 21 17 22 31 23 27 25 52 39 -16 30 34 48 45 47 44 -4 42 -9 41 -23 -11 32 -8 -26 -13 -19 -28 -24 -33 -2 -21 -15 -14 -22 -12 -3 -17 -6 -7 -25 53 -52 54 -18 -1
right_child=2 6 3 8 13 9 12 14 -10 19 24 20 26 28 18 46 50 35 -20 40 43 29 37 49 33 -27 36 -29 -30 -31 -32 38 -34 -35 -36 -37 -38 -39 -40 -41 -42 -43 -44 -45 -46 -47 -48 -49 -50 -51 51 -53 -54 -55 -56
leaf_value=-0.98037820886036009 -0.15274280463886816 -0.7212372462416804 0.99210130211739045 3.0854778358229886 -0.71609646828152751 0.7128776939661523 -0.61935764188247344 1.5940574079302938 5.2219464761018761 0.8955293813830707 0.0010189991066421288 -0.242192448041193 0.089711516131262783 -0.25112046501519614 2.1039525797872556 1.564849964788229 -0.95499051657934031 0.38217991789396089 2.9447525573499274 0.9776287911928816 0.049581911477244778 0.70642936106799814 -0.32701742164793324 -0.42799102391016497 0.5819706055556626 1.2769839907078804 0.23061250610221418 1.9430199821920771 0.14214164054877051 0.87078595374226142 1.0908448488393849 0.21437084411568941 -0.039129797171510577 0.76575068022892767 -0.11032385780332386 0.60663235847337205 0.42135310791103947 -0.23992313448973573 -0.10974127829839023 0.23782682035193778 1.3099100890259481 -0.42241507973589099 0.27887906816094093 0.4955243682909396 0.4470624555038909 -0.41863437734012099 1.9028582451478493 -0.59931211190427403 0.52165759871129336 -0.51828488543052897 -0.77758416950882203 -0.6385616730091962 -0.85127013524373385 -0.82644218332874475 -0.95074002714438144
leaf_weight=5627 86 129 424 108 764 246 62 448 80 1173 69 1454 1988 497 403 328 63 2944 66 139 750 1564 3462 877 1193 1691 1406 304 74 1368 904 500 3461 1074 4091 395 521 3585 156 1676 583 2542 408 62 300 1365 106 4188 725 2515 664 254 63 195 526
leaf_count=5627 86 129 424 108 764 246 62 448 80 1173 69 1454 1988 497 403 328 63 2944 66 139 750 1564 3462 877 1193 1691 1406 304 74 1368 904 500 3461 1074 4091 395 521 3585 156 1676 583 2542 408 62 300 1365 106 4188 725 2515 664 254 63 195 526
internal_value=0.000754295 -0.367683 0.846876 1.61522 -0.684071 0.636258 -0.112828 1.49657 3.99461 0.863296 0.439591 -0.227702 0.0884654 -0.517057 1.92225 1.29267 -0.94293 0.343113 2.22227 1.049 -0.115711 0.730121 -0.311057 -0.567576 0.626288 1.21987 0.19336 1.73513 -0.381647 0.783114 0.980539 -0.0200437 -0.049341 0.669037 -0.144902 0.408732 0.282183 -0.28271 0.137295 0.218764 1.24594 -0.394401 0.121924 0.0836317 0.363656 -0.444763 1.6474 -0.61733 0.570103 -0.494939 -0.765163 -0.739118 -0.976562 -0.857832 -0.977845
internal_weight=60646 42249 18397 3958 18849 14439 23400 3770 188 6702 7737 14898 8502 11457 1221 2549 7392 5101 469 2799 6357 3903 8541 8344 2636 2115 4323 752 3113 2932 2077 4179 3523 2267 5545 3339 1927 7047 656 1762 722 3039 2396 812 369 1494 434 4952 971 3392 1176 918 6216 258 6153
internal_count=60646 42249 18397 3958 18849 14439 23400 3770 188 6702 7737 14898 8502 11457 1221 2549 7392 5101 469 2799 6357 3903 8541 8344 2636 2115 4323 752 3113 2932 2077 4179 3523 2267 5545 3339 1927 7047 656 1762 722 3039 2396 812 369 1494 434 4952 971 3392 1176 918 6216 258 6153
is_linear=0
shrinkage=0.05


Tree=14
num_leaves=57
num_cat=0
split_feature=8 6 6 8 6 6 6 8 8 8 8 8 6 3 7 6 10 0 0 3 8 6 7 6 6 6 7 8 6 11 6 8 6 10 8 8 0 7 6 7 6 7 0 8 6 0 7 8 7 6 8 8 10 3 10 1
split_gain=6.59109e+06 1.13849e+06 1.11224e+06 459951 281094 254741 215000 154760 107484 97678.8 60478.4 57397 50750.6 32259.1 27922.2 25137.7 23627.5 19740.8 19550.4 18648.2 15983.5 14886.4 14778.3 14579.5 13757.4 12718.6 10970.6 9626.31 9569.04 9267.69 9145.35 7917.74 7319.71 7127.25 6944.29 6292.22 6218.66 5633.41 5221.9 5100.43 5061.88 4955.58 4754.95 4731.54 3841.21 3017.15 2504.77 2009.1 1585.07 1049.39 681.012 410.365 323.027 319.685 241.482 46.7735
threshold=71.500000000000014 16.500000000000004 86.500000000000014 191.50000000000003 52.500000000000007 34.500000000000007 2.5000000000000004 131.50000000000003 96.500000000000014 261.50000000000006 46.500000000000007 59.500000000000007 13.500000000000002 0.37940952255126043 72.500000000000014 132.50000000000003 64.500000000000014 12.500000000000002 11.500000000000002 0.60355339059327384 100.50000000000001 162.50000000000003 28.500000000000004 49.500000000000007 104.50000000000001 33.500000000000007 31.500000000000004 134.50000000000003 9.5000000000000018 62.500000000000007 61.500000000000007 33.500000000000007 66.500000000000014 101.50000000000001 48.500000000000007 163.50000000000003 10.500000000000002 39.500000000000007 1.5000000000000002 76.500000000000014 25.500000000000004 32.500000000000007 19.500000000000004 61.500000000000007 1.0000000180025095e-35 10.500000000000002 29.500000000000004 25.500000000000004 19.500000000000004 9.5000000000000018 23.500000000000004 34.500000000000007 1.0000000180025095e-35 0.60355339059327384 5.5000000000000009 4.5000000000000009
decision_type=10 8 10 10 10 8 10 10 10 10 10 8 10 2 10 10 10 2 2 2 10 10 8 10 10 10 10 10 10 10 10 10 10 8 10 10 2 8 10 10 10 8 2 10 10 2 10 10 10 10 10 10 10 2 10 2
left_child=1 6 4 7 12 10 44 14 19 21 18 22 38 25 33 29 39 45 46 30 -15 -5 36 41 -16 -14 40 -18 47 -9 -6 -20 -21 -4 -24 -17 -7 -25 -2 -10 -12 -13 -30 -28 52 48 -3 -19 -8 -47 54 -52 55 -54 -46 -1
right_child=2 5 3 9 8 11 17 15 16 -11 26 23 13 20 24 35 27 28 31 32 -22 -23 34 37 -26 -27 43 -29 42 -31 -32 -33 -34 -35 -36 -37 -38 -39 -40 -41 -42 -43 -44 -45 50 49 -48 -49 -50 -51 51 -53 53 -55 -56 -57
leaf_value=-0.92686109508926651 -0.95153303137847356 -0.28442609670323876 0.87422074686889495 2.4472322011922865 0.3696443951268632 -0.069850764935046938 -0.42770397096816781 1.4701671511067591 0.68593718921899582 5.2068583018639512 -0.30464105935008695 -0.051255131686702073 -0.036249859528601026 0.34148931431767848 1.1404986722586734 1.9925132890416599 0.97235646329159242 -0.70779755228690977 -0.47293006630553291 0.58496312362487413 0.61757734527219621 3.3991944472898137 -0.10997001608156017 0.16025227430016231 1.4356268897255262 0.22630451221411368 -0.14264747790059051 1.2939320321323782 -0.54781066524810385 1.7658210621846298 0.55202653212412456 -0.36372774383140588 0.76312633015013809 1.2826977486908437 0.043201157562687692 2.4638112108306132 -0.22838860282888496 0.33720780298033576 -0.36190084940121503 0.86081106880319624 -0.17561812878054334 0.12806072062101356 -0.36461555453888095 -0.011790329136614271 -0.88676856690710726 -0.5679213090107228 -0.18051366354290263 -0.61601633209291351 -0.29669947252689688 -0.43292637564291198 -0.62990075436376403 -0.78827603948650082 -0.84760215032000508 -0.94509996267465446 -0.78040116565056561 -0.93606895291778369
leaf_weight=3655 70 1768 970 77 1093 1121 335 463 939 68 1437 494 619 2255 1155 237 2218 1047 2926 1151 683 88 1028 694 600 1810 2470 260 3674 620 1852 3836 1155 120 2641 101 1380 1278 81 750 1614 1751 392 959 91 195 863 1385 743 550 105 67 238 130 129 2215
leaf_count=3655 70 1768 970 77 1093 1121 335 463 939 68 1437 494 619 2255 1155 237 2218 1047 2926 1151 683 88 1028 694 600 1810 2470 260 3674 620 1852 3836 1155 120 2641 101 1380 1278 81 750 1614 1751 392 959 91 195 863 1385 743 550 105 67 238 130 129 2215
internal_value=0.00071658 -0.357242 0.759752 1.44894 0.552156 -0.158946 -0.705531 1.33079 0.718188 3.61216 -0.284922 0.0335657 0.268778 0.294212 1.11795 1.75691 0.907802 -0.536284 -0.365985 0.567716 0.405672 2.95495 -0.0636035 0.175737 1.2414 0.159396 -0.167417 1.0061 -0.577075 1.63942 0.484338 -0.410981 0.674199 0.919191 0.000284841 2.13334 -0.157329 0.274932 -0.63524 0.76359 -0.236387 0.0886032 -0.530149 -0.10605 -0.917946 -0.390885 -0.250342 -0.655529 -0.337411 -0.468261 -0.766127 -0.691593 -0.927487 -0.882044 -0.824399 -0.930336
internal_weight=60646 41211 19435 4499 14936 26260 14951 4266 9418 233 15873 10387 5518 5367 2845 1421 4167 8321 9393 5251 2938 165 6170 4217 1755 2429 6480 2478 6498 1083 2945 6762 2306 1090 3669 338 2501 1972 151 1689 3051 2245 4066 3429 6630 1823 2631 2432 1078 745 392 172 6238 368 220 5870
internal_count=60646 41211 19435 4499 14936 26260 14951 4266 9418 233 15873 10387 5518 5367 2845 1421 4167 8321 9393 5251 2938 165 6170 4217 1755 2429 6480 2478 6498 1083 2945 6762 2306 1090 3669 338 2501 1972 151 1689 3051 2245 4066 3429 6630 1823 2631 2432 1078 745 392 172 6238 368 220 5870
is_linear=0
shrinkage=0.05


Tree=15
num_leaves=54
num_cat=0
split_feature=9 9 9 6 6 9 9 9 6 6 6 6 6 6 9 6 6 5 6 9 9 0 6 5 10 3 6 6 10 3 6 6 9 3 10 10 6 2 7 1 6 9 10 0 6 9 6 7 7 6 10 0 1
split_gain=6.1448e+06 1.20077e+06 922757 381164 287983 235529 191120 68327.6 64570.7 54466.4 49797.5 49645.1 38380.8 25313.6 23075.8 21348.2 20242.4 18652.8 17972.7 14744.9 13606 11933.1 10232.2 9238.51 8455.33 8326 7986.66 7587.18 7366.16 7164.14 6807.52 6806.64 6739.48 6599.49 6190.25 6025.16 5683.15 5181.98 5131.31 4814.1 4752.28 4733.52 4567.42 4246.85 3986.46 3637.8 2164.62 1585.42 685.633 229.203 153.198 202.285 45.5382
threshold=50.541666666666679 23.708333333333339 91.375000000000014 180.00000000000003 2.5000000000000004 70.041666666666671 38.708333333333336 113.95833333333336 51.500000000000007 26.500000000000004 91.500000000000014 222.50000000000003 21.500000000000004 46.500000000000007 60.375000000000007 106.50000000000001 61.500000000000007 0.75889325903544913 42.500000000000007 17.458333333333339 130.79166666666671 18.500000000000004 26.500000000000004 1.2068638177326407 52.500000000000007 0.78656609248549303 42.500000000000007 129.50000000000003 74.500000000000014 0.60355339059327384 72.500000000000014 7.5000000000000009 30.958333333333339 -0.70710678118654757 68.500000000000014 97.500000000000014 25.500000000000004 0.78656609248549325 67.500000000000014 4.5000000000000009 54.500000000000007 10.208333333333334 80.500000000000014 11.500000000000002 63.500000000000007 6.4583333333333348 12.500000000000002 21.500000000000004 1.5000000000000002 1.5000000000000002 6.5000000000000009 6.5000000000000009 4.5000000000000009
decision_type=10 10 10 10 10 10 10 10 10 10 10 10 10 10 10 10 10 10 10 10 10 2 10 10 10 2 10 10 10 2 10 10 10 2 10 10 10 2 10 2 10 10 10 2 10 10 10 10 10 10 10 2 2
left_child=1 4 5 7 45 8 9 15 25 31 16 -5 19 21 30 35 26 -9 32 41 -19 22 -8 -16 43 36 -7 37 -18 44 -10 47 -11 -33 -31 -4 -2 -12 -27 -23 -20 -6 -17 -14 -15 50 -21 -3 -47 -50 52 -52 -1
right_child=2 6 3 11 12 10 13 17 14 18 27 -13 24 29 23 42 28 20 40 46 -22 39 -24 -25 -26 38 -28 -29 -30 34 -32 33 -34 -35 -36 -37 -38 -39 -40 -41 -42 -43 -44 -45 -46 48 -48 -49 49 -51 51 -53 -54
leaf_value=-0.88012301918645464 -0.081151297790372487 -0.77337620010060304 1.1533801511054591 3.3859129246491109 -0.67817380496234714 0.31397081635215068 -0.17325762059482341 1.2293579127690564 0.44659936153076329 -0.18820125263247245 1.1740340519446064 5.3491369010940675 -0.24175505095812444 0.17091331146919433 0.63075974807593038 1.4100913493721574 0.81761556684968362 1.9300423293369982 -0.022001696544245455 -0.50345305024862497 2.4831645572263947 0.27839024740603885 0.055065110403850537 0.82443475414292555 0.10855963923420538 0.3618537058274448 0.69196448020855339 1.7084084781908222 0.97570757471060543 0.32323467977402087 0.62121739677068866 -0.34919432521196486 -0.09116164645252027 -0.24039458917437698 0.74070187174654178 1.4013468804828664 0.27674036415464731 0.83061904223127803 0.62689565744453168 -0.081710048730128285 0.14076557855727231 -0.55646460881476767 1.6895018058757054 -0.37676820695936852 0.32440582382713568 -0.8537865215937297 -0.42303904614001814 -0.46322919473052027 -0.72625497536439643 -0.63690691560178125 -0.89506928094542859 -0.80074455912296605 -0.889115344681914
leaf_weight=3773 117 76 703 67 973 165 586 73 2300 3570 1192 62 710 1902 2337 216 1684 414 1943 1251 152 700 3017 836 102 625 913 62 1310 522 737 2212 3587 3768 107 376 2136 121 258 107 583 4464 453 3242 544 75 2528 90 152 136 101 130 2246
leaf_count=3773 117 76 703 67 973 165 586 73 2300 3570 1192 62 710 1902 2337 216 1684 414 1943 1251 152 700 3017 836 102 625 913 62 1310 522 737 2212 3587 3768 107 376 2136 121 258 107 583 4464 453 3242 544 75 2528 90 152 136 101 130 2246
internal_value=0.000963476 -0.317995 0.796968 1.68219 -0.603452 0.646409 -0.0745466 1.53912 0.494099 -0.172989 0.907745 4.32948 -0.469121 0.133637 0.587493 1.37738 0.819894 1.98157 -0.0990972 -0.525519 2.07858 0.0568555 0.0179302 0.681788 -0.340912 0.309158 0.634108 1.16791 0.886787 0.243752 0.488975 -0.289406 -0.139566 -0.28064 0.394251 1.23979 0.258155 1.14239 0.439295 0.230645 0.0155649 -0.578246 1.59929 -0.352512 0.205051 -0.873008 -0.449659 -0.605224 -0.71913 -0.684063 -0.881945 -0.841986 -0.883479
internal_weight=60506 43197 17309 2516 19883 14793 23314 2387 9346 15829 5447 129 13270 7485 6210 1748 4072 639 9683 9216 566 4410 3603 3173 4054 3136 1078 1375 2994 3075 3037 6146 7157 5980 629 1079 2253 1313 883 807 2526 5437 669 3952 2446 6613 3779 166 363 288 6250 231 6019
internal_count=60506 43197 17309 2516 19883 14793 23314 2387 9346 15829 5447 129 13270 7485 6210 1748 4072 639 9683 9216 566 4410 3603 3173 4054 3136 1078 1375 2994 3075 3037 6146 7157 5980 629 1079 2253 1313 883 807 2526 5437 669 3952 2446 6613 3779 166 363 288 6250 231 6019
is_linear=0
shrinkage=0.05


Tree=16
num_leaves=54
num_cat=0
split_feature=9 9 9 6 6 9 9 9 6 6 6 6 6 6 6 6 9 5 6 9 9 9 0 5 6 10 5 6 6 10 6 10 0 6 2 6 8 9 8 0 2 9 8 1 9 9 0 8 5 9 5 1 11
split_gain=5.54568e+06 1.08381e+06 832788 344000 278660 212940 159003 61665.7 54085.1 48631.2 44804.7 43846.8 33489.8 22845.6 21073.1 19266.8 18337.9 16834.2 15048.5 13883.6 12598.9 12279.4 10769.6 9553.41 7910.65 7681.1 7061.33 7016.22 6980.72 6676.73 6528.55 6410.21 5972.45 5879.99 5836.54 5725.1 5683.65 5144.52 4684.26 4570.32 4567.28 4382.3 4365.3 4344.73 4231.05 3050.7 2668.42 1250.46 963.463 1183.13 447.911 267.072 156.473
threshold=50.541666666666679 24.458333333333339 91.375000000000014 180.00000000000003 5.5000000000000009 69.041666666666671 38.708333333333336 113.95833333333336 51.500000000000007 91.500000000000014 222.50000000000003 26.500000000000004 22.500000000000004 46.500000000000007 61.500000000000007 106.50000000000001 60.375000000000007 0.75889325903544913 42.500000000000007 6.4583333333333348 17.458333333333339 130.79166666666671 18.500000000000004 0.4316546483101309 46.500000000000007 74.500000000000014 1.2068638177326407 129.50000000000003 42.500000000000007 60.500000000000007 33.500000000000007 68.500000000000014 10.500000000000002 69.500000000000014 0.60355339059327384 9.5000000000000018 82.500000000000014 33.458333333333336 69.500000000000014 9.5000000000000018 0.78656609248549325 56.708333333333336 148.50000000000003 4.5000000000000009 44.125000000000007 9.5416666666666696 12.500000000000002 57.500000000000007 1.0000000180025095e-35 15.958333333333334 0.19903256450102161 4.5000000000000009 85.500000000000014
decision_type=10 8 10 10 10 10 10 10 10 10 10 10 10 10 10 10 10 10 10 10 10 10 2 10 10 10 10 10 10 8 10 8 2 10 2 10 10 10 10 2 2 10 10 2 10 10 2 10 10 10 10 2 10
left_child=1 4 5 7 19 8 11 15 30 14 -5 35 20 22 28 33 29 -9 37 50 45 -19 23 -8 32 -16 -18 40 -7 -10 34 44 -14 -4 -2 47 -33 -13 -20 -37 -11 -32 -17 -24 -15 -6 -22 -3 -21 -50 52 -52 -1
right_child=2 6 3 10 12 9 13 17 16 27 -12 18 24 31 25 42 26 21 38 48 46 -23 43 -25 -26 -27 -28 -29 -30 -31 41 36 -34 -35 -36 39 -38 -39 -40 -41 -42 -43 -44 -45 -46 -47 -48 -49 49 -51 51 -53 -54
leaf_value=-0.83954762466445032 0.2742525184627182 -0.42830146126935376 0.87797107985636724 3.2166172620075857 -0.64009271724899075 0.30586030844782219 -0.37359994654357437 1.167890026797987 0.40636680000966935 1.1099881842365062 5.0816800775066504 -0.1582502360586106 -0.18244318300720372 0.12505764690114882 0.76716805713706304 1.465780505636193 0.59312667844752276 1.8335402205802394 0.001011160853234025 -0.7840338636603621 -0.35747143875160076 2.3590063271161759 0.26447073488070499 0.034002994607964687 0.13673767662626141 0.92361398435206488 0.7700567638593091 1.6206984269240547 0.64098495653589727 0.55902798781459218 0.2583703871455052 0.32969766976502246 -0.34544599408627591 1.2232381443661045 -0.074247313415305036 -0.19751931214095877 0.82008364152429358 -0.066760690066615697 0.3187389944695303 -0.29185848922705665 0.79039990156888962 0.38844823796102979 1.8239874165747314 -0.077624548010736982 0.25426044684583121 -0.51882626263476672 -0.44259139208368281 -0.67666025950628172 -0.65782379357727105 -0.52894104738184744 -0.81403346742902483 -0.69133056604567877 -0.75971286373753699
leaf_weight=6094 279 199 142 67 589 183 150 73 1880 1227 62 4512 676 1068 1803 569 2085 414 2360 108 1332 152 700 3453 98 1389 773 63 1030 1157 1299 379 3331 937 211 2132 70 2330 122 3227 123 1291 100 107 1558 4341 2982 68 735 235 98 81 62
leaf_count=6094 279 199 142 67 589 183 150 73 1880 1227 62 4512 676 1068 1803 569 2085 414 2360 108 1332 152 700 3453 98 1389 773 63 1030 1157 1299 379 3331 937 211 2132 70 2330 122 3227 123 1291 100 107 1558 4341 2982 68 735 235 98 81 62
internal_value=0.000915301 -0.302095 0.757119 1.59808 -0.562439 0.614089 -0.0611648 1.46216 0.461354 0.849703 4.113 -0.15535 -0.425935 0.126955 0.76783 1.30851 0.550074 1.88249 -0.0888358 -0.80825 -0.47871 1.97465 0.0540127 0.0170337 -0.307092 0.835246 0.640981 1.10494 0.590426 0.464526 0.291545 0.231564 -0.317947 1.1778 0.124184 -0.265585 0.40615 -0.127094 0.0166287 -0.254327 1.08087 0.323208 1.51932 0.219112 0.201713 -0.533314 -0.41631 -0.491554 -0.642372 -0.6266 -0.836476 -0.758509 -0.838744
internal_weight=60506 43197 17309 2516 20762 14793 22435 2387 8975 5818 129 14950 13349 7485 4405 1748 5895 639 9324 7413 9244 566 4410 3603 4105 3192 2858 1413 1213 3037 3080 3075 4007 1079 490 5626 449 6842 2482 5359 1350 2590 669 807 2626 4930 4314 267 1078 970 6335 179 6156
internal_count=60506 43197 17309 2516 20762 14793 22435 2387 8975 5818 129 14950 13349 7485 4405 1748 5895 639 9324 7413 9244 566 4410 3603 4105 3192 2858 1413 1213 3037 3080 3075 4007 1079 490 5626 449 6842 2482 5359 1350 2590 669 807 2626 4930 4314 267 1078 970 6335 179 6156
is_linear=0
shrinkage=0.05


Tree=17
num_leaves=56
num_cat=0
split_feature=9 9 9 6 6 9 9 9 6 6 6 6 6 6 3 6 6 6 5 6 5 9 6 8 5 0 6 9 10 3 3 8 6 9 5 10 10 6 9 7 1 6 5 2 0 8 7 6 6 8 9 10 7 5 10
split_gain=5.00498e+06 978649 751592 310460 206621 192839 177787 55653.3 55227.9 48857.4 40436.3 38752.2 24919.6 22974.2 20885.3 17388.3 16188.7 15633.3 12936.1 12411 11153.5 10947.1 10000.8 9743.15 8864.57 8583.72 8508.67 8467.08 8167.05 7583.91 7316.12 6961.15 6897.42 6261.51 5721.09 5670.35 5423.13 5315.5 5012.25 4494.46 4257.42 3749.19 3361.28 3112.01 3062.44 3008.93 2979.15 2817.19 2357.27 1634.19 939.971 221.72 178.113 123.358 92.6107
threshold=50.541666666666679 22.208333333333339 91.375000000000014 180.00000000000003 2.5000000000000004 70.541666666666671 37.958333333333336 113.95833333333336 51.500000000000007 25.500000000000004 222.50000000000003 83.500000000000014 22.500000000000004 46.500000000000007 0.60355339059327384 106.50000000000001 42.500000000000007 145.50000000000003 0.73846151736263821 60.500000000000007 1.1105185238961182 15.208333333333334 74.500000000000014 50.500000000000007 0.40172966176162406 18.500000000000004 109.50000000000001 27.208333333333339 72.500000000000014 0.60355339059327384 0.78656609248549303 131.50000000000003 68.500000000000014 28.208333333333339 0.45801524969407453 68.500000000000014 97.500000000000014 25.500000000000004 29.291666666666668 67.500000000000014 2.5000000000000004 63.500000000000007 0.28301885590957693 -0.5 11.500000000000002 101.50000000000001 1.5000000000000002 9.5000000000000018 12.500000000000002 73.500000000000014 8.7083333333333339 5.5000000000000009 13.500000000000002 1.0000000180025095e-35 57.500000000000007
decision_type=10 10 10 10 8 10 10 10 10 10 10 10 10 10 2 10 10 10 10 10 10 10 10 10 10 2 10 10 10 2 2 10 10 10 10 10 10 10 10 10 2 10 10 2 2 10 10 10 10 10 10 10 10 10 10
left_child=1 4 5 7 46 8 9 15 30 33 -5 19 21 24 32 36 27 18 -9 34 -19 43 -16 44 49 -26 45 -11 -21 41 37 -28 -10 42 -7 -31 -4 -2 -18 -32 -17 -15 -3 -6 -14 -13 53 -35 -23 -8 51 -48 -52 54 -1
right_child=2 6 3 10 12 11 13 17 14 16 -12 26 23 29 22 40 38 20 -20 28 -22 48 -24 -25 25 -27 31 -29 -30 35 39 -33 -34 47 -36 -37 -38 -39 -40 -41 -42 -43 -44 -45 -46 -47 50 -49 -50 -51 52 -53 -54 -55 -56
leaf_value=-0.79770178464464025 -0.096119793819981814 -0.59439632289968758 1.0369312359665284 3.0557863839526678 -0.56696011084002584 0.11891300622651826 -0.18720660339383519 0.98351133523448819 0.38089939963754588 -0.22254324060854402 4.8275960541540579 0.80215283808117244 -0.19962962305743659 0.14212387054608033 0.56250200462947508 1.2900252867241702 -0.12107715058154885 2.7442506026127376 1.7548424995438854 0.69093263238611446 1.8370801692207654 -0.47626249527813008 0.7503706850239138 0.26480517247691754 0.02162614353570861 0.19651203312973037 1.0986823156820271 -0.10886539916022631 0.87943794875431258 0.29834981051808235 0.32734696192881696 1.6204920930167039 0.53432395174851599 -0.46301252881357496 0.59858524999954454 0.68988381967888224 1.2721837279871522 0.24854593276048004 0.0478619328932448 0.57359216759578535 1.547116863968103 0.28883266786106693 -0.31740695881552949 -0.46058749598766113 -0.34649628067770688 0.97877799420071865 -0.80578371952106442 -0.21642156136524832 -0.40464895682288904 -0.51606031427269483 -0.55042096791679362 -0.68897605345606117 -0.64235484191151559 -0.73256800532341004 -0.73628230056455068
leaf_weight=6085 118 113 703 67 2989 67 85 62 1883 2318 62 293 418 1996 2240 270 581 64 441 1209 72 1798 1036 72 3870 857 303 5584 1095 554 633 81 1199 121 861 111 376 2151 1797 262 399 557 3563 893 2353 1362 77 2708 3184 68 136 86 86 75 62
leaf_count=6085 118 113 703 67 2989 67 85 62 1883 2318 62 293 418 1996 2240 270 581 64 441 1209 72 1798 1036 72 3870 857 303 5584 1095 554 633 81 1199 121 861 111 376 2151 1797 262 399 557 3563 893 2353 1362 77 2708 3184 68 136 86 86 75 62
internal_value=0.000869538 -0.28699 0.719263 1.51817 -0.564397 0.583384 -0.0828179 1.38906 0.44907 -0.17565 3.90735 0.826021 -0.43823 0.109598 0.534016 1.24308 -0.107792 1.78836 1.65977 0.718339 2.26398 -0.479543 0.621913 -0.309421 0.0412089 0.0533328 0.996708 -0.142212 0.780522 0.213307 0.278373 1.20875 0.440587 -0.282887 0.563954 0.363704 1.11891 0.230621 0.00658624 0.399432 1.44336 0.174132 -0.325922 -0.542491 -0.324342 0.947508 -0.787953 -0.226969 -0.430494 -0.333364 -0.652979 -0.744155 -0.586035 -0.796305 -0.797082
internal_weight=60506 43197 17309 2516 18314 14793 24883 2387 9522 16785 129 5271 11707 8098 6358 1748 10280 639 503 3232 136 8864 3276 2843 4880 4727 2039 7902 2304 3218 3164 384 3082 6505 928 665 1079 2269 2378 895 669 2553 3676 3882 2771 1655 6607 2829 4982 153 385 163 222 6222 6147
internal_count=60506 43197 17309 2516 18314 14793 24883 2387 9522 16785 129 5271 11707 8098 6358 1748 10280 639 503 3232 136 8864 3276 2843 4880 4727 2039 7902 2304 3218 3164 384 3082 6505 928 665 1079 2269 2378 895 669 2553 3676 3882 2771 1655 6607 2829 4982 153 385 163 222 6222 6147
is_linear=0
shrinkage=0.05


Tree=18
num_leaves=52
num_cat=0
split_feature=9 9 9 8 6 9 9 6 6 6 6 6 8 6 5 6 10 6 6 9 6 10 3 3 9 6 6 6 8 3 7 9 8 6 10 10 3 11 8 6 9 8 9 10 9 10 5 9 5 1 11
split_gain=4.51699e+06 884063 679791 257229 227407 205701 129921 52590.2 52043.6 37697.7 35931.2 27338.3 23908.2 19417.4 18961.2 14186.6 12604.5 11915.2 11715.7 11046.6 9927.29 10066.9 9748.77 9195.68 9091.07 8982.92 8091.16 7996.81 7069.91 6889.9 5913.35 5789.61 5085.61 4985.46 4678.2 4626.77 4222.63 4048.79 3986.53 3894.49 3860.05 3437.38 3205.96 3087.47 2459 2145.91 786.759 1011.12 332.409 226.56 138.433
threshold=50.541666666666679 24.458333333333339 95.041666666666671 238.00000000000003 5.5000000000000009 71.458333333333357 38.708333333333336 60.500000000000007 125.50000000000001 83.500000000000014 30.500000000000004 21.500000000000004 190.00000000000003 40.500000000000007 0.56214013127104834 42.500000000000007 108.50000000000001 131.50000000000003 93.500000000000014 6.4583333333333348 60.500000000000007 72.500000000000014 0.60355339059327384 0.60355339059327384 17.458333333333339 54.500000000000007 14.500000000000002 22.500000000000004 55.500000000000007 0.37940952255126043 48.500000000000007 31.208333333333339 101.50000000000001 35.500000000000007 62.500000000000007 62.500000000000007 0.1294095225512602 72.500000000000014 159.50000000000003 7.5000000000000009 17.708333333333339 70.500000000000014 29.958333333333339 45.500000000000007 9.5416666666666696 37.500000000000007 1.0000000180025095e-35 15.958333333333334 0.19903256450102161 4.5000000000000009 85.500000000000014
decision_type=10 10 10 10 10 10 10 10 10 10 10 10 10 10 10 10 10 10 10 10 10 10 2 2 10 10 10 10 10 2 10 10 10 10 10 10 2 10 10 10 10 10 10 8 10 10 10 10 10 2 10
left_child=1 4 5 8 19 7 10 15 14 20 27 24 38 26 -4 30 -16 32 23 48 33 -22 -17 -9 44 31 -8 39 40 43 -2 -12 -11 -7 -31 -20 -28 -14 -10 -3 -13 -27 -29 -15 -6 -26 -21 -48 50 -50 -1
right_child=2 6 3 -5 11 9 13 18 12 17 25 28 37 29 16 22 -18 -19 35 46 21 -23 -24 -25 45 41 36 42 -30 34 -32 -33 -34 -35 -36 -37 -38 -39 -40 -41 -42 -43 -44 -45 -46 -47 47 -49 49 -51 -52
leaf_value=-0.75771806247417439 0.056276681891107419 -0.52083783142524454 0.40866988064750792 4.0664839349687103 -0.57990089953683954 0.14269185822569963 -0.46501994607083152 0.45322236925202664 1.5265414087545306 0.73804842206168808 -0.1297895737448814 -0.37005853438437386 2.7196014336177283 0.095518236324323824 1.1903108894163978 0.30362433393978355 1.5165886807183153 1.6006181680992857 0.62898859720520983 -0.7098817198502797 0.65580273603371053 0.86646612346206031 0.46742488678144334 0.60022193649223554 -0.39468416455361299 0.086087820341864851 -0.018188916562152043 -0.21308970336256086 0.23636523510795088 0.2236218456684943 0.26483529146639845 -0.036290150473307754 0.97847794558366175 0.5948445698090169 0.43967770728532501 0.98351245723119607 0.10175559004295374 2.1549578089267016 1.8494429046167182 -0.25822515184393796 -0.26518695670705206 0.48015653192996982 -0.12274629140211471 0.19775030046075087 -0.46955258249529025 -0.28525410923084921 -0.59648048362479267 -0.47733458261857642 -0.73898212131188845 -0.62596810756274213 -0.68262625125146681
leaf_weight=6094 503 147 63 96 574 66 84 1990 252 248 2940 1192 63 1698 913 2012 438 73 167 108 1153 1116 1656 2286 3489 515 1736 1896 64 1061 1048 3790 1944 799 328 205 1271 64 154 3563 3325 62 2037 1307 4191 514 735 235 98 81 62
leaf_count=6094 503 147 63 96 574 66 84 1990 252 248 2940 1192 63 1698 913 2012 438 73 167 108 1153 1116 1656 2286 3489 515 1736 1896 64 1061 1048 3790 1944 799 328 205 1271 64 154 3563 3325 62 2037 1307 4191 514 735 235 98 81 62
internal_value=0.00082606 -0.272641 0.6833 1.53984 -0.507774 0.568672 -0.055042 0.432906 1.41526 0.816792 -0.14018 -0.38446 1.83631 0.115006 1.25655 0.323971 1.29609 0.972204 0.555224 -0.729831 0.704472 0.759417 0.377576 0.53181 -0.436181 -0.0609027 0.0189886 -0.215972 -0.285468 0.18255 0.197198 -0.0771354 0.951276 0.560345 0.274642 0.824358 0.0325093 2.43506 1.64902 -0.268631 -0.292862 0.128431 -0.166299 0.139983 -0.482845 -0.380633 -0.581868 -0.567615 -0.755009 -0.687842 -0.756962
internal_weight=60506 43197 17309 2043 20762 15266 22435 9867 1947 5399 14950 13349 533 7485 1414 5219 1351 2265 4648 7413 3134 2269 3668 4276 8768 7307 3091 7643 4581 4394 1551 6730 2192 865 1389 372 3007 127 406 3710 4517 577 3933 3005 4765 4003 1078 970 6335 179 6156
internal_count=60506 43197 17309 2043 20762 15266 22435 9867 1947 5399 14950 13349 533 7485 1414 5219 1351 2265 4648 7413 3134 2269 3668 4276 8768 7307 3091 7643 4581 4394 1551 6730 2192 865 1389 372 3007 127 406 3710 4517 577 3933 3005 4765 4003 1078 970 6335 179 6156
is_linear=0
shrinkage=0.05


Tree=19
num_leaves=52
num_cat=0
split_feature=9 9 9 8 9 9 9 9 9 9 5 9 5 5 11 5 5 5 5 9 3 5 10 5 5 5 9 10 0 5 5 10 5 5 3 7 8 0 5 5 9 5 11 7 3 5 5 10 7 8 11
split_gain=4.07661e+06 809081 606757 232149 201309 180041 122113 44343.3 35772 25634.2 25566.9 25180.9 19210.9 16936.5 16002.6 15514.5 15365 13471.1 12430.2 10819.4 9885.57 9141.72 9046.79 8436.29 8358.63 7737.56 6949.7 6164.86 5978.24 5909.75 5430.76 5372.56 5335.57 5208.78 5150.94 4733.34 4675.99 4565.22 3963.42 3937.33 3829.74 2923.09 2871.87 2835.22 2346.62 1974.57 1809.35 926.142 405.721 165.156 124.024
threshold=50.875000000000007 24.458333333333339 95.041666666666671 238.00000000000003 6.4583333333333348 71.458333333333357 39.625000000000007 130.79166666666671 61.208333333333336 16.958333333333339 0.98995307793262322 31.708333333333339 0.75889325903544913 1.0407616351134703 127.50000000000001 0.75488067940580039 1.2653060837151202 0.79377429126860466 1.3747294403968409 87.375000000000014 0.37940952255126043 0.85117248105570364 56.500000000000007 0.92118695943623796 0.77538459391242676 0.46965803942206646 81.208333333333357 62.500000000000007 10.500000000000002 0.78260867616428997 1.2828856058283156 52.500000000000007 0.73846151736263821 0.31309389802934939 0.37940952255126043 58.500000000000007 95.500000000000014 10.500000000000002 0.59016391645870991 0.59016391645870991 44.791666666666679 1.4805912011908868 79.500000000000014 55.500000000000007 -0.70710678118654757 0.4316546483101309 1.587717977562124 9.5000000000000018 3.5000000000000004 12.500000000000002 85.500000000000014
decision_type=10 10 10 10 10 10 10 10 10 10 10 10 10 10 10 10 10 10 10 10 2 10 8 10 10 10 10 10 2 10 10 10 10 10 2 10 10 2 10 10 10 10 10 10 2 10 10 10 10 10 10
left_child=1 4 5 7 46 8 11 12 13 34 25 17 39 32 -14 33 24 44 29 30 40 45 -15 -9 -10 -7 -27 -22 -19 -13 -12 -21 -2 -8 38 -35 -18 -23 -6 -4 -17 -36 -25 -20 -3 -11 48 -48 50 -50 -1
right_child=2 6 3 -5 9 10 15 23 16 21 19 18 14 22 -16 20 36 28 43 31 27 37 -24 42 -26 26 -28 -29 -30 -31 -32 -33 -34 35 41 -37 -38 -39 -40 -41 -42 -43 -44 -45 -46 -47 47 -49 49 -51 -52
leaf_value=-0.71956768569701712 0.15883803245770611 -0.34107891520875144 0.49168078987859193 3.8631596791247524 -0.53914928413229579 0.17945810347699967 -0.43555658625465049 1.5971154347700733 0.34458118780161895 -0.46672268558389185 0.78625952051247217 -0.15625439220957185 1.2699902889035082 0.34235957877266943 1.7999306590302186 0.070729462500875362 0.59736533314771167 -0.086708236821586529 0.084153312927702811 0.68860414179166163 0.21071407894107011 -0.17387654377744266 0.53857733518161155 2.5093351082368329 0.52632601714321847 0.6109774335486855 0.771877586276842 0.43707364543557942 -0.18861068093325042 -0.051430833334676476 0.97060414734390832 1.1432087220029725 0.29936838279645656 -0.033865487764399065 -0.33094840812901993 0.22265138725971895 0.86753062212089427 -0.2992364510112408 -0.44162207560939426 0.9596439582967996 0.17131295521998591 0.067991714515993673 2.0463382244110107 0.43088291292152708 -0.24356493862834194 -0.36636213924360961 -0.64694754603088545 -0.40094520589981519 -0.57313370807812769 -0.68628640770912175 -0.64849493119024471
leaf_weight=6156 995 989 64 96 1357 78 71 70 823 604 1512 1982 1369 1288 159 2013 286 2561 919 75 1282 883 1080 66 2735 1467 1237 393 3286 4181 543 487 2103 1252 177 210 364 4091 4484 151 1786 62 68 63 1640 2599 93 65 65 64 62
leaf_count=6156 995 989 64 96 1357 78 71 70 823 604 1512 1982 1369 1288 159 2013 286 2561 919 75 1282 883 1080 66 2735 1467 1237 393 3286 4181 543 487 2103 1252 177 210 364 4091 4484 151 1786 62 68 63 1640 2599 93 65 65 64 62
internal_value=0.000784757 -0.256982 0.654238 1.46285 -0.482385 0.544638 -0.0501667 1.3445 0.415542 -0.377219 0.775952 -0.127959 1.26287 0.331182 1.32513 0.12326 0.525123 -0.186244 -0.0588168 0.888135 0.162632 -0.319406 0.431851 2.04199 0.484287 0.670422 0.684584 0.263824 -0.143977 -0.0851417 0.83497 1.08254 0.254234 -0.0173303 -0.454971 0.0029803 0.748658 -0.276982 -0.46428 0.820343 0.118016 -0.227458 2.27438 0.106398 -0.280249 -0.385287 -0.712878 -0.545744 -0.717038 -0.629271 -0.718859
