{"learner":{"attributes":{"scikit_learn":"{\"_estimator_type\": \"regressor\"}"},"feature_names":[],"feature_types":[],"gradient_booster":{"model":{"cats":{"enc":[],"feature_segments":[],"sorted_idx":[]},"gbtree_model_param":{"num_parallel_tree":"1","num_trees":"200"},"iteration_indptr":[0,1,2,3,4,5,6,7,8,9,10,11,12,13,14,15,16,17,18,19,20,21,22,23,24,25,26,27,28,29,30,31,32,33,34,35,36,37,38,39,40,41,42,43,44,45,46,47,48,49,50,51,52,53,54,55,56,57,58,59,60,61,62,63,64,65,66,67,68,69,70,71,72,73,74,75,76,77,78,79,80,81,82,83,84,85,86,87,88,89,90,91,92,93,94,95,96,97,98,99,100,101,102,103,104,105,106,107,108,109,110,111,112,113,114,115,116,117,118,119,120,121,122,123,124,125,126,127,128,129,130,131,132,133,134,135,136,137,138,139,140,141,142,143,144,145,146,147,148,149,150,151,152,153,154,155,156,157,158,159,160,161,162,163,164,165,166,167,168,169,170,171,172,173,174,175,176,177,178,179,180,181,182,183,184,185,186,187,188,189,190,191,192,193,194,195,196,197,198,199,200],"tree_info":[0,0,0,0,0,0,0,0,0,0,0,0,0,0,0,0,0,0,0,0,0,0,0,0,0,0,0,0,0,0,0,0,0,0,0,0,0,0,0,0,0,0,0,0,0,0,0,0,0,0,0,0,0,0,0,0,0,0,0,0,0,0,0,0,0,0,0,0,0,0,0,0,0,0,0,0,0,0,0,0,0,0,0,0,0,0,0,0,0,0,0,0,0,0,0,0,0,0,0,0,0,0,0,0,0,0,0,0,0,0,0,0,0,0,0,0,0,0,0,0,0,0,0,0,0,0,0,0,0,0,0,0,0,0,0,0,0,0,0,0,0,0,0,0,0,0,0,0,0,0,0,0,0,0,0,0,0,0,0,0,0,0,0,0,0,0,0,0,0,0,0,0,0,0,0,0,0,0,0,0,0,0,0,0,0,0,0,0,0,0,0,0,0,0,0,0,0,0,0,0],"trees":[{"base_weights":[3.0029736E0,-2.3173918E2,4.135982E2,-5.7891187E2,-1.4686519E2,2.6101773E2,7.459032E2,-5.829971E1,-3.3619922E2,-1.8515302E2,2.1670724E2,1.2047193E2,3.9917804E2,6.906343E2,2.1977933E2,-8.973706E0,-3.5578987E1,-2.9446188E2,-1.2466341E2,-6.407782E1,2.9194907E2,-2.7178902E1,1.76062E2,2.8249042E2,4.945235E2,6.128282E2,1.0629672E3,-3.4145657E2,-2.2585268E2,-1.5998239E2,-1.2662545E1,3.8176296E1,-8.915672E1,2.733534E2,6.121049E1,-1.9678488E2,1.2697814E1,1.2326713E2,2.9584946E2,4.1554694E2,1.9904305E2,5.232E2,2.373373E2,6.986772E2,4.053065E2,7.678242E1,1.13610146E2,-3.896379E1,-3.147728E1,-3.3290375E1,-1.4652552E1,-2.1016195E1,-7.8765283E0,-5.5108776E0,1.0653365E1,-4.03405E0,-2.3666487E1,1.9983095E1,3.293664E1,-4.3212067E1,-7.3842516E0,-1.6747799E0,1.4993052E1,9.855596E0,3.220929E1,3.7765015E1,2.3470465E1,5.7190674E1,3.586273E1,1.657224E1,3.323656E1,4.6809456E1,6.3928772E1,2.4463346E1,3.476294E0,5.7907497E1,7.6890465E1,3.1559538E1,5.0731274E1],"categories":[],"categories_nodes":[],"categories_segments":[],"categories_sizes":[],"default_left":[0,0,0,0,0,0,0,0,0,0,0,0,0,0,0,0,0,0,0,0,0,0,0,0,0,0,0,0,0,0,0,0,0,0,0,0,0,0,0,0,0,0,0,0,0,0,0,0,0,0,0,0,0,0,0,0,0,0,0,0,0,0,0,0,0,0,0,0,0,0,0,0,0,0,0,0,0,0,0],"id":0,"left_children":[1,3,5,7,9,11,13,-1,15,17,19,21,23,25,-1,-1,-1,27,29,31,33,35,37,39,41,43,45,47,49,51,53,-1,55,57,-1,59,61,63,65,67,69,71,73,75,77,-1,-1,-1,-1,-1,-1,-1,-1,-1,-1,-1,-1,-1,-1,-1,-1,-1,-1,-1,-1,-1,-1,-1,-1,-1,-1,-1,-1,-1,-1,-1,-1,-1,-1],"loss_changes":[3.094885E8,6.011387E7,5.902669E7,2.016E5,2.2911344E7,1.5525024E7,2.7931824E7,0E0,1.1527625E4,9.795408E6,3.335612E6,3.279744E6,4.355056E6,9.632848E6,0E0,0E0,0E0,1.62852E6,3.791544E6,4.1419738E5,5.70914E5,7.4646494E5,1.797539E6,1.960281E6,1.505748E6,4.990216E6,4.22776E5,2.7848E5,1.80249E6,2.954442E6,1.1745991E6,0E0,2.2807888E5,4.2425E5,0E0,5.7567875E5,3.661921E5,9.65639E5,3.515125E5,4.17896E5,4.557945E5,9.67372E5,2.6968E4,1.301816E6,6.54342E5,0E0,0E0,0E0,0E0,0E0,0E0,0E0,0E0,0E0,0E0,0E0,0E0,0E0,0E0,0E0,0E0,0E0,0E0,0E0,0E0,0E0,0E0,0E0,0E0,0E0,0E0,0E0,0E0,0E0,0E0,0E0,0E0,0E0,0E0],"parents":[2147483647,0,0,1,1,2,2,3,3,4,4,5,5,6,6,8,8,9,9,10,10,11,11,12,12,13,13,17,17,18,18,19,19,20,20,21,21,22,22,23,23,24,24,25,25,26,26,27,27,28,28,29,29,30,30,32,32,33,33,35,35,36,36,37,37,38,38,39,39,40,40,41,41,42,42,43,43,44,44],"right_children":[2,4,6,8,10,12,14,-1,16,18,20,22,24,26,-1,-1,-1,28,30,32,34,36,38,40,42,44,46,48,50,52,54,-1,56,58,-1,60,62,64,66,68,70,72,74,76,78,-1,-1,-1,-1,-1,-1,-1,-1,-1,-1,-1,-1,-1,-1,-1,-1,-1,-1,-1,-1,-1,-1,-1,-1,-1,-1,-1,-1,-1,-1,-1,-1,-1,-1],"split_conditions":[2.222102E-1,-8.3142084E-1,1.2531798E0,-9.274317E-1,5.596199E-1,1.12740226E-1,5.68902E0,-5.829971E1,-5.007436E-1,-5.8396894E-1,3.613449E-1,-3.2304743E-1,6.226118E-1,6.510537E0,2.1977933E2,-8.973706E0,-3.5578987E1,9.394108E-1,3.6441746E-1,-1.5173693E0,2.063552E0,-6.713905E-1,8.434201E-1,-3.6641553E-1,1.2248672E0,1.2248672E0,2.508368E-1,-7.7749974E-1,-8.270771E-1,-1.6226299E-1,-2.890809E-2,3.8176296E1,3.6069956E0,-1.310034E-1,6.121049E1,-1.2283363E0,1.018434E0,6.5037787E-1,1.2248672E0,1.3729602E0,5.984548E-1,6.671304E-1,1.8605698E0,1.4763772E0,1.6673197E0,7.678242E1,1.13610146E2,-3.896379E1,-3.147728E1,-3.3290375E1,-1.4652552E1,-2.1016195E1,-7.8765283E0,-5.5108776E0,1.0653365E1,-4.03405E0,-2.3666487E1,1.9983095E1,3.293664E1,-4.3212067E1,-7.3842516E0,-1.6747799E0,1.4993052E1,9.855596E0,3.220929E1,3.7765015E1,2.3470465E1,5.7190674E1,3.586273E1,1.657224E1,3.323656E1,4.6809456E1,6.3928772E1,2.4463346E1,3.476294E0,5.7907497E1,7.6890465E1,3.1559538E1,5.0731274E1],"split_indices":[9,1,9,1,10,1,10,0,4,9,3,1,9,0,0,0,0,3,1,3,10,1,9,5,5,5,8,9,9,9,10,0,2,9,0,3,9,3,5,3,1,10,7,9,9,0,0,0,0,0,0,0,0,0,0,0,0,0,0,0,0,0,0,0,0,0,0,0,0,0,0,0,0,0,0,0,0,0,0],"split_type":[0,0,0,0,0,0,0,0,0,0,0,0,0,0,0,0,0,0,0,0,0,0,0,0,0,0,0,0,0,0,0,0,0,0,0,0,0,0,0,0,0,0,0,0,0,0,0,0,0,0,0,0,0,0,0,0,0,0,0,0,0,0,0,0,0,0,0,0,0,0,0,0,0,0,0,0,0,0,0],"sum_hessian":[3.209E3,2.042E3,1.167E3,4E2,1.642E3,8.01E2,3.66E2,3.92E2,8E0,1.486E3,1.56E2,3.98E2,4.03E2,3.54E2,1.2E1,1E0,7E0,5.28E2,9.58E2,3.3E1,1.23E2,1.09E2,2.89E2,1.83E2,2.2E2,2.95E2,5.9E1,3.11E2,2.17E2,7.28E2,2.3E2,1E0,3.2E1,1.18E2,5E0,2E1,8.9E1,2.02E2,8.7E1,6.9E1,1.14E2,1.97E2,2.3E1,2.07E2,8.8E1,1.4E1,4.5E1,1.06E2,2.05E2,9.1E1,1.26E2,4.49E2,2.79E2,1.7E2,6E1,2.5E1,7E0,5.3E1,6.5E1,6E0,1.4E1,7.4E1,1.5E1,1.81E2,2.1E1,3.5E1,5.2E1,1.6E1,5.3E1,9.3E1,2.1E1,1.37E2,6E1,2.2E1,1E0,8E1,1.27E2,4.9E1,3.9E1],"tree_param":{"num_deleted":"0","num_feature":"13","num_nodes":"79","size_leaf_vector":"1"}},{"base_weights":[-3.6138475E0,-1.9816418E2,3.8585455E2,-4.70441E2,-1.07677444E2,2.7284073E2,7.075913E2,-5.27289E1,-3.1757965E2,-1.554255E2,8.1731316E1,5.7643368E1,3.4255753E2,6.725941E2,1.674997E2,-3.2932648E2,3.560439E1,-2.3729832E2,-5.9159355E1,-6.93831E1,2.3515388E2,-1.9499382E2,8.9254715E1,2.6142572E2,4.514076E2,7.629076E2,3.997594E2,-3.860319E1,-2.7276453E2,-2.7922333E2,-1.9269455E2,-7.320202E1,1.3610832E2,-1.5047844E2,-5.853563E0,1.557724E2,3.0257062E2,-3.950818E2,-9.526822E1,1.2634869E1,1.5432869E2,1.8582089E2,3.8351437E2,5.1262616E2,3.1910632E2,6.5806866E2,9.539317E2,2.8172772E2,4.56449E2,-2.8754744E1,-1.4644261E1,-2.9941696E1,-1.8795198E1,-2.378358E1,-1.4364963E1,-1.0754607E1,-1.1255858E0,-1.2485478E1,1.6064196E1,-9.000976E0,-1.7528448E1,-1.3460692E1,3.126526E0,-3.95092E0,1.7932774E1,2.8185072E1,5.818631E1,-1.3131043E0,-4.5655174E1,7.2182617E0,-1.3946322E1,-4.2231793E0,4.4045734E0,9.00825E0,2.1402122E1,1.4767024E1,2.7758505E1,3.270111E1,5.1319313E1,4.4445976E1,5.6196148E1,2.8316465E1,4.005557E1,5.1593178E1,6.8940605E1,3.464236E1,9.6689575E1,-2.5016816E0,2.9555113E1,4.681457E1,-2.9102693E0],"categories":[],"categories_nodes":[],"categories_segments":[],"categories_sizes":[],"default_left":[0,0,0,0,0,0,0,0,0,0,0,0,0,0,0,0,0,0,0,0,0,0,0,0,0,0,0,0,0,0,0,0,0,0,0,0,0,0,0,0,0,0,0,0,0,0,0,0,0,0,0,0,0,0,0,0,0,0,0,0,0,0,0,0,0,0,0,0,0,0,0,0,0,0,0,0,0,0,0,0,0,0,0,0,0,0,0,0,0,0,0],"id":1,"left_children":[1,3,5,7,9,11,13,-1,15,17,19,21,23,25,-1,27,-1,29,31,33,35,37,39,41,43,45,47,-1,49,51,53,55,57,59,61,63,65,67,69,71,73,75,77,79,81,83,85,87,89,-1,-1,-1,-1,-1,-1,-1,-1,-1,-1,-1,-1,-1,-1,-1,-1,-1,-1,-1,-1,-1,-1,-1,-1,-1,-1,-1,-1,-1,-1,-1,-1,-1,-1,-1,-1,-1,-1,-1,-1,-1,-1],"loss_changes":[2.4292318E8,5.262421E7,3.864016E7,4.46424E6,1.4537206E7,1.1862528E7,8.251648E6,0E0,1.280458E6,1.009803E7,7.5280485E6,1.5747135E6,5.163048E6,6.323352E6,0E0,3.59772E5,0E0,1.242116E6,1.6305312E6,8.4403894E5,8.14483E5,4.0134694E5,8.656066E5,3.113256E6,1.893644E6,3.397632E6,3.33096E5,0E0,9.9814E4,5.98022E5,7.16364E5,1.1731595E6,2.761517E5,9.222175E4,4.4867162E5,3.5667925E5,3.33676E5,1.5835438E5,1.2847469E5,1.4145628E5,3.41212E5,7.116935E5,7.92054E5,3.28668E5,1.29553E5,2.3672E5,2.08476E5,1.1340025E5,2.69195E5,0E0,0E0,0E0,0E0,0E0,0E0,0E0,0E0,0E0,0E0,0E0,0E0,0E0,0E0,0E0,0E0,0E0,0E0,0E0,0E0,0E0,0E0,0E0,0E0,0E0,0E0,0E0,0E0,0E0,0E0,0E0,0E0,0E0,0E0,0E0,0E0,0E0,0E0,0E0,0E0,0E0,0E0],"parents":[2147483647,0,0,1,1,2,2,3,3,4,4,5,5,6,6,8,8,9,9,10,10,11,11,12,12,13,13,15,15,17,17,18,18,19,19,20,20,21,21,22,22,23,23,24,24,25,25,26,26,28,28,29,29,30,30,31,31,32,32,33,33,34,34,35,35,36,36,37,37,38,38,39,39,40,40,41,41,42,42,43,43,44,44,45,45,46,46,47,47,48,48],"right_children":[2,4,6,8,10,12,14,-1,16,18,20,22,24,26,-1,28,-1,30,32,34,36,38,40,42,44,46,48,-1,50,52,54,56,58,60,62,64,66,68,70,72,74,76,78,80,82,84,86,88,90,-1,-1,-1,-1,-1,-1,-1,-1,-1,-1,-1,-1,-1,-1,-1,-1,-1,-1,-1,-1,-1,-1,-1,-1,-1,-1,-1,-1,-1,-1,-1,-1,-1,-1,-1,-1,-1,-1,-1,-1,-1,-1],"split_conditions":[3.090203E-1,-8.587349E-1,1.4190348E0,-9.178841E-1,6.530084E-1,-1.4615639E-1,5.68902E0,-5.27289E1,1.5174767E0,-2.8053182E-1,8.2285106E-2,-6.713905E-1,8.434201E-1,1.2248672E0,1.674997E2,3.173134E-1,3.560439E1,-5.441478E-1,7.9489434E-1,-3.6092398E-1,-2.0168594E-1,-1.2283363E0,7.5780463E-1,5.058614E-1,1.00005E0,2.0492046E0,1.6673197E0,-3.860319E1,-6.537852E-2,9.394108E-1,-2.9379694E-2,4.0028438E-2,-1.5500894E-1,-1.3667377E0,-8.5713214E-1,7.231196E-2,1.9379176E0,4.521422E-1,1.1566677E0,4.8005214E-1,-3.179736E-1,2.8045583E-1,7.871581E-1,2.8045583E-1,1.2734885E0,3.8300846E-2,-5.2539015E-1,-6.957981E-1,1.8860866E0,-2.8754744E1,-1.4644261E1,-2.9941696E1,-1.8795198E1,-2.378358E1,-1.4364963E1,-1.0754607E1,-1.1255858E0,-1.2485478E1,1.6064196E1,-9.000976E0,-1.7528448E1,-1.3460692E1,3.126526E0,-3.95092E0,1.7932774E1,2.8185072E1,5.818631E1,-1.3131043E0,-4.5655174E1,7.2182617E0,-1.3946322E1,-4.2231793E0,4.4045734E0,9.00825E0,2.1402122E1,1.4767024E1,2.7758505E1,3.270111E1,5.1319313E1,4.4445976E1,5.6196148E1,2.8316465E1,4.005557E1,5.1593178E1,6.8940605E1,3.464236E1,9.6689575E1,-2.5016816E0,2.9555113E1,4.681457E1,-2.9102693E0],"split_indices":[9,9,9,10,1,1,10,0,3,9,10,1,9,5,0,1,0,9,3,10,9,3,9,3,5,9,9,0,10,3,1,9,1,5,7,3,10,7,10,9,1,1,10,1,9,1,1,1,8,0,0,0,0,0,0,0,0,0,0,0,0,0,0,0,0,0,0,0,0,0,0,0,0,0,0,0,0,0,0,0,0,0,0,0,0,0,0,0,0,0,0],"split_type":[0,0,0,0,0,0,0,0,0,0,0,0,0,0,0,0,0,0,0,0,0,0,0,0,0,0,0,0,0,0,0,0,0,0,0,0,0,0,0,0,0,0,0,0,0,0,0,0,0,0,0,0,0,0,0,0,0,0,0,0,0,0,0,0,0,0,0,0,0,0,0,0,0,0,0,0,0,0,0,0,0,0,0,0,0,0,0,0,0,0,0],"sum_hessian":[3.204E3,2.137E3,1.067E3,5.32E2,1.605E3,7.91E2,2.76E2,3.86E2,1.46E2,1.282E3,3.23E2,1.94E2,5.97E2,2.68E2,8E0,1.44E2,2E0,6.92E2,5.9E2,1.63E2,1.6E2,2.1E1,1.73E2,3.44E2,2.53E2,2E2,6.8E1,6.9E1,7.5E1,3.54E2,3.38E2,5.51E2,3.9E1,7.1E1,9.2E1,7.5E1,8.5E1,6E0,1.5E1,8E1,9.3E1,2.14E2,1.3E2,1.71E2,8.2E1,1.32E2,6.8E1,2.4E1,4.4E1,6.6E1,9E0,2.88E2,6.6E1,1.74E2,1.64E2,3.54E2,1.97E2,3E0,3.6E1,2.2E1,4.9E1,2E1,7.2E1,8E0,6.7E1,8.1E1,4E0,1E0,5E0,3E0,1.2E1,2.9E1,5.1E1,4.6E1,4.7E1,1.53E2,6.1E1,9.3E1,3.7E1,7.6E1,9.5E1,6E1,2.2E1,2.7E1,1.05E2,2E0,6.6E1,1E0,2.3E1,4.3E1,1E0],"tree_param":{"num_deleted":"0","num_feature":"13","num_nodes":"91","size_leaf_vector":"1"}},{"base_weights":[1.32386E0,-1.945323E2,3.3910846E2,-4.0505783E2,-9.748229E1,2.3489226E2,7.049575E2,-4.762376E1,-2.7914822E2,-1.4882669E2,7.1969765E1,1.10398834E2,3.395346E2,6.392476E2,1.9143817E3,-2.9069772E2,3.1026816E2,-8.130049E1,-2.1520407E2,-7.0868286E1,2.0672739E2,9.5862686E1,9.6056647E2,2.2393606E1,3.5544446E2,7.151471E2,3.9236005E2,1.1720391E2,2.2318411E2,-3.3183896E2,-2.3445811E2,-2.6646576E0,4.011585E1,-3.7473077E2,-7.4412415E1,-2.5140239E2,-1.6165265E2,-1.1010301E2,1.4375903E1,1.9374107E2,5.2506763E1,-1.2128787E1,1.26897675E2,3.7518368E1,1.11968285E2,-1.4060179E2,1.8366641E2,2.726663E2,4.074172E2,6.588852E2,9.8246185E1,2.569907E2,4.4747974E2,-3.856647E1,-3.1129633E1,-2.5691267E1,-1.8040295E1,-4.5224037E1,-1.757693E1,-9.243527E0,5.6924284E-1,-2.7826979E1,-2.2331484E1,-1.9010612E1,-1.1891576E1,-1.4258051E1,-4.0285296E0,6.921158E0,-7.407997E0,1.5861191E1,2.8233286E1,-4.2353377E0,1.0181987E1,9.735539E0,2.1289618E1,-3.220026E0,-3.764552E1,2.3187962E1,8.877109E0,2.3292288E1,4.0432995E1,4.5003838E1,2.7635191E1,5.0834362E1,7.0003716E1,2.9162235E1,4.5558443E0,4.5974255E1,-2.7647552E0],"categories":[],"categories_nodes":[],"categories_segments":[],"categories_sizes":[],"default_left":[0,0,0,0,0,0,0,0,0,0,0,0,0,0,0,0,0,0,0,0,0,0,0,0,0,0,0,0,0,0,0,0,0,0,0,0,0,0,0,0,0,0,0,0,0,0,0,0,0,0,0,0,0,0,0,0,0,0,0,0,0,0,0,0,0,0,0,0,0,0,0,0,0,0,0,0,0,0,0,0,0,0,0,0,0,0,0,0,0],"id":2,"left_children":[1,3,5,7,9,11,13,-1,15,17,19,21,23,25,27,29,31,33,35,37,39,41,43,45,47,49,51,-1,-1,53,55,-1,-1,57,59,61,63,65,67,69,-1,71,73,-1,-1,75,77,79,81,83,-1,85,87,-1,-1,-1,-1,-1,-1,-1,-1,-1,-1,-1,-1,-1,-1,-1,-1,-1,-1,-1,-1,-1,-1,-1,-1,-1,-1,-1,-1,-1,-1,-1,-1,-1,-1,-1,-1],"loss_changes":[2.1342293E8,4.1681656E7,4.497725E7,5.63872E6,1.2182593E7,1.19867E7,1.9597672E7,0E0,1.68995E6,4.796398E6,6.289667E6,5.1354195E6,2.51992E6,4.404064E6,4.4782E5,4.56676E5,1.638009E5,1.0514202E6,1.008076E6,5.333634E5,5.92796E5,1.3991205E6,2.31921E5,6.8299206E5,1.94106E6,2.2102E6,3.40155E5,0E0,0E0,2.4793E4,7.6245E4,0E0,0E0,1.05567125E5,7.555905E5,1.80096E5,2.461325E5,2.4141425E5,2.525046E5,4.625E5,0E0,3.2805322E5,8.02425E5,0E0,0E0,3.202473E5,3.889347E4,8.84349E5,1.501204E6,6.35352E5,0E0,1.3315912E5,2.57419E5,0E0,0E0,0E0,0E0,0E0,0E0,0E0,0E0,0E0,0E0,0E0,0E0,0E0,0E0,0E0,0E0,0E0,0E0,0E0,0E0,0E0,0E0,0E0,0E0,0E0,0E0,0E0,0E0,0E0,0E0,0E0,0E0,0E0,0E0,0E0,0E0],"parents":[2147483647,0,0,1,1,2,2,3,3,4,4,5,5,6,6,8,8,9,9,10,10,11,11,12,12,13,13,14,14,15,15,16,16,17,17,18,18,19,19,20,20,21,21,22,22,23,23,24,24,25,25,26,26,29,29,30,30,33,33,34,34,35,35,36,36,37,37,38,38,39,39,41,41,42,42,45,45,46,46,47,47,48,48,49,49,51,51,52,52],"right_children":[2,4,6,8,10,12,14,-1,16,18,20,22,24,26,28,30,32,34,36,38,40,42,44,46,48,50,52,-1,-1,54,56,-1,-1,58,60,62,64,66,68,70,-1,72,74,-1,-1,76,78,80,82,84,-1,86,88,-1,-1,-1,-1,-1,-1,-1,-1,-1,-1,-1,-1,-1,-1,-1,-1,-1,-1,-1,-1,-1,-1,-1,-1,-1,-1,-1,-1,-1,-1,-1,-1,-1,-1,-1,-1],"split_conditions":[2.0767547E-1,-7.7749974E-1,1.4763772E0,-9.178841E-1,9.394108E-1,7.078949E-1,5.68902E0,-4.762376E1,1.5174767E0,7.231196E-2,5.247428E-2,6.5037787E-1,-3.2304743E-1,1.2248672E0,3.9589503E-1,3.3665514E-1,6.6242474E-1,-7.2417414E-1,-4.0915412E-1,-5.204542E-1,2.063552E0,-3.179736E-1,-3.2822385E-1,8.8662606E-1,7.4307084E-1,2.5149128E0,1.6673197E0,1.1720391E2,2.2318411E2,-5.1303226E-1,1.0305057E0,-2.6646576E0,4.011585E1,-1.0838199E0,5.184932E-3,-1.0041278E-1,-1.7122276E-1,9.608605E-1,6.368772E-1,1.4542902E-2,5.2506763E1,1.0339643E0,7.5780463E-1,3.7518368E1,1.11968285E2,3.6069956E0,-4.1462997E-1,1.0081506E0,1.00005E0,4.225032E-2,9.8246185E1,1.6272994E0,1.8860866E0,-3.856647E1,-3.1129633E1,-2.5691267E1,-1.8040295E1,-4.5224037E1,-1.757693E1,-9.243527E0,5.6924284E-1,-2.7826979E1,-2.2331484E1,-1.9010612E1,-1.1891576E1,-1.4258051E1,-4.0285296E0,6.921158E0,-7.407997E0,1.5861191E1,2.8233286E1,-4.2353377E0,1.0181987E1,9.735539E0,2.1289618E1,-3.220026E0,-3.764552E1,2.3187962E1,8.877109E0,2.3292288E1,4.0432995E1,4.5003838E1,2.7635191E1,5.0834362E1,7.0003716E1,2.9162235E1,4.5558443E0,4.5974255E1,-2.7647552E0],"split_indices":[9,9,9,12,3,6,12,0,3,3,12,3,1,5,1,1,1,1,9,9,12,1,8,9,9,9,9,0,0,1,1,0,0,3,9,1,9,1,8,9,0,9,9,0,0,2,1,12,5,1,0,9,8,0,0,0,0,0,0,0,0,0,0,0,0,0,0,0,0,0,0,0,0,0,0,0,0,0,0,0,0,0,0,0,0,0,0,0,0],"split_type":[0,0,0,0,0,0,0,0,0,0,0,0,0,0,0,0,0,0,0,0,0,0,0,0,0,0,0,0,0,0,0,0,0,0,0,0,0,0,0,0,0,0,0,0,0,0,0,0,0,0,0,0,0,0,0,0,0,0,0,0,0,0,0,0,0,0,0,0,0,0,0,0,0,0,0,0,0,0,0,0,0,0,0,0,0,0,0,0,0],"sum_hessian":[3.224E3,2.041E3,1.183E3,6.43E2,1.398E3,9.22E2,2.61E2,4.09E2,2.34E2,1.073E3,3.25E2,4.22E2,5E2,2.49E2,1.2E1,2.3E2,4E0,5.33E2,5.4E2,1.58E2,1.67E2,4.16E2,6E0,2.4E1,4.76E2,1.89E2,6E1,5E0,7E0,1.3E2,1E2,1E0,3E0,1.1E1,5.22E2,3.2E2,2.2E2,1.08E2,5E1,1.62E2,5E0,9.3E1,3.23E2,2E0,4E0,1.2E1,1.2E1,1.86E2,2.9E2,1.59E2,3E1,1.9E1,4.1E1,3.1E1,9.9E1,6.8E1,3.2E1,7E0,4E0,4.26E2,9.6E1,1.59E2,1.61E2,1.3E2,9E1,7.3E1,3.5E1,3.1E1,1.9E1,1.18E2,4.4E1,7.4E1,1.9E1,2.42E2,8.1E1,9E0,3E0,7E0,5E0,1.45E2,4.1E1,2.17E2,7.3E1,3.7E1,1.22E2,1.6E1,3E0,4E1,1E0],"tree_param":{"num_deleted":"0","num_feature":"13","num_nodes":"89","size_leaf_vector":"1"}},{"base_weights":[-2.4280272E0,-1.6219214E2,3.2008594E2,-3.5291974E2,-7.796572E1,2.5372025E2,6.9090497E2,-4.2821453E1,-2.4802325E2,-1.309566E2,1.7681965E1,1.15794075E2,3.4337488E2,6.300468E2,1.5529446E2,-2.5095712E2,2.8379759E1,-1.9116095E2,-4.988116E1,-5.3833706E1,1.4003616E2,9.323982E1,1.0399966E2,2.733289E2,4.236113E2,7.213983E2,3.7958023E2,-9.862754E1,-2.568635E2,-2.083816E2,-1.0890579E2,-9.7436295E1,-1.4851749E1,-7.245148E1,4.7999023E1,1.8880945E2,-1.7585426E2,6.1528084E1,1.539106E2,3.9046143E2,2.4076428E2,4.7608853E2,2.9131805E2,6.5594995E2,9.0072105E1,3.8986856E2,-2.6265168E0,-1.5105697E1,2.3904804E1,-2.8312597E1,-2.2657396E1,-2.3668196E1,-1.840022E1,-1.421373E1,-6.6607866E0,1.4676221E1,-1.1156009E1,-3.8775449E0,5.559405E0,-3.751808E0,-1.041072E1,1.2316234E1,2.0491893E0,1.3837058E1,2.5070105E1,-7.312487E0,-4.1069595E1,1.09396305E1,1.1523073E0,2.220529E1,1.0023305E1,2.439046E1,4.1677338E1,2.5128662E1,-8.921786E0,5.208514E1,4.228636E1,1.9939907E1,3.481663E1,7.205766E1,5.430383E1,3.9970417E1,1.9650434E1],"categories":[],"categories_nodes":[],"categories_segments":[],"categories_sizes":[],"default_left":[0,0,0,0,0,0,0,0,0,0,0,0,0,0,0,0,0,0,0,0,0,0,0,0,0,0,0,0,0,0,0,0,0,0,0,0,0,0,0,0,0,0,0,0,0,0,0,0,0,0,0,0,0,0,0,0,0,0,0,0,0,0,0,0,0,0,0,0,0,0,0,0,0,0,0,0,0,0,0,0,0,0,0],"id":3,"left_children":[1,3,5,7,9,11,13,-1,15,17,19,21,23,25,-1,27,-1,29,31,33,35,-1,37,39,41,43,45,47,49,51,53,55,57,59,61,63,65,67,69,71,73,75,77,79,-1,81,-1,-1,-1,-1,-1,-1,-1,-1,-1,-1,-1,-1,-1,-1,-1,-1,-1,-1,-1,-1,-1,-1,-1,-1,-1,-1,-1,-1,-1,-1,-1,-1,-1,-1,-1,-1,-1],"loss_changes":[1.6658446E8,3.4703508E7,2.6181648E7,5.122376E6,7.610066E6,1.1213044E7,7.52044E6,0E0,5.06544E5,4.705601E6,4.6976685E6,3.370326E6,2.980972E6,3.226888E6,0E0,2.24788E5,0E0,7.62042E5,6.865398E5,6.461874E5,3.083792E6,0E0,7.451775E5,1.03886E6,1.631616E6,7.11908E5,1.897855E5,2.4855947E5,1.48242E5,2.71752E5,1.2828375E5,6.199494E5,4.0494812E5,3.1347062E5,1.0705509E5,5.0225E5,6.213468E5,4.631077E5,5.7394975E5,1.41286E5,8.38384E5,2.1098E5,3.22483E5,2.28952E5,0E0,1.3345E3,0E0,0E0,0E0,0E0,0E0,0E0,0E0,0E0,0E0,0E0,0E0,0E0,0E0,0E0,0E0,0E0,0E0,0E0,0E0,0E0,0E0,0E0,0E0,0E0,0E0,0E0,0E0,0E0,0E0,0E0,0E0,0E0,0E0,0E0,0E0,0E0,0E0],"parents":[2147483647,0,0,1,1,2,2,3,3,4,4,5,5,6,6,8,8,9,9,10,10,11,11,12,12,13,13,15,15,17,17,18,18,19,19,20,20,22,22,23,23,24,24,25,25,26,26,27,27,28,28,29,29,30,30,31,31,32,32,33,33,34,34,35,35,36,36,37,37,38,38,39,39,40,40,41,41,42,42,43,43,45,45],"right_children":[2,4,6,8,10,12,14,-1,16,18,20,22,24,26,-1,28,-1,30,32,34,36,-1,38,40,42,44,46,48,50,52,54,56,58,60,62,64,66,68,70,72,74,76,78,80,-1,82,-1,-1,-1,-1,-1,-1,-1,-1,-1,-1,-1,-1,-1,-1,-1,-1,-1,-1,-1,-1,-1,-1,-1,-1,-1,-1,-1,-1,-1,-1,-1,-1,-1,-1,-1,-1,-1],"split_conditions":[3.090203E-1,-7.651552E-1,1.7027605E0,-1.3690429E0,1.015306E-3,7.078949E-1,5.68902E0,-4.2821453E1,1.3666018E0,-2.3115359E-1,7.5269826E-2,-1.2254117E0,1.0339643E0,1.2248672E0,1.5529446E2,-1.2109292E0,2.8379759E1,7.0706236E-1,7.0706236E-1,-1.310034E-1,2.3130074E-1,9.323982E1,7.002631E-1,-7.076068E-1,1.00005E0,2.5149128E0,1.8860866E0,1.000694E0,1.015306E-3,-5.441478E-1,-3.760915E-2,-1.0005944E0,2.0767547E-1,9.992568E-1,8.949604E-1,7.605762E-1,2.7283225E0,1.2212632E-1,1.015306E-3,4.6239653E-1,1.6970001E0,3.658711E-1,1.2734885E0,7.0706236E-1,9.0072105E1,2.9332283E0,-2.6265168E0,-1.5105697E1,2.3904804E1,-2.8312597E1,-2.2657396E1,-2.3668196E1,-1.840022E1,-1.421373E1,-6.6607866E0,1.4676221E1,-1.1156009E1,-3.8775449E0,5.559405E0,-3.751808E0,-1.041072E1,1.2316234E1,2.0491893E0,1.3837058E1,2.5070105E1,-7.312487E0,-4.1069595E1,1.09396305E1,1.1523073E0,2.220529E1,1.0023305E1,2.439046E1,4.1677338E1,2.5128662E1,-8.921786E0,5.208514E1,4.228636E1,1.9939907E1,3.481663E1,7.205766E1,5.430383E1,3.9970417E1,1.9650434E1],"split_indices":[9,9,9,9,6,6,10,0,6,9,10,5,9,5,0,7,0,5,5,9,7,0,9,5,5,9,8,6,6,9,8,5,9,4,8,10,10,10,6,10,10,5,9,5,0,7,0,0,0,0,0,0,0,0,0,0,0,0,0,0,0,0,0,0,0,0,0,0,0,0,0,0,0,0,0,0,0,0,0,0,0,0,0],"split_type":[0,0,0,0,0,0,0,0,0,0,0,0,0,0,0,0,0,0,0,0,0,0,0,0,0,0,0,0,0,0,0,0,0,0,0,0,0,0,0,0,0,0,0,0,0,0,0,0,0,0,0,0,0,0,0,0,0,0,0,0,0,0,0,0,0,0,0,0,0,0,0,0,0,0,0,0,0,0,0,0,0,0,0],"sum_hessian":[3.231E3,2.161E3,1.07E3,6.61E2,1.5E3,9.09E2,1.61E2,3.83E2,2.78E2,9.65E2,5.35E2,3.59E2,5.5E2,1.52E2,9E0,2.77E2,1E0,5.53E2,4.12E2,3.38E2,1.97E2,4E0,3.55E2,2.96E2,2.54E2,1.1E2,4.2E1,1.1E1,2.66E2,4.56E2,9.7E1,1.74E2,2.38E2,2.86E2,5.2E1,1.71E2,2.6E1,1.93E2,1.62E2,6.2E1,2.34E2,1.8E2,7.4E1,8.4E1,2.6E1,4.1E1,1E0,1E1,1E0,1.38E2,1.28E2,2.07E2,2.49E2,5.3E1,4.4E1,9E0,1.65E2,1.78E2,6E1,1.37E2,1.49E2,1.3E1,3.9E1,9.6E1,7.5E1,1.9E1,7E0,9.8E1,9.5E1,7E1,9.2E1,1.1E1,5.1E1,2.27E2,7E0,9.3E1,8.7E1,3E1,4.4E1,5E1,3.4E1,3.8E1,3E0],"tree_param":{"num_deleted":"0","num_feature":"13","num_nodes":"83","size_leaf_vector":"1"}},{"base_weights":[1.5432713E0,-1.6606615E2,2.5740833E2,-3.7115036E2,-1.0498865E2,1.5795815E2,5.0157507E2,-3.8333664E1,-2.5631952E2,-1.3948767E2,2.6002869E1,7.751084E1,2.9802286E2,1.9667648E2,4.720204E2,-2.689518E2,1.439389E1,-2.0473071E2,-8.755403E1,-6.1301643E1,1.49097E2,-5.028851E1,1.1527826E2,2.0799518E2,3.5714688E2,4.0549423E2,7.505671E2,-3.009676E1,-2.0039922E2,-2.0550482E1,2.2709564E1,-2.2543462E2,-1.6310446E2,-1.26625565E2,-4.4656075E1,-1.3212234E2,-1.7044502E1,1.2983977E2,4.7167667E1,-2.2468225E2,-1.7434025E1,4.60113E1,1.8073125E2,1.6503777E2,4.081359E2,2.9820416E2,4.0405045E2,4.58035E2,2.8209982E2,6.249924E2,9.745429E1,-2.2008827E1,-3.5154176E0,-3.0875748E1,-2.1578663E1,-1.9896423E1,-1.2201235E1,-1.7690628E1,-1.0648956E1,-1.2037543E1,-3.0468578E0,-1.5685884E1,-5.057272E0,-6.69259E0,2.820995E0,6.9938235E0,1.7590614E1,-4.0747536E1,-1.2439999E1,-3.7681053E0,8.471869E0,1.4884615E0,1.0935489E1,1.3859568E1,2.4131165E1,2.0780073E1,1.1351293E1,4.7229305E1,1.4764182E1,2.285761E1,3.2662697E1,-6.3990173E0,4.0902267E1,4.1855186E1,5.5156868E1,2.2492079E1,3.559306E1,7.057607E1,5.1002712E1],"categories":[],"categories_nodes":[],"categories_segments":[],"categories_sizes":[],"default_left":[0,0,0,0,0,0,0,0,0,0,0,0,0,0,0,0,0,0,0,0,0,0,0,0,0,0,0,0,0,0,0,0,0,0,0,0,0,0,0,0,0,0,0,0,0,0,0,0,0,0,0,0,0,0,0,0,0,0,0,0,0,0,0,0,0,0,0,0,0,0,0,0,0,0,0,0,0,0,0,0,0,0,0,0,0,0,0,0,0],"id":4,"left_children":[1,3,5,7,9,11,13,-1,15,17,19,21,23,-1,25,27,29,31,33,35,37,39,41,43,45,47,49,-1,51,-1,-1,53,55,57,59,61,63,65,-1,67,69,71,73,75,77,79,81,83,85,87,-1,-1,-1,-1,-1,-1,-1,-1,-1,-1,-1,-1,-1,-1,-1,-1,-1,-1,-1,-1,-1,-1,-1,-1,-1,-1,-1,-1,-1,-1,-1,-1,-1,-1,-1,-1,-1,-1,-1],"loss_changes":[1.3869122E8,2.4436896E7,3.100228E7,5.28656E5,6.81388E6,1.0241894E7,1.5093832E7,0E0,1.61179E5,4.024328E6,3.394342E6,2.8052558E6,1.692884E6,0E0,6.4408E6,3.625575E4,1.8698777E5,4.18274E5,1.1106205E6,5.7759756E5,7.525285E5,7.5812175E5,2.0227945E6,1.0847115E6,4.2967E5,1.789824E6,1.331592E6,0E0,4.7572812E4,0E0,0E0,2.14738E5,2.3949E5,3.33495E5,3.3902394E5,1.3529212E5,2.6148386E5,3.326285E5,0E0,3.3425912E5,2.3690894E5,4.3016934E5,5.5365E5,2.231875E5,3.1465875E5,1.074105E5,2.77512E5,5.299E5,3.04107E5,7.6466E4,0E0,0E0,0E0,0E0,0E0,0E0,0E0,0E0,0E0,0E0,0E0,0E0,0E0,0E0,0E0,0E0,0E0,0E0,0E0,0E0,0E0,0E0,0E0,0E0,0E0,0E0,0E0,0E0,0E0,0E0,0E0,0E0,0E0,0E0,0E0,0E0,0E0,0E0,0E0],"parents":[2147483647,0,0,1,1,2,2,3,3,4,4,5,5,6,6,8,8,9,9,10,10,11,11,12,12,14,14,15,15,16,16,17,17,18,18,19,19,20,20,21,21,22,22,23,23,24,24,25,25,26,26,28,28,31,31,32,32,33,33,34,34,35,35,36,36,37,37,39,39,40,40,41,41,42,42,43,43,44,44,45,45,46,46,47,47,48,48,49,49],"right_children":[2,4,6,8,10,12,14,-1,16,18,20,22,24,-1,26,28,30,32,34,36,38,40,42,44,46,48,50,-1,52,-1,-1,54,56,58,60,62,64,66,-1,68,70,72,74,76,78,80,82,84,86,88,-1,-1,-1,-1,-1,-1,-1,-1,-1,-1,-1,-1,-1,-1,-1,-1,-1,-1,-1,-1,-1,-1,-1,-1,-1,-1,-1,-1,-1,-1,-1,-1,-1,-1,-1,-1,-1,-1,-1],"split_conditions":[1.0414049E-1,-9.7103053E-1,1.2531798E0,-2.4118897E-2,6.530084E-1,2.5966942E-1,-1.0005944E0,-3.8333664E1,1.5174767E0,-4.4758153E-1,9.6682094E-2,-3.179736E-1,4.8005214E-1,1.9667648E2,6.510537E0,-5.5377555E-1,1.0545762E0,1.17780775E-1,4.5460607E-3,-7.135868E-1,2.063552E0,-7.2417414E-1,5.764193E-1,9.851425E-1,3.7464905E-1,1.2248672E0,1.6970001E0,-3.009676E1,-3.8854548E-1,-2.0550482E1,2.2709564E1,-6.713905E-1,-6.590318E-1,-3.7373063E-1,-1.2233361E0,1.3847383E0,-2.6065683E-1,-2.8869516E-1,4.7167667E1,-1.2283363E0,1.0339643E0,9.3087874E-2,1.000694E0,3.658711E-1,1.1096683E0,3.5524237E-1,-1.2109292E0,1.7027605E0,2.0340881E0,3.600388E-1,9.745429E1,-2.2008827E1,-3.5154176E0,-3.0875748E1,-2.1578663E1,-1.9896423E1,-1.2201235E1,-1.7690628E1,-1.0648956E1,-1.2037543E1,-3.0468578E0,-1.5685884E1,-5.057272E0,-6.69259E0,2.820995E0,6.9938235E0,1.7590614E1,-4.0747536E1,-1.2439999E1,-3.7681053E0,8.471869E0,1.4884615E0,1.0935489E1,1.3859568E1,2.4131165E1,2.0780073E1,1.1351293E1,4.7229305E1,1.4764182E1,2.285761E1,3.2662697E1,-6.3990173E0,4.0902267E1,4.1855186E1,5.5156868E1,2.2492079E1,3.559306E1,7.057607E1,5.1002712E1],"split_indices":[11,11,11,1,1,1,5,0,3,11,12,1,11,0,0,8,1,1,1,11,12,1,11,1,12,5,12,0,12,0,0,1,11,1,6,1,12,11,0,3,11,1,6,5,8,7,7,11,7,1,0,0,0,0,0,0,0,0,0,0,0,0,0,0,0,0,0,0,0,0,0,0,0,0,0,0,0,0,0,0,0,0,0,0,0,0,0,0,0],"split_type":[0,0,0,0,0,0,0,0,0,0,0,0,0,0,0,0,0,0,0,0,0,0,0,0,0,0,0,0,0,0,0,0,0,0,0,0,0,0,0,0,0,0,0,0,0,0,0,0,0,0,0,0,0,0,0,0,0,0,0,0,0,0,0,0,0,0,0,0,0,0,0,0,0,0,0,0,0,0,0,0,0,0,0,0,0,0,0,0,0],"sum_hessian":[3.232E3,1.953E3,1.279E3,4.47E2,1.506E3,9.1E2,3.69E2,4.02E2,4.5E1,1.192E3,3.14E2,5.79E2,3.31E2,6E0,3.63E2,4.3E1,2E0,5.27E2,6.65E2,1.84E2,1.3E2,1.32E2,4.47E2,1.33E2,1.98E2,2.95E2,6.8E1,2.7E1,1.6E1,1E0,1E0,3.49E2,1.78E2,3.47E2,3.18E2,7E1,1.14E2,1.24E2,6E0,2E1,1.12E2,2.18E2,2.29E2,1.11E2,2.2E1,9.1E1,1.07E2,2.05E2,9E1,4.6E1,2.2E1,1.4E1,2E0,3.3E1,3.16E2,9.3E1,8.5E1,9.7E1,2.5E2,4.9E1,2.69E2,5.3E1,1.7E1,5.4E1,6E1,5.5E1,6.9E1,6E0,1.4E1,9.4E1,1.8E1,1.47E2,7.1E1,1.37E2,9.2E1,5.9E1,5.2E1,1.7E1,5E0,2.9E1,6.2E1,1E0,1.06E2,1.48E2,5.7E1,5.3E1,3.7E1,2.4E1,2.2E1],"tree_param":{"num_deleted":"0","num_feature":"13","num_nodes":"89","size_leaf_vector":"1"}},{"base_weights":[-1.906439E0,-1.4168428E2,2.4291388E2,-3.0987442E2,-8.2521576E1,2.079122E2,7.5536633E2,-3.4810326E1,-2.1075464E2,-1.27322815E2,-6.498126E0,7.66381E1,2.9335147E2,6.236277E2,1.24074585E2,-2.229345E2,1.9192015E2,-1.7997334E2,-7.8110054E1,-5.4591763E1,1.036266E2,6.232059E1,2.3930429E2,2.1658102E2,3.7203043E2,4.874187E1,6.6931006E2,-1.6665222E2,-2.3467825E2,-2.012358E1,3.405181E1,-1.8994199E2,-1.2740448E2,-1.13289085E2,-4.1176327E1,-8.368415E1,-1.1157466E1,1.4712491E2,-2.56682E2,5.1330036E1,5.765499E1,2.7016794E2,4.51019E1,2.6105502E2,1.6279587E2,4.7614325E2,3.2644815E2,6.838091E2,2.4805365E1,-1.8400564E1,-1.2191972E0,-2.5746183E1,-1.9513914E1,-1.5170346E1,-1.9938152E1,-1.3888842E1,-8.503836E0,-1.4245183E1,-6.9577303E0,-5.0179944E0,-7.6126546E-1,-3.5020282E0,-1.1956673E1,5.816835E0,-4.4127975E0,1.3454015E1,4.372233E1,-3.7819405E1,-4.2328744E0,8.289432E0,1.1715137E0,1.51558275E1,2.8782755E1,-8.975444E-1,7.438443E0,2.4276903E1,4.1722122E1,1.7558805E1,-1.3640628E1,5.2913815E1,3.9288494E1,2.6034266E1,3.8291286E1,3.921773E1,7.134197E1],"categories":[],"categories_nodes":[],"categories_segments":[],"categories_sizes":[],"default_left":[0,0,0,0,0,0,0,0,0,0,0,0,0,0,0,0,0,0,0,0,0,0,0,0,0,0,0,0,0,0,0,0,0,0,0,0,0,0,0,0,0,0,0,0,0,0,0,0,0,0,0,0,0,0,0,0,0,0,0,0,0,0,0,0,0,0,0,0,0,0,0,0,0,0,0,0,0,0,0,0,0,0,0,0,0],"id":5,"left_children":[1,3,5,7,9,11,13,-1,15,17,19,21,23,25,-1,27,29,31,33,35,37,39,41,43,45,-1,47,49,51,-1,-1,53,55,57,59,61,63,65,67,-1,69,71,73,75,77,79,81,83,-1,-1,-1,-1,-1,-1,-1,-1,-1,-1,-1,-1,-1,-1,-1,-1,-1,-1,-1,-1,-1,-1,-1,-1,-1,-1,-1,-1,-1,-1,-1,-1,-1,-1,-1,-1,-1],"loss_changes":[1.1101137E8,2.0522388E7,2.0990304E7,1.961456E6,5.206862E6,1.2371164E7,4.021984E6,0E0,7.882735E5,2.47856E6,3.0139548E6,1.002848E6,3.960332E6,5.3328E4,0E0,5.87125E4,3.6063528E5,2.18955E5,6.4368225E5,4.9945475E5,2.749161E6,8.1835425E5,1.9759788E5,7.73186E5,1.405892E6,0E0,9.3014E4,7.548856E4,5.78605E4,0E0,0E0,1.09802E5,2.5651875E4,3.15151E5,7.365566E4,4.0965862E5,3.6828E5,5.07053E5,4.7887488E5,0E0,4.6282538E5,1.921525E4,1.0168763E4,4.27009E5,6.248605E5,2.24514E5,7.66282E5,7.4264E4,0E0,0E0,0E0,0E0,0E0,0E0,0E0,0E0,0E0,0E0,0E0,0E0,0E0,0E0,0E0,0E0,0E0,0E0,0E0,0E0,0E0,0E0,0E0,0E0,0E0,0E0,0E0,0E0,0E0,0E0,0E0,0E0,0E0,0E0,0E0,0E0,0E0],"parents":[2147483647,0,0,1,1,2,2,3,3,4,4,5,5,6,6,8,8,9,9,10,10,11,11,12,12,13,13,15,15,16,16,17,17,18,18,19,19,20,20,21,21,22,22,23,23,24,24,26,26,27,27,28,28,31,31,32,32,33,33,34,34,35,35,36,36,37,37,38,38,40,40,41,41,42,42,43,43,44,44,45,45,46,46,47,47],"right_children":[2,4,6,8,10,12,14,-1,16,18,20,22,24,26,-1,28,30,32,34,36,38,40,42,44,46,-1,48,50,52,-1,-1,54,56,58,60,62,64,66,68,-1,70,72,74,76,78,80,82,84,-1,-1,-1,-1,-1,-1,-1,-1,-1,-1,-1,-1,-1,-1,-1,-1,-1,-1,-1,-1,-1,-1,-1,-1,-1,-1,-1,-1,-1,-1,-1,-1,-1,-1,-1,-1,-1],"split_conditions":[2.0767547E-1,-8.587349E-1,6.510537E0,-9.178841E-1,1.015306E-3,7.078949E-1,3.3624537E0,-3.4810326E1,1.2253667E0,-3.874516E-1,9.6682094E-2,1.3563164E0,1.0451143E0,2.0492046E0,1.24074585E2,-5.007436E-1,3.6069956E0,-2.722255E-4,7.0706236E-1,-3.7809363E-1,3.658711E-1,-1.2254117E0,9.992568E-1,-2.722255E-4,3.658711E-1,4.874187E1,1.2248672E0,3.6692312E-1,3.6692312E-1,-2.012358E1,3.405181E1,-1.2254117E0,-8.315324E-2,-1.3777299E-1,-1.27345845E-2,9.992568E-1,7.0706236E-1,2.063552E0,1.2248672E0,5.1330036E1,5.001668E-1,-3.0219865E-1,3.1806853E-1,1.596049E0,1.5508784E0,1.2072628E0,1.4763772E0,1.4890476E-1,2.4805365E1,-1.8400564E1,-1.2191972E0,-2.5746183E1,-1.9513914E1,-1.5170346E1,-1.9938152E1,-1.3888842E1,-8.503836E0,-1.4245183E1,-6.9577303E0,-5.0179944E0,-7.6126546E-1,-3.5020282E0,-1.1956673E1,5.816835E0,-4.4127975E0,1.3454015E1,4.372233E1,-3.7819405E1,-4.2328744E0,8.289432E0,1.1715137E0,1.51558275E1,2.8782755E1,-8.975444E-1,7.438443E0,2.4276903E1,4.1722122E1,1.7558805E1,-1.3640628E1,5.2913815E1,3.9288494E1,2.6034266E1,3.8291286E1,3.921773E1,7.134197E1],"split_indices":[9,9,0,10,6,6,10,0,6,9,10,9,9,9,0,4,2,5,5,9,5,5,4,5,5,0,5,6,6,0,0,5,8,9,9,4,5,10,5,0,10,8,8,10,10,8,9,8,0,0,0,0,0,0,0,0,0,0,0,0,0,0,0,0,0,0,0,0,0,0,0,0,0,0,0,0,0,0,0,0,0,0,0,0,0],"split_type":[0,0,0,0,0,0,0,0,0,0,0,0,0,0,0,0,0,0,0,0,0,0,0,0,0,0,0,0,0,0,0,0,0,0,0,0,0,0,0,0,0,0,0,0,0,0,0,0,0,0,0,0,0,0,0,0,0,0,0,0,0,0,0,0,0,0,0,0,0,0,0,0,0,0,0,0,0,0,0,0,0,0,0,0,0],"sum_hessian":[3.242E3,2.064E3,1.178E3,5.36E2,1.528E3,1.104E3,7.4E1,3.85E2,1.51E2,9.61E2,5.67E2,4.36E2,6.68E2,6E1,1.4E1,1.47E2,4E0,4.63E2,4.98E2,3.95E2,1.72E2,4.02E2,3.4E1,3.4E2,3.28E2,1.8E1,4.2E1,2.8E1,1.19E2,1E0,3E0,3.87E2,7.6E1,2.54E2,2.44E2,2.36E2,1.59E2,1.54E2,1.8E1,3E0,3.99E2,2.9E1,5E0,1.84E2,1.56E2,9.7E1,2.31E2,4E1,2E0,2.5E1,3E0,7.2E1,4.7E1,8E1,3.07E2,5.8E1,1.8E1,1.51E2,1.03E2,1.92E2,5.2E1,1.01E2,1.35E2,5.1E1,1.08E2,1.49E2,5E0,1.1E1,7E0,2.57E2,1.42E2,5E0,2.4E1,2E0,3E0,1.67E2,1.7E1,1.5E2,6E0,5.6E1,4.1E1,1.09E2,1.22E2,5E0,3.5E1],"tree_param":{"num_deleted":"0","num_feature":"13","num_nodes":"85","size_leaf_vector":"1"}},{"base_weights":[3.671235E0,-1.1962747E2,2.429395E2,-3.0299023E2,-7.0403885E1,1.8342027E2,5.4215295E2,-3.1366382E2,-2.1732208E2,-9.018196E1,1.1114199E2,9.8293076E1,2.8736356E2,4.7014258E2,1.3077253E3,-3.1415503E1,-5.9573946E0,-1.7493361E2,-2.516616E1,-1.3737428E2,-3.646329E1,-4.901139E1,1.4009088E2,4.617302E1,1.8064653E2,2.3143436E2,3.9875394E2,5.2766156E2,2.8639178E2,8.195672E1,1.6324179E2,-1.847986E2,-3.4414043E0,-1.6486107E2,-9.656588E1,-5.0926907E1,9.822042E1,-6.2626698E1,2.0698242E1,-1.20630196E2,1.5064078E2,-5.8870705E1,7.819831E1,2.8709985E2,1.26447205E2,1.924903E2,2.9700583E2,3.817763E2,8.635713E1,4.7502744E2,6.4605156E1,-9.042447E0,2.977879E2,-1.9251165E1,-6.4065676E0,-1.909805E1,-1.3502375E1,-1.6170523E1,-5.4719577E0,-2.0752332E0,-1.0079787E1,-1.4107666E0,1.2454851E1,5.150757E-2,-8.12281E0,6.1950216E0,-2.7453146E0,-1.0805298E0,-1.4043411E1,1.3719515E1,3.7690453E1,-4.2748256E0,-3.2629593E1,1.3160268E1,6.181006E0,1.1737261E1,2.9630537E1,1.017766E0,1.4982108E1,1.5055183E1,2.4325209E1,1.643226E1,3.1304937E1,3.3654263E1,4.2814808E1,4.094804E1,5.4174953E1,2.4337118E1,3.479877E1],"categories":[],"categories_nodes":[],"categories_segments":[],"categories_sizes":[],"default_left":[0,0,0,0,0,0,0,0,0,0,0,0,0,0,0,0,0,0,0,0,0,0,0,0,0,0,0,0,0,0,0,0,0,0,0,0,0,0,0,0,0,0,0,0,0,0,0,0,0,0,0,0,0,0,0,0,0,0,0,0,0,0,0,0,0,0,0,0,0,0,0,0,0,0,0,0,0,0,0,0,0,0,0,0,0,0,0,0,0],"id":6,"left_children":[1,3,5,7,9,11,13,15,17,19,21,23,25,27,29,-1,-1,31,-1,33,35,37,39,41,43,45,47,49,51,-1,-1,53,-1,55,57,59,61,63,65,67,69,71,73,75,77,79,81,83,-1,85,-1,-1,87,-1,-1,-1,-1,-1,-1,-1,-1,-1,-1,-1,-1,-1,-1,-1,-1,-1,-1,-1,-1,-1,-1,-1,-1,-1,-1,-1,-1,-1,-1,-1,-1,-1,-1,-1,-1],"loss_changes":[9.4905784E7,1.914038E7,1.9383556E7,3.42396E5,6.0243225E6,8.059194E6,9.36356E6,3.0836E4,3.312275E4,3.825541E6,7.718496E5,2.1549615E6,2.468232E6,1.613932E6,1.039644E6,0E0,0E0,3.10685E4,0E0,8.85921E5,1.3841952E6,2.5973336E4,4.0325275E5,1.04746075E6,1.088789E6,6.47629E5,7.43552E5,4.7826E5,2.072855E5,0E0,0E0,1.09470625E4,0E0,3.47513E5,8.79776E5,9.61003E5,2.0581656E5,2.5881406E4,1.1632428E4,1.1532352E4,3.589955E5,3.007946E5,2.0016438E5,6.6779E4,3.5448988E5,3.380595E5,1.63559E5,1.34888E5,0E0,1.76146E5,0E0,0E0,2.731E4,0E0,0E0,0E0,0E0,0E0,0E0,0E0,0E0,0E0,0E0,0E0,0E0,0E0,0E0,0E0,0E0,0E0,0E0,0E0,0E0,0E0,0E0,0E0,0E0,0E0,0E0,0E0,0E0,0E0,0E0,0E0,0E0,0E0,0E0,0E0,0E0],"parents":[2147483647,0,0,1,1,2,2,3,3,4,4,5,5,6,6,7,7,8,8,9,9,10,10,11,11,12,12,13,13,14,14,17,17,19,19,20,20,21,21,22,22,23,23,24,24,25,25,26,26,27,27,28,28,31,31,33,33,34,34,35,35,36,36,37,37,38,38,39,39,40,40,41,41,42,42,43,43,44,44,45,45,46,46,47,47,49,49,52,52],"right_children":[2,4,6,8,10,12,14,16,18,20,22,24,26,28,30,-1,-1,32,-1,34,36,38,40,42,44,46,48,50,52,-1,-1,54,-1,56,58,60,62,64,66,68,70,72,74,76,78,80,82,84,-1,86,-1,-1,88,-1,-1,-1,-1,-1,-1,-1,-1,-1,-1,-1,-1,-1,-1,-1,-1,-1,-1,-1,-1,-1,-1,-1,-1,-1,-1,-1,-1,-1,-1,-1,-1,-1,-1,-1,-1],"split_conditions":[3.090203E-1,-6.713905E-1,1.6673197E0,-1.1954845E0,5.717166E-1,1.854026E-1,5.68902E0,2.0767547E-1,-9.986634E-1,-3.7809363E-1,1.4099172E-1,9.644764E-1,1.0339643E0,1.2248672E0,-1.2701645E-1,-3.1415503E1,-5.9573946E0,-4.1804023E-2,-2.516616E1,1.015306E-3,7.9489434E-1,-3.5332546E-2,-1.2233361E0,-3.3750492E-1,1.00005E0,5.984548E-1,1.6970001E0,2.3833039E0,-9.274317E-1,8.195672E1,1.6324179E2,2.4256817E-1,-3.4414043E0,-6.3494E-1,-7.651552E-1,-7.2204515E-2,-3.1390226E-1,-4.3497518E-1,7.152241E-2,1.1891701E0,2.063552E0,3.6069956E0,3.958051E-1,-2.4468447E-1,-4.3497518E-1,7.106166E-1,3.6397347E-1,3.8179126E-1,8.635713E1,2.6366153E-1,6.4605156E1,-9.042447E0,-1.8916444E-1,-1.9251165E1,-6.4065676E0,-1.909805E1,-1.3502375E1,-1.6170523E1,-5.4719577E0,-2.0752332E0,-1.0079787E1,-1.4107666E0,1.2454851E1,5.150757E-2,-8.12281E0,6.1950216E0,-2.7453146E0,-1.0805298E0,-1.4043411E1,1.3719515E1,3.7690453E1,-4.2748256E0,-3.2629593E1,1.3160268E1,6.181006E0,1.1737261E1,2.9630537E1,1.017766E0,1.4982108E1,1.5055183E1,2.4325209E1,1.643226E1,3.1304937E1,3.3654263E1,4.2814808E1,4.094804E1,5.4174953E1,2.4337118E1,3.479877E1],"split_indices":[11,1,11,1,10,1,10,11,6,11,1,11,11,5,1,0,0,11,0,6,3,1,6,1,5,1,10,11,1,0,0,7,0,11,11,3,10,1,1,1,10,2,7,1,1,11,11,1,0,1,0,0,1,0,0,0,0,0,0,0,0,0,0,0,0,0,0,0,0,0,0,0,0,0,0,0,0,0,0,0,0,0,0,0,0,0,0,0,0],"split_type":[0,0,0,0,0,0,0,0,0,0,0,0,0,0,0,0,0,0,0,0,0,0,0,0,0,0,0,0,0,0,0,0,0,0,0,0,0,0,0,0,0,0,0,0,0,0,0,0,0,0,0,0,0,0,0,0,0,0,0,0,0,0,0,0,0,0,0,0,0,0,0,0,0,0,0,0,0,0,0,0,0,0,0,0,0,0,0,0,0],"sum_hessian":[3.215E3,2.122E3,1.093E3,4.48E2,1.674E3,9.13E2,1.8E2,3.96E2,5.2E1,1.51E3,1.64E2,5.03E2,4.1E2,1.66E2,1.4E1,3.95E2,1E0,2.6E1,2.6E1,8.03E2,7.07E2,2.5E1,1.39E2,3.09E2,1.94E2,2.75E2,1.35E2,1.25E2,4.1E1,7E0,7E0,2.4E1,2E0,4.78E2,3.25E2,6.39E2,6.8E1,2.1E1,4E0,5E0,1.34E2,7.2E1,2.37E2,6.4E1,1.3E2,1.75E2,1E2,1.32E2,3E0,9E1,3.5E1,1E0,4E1,2.2E1,2E0,2.52E2,2.26E2,1.26E2,1.99E2,3.99E2,2.4E2,1.3E1,5.5E1,5E0,1.6E1,2E0,2E0,1E0,4E0,1.28E2,6E0,6.9E1,3E0,5.4E1,1.83E2,4E0,6E1,2.2E1,1.08E2,9.8E1,7.7E1,1.2E1,8.8E1,7.1E1,6.1E1,4.9E1,4.1E1,2.2E1,1.8E1],"tree_param":{"num_deleted":"0","num_feature":"13","num_nodes":"89","size_leaf_vector":"1"}},{"base_weights":[-1.2860802E0,-1.6002759E2,9.3756744E1,-2.8071445E1,-1.0030076E2,-8.306089E0,2.139487E2,-1.1344897E2,1.080926E2,-6.1564873E1,4.429593E1,1.8534712E2,5.9391846E2,-5.3174744E1,-1.3659402E2,6.602739E1,3.1542337E1,4.2025955E1,-1.04769394E2,3.945408E1,7.013974E2,1.0783257E2,2.3846695E2,1.3053316E2,5.3844147E2,-9.931121E1,-3.590202E1,-1.4210945E2,-5.781553E1,8.102095E1,-9.666669E1,8.022492E0,1.389877E2,-1.274083E2,1.1477086E1,2.145521E1,1.3808957E2,1.9034683E1,8.0829865E1,-1.0282031E1,1.7748172E2,2.5443115E2,-1.3156725E2,2.3415936E2,5.79184E2,-3.3849423E0,-1.0763246E1,-4.4093413E0,5.474485E-1,-1.2615434E1,-1.7111895E1,-7.05565E0,2.0680021E1,3.617307E0,1.3133387E1,-1.9530209E1,9.961975E0,2.3370092E0,-4.1472306E0,9.430296E0,1.8811646E1,-1.0506033E1,-1.6657484E1,4.7718153E0,-3.9953935E0,-8.738146E-3,7.7466617E0,1.104832E1,2.1212221E1,-1.1367841E1,3.2273133E0,1.8526339E1,-5.578073E0,2.7515615E1,1.5545122E1,-3.2187256E1,3.2221165E1,3.221619E1,4.3615723E0,4.838461E1,6.7819626E1],"categories":[],"categories_nodes":[],"categories_segments":[],"categories_sizes":[],"default_left":[0,0,0,0,0,0,0,0,0,0,0,0,0,0,0,0,0,0,0,0,0,0,0,0,0,0,0,0,0,0,0,0,0,0,0,0,0,0,0,0,0,0,0,0,0,0,0,0,0,0,0,0,0,0,0,0,0,0,0,0,0,0,0,0,0,0,0,0,0,0,0,0,0,0,0,0,0,0,0,0,0],"id":7,"left_children":[1,3,5,-1,7,9,11,13,15,17,19,21,23,25,27,29,-1,31,33,35,37,39,41,-1,43,45,47,49,51,53,55,57,59,61,63,65,67,-1,-1,69,71,73,75,77,79,-1,-1,-1,-1,-1,-1,-1,-1,-1,-1,-1,-1,-1,-1,-1,-1,-1,-1,-1,-1,-1,-1,-1,-1,-1,-1,-1,-1,-1,-1,-1,-1,-1,-1,-1,-1],"loss_changes":[4.910889E7,8.75869E6,2.4977658E7,0E0,2.2508415E6,3.0900015E6,1.0051252E7,1.065531E6,4.0652262E5,2.4570275E6,1.7381082E6,3.56068E6,1.862512E6,1.6776856E5,2.32929E5,1.1028531E5,0E0,5.330046E5,1.019928E6,9.7701794E5,6.4670625E4,2.9304882E6,3.081642E6,0E0,6.33008E5,2.7950625E4,5.37925E4,2.18169E5,1.4270662E5,8.324992E4,9.689911E4,9.2883984E4,7.446294E4,2.660945E5,1.21197086E5,5.6470994E5,1.5028462E5,0E0,0E0,5.888754E5,4.16931E5,9.72652E5,2.0035548E6,1.3686356E5,1.81596E5,0E0,0E0,0E0,0E0,0E0,0E0,0E0,0E0,0E0,0E0,0E0,0E0,0E0,0E0,0E0,0E0,0E0,0E0,0E0,0E0,0E0,0E0,0E0,0E0,0E0,0E0,0E0,0E0,0E0,0E0,0E0,0E0,0E0,0E0,0E0,0E0],"parents":[2147483647,0,0,1,1,2,2,4,4,5,5,6,6,7,7,8,8,9,9,10,10,11,11,12,12,13,13,14,14,15,15,17,17,18,18,19,19,20,20,21,21,22,22,24,24,25,25,26,26,27,27,28,28,29,29,30,30,31,31,32,32,33,33,34,34,35,35,36,36,39,39,40,40,41,41,42,42,43,43,44,44],"right_children":[2,4,6,-1,8,10,12,14,16,18,20,22,24,26,28,30,-1,32,34,36,38,40,42,-1,44,46,48,50,52,54,56,58,60,62,64,66,68,-1,-1,70,72,74,76,78,80,-1,-1,-1,-1,-1,-1,-1,-1,-1,-1,-1,-1,-1,-1,-1,-1,-1,-1,-1,-1,-1,-1,-1,-1,-1,-1,-1,-1,-1,-1,-1,-1,-1,-1,-1,-1],"split_conditions":[-3.6456236E-1,-1.0756159E0,7.078949E-1,-2.8071445E1,1.8848455E-1,-7.058643E-1,6.510537E0,7.231196E-2,9.636831E-1,-7.2204515E-2,6.510537E0,2.5158212E-1,-1.0005944E0,-2.8267974E-1,1.5174767E0,1.0359302E0,3.1542337E1,4.228469E-1,4.7017008E-1,1.4594496E0,-2.2615655E-1,6.118312E-2,1.9379176E0,1.3053316E2,2.508368E-1,-1.3728528E0,1.49662625E-2,9.992568E-1,3.6069956E0,-7.058643E-1,9.005856E-1,9.992568E-1,7.6988345E-1,3.613449E-1,2.1682844E-1,7.9489434E-1,2.1287344E0,1.9034683E1,8.0829865E1,-7.196696E-1,1.00005E0,1.2248672E0,1.4053661E0,6.953375E-1,1.6970001E0,-3.3849423E0,-1.0763246E1,-4.4093413E0,5.474485E-1,-1.2615434E1,-1.7111895E1,-7.05565E0,2.0680021E1,3.617307E0,1.3133387E1,-1.9530209E1,9.961975E0,2.3370092E0,-4.1472306E0,9.430296E0,1.8811646E1,-1.0506033E1,-1.6657484E1,4.7718153E0,-3.9953935E0,-8.738146E-3,7.7466617E0,1.104832E1,2.1212221E1,-1.1367841E1,3.2273133E0,1.8526339E1,-5.578073E0,2.7515615E1,1.5545122E1,-3.2187256E1,3.2221165E1,3.221619E1,4.3615723E0,4.838461E1,6.7819626E1],"split_indices":[10,10,6,0,7,6,0,3,7,3,0,7,5,8,3,8,0,7,7,7,7,10,10,0,8,3,7,4,2,6,7,4,7,3,3,3,7,0,0,7,5,5,7,10,10,0,0,0,0,0,0,0,0,0,0,0,0,0,0,0,0,0,0,0,0,0,0,0,0,0,0,0,0,0,0,0,0,0,0,0,0],"split_type":[0,0,0,0,0,0,0,0,0,0,0,0,0,0,0,0,0,0,0,0,0,0,0,0,0,0,0,0,0,0,0,0,0,0,0,0,0,0,0,0,0,0,0,0,0,0,0,0,0,0,0,0,0,0,0,0,0,0,0,0,0,0,0,0,0,0,0,0,0,0,0,0,0,0,0,0,0,0,0,0,0],"sum_hessian":[3.253E3,1.218E3,2.035E3,4.02E2,8.16E2,1.101E3,9.34E2,7.68E2,4.8E1,5.47E2,5.54E2,8.7E2,6.4E1,2.14E2,5.54E2,4.1E1,7E0,1.61E2,3.86E2,5.51E2,3E0,3.55E2,5.15E2,3E0,6.1E1,5.7E1,1.57E2,5.17E2,3.7E1,3.8E1,3E0,1.2E2,4.1E1,3.23E2,6.3E1,4.67E2,8.4E1,1E0,2E0,1.32E2,2.23E2,4.94E2,2.1E1,8E0,5.3E1,7E0,5E1,1.31E2,2.6E1,3.37E2,1.8E2,3.6E1,1E0,2.1E1,1.7E1,2E0,1E0,9.2E1,2.8E1,2.3E1,1.8E1,2.08E2,1.15E2,3.7E1,2.6E1,3.38E2,1.29E2,6.3E1,2.1E1,3.8E1,9.4E1,2.16E2,7E0,4.07E2,8.7E1,1.5E1,6E0,5E0,3E0,3E1,2.3E1],"tree_param":{"num_deleted":"0","num_feature":"13","num_nodes":"81","size_leaf_vector":"1"}},{"base_weights":[-1.7281023E-1,-1.1936848E2,1.6300566E2,-2.4557373E2,-7.9741455E1,9.079362E1,3.2079028E2,-2.5396269E1,-1.8342583E2,-1.25145996E2,-4.5451797E1,2.2308363E1,1.6403593E2,2.9877457E2,1.0646074E3,-1.9226837E1,-1.8195038E1,-1.5128333E2,-8.653481E1,-6.9993866E1,5.8320805E1,-9.760099E1,4.1907978E1,1.1903851E2,2.0475189E2,2.061551E2,3.5849377E2,6.567679E1,1.3629857E2,4.605115E0,-5.496082E0,-1.9095772E2,-1.4272235E2,-1.0158525E2,1.025856E2,-8.7927536E1,-3.1244984E1,4.3016552E1,2.3966248E2,-2.3694502E2,-6.4108475E1,-5.739974E0,7.964525E1,8.4508316E1,2.584061E2,1.7751224E2,2.843856E2,1.4489432E2,3.4660748E2,3.2739752E2,4.6259485E2,-8.190425E0,-2.0334808E1,-1.6664448E1,-1.3160743E1,-1.686449E1,-7.1752E0,2.4201727E0,1.8698973E1,-1.0407615E1,-5.568891E0,-5.289544E0,4.1556913E-1,4.236783E-1,7.6770234E0,1.6503633E1,3.476557E1,-2.7395964E1,-2.2243164E0,-1.0973197E1,-4.362779E0,-2.7094848E0,3.6721916E0,3.128272E0,1.0634173E1,8.92105E0,-4.2431927E0,1.648004E1,3.2564392E1,1.5169708E1,1.9852034E1,-7.888599E0,2.9200901E1,7.911533E0,1.8886969E1,-1.02013855E1,3.5784496E1,2.9437265E1,4.2248653E1,2.8389524E1,5.1001812E1],"categories":[],"categories_nodes":[],"categories_segments":[],"categories_sizes":[],"default_left":[0,0,0,0,0,0,0,0,0,0,0,0,0,0,0,0,0,0,0,0,0,0,0,0,0,0,0,0,0,0,0,0,0,0,0,0,0,0,0,0,0,0,0,0,0,0,0,0,0,0,0,0,0,0,0,0,0,0,0,0,0,0,0,0,0,0,0,0,0,0,0,0,0,0,0,0,0,0,0,0,0,0,0,0,0,0,0,0,0,0,0],"id":8,"left_children":[1,3,5,7,9,11,13,-1,15,17,19,21,23,25,27,-1,29,31,33,35,37,39,41,43,45,47,49,-1,-1,-1,-1,51,53,55,57,59,61,63,65,67,69,71,73,75,77,79,81,83,85,87,89,-1,-1,-1,-1,-1,-1,-1,-1,-1,-1,-1,-1,-1,-1,-1,-1,-1,-1,-1,-1,-1,-1,-1,-1,-1,-1,-1,-1,-1,-1,-1,-1,-1,-1,-1,-1,-1,-1,-1,-1],"loss_changes":[6.3310304E7,9.387558E6,1.562616E7,1.87508E5,2.225358E6,4.731462E6,6.739832E6,0E0,7.9782125E4,6.08572E5,2.0873596E6,1.1533268E6,8.11071E5,2.249184E6,5.65121E5,0E0,1.1979253E4,9.7059E4,7.2485375E5,4.5728275E5,4.254125E5,3.0683156E5,7.574588E5,1.032076E6,4.65787E5,1.386684E6,6.70786E5,0E0,0E0,0E0,0E0,6.712E4,5.91655E4,4.54041E5,1.2117705E5,2.2951925E5,1.6193883E5,1.907829E5,3.9333625E4,9.721856E4,4.8473453E4,1.7056067E5,3.0008412E5,1.09436125E5,2.16969E5,6.75035E4,1.86428E5,3.2639075E5,2.88573E5,5.00552E5,3.29781E5,0E0,0E0,0E0,0E0,0E0,0E0,0E0,0E0,0E0,0E0,0E0,0E0,0E0,0E0,0E0,0E0,0E0,0E0,0E0,0E0,0E0,0E0,0E0,0E0,0E0,0E0,0E0,0E0,0E0,0E0,0E0,0E0,0E0,0E0,0E0,0E0,0E0,0E0,0E0,0E0],"parents":[2147483647,0,0,1,1,2,2,3,3,4,4,5,5,6,6,8,8,9,9,10,10,11,11,12,12,13,13,14,14,16,16,17,17,18,18,19,19,20,20,21,21,22,22,23,23,24,24,25,25,26,26,31,31,32,32,33,33,34,34,35,35,36,36,37,37,38,38,39,39,40,40,41,41,42,42,43,43,44,44,45,45,46,46,47,47,48,48,49,49,50,50],"right_children":[2,4,6,8,10,12,14,-1,16,18,20,22,24,26,28,-1,30,32,34,36,38,40,42,44,46,48,50,-1,-1,-1,-1,52,54,56,58,60,62,64,66,68,70,72,74,76,78,80,82,84,86,88,90,-1,-1,-1,-1,-1,-1,-1,-1,-1,-1,-1,-1,-1,-1,-1,-1,-1,-1,-1,-1,-1,-1,-1,-1,-1,-1,-1,-1,-1,-1,-1,-1,-1,-1,-1,-1,-1,-1,-1,-1],"split_conditions":[-1.27345845E-2,-6.019915E-1,1.134911E0,-9.274317E-1,-5.441478E-1,1.3647951E-1,5.68902E0,-2.5396269E1,2.4256817E-1,9.394108E-1,9.394108E-1,-4.6272147E-1,4.7009686E-1,4.5792945E-2,3.9589503E-1,-1.9226837E1,-5.0575393E-1,-8.587349E-1,5.247428E-2,1.9670738E-1,1.4462147E0,-9.393034E-1,4.061839E-1,9.408418E-1,7.605762E-1,1.8475103E0,6.510537E0,6.567679E1,1.3629857E2,4.605115E0,-5.496082E0,2.1682844E-1,-2.112512E-1,-8.9935243E-1,2.098815E0,-2.0168594E-1,-2.2358757E-1,-3.504179E-1,2.098815E0,1.047062E0,-6.957981E-1,-8.351108E-3,-1.6357942E-1,4.5695585E-1,-7.434946E-4,3.53341E-1,-1.2109292E0,-2.0186658E-1,-9.274317E-1,-5.0575393E-1,2.508368E-1,-8.190425E0,-2.0334808E1,-1.6664448E1,-1.3160743E1,-1.686449E1,-7.1752E0,2.4201727E0,1.8698973E1,-1.0407615E1,-5.568891E0,-5.289544E0,4.1556913E-1,4.236783E-1,7.6770234E0,1.6503633E1,3.476557E1,-2.7395964E1,-2.2243164E0,-1.0973197E1,-4.362779E0,-2.7094848E0,3.6721916E0,3.128272E0,1.0634173E1,8.92105E0,-4.2431927E0,1.648004E1,3.2564392E1,1.5169708E1,1.9852034E1,-7.888599E0,2.9200901E1,7.911533E0,1.8886969E1,-1.02013855E1,3.5784496E1,2.9437265E1,4.2248653E1,2.8389524E1,5.1001812E1],"split_indices":[9,1,9,1,9,1,12,0,7,3,3,1,9,1,1,0,3,9,12,1,12,3,9,1,12,9,0,0,0,0,0,3,1,9,1,9,9,9,1,7,1,1,1,9,4,1,7,1,1,3,8,0,0,0,0,0,0,0,0,0,0,0,0,0,0,0,0,0,0,0,0,0,0,0,0,0,0,0,0,0,0,0,0,0,0,0,0,0,0,0,0],"split_type":[0,0,0,0,0,0,0,0,0,0,0,0,0,0,0,0,0,0,0,0,0,0,0,0,0,0,0,0,0,0,0,0,0,0,0,0,0,0,0,0,0,0,0,0,0,0,0,0,0,0,0,0,0,0,0,0,0,0,0,0,0,0,0,0,0,0,0,0,0,0,0,0,0,0,0,0,0,0,0,0,0,0,0,0,0,0,0,0,0,0,0],"sum_hessian":[3.253E3,1.88E3,1.373E3,4.48E2,1.432E3,9.43E2,4.3E2,3.92E2,5.6E1,6.15E2,8.17E2,4.88E2,4.55E2,4.19E2,1.1E1,5.3E1,3E0,3.65E2,2.5E2,6.61E2,1.56E2,6.8E1,4.2E2,2.18E2,2.37E2,1.66E2,2.53E2,6E0,5E0,1E0,2E0,6.1E1,3.04E2,2.32E2,1.8E1,4.51E2,2.1E2,1.45E2,1.1E1,1.2E1,5.6E1,1.86E2,2.34E2,1.76E2,4.2E1,1.79E2,5.8E1,1.17E2,4.9E1,1.98E2,5.5E1,7E0,5.4E1,9.2E1,2.12E2,7E1,1.62E2,1E1,8E0,2.99E2,1.52E2,1.3E2,8E1,6.8E1,7.7E1,8E0,3E0,1E1,2E0,1.6E1,4E1,1.24E2,6.2E1,8.4E1,1.5E2,1.7E2,6E0,1.9E1,2.3E1,8.4E1,9.5E1,1E0,5.7E1,4.8E1,6.9E1,1E0,4.8E1,1.5E2,4.8E1,1.3E1,4.2E1],"tree_param":{"num_deleted":"0","num_feature":"13","num_nodes":"91","size_leaf_vector":"1"}},{"base_weights":[-1.3075589E0,-1.09144875E2,1.4291994E2,-2.2017178E2,-7.1735E1,8.9078064E1,3.057594E2,-2.301637E1,-1.6064354E2,-1.14253494E2,-3.955238E1,3.7734566E1,1.7141666E2,2.533742E2,5.209858E2,-1.8755583E1,-1.3304488E2,-1.23751274E2,-6.0893693E0,-7.067745E1,3.0003319E1,-1.3425327E2,4.9118557E1,1.347293E2,2.5732965E2,1.4920306E2,2.956633E2,4.149574E2,8.851657E2,-9.999316E1,-1.4623204E1,-1.8967665E2,-1.155272E2,-3.678044E1,2.199934E2,-8.340452E1,-4.0938286E1,2.1033348E1,2.1809146E2,-2.9150572E1,-7.919592E1,8.225732E0,8.476269E1,1.0854136E2,2.7715225E2,2.669511E2,6.662475E1,8.429043E1,2.6492993E2,2.5782416E2,3.7517902E2,4.7951236E0,4.2109308E2,5.95461E1,1.0898046E2,-1.0479693E1,-1.8772049E0,-1.9656706E1,-9.605029E0,-1.3250678E1,-7.854178E0,-1.2556395E1,3.5717576E0,-6.2399906E-1,2.6648808E1,-9.410403E0,-5.729058E0,-2.6858819E0,-8.891972E0,-1.6144654E0,4.9884114E0,1.3908501E1,3.2158154E1,-1.8396915E1,-5.1971493E0,-2.9020526E0,4.81502E0,1.0915294E1,3.6323361E0,8.741196E0,1.5447298E1,3.1421799E1,1.234135E1,1.656272E1,2.8459158E1,-3.260701E0,1.4920032E1,2.556782E0,1.4206609E1,2.8188873E1,-1.0495826E1,2.216345E1,3.598745E1,3.9364975E1,1.4025554E1,2.7779493E1,4.4859753E1],"categories":[],"categories_nodes":[],"categories_segments":[],"categories_sizes":[],"default_left":[0,0,0,0,0,0,0,0,0,0,0,0,0,0,0,0,0,0,0,0,0,0,0,0,0,0,0,0,0,0,0,0,0,0,0,0,0,0,0,0,0,0,0,0,0,0,0,0,0,0,0,0,0,0,0,0,0,0,0,0,0,0,0,0,0,0,0,0,0,0,0,0,0,0,0,0,0,0,0,0,0,0,0,0,0,0,0,0,0,0,0,0,0,0,0,0,0],"id":9,"left_children":[1,3,5,7,9,11,13,-1,15,17,19,21,23,25,27,-1,29,31,33,35,37,39,41,43,45,47,49,51,53,55,-1,57,59,61,63,65,67,69,71,-1,73,75,77,79,81,83,85,87,89,91,93,-1,95,-1,-1,-1,-1,-1,-1,-1,-1,-1,-1,-1,-1,-1,-1,-1,-1,-1,-1,-1,-1,-1,-1,-1,-1,-1,-1,-1,-1,-1,-1,-1,-1,-1,-1,-1,-1,-1,-1,-1,-1,-1,-1,-1,-1],"loss_changes":[5.00966E7,7.639114E6,1.2054492E7,2.39014E5,1.883813E6,4.3775015E6,3.723936E6,0E0,2.7038625E4,6.094745E5,1.7059171E6,1.2596556E6,1.219795E6,1.176154E6,2.181178E6,0E0,1.9404375E3,2.74115E5,3.4808884E5,2.0248525E5,4.0707622E5,3.2323E5,8.7531375E5,1.017981E6,1.98728E5,5.936644E5,4.92996E5,9.9155E4,1.81052E5,3.4950938E3,0E0,1.918175E4,2.96055E5,2.8769644E5,6.477478E4,1.0078325E5,1.0907797E5,2.51797E5,4.521303E4,0E0,7.8862984E4,4.1925472E5,3.7528E5,2.1844825E5,2.0625425E5,1.53053E5,6.2223805E4,1.7957553E5,2.1149962E5,4.2251E5,2.0948E5,0E0,8.0331E4,0E0,0E0,0E0,0E0,0E0,0E0,0E0,0E0,0E0,0E0,0E0,0E0,0E0,0E0,0E0,0E0,0E0,0E0,0E0,0E0,0E0,0E0,0E0,0E0,0E0,0E0,0E0,0E0,0E0,0E0,0E0,0E0,0E0,0E0,0E0,0E0,0E0,0E0,0E0,0E0,0E0,0E0,0E0,0E0],"parents":[2147483647,0,0,1,1,2,2,3,3,4,4,5,5,6,6,8,8,9,9,10,10,11,11,12,12,13,13,14,14,16,16,17,17,18,18,19,19,20,20,21,21,22,22,23,23,24,24,25,25,26,26,27,27,28,28,29,29,31,31,32,32,33,33,34,34,35,35,36,36,37,37,38,38,40,40,41,41,42,42,43,43,44,44,45,45,46,46,47,47,48,48,49,49,50,50,52,52],"right_children":[2,4,6,8,10,12,14,-1,16,18,20,22,24,26,28,-1,30,32,34,36,38,40,42,44,46,48,50,52,54,56,-1,58,60,62,64,66,68,70,72,-1,74,76,78,80,82,84,86,88,90,92,94,-1,96,-1,-1,-1,-1,-1,-1,-1,-1,-1,-1,-1,-1,-1,-1,-1,-1,-1,-1,-1,-1,-1,-1,-1,-1,-1,-1,-1,-1,-1,-1,-1,-1,-1,-1,-1,-1,-1,-1,-1,-1,-1,-1,-1,-1],"split_conditions":[-1.27345845E-2,-6.019915E-1,1.2734885E0,-1.1954845E0,-5.441478E-1,2.5966942E-1,6.510537E0,-2.301637E1,-7.076068E-1,1.4272854E0,3.8179126E-1,-6.019915E-1,7.713438E-1,-1.0482904E-1,3.0489216E0,-1.8755583E1,-1.22885525E-1,-9.7103053E-1,1.5174767E0,7.082917E-2,1.4462147E0,-1.2283363E0,4.8005214E-1,1.0305057E0,1.2248672E0,1.8475103E0,1.7027605E0,-2.0186658E-1,2.6687062E-1,-6.244976E-1,-1.4623204E1,1.3569076E0,4.0823075E-1,-8.587349E-1,1.6406001E0,-7.058643E-1,1.3661932E0,9.394108E-1,2.098815E0,-2.9150572E1,-9.181283E-1,-3.8236663E-2,1.3661932E0,4.8005214E-1,1.3729602E0,-4.670249E-1,2.5659528E-1,3.1806853E-1,1.3937767E0,3.6441746E-1,1.5010302E0,4.7951236E0,1.0336066E-1,5.95461E1,1.0898046E2,-1.0479693E1,-1.8772049E0,-1.9656706E1,-9.605029E0,-1.3250678E1,-7.854178E0,-1.2556395E1,3.5717576E0,-6.2399906E-1,2.6648808E1,-9.410403E0,-5.729058E0,-2.6858819E0,-8.891972E0,-1.6144654E0,4.9884114E0,1.3908501E1,3.2158154E1,-1.8396915E1,-5.1971493E0,-2.9020526E0,4.81502E0,1.0915294E1,3.6323361E0,8.741196E0,1.5447298E1,3.1421799E1,1.234135E1,1.656272E1,2.8459158E1,-3.260701E0,1.4920032E1,2.556782E0,1.4206609E1,2.8188873E1,-1.0495826E1,2.216345E1,3.598745E1,3.9364975E1,1.4025554E1,2.7779493E1,4.4859753E1],"split_indices":[9,1,9,1,9,1,0,0,5,1,1,1,9,1,10,0,10,9,3,8,10,3,9,1,5,9,9,1,1,1,0,8,1,9,1,6,5,3,1,0,8,1,5,9,3,8,10,8,8,1,10,0,8,0,0,0,0,0,0,0,0,0,0,0,0,0,0,0,0,0,0,0,0,0,0,0,0,0,0,0,0,0,0,0,0,0,0,0,0,0,0,0,0,0,0,0,0],"split_type":[0,0,0,0,0,0,0,0,0,0,0,0,0,0,0,0,0,0,0,0,0,0,0,0,0,0,0,0,0,0,0,0,0,0,0,0,0,0,0,0,0,0,0,0,0,0,0,0,0,0,0,0,0,0,0,0,0,0,0,0,0,0,0,0,0,0,0,0,0,0,0,0,0,0,0,0,0,0,0,0,0,0,0,0,0,0,0,0,0,0,0,0,0,0,0,0,0],"sum_hessian":[3.219E3,1.842E3,1.377E3,4.63E2,1.379E3,1.036E3,3.41E2,3.94E2,6.9E1,5.93E2,7.86E2,6.39E2,3.97E2,2.76E2,6.5E1,3.2E1,3.7E1,5.45E2,4.8E1,5.43E2,2.43E2,3.9E1,6E2,2.8E2,1.17E2,8.1E1,1.95E2,5.2E1,1.3E1,1.3E1,2.4E1,5.8E1,4.87E2,4.3E1,5E0,3.79E2,1.64E2,2.33E2,1E1,9E0,3E1,2.8E2,3.2E2,2.38E2,4.2E1,1.11E2,6E0,5.3E1,2.8E1,1.35E2,6E1,1E0,5.1E1,7E0,6E0,1.2E1,1E0,5.3E1,5E0,3.32E2,1.55E2,1.9E1,2.4E1,1E0,4E0,2.67E2,1.12E2,1.28E2,3.6E1,1.02E2,1.31E2,7E0,3E0,5E0,2.5E1,1.45E2,1.35E2,2.12E2,1.08E2,1.65E2,7.3E1,3.3E1,9E0,1.8E1,9.3E1,3E0,3E0,2.7E1,2.6E1,2.7E1,1E0,1.02E2,3.3E1,5.5E1,5E0,1E1,4.1E1],"tree_param":{"num_deleted":"0","num_feature":"13","num_nodes":"97","size_leaf_vector":"1"}},{"base_weights":[1.2640657E0,-9.603608E1,1.2720153E2,-1.888454E2,-5.7453983E1,7.2451935E1,2.3353807E2,-2.0813728E1,-1.4051685E2,-9.404455E1,-2.3000452E1,-2.146809E0,1.09572845E2,2.1901173E2,7.733403E2,-1.6880913E2,-1.2443834E2,-1.0653153E2,-3.057535E1,-4.2672836E1,8.101385E1,-2.1957759E2,5.913411E0,7.642744E1,1.6321376E2,2.6203415E2,1.19208664E2,5.40603E1,9.910519E1,-1.7059889E1,-3.7871392E0,-1.2933162E2,-7.220018E1,-1.4967603E2,-9.791567E1,-2.173411E1,-1.4693046E1,-5.4628193E1,-2.861554E0,6.1613754E1,2.2623006E2,1.0726044E0,-2.4368055E1,-2.83871E1,4.3050934E1,3.8216106E1,1.09932915E2,1.468303E2,2.6576245E2,2.2554826E2,3.33239E2,5.712204E1,1.5484218E2,-9.662641E0,-1.3764406E1,2.632889E-1,-1.0059169E1,-1.7599857E1,-1.2919284E1,-1.161651E1,-7.3515267E0,-3.6773014E0,8.302978E0,-6.9187903E0,-2.2032838E0,7.644265E0,-1.2408084E0,4.7221603E0,1.4765549E1,1.07361E1,2.9579926E1,7.160619E0,-3.431603E0,3.2809083E0,2.1178108E1,4.578282E0,-6.250875E0,8.900412E0,1.4842615E1,1.2871058E1,2.201904E1,9.911396E0,2.9399817E1,1.7498991E1,2.89305E1,2.9555456E1,4.1609264E1,9.714014E0,-1.3764822E0,-1.1100757E1,1.5912465E1],"categories":[],"categories_nodes":[],"categories_segments":[],"categories_sizes":[],"default_left":[0,0,0,0,0,0,0,0,0,0,0,0,0,0,0,0,0,0,0,0,0,0,0,0,0,0,0,0,0,0,0,0,0,0,0,0,0,0,0,0,0,0,0,0,0,0,0,0,0,0,0,0,0,0,0,0,0,0,0,0,0,0,0,0,0,0,0,0,0,0,0,0,0,0,0,0,0,0,0,0,0,0,0,0,0,0,0,0,0,0,0],"id":10,"left_children":[1,3,5,7,9,11,13,-1,15,17,19,21,23,25,27,29,31,33,35,37,39,41,43,45,47,49,51,-1,-1,-1,-1,53,55,57,59,-1,61,63,65,67,69,-1,-1,71,73,75,77,79,81,83,85,87,89,-1,-1,-1,-1,-1,-1,-1,-1,-1,-1,-1,-1,-1,-1,-1,-1,-1,-1,-1,-1,-1,-1,-1,-1,-1,-1,-1,-1,-1,-1,-1,-1,-1,-1,-1,-1,-1,-1],"loss_changes":[3.9162896E7,6.445291E6,8.09296E6,4.63966E5,1.6051965E6,2.5506445E6,3.539588E6,0E0,4.904775E4,4.86532E5,1.3498628E6,5.393282E5,1.0809645E6,1.952486E6,7.22695E4,5.959375E3,1.6735E4,1.771555E5,3.0233247E5,2.6352462E5,2.81868E5,6.3674812E4,3.7955138E5,4.84869E5,3.541225E5,7.61384E5,3.030985E5,0E0,0E0,0E0,0E0,1.1711125E4,2.3635707E4,2.25525E4,1.8427175E5,0E0,2.1019406E5,2.0064612E5,9.861181E4,1.0943006E5,6.747819E4,0E0,0E0,9.434947E4,2.4017131E5,1.4004988E5,1.5032975E5,2.428285E5,1.167295E5,6.45637E5,2.11108E5,1.5168523E5,1.1899E5,0E0,0E0,0E0,0E0,0E0,0E0,0E0,0E0,0E0,0E0,0E0,0E0,0E0,0E0,0E0,0E0,0E0,0E0,0E0,0E0,0E0,0E0,0E0,0E0,0E0,0E0,0E0,0E0,0E0,0E0,0E0,0E0,0E0,0E0,0E0,0E0,0E0,0E0],"parents":[2147483647,0,0,1,1,2,2,3,3,4,4,5,5,6,6,8,8,9,9,10,10,11,11,12,12,13,13,14,14,15,15,16,16,17,17,18,18,19,19,20,20,21,21,22,22,23,23,24,24,25,25,26,26,31,31,32,32,33,33,34,34,36,36,37,37,38,38,39,39,40,40,43,43,44,44,45,45,46,46,47,47,48,48,49,49,50,50,51,51,52,52],"right_children":[2,4,6,8,10,12,14,-1,16,18,20,22,24,26,28,30,32,34,36,38,40,42,44,46,48,50,52,-1,-1,-1,-1,54,56,58,60,-1,62,64,66,68,70,-1,-1,72,74,76,78,80,82,84,86,88,90,-1,-1,-1,-1,-1,-1,-1,-1,-1,-1,-1,-1,-1,-1,-1,-1,-1,-1,-1,-1,-1,-1,-1,-1,-1,-1,-1,-1,-1,-1,-1,-1,-1,-1,-1,-1,-1,-1],"split_conditions":[-1.27345845E-2,-4.0615305E-1,1.0339643E0,-1.1954845E0,-4.913848E-1,-3.8236663E-2,5.68902E0,-2.0813728E1,-6.9467175E-1,9.608605E-1,7.5345004E-1,-1.1954845E0,7.9489434E-1,1.2248672E0,3.9589503E-1,1.5174767E0,-1.4713097E-1,-8.730705E-1,-8.2456994E-1,3.6441746E-1,1.4462147E0,-5.007436E-1,4.7009686E-1,4.1952398E-1,1.5508784E0,1.7027605E0,1.3395916E0,5.40603E1,9.910519E1,-1.7059889E1,-3.7871392E0,-6.5353876E-1,-1.1248656E-1,-9.845697E-1,7.9489434E-1,-2.173411E1,2.098815E0,8.1673E-2,-1.2254117E0,-1.310034E-1,-5.007436E-1,1.0726044E0,-2.4368055E1,-9.393034E-1,9.07973E-1,7.231196E-2,8.434201E-1,7.713438E-1,-5.007436E-1,2.8045583E-1,2.5149128E0,8.2499194E-1,-9.274317E-1,-9.662641E0,-1.3764406E1,2.632889E-1,-1.0059169E1,-1.7599857E1,-1.2919284E1,-1.161651E1,-7.3515267E0,-3.6773014E0,8.302978E0,-6.9187903E0,-2.2032838E0,7.644265E0,-1.2408084E0,4.7221603E0,1.4765549E1,1.07361E1,2.9579926E1,7.160619E0,-3.431603E0,3.2809083E0,2.1178108E1,4.578282E0,-6.250875E0,8.900412E0,1.4842615E1,1.2871058E1,2.201904E1,9.911396E0,2.9399817E1,1.7498991E1,2.89305E1,2.9555456E1,4.1609264E1,9.714014E0,-1.3764822E0,-1.1100757E1,1.5912465E1],"split_indices":[9,1,9,1,9,1,10,0,9,1,1,1,3,5,1,3,9,9,10,1,10,4,9,9,10,9,9,0,0,0,0,8,9,9,3,0,1,8,5,9,4,0,0,3,8,3,9,9,4,1,9,10,1,0,0,0,0,0,0,0,0,0,0,0,0,0,0,0,0,0,0,0,0,0,0,0,0,0,0,0,0,0,0,0,0,0,0,0,0,0,0],"split_type":[0,0,0,0,0,0,0,0,0,0,0,0,0,0,0,0,0,0,0,0,0,0,0,0,0,0,0,0,0,0,0,0,0,0,0,0,0,0,0,0,0,0,0,0,0,0,0,0,0,0,0,0,0,0,0,0,0,0,0,0,0,0,0,0,0,0,0,0,0,0,0,0,0,0,0,0,0,0,0,0,0,0,0,0,0,0,0,0,0,0,0],"sum_hessian":[3.194E3,1.802E3,1.392E3,5.28E2,1.274E3,9.2E2,4.72E2,3.75E2,1.53E2,6.17E2,6.57E2,3.06E2,6.14E2,4.61E2,1.1E1,5.2E1,1.01E2,5.15E2,1.02E2,5.53E2,1.04E2,1E1,2.96E2,3.81E2,2.33E2,3.21E2,1.4E2,7E0,4E0,5.1E1,1E0,9.1E1,1E1,8.3E1,4.32E2,7E0,9.5E1,4.25E2,1.28E2,9.3E1,1.1E1,1E0,9E0,1.54E2,1.42E2,1.79E2,2.02E2,2.03E2,3E1,2.15E2,1.06E2,5.2E1,8.8E1,2.1E1,7E1,3E0,7E0,3.3E1,5E1,2.45E2,1.87E2,7.8E1,1.7E1,2.93E2,1.32E2,1.3E1,1.15E2,8.1E1,1.2E1,5E0,6E0,8E0,1.46E2,1.35E2,7E0,1.67E2,1.2E1,1.33E2,6.9E1,1.65E2,3.8E1,5E0,2.5E1,1.22E2,9.3E1,7.6E1,3E1,3.3E1,1.9E1,1E0,8.7E1],"tree_param":{"num_deleted":"0","num_feature":"13","num_nodes":"91","size_leaf_vector":"1"}},{"base_weights":[3.1142526E0,-7.110018E1,1.5029987E2,-1.7118355E2,-3.8130524E1,1.2662961E2,4.3979312E2,-1.8658438E2,-1.1937774E2,-7.10726E1,1.1290652E1,7.8761475E1,1.8056866E2,3.738727E2,9.945829E2,-1.868657E2,-3.6321685E0,-1.6240765E1,-1.02645515E2,-7.988496E1,1.4442607E1,-1.2145387E1,1.01425705E2,3.5226654E1,1.5398042E2,2.196624E2,9.704297E1,3.060929E2,4.8052298E2,2.9928915E1,1.176466E2,-1.8370714E1,-2.3587461E1,-1.0631552E2,4.1669727E1,-1.0448256E2,-6.070243E1,-2.0067575E1,3.4758133E1,-3.3805836E1,1.1413497E1,1.6699252E2,7.811873E1,-6.160254E1,5.642288E1,1.6959674E2,7.8192085E1,1.9911954E2,2.909096E2,-2.3218397E1,1.1773264E2,6.0750735E-1,3.12347E2,1.1507617E2,5.051557E1,-9.014602E0,-1.2914914E1,5.79424E0,4.562195E-1,-1.951866E1,-9.946097E0,-8.283168E0,-2.8572166E0,1.2867987E0,1.2698701E1,-1.0702126E0,-4.918956E0,-1.7206001E0,3.146712E0,1.0503999E1,2.589897E1,5.0499463E0,1.1663183E1,-4.004962E0,-3.587193E1,4.757521E0,1.25098715E1,1.9081673E1,1.1112754E1,6.345459E-1,8.725792E0,1.0734165E1,2.1608988E1,3.2220848E1,1.9811697E1,-2.0877918E1,-5.293854E-1,9.395758E0,1.7654165E1,2.6212088E1,3.787046E1,-9.9428713E-1,1.8255713E1],"categories":[],"categories_nodes":[],"categories_segments":[],"categories_sizes":[],"default_left":[0,0,0,0,0,0,0,0,0,0,0,0,0,0,0,0,0,0,0,0,0,0,0,0,0,0,0,0,0,0,0,0,0,0,0,0,0,0,0,0,0,0,0,0,0,0,0,0,0,0,0,0,0,0,0,0,0,0,0,0,0,0,0,0,0,0,0,0,0,0,0,0,0,0,0,0,0,0,0,0,0,0,0,0,0,0,0,0,0,0,0,0,0],"id":11,"left_children":[1,3,5,7,9,11,13,15,17,19,21,23,25,27,29,31,-1,-1,33,35,37,39,41,43,45,47,49,51,53,-1,-1,-1,-1,55,57,59,61,-1,63,65,67,69,71,73,75,77,79,81,83,85,87,-1,89,91,-1,-1,-1,-1,-1,-1,-1,-1,-1,-1,-1,-1,-1,-1,-1,-1,-1,-1,-1,-1,-1,-1,-1,-1,-1,-1,-1,-1,-1,-1,-1,-1,-1,-1,-1,-1,-1,-1,-1],"loss_changes":[3.5096316E7,7.041664E6,7.324322E6,3.99789E5,2.618685E6,2.559994E6,2.590483E6,1.0378E4,7.2607875E4,7.283685E5,1.361623E6,1.7301368E6,1.50686E6,3.87842E5,6.595935E5,1.9361E4,0E0,0E0,5.3156812E4,4.065215E5,4.0466722E5,2.616574E5,1.9020062E5,6.9513906E5,2.16345E5,4.07505E5,3.7844712E5,8.8167E4,1.84921E5,0E0,0E0,0E0,0E0,2.15865E4,1.5471714E3,1.54579E5,3.4887662E5,0E0,1.6795383E5,9.437097E4,1.417269E5,1.6657719E5,1.004805E5,3.7626125E5,1.6235938E5,1.77309E5,2.2243562E4,3.66179E5,1.365615E5,7.539487E4,1.6377888E5,0E0,5.73795E4,2.7124355E4,0E0,0E0,0E0,0E0,0E0,0E0,0E0,0E0,0E0,0E0,0E0,0E0,0E0,0E0,0E0,0E0,0E0,0E0,0E0,0E0,0E0,0E0,0E0,0E0,0E0,0E0,0E0,0E0,0E0,0E0,0E0,0E0,0E0,0E0,0E0,0E0,0E0,0E0,0E0],"parents":[2147483647,0,0,1,1,2,2,3,3,4,4,5,5,6,6,7,7,8,8,9,9,10,10,11,11,12,12,13,13,14,14,15,15,18,18,19,19,20,20,21,21,22,22,23,23,24,24,25,25,26,26,27,27,28,28,33,33,34,34,35,35,36,36,38,38,39,39,40,40,41,41,42,42,43,43,44,44,45,45,46,46,47,47,48,48,49,49,50,50,52,52,53,53],"right_children":[2,4,6,8,10,12,14,16,18,20,22,24,26,28,30,32,-1,-1,34,36,38,40,42,44,46,48,50,52,54,-1,-1,-1,-1,56,58,60,62,-1,64,66,68,70,72,74,76,78,80,82,84,86,88,-1,90,92,-1,-1,-1,-1,-1,-1,-1,-1,-1,-1,-1,-1,-1,-1,-1,-1,-1,-1,-1,-1,-1,-1,-1,-1,-1,-1,-1,-1,-1,-1,-1,-1,-1,-1,-1,-1,-1,-1,-1],"split_conditions":[3.090203E-1,-4.7785735E-1,6.510537E0,-9.274317E-1,-2.6579797E-1,9.644764E-1,8.5990894E-1,2.0767547E-1,-7.022378E-1,1.3217934E0,7.9489434E-1,2.6366153E-1,1.2248672E0,1.6970001E0,1.0839273E0,1.0586998E-1,-3.6321685E0,-1.6240765E1,1.0081506E0,-6.419087E-1,-8.2456994E-1,7.082917E-2,1.2284437E0,-3.3750492E-1,1.00005E0,1.7027605E0,-4.7785735E-1,-7.076068E-1,2.508368E-1,2.9928915E1,1.176466E2,-1.8370714E1,-2.3587461E1,9.992568E-1,-6.713905E-1,-1.0891002E0,2.3270535E-1,-2.0067575E1,2.3758447E0,-2.16721E-1,-1.0392501E-1,-1.27345845E-2,9.28454E-1,8.277286E-1,7.388092E-1,4.9925664E-1,-1.0838199E0,1.1819071E-2,9.992568E-1,9.8000664E-1,1.7027605E0,6.0750735E-1,1.5694467E0,1.6904931E-1,5.051557E1,-9.014602E0,-1.2914914E1,5.79424E0,4.562195E-1,-1.951866E1,-9.946097E0,-8.283168E0,-2.8572166E0,1.2867987E0,1.2698701E1,-1.0702126E0,-4.918956E0,-1.7206001E0,3.146712E0,1.0503999E1,2.589897E1,5.0499463E0,1.1663183E1,-4.004962E0,-3.587193E1,4.757521E0,1.25098715E1,1.9081673E1,1.1112754E1,6.345459E-1,8.725792E0,1.0734165E1,2.1608988E1,3.2220848E1,1.9811697E1,-2.0877918E1,-5.293854E-1,9.395758E0,1.7654165E1,2.6212088E1,3.787046E1,-9.9428713E-1,1.8255713E1],"split_indices":[11,1,0,1,11,11,1,11,11,1,3,1,5,10,3,10,0,0,10,11,10,8,3,1,5,11,1,5,8,0,0,0,0,4,1,11,1,0,1,3,11,11,1,8,8,4,3,1,4,11,11,0,8,1,0,0,0,0,0,0,0,0,0,0,0,0,0,0,0,0,0,0,0,0,0,0,0,0,0,0,0,0,0,0,0,0,0,0,0,0,0,0,0],"split_type":[0,0,0,0,0,0,0,0,0,0,0,0,0,0,0,0,0,0,0,0,0,0,0,0,0,0,0,0,0,0,0,0,0,0,0,0,0,0,0,0,0,0,0,0,0,0,0,0,0,0,0,0,0,0,0,0,0,0,0,0,0,0,0,0,0,0,0,0,0,0,0,0,0,0,0,0,0,0,0,0,0,0,0,0,0,0,0,0,0,0,0,0,0],"sum_hessian":[3.211E3,2.135E3,1.076E3,5.28E2,1.607E3,9.96E2,8E1,4.05E2,1.23E2,9.64E2,6.43E2,5.29E2,4.67E2,7.3E1,7E0,4.04E2,1E0,3.2E1,9.1E1,8.74E2,9E1,5.11E2,1.32E2,3.36E2,1.93E2,3.17E2,1.5E2,4.7E1,2.6E1,2E0,5E0,3.84E2,2E1,8.9E1,2E0,3.81E2,4.93E2,7E0,8.3E1,2.66E2,2.45E2,3.3E1,9.9E1,6E1,2.76E2,1.59E2,3.4E1,2.49E2,6.8E1,2.2E1,1.28E2,1E0,4.6E1,2E0,2.4E1,5.5E1,3.4E1,1E0,1E0,1.8E1,3.63E2,2.91E2,2.02E2,6.8E1,1.5E1,1.07E2,1.59E2,1.01E2,1.44E2,2.1E1,1.2E1,5.9E1,4E1,5.7E1,3E0,2.46E2,3E1,1.15E2,4.4E1,4E0,3E1,4E1,2.09E2,4.9E1,1.9E1,1E0,2.1E1,9.3E1,3.5E1,2.9E1,1.7E1,1E0,1E0],"tree_param":{"num_deleted":"0","num_feature":"13","num_nodes":"93","size_leaf_vector":"1"}},{"base_weights":[-1.9347147E0,-7.869619E1,1.0439096E2,-1.5955678E2,-5.0723095E1,7.10889E1,2.5098178E2,-1.6171375E2,-1.1271854E1,-6.3301678E1,2.9162903E1,2.7582954E1,1.1713129E2,2.2655728E2,7.185565E2,-1.6810549E1,-1.2942392E2,-1.2237235E2,2.1468641E1,-8.355676E1,-3.998946E1,-2.331487E1,6.970892E1,-1.6680353E0,7.749776E1,7.118405E1,1.4893935E2,2.66281E2,1.1551214E2,4.1844967E1,9.489217E1,-1.3667238E2,-7.51479E1,-1.6067213E1,3.4563262E0,-1.007291E2,-5.8327366E1,-7.4243355E1,-2.8825464E1,-3.5217785E1,5.8878815E1,5.022342E1,1.7105936E2,-1.5271082E2,7.1697526E0,1.6682386E1,9.67784E1,5.1281376E1,1.9685178E2,1.16971825E2,1.8375006E2,2.2801775E2,3.5077847E2,-1.4169782E1,1.25926704E2,-6.335364E0,-1.3894197E1,-4.5038114E0,-1.2410796E1,-1.155693E1,-8.727972E0,-7.104974E0,-3.207524E0,-1.2923494E1,-6.699241E0,-3.110491E0,8.049819E0,-7.0955987E0,-1.6644331E0,1.0772481E1,-2.1281335E0,-5.103637E0,6.1818295E0,8.127173E0,2.2578352E1,2.5943341E0,-1.989958E1,1.5514565E-1,1.2154558E1,1.6600227E-1,1.575606E1,8.474901E0,1.5834712E1,8.71865E0,3.6705387E0,1.576812E1,3.0302921E1,9.680744E0,1.6262362E1,1.15063505E1,2.0067627E1,1.46381445E1,2.5601355E1,3.8172253E1,9.289994E0,6.9909577E0,1.6340063E1],"categories":[],"categories_nodes":[],"categories_segments":[],"categories_sizes":[],"default_left":[0,0,0,0,0,0,0,0,0,0,0,0,0,0,0,0,0,0,0,0,0,0,0,0,0,0,0,0,0,0,0,0,0,0,0,0,0,0,0,0,0,0,0,0,0,0,0,0,0,0,0,0,0,0,0,0,0,0,0,0,0,0,0,0,0,0,0,0,0,0,0,0,0,0,0,0,0,0,0,0,0,0,0,0,0,0,0,0,0,0,0,0,0,0,0,0,0],"id":12,"left_children":[1,3,5,7,9,11,13,15,17,19,21,23,25,27,29,-1,31,33,-1,35,37,39,41,43,45,47,49,51,53,-1,-1,55,57,-1,-1,59,61,63,65,67,69,71,73,75,77,79,81,83,85,87,89,91,93,-1,95,-1,-1,-1,-1,-1,-1,-1,-1,-1,-1,-1,-1,-1,-1,-1,-1,-1,-1,-1,-1,-1,-1,-1,-1,-1,-1,-1,-1,-1,-1,-1,-1,-1,-1,-1,-1,-1,-1,-1,-1,-1,-1],"loss_changes":[2.6435852E7,4.246579E6,6.611612E6,1.52664E5,1.4076345E6,2.2162235E6,2.703695E6,7.6484E4,2.2710428E5,5.675375E5,4.0802838E5,8.33822E5,7.75681E5,1.027911E6,4.325345E5,0E0,2.2383E4,4.161696E4,0E0,2.740025E5,2.1353938E5,8.425451E4,2.0469412E5,4.82988E5,2.457955E5,5.451546E5,3.31268E5,4.89051E5,1.9196106E5,0E0,0E0,3.1785E3,1.2100539E4,0E0,0E0,6.635675E4,8.589419E4,4.63685E4,1.08911125E5,4.7938844E4,4.536305E4,1.11171625E5,6.5180562E4,1.7054281E5,2.1957969E5,1.0978728E5,1.05081625E5,9.780691E4,7.6988875E4,1.389075E5,1.513E5,2.459235E5,3.87468E5,0E0,1.2082519E5,0E0,0E0,0E0,0E0,0E0,0E0,0E0,0E0,0E0,0E0,0E0,0E0,0E0,0E0,0E0,0E0,0E0,0E0,0E0,0E0,0E0,0E0,0E0,0E0,0E0,0E0,0E0,0E0,0E0,0E0,0E0,0E0,0E0,0E0,0E0,0E0,0E0,0E0,0E0,0E0,0E0,0E0],"parents":[2147483647,0,0,1,1,2,2,3,3,4,4,5,5,6,6,7,7,8,8,9,9,10,10,11,11,12,12,13,13,14,14,16,16,17,17,19,19,20,20,21,21,22,22,23,23,24,24,25,25,26,26,27,27,28,28,31,31,32,32,35,35,36,36,37,37,38,38,39,39,40,40,41,41,42,42,43,43,44,44,45,45,46,46,47,47,48,48,49,49,50,50,51,51,52,52,54,54],"right_children":[2,4,6,8,10,12,14,16,18,20,22,24,26,28,30,-1,32,34,-1,36,38,40,42,44,46,48,50,52,54,-1,-1,56,58,-1,-1,60,62,64,66,68,70,72,74,76,78,80,82,84,86,88,90,92,94,-1,96,-1,-1,-1,-1,-1,-1,-1,-1,-1,-1,-1,-1,-1,-1,-1,-1,-1,-1,-1,-1,-1,-1,-1,-1,-1,-1,-1,-1,-1,-1,-1,-1,-1,-1,-1,-1,-1,-1,-1,-1,-1,-1],"split_conditions":[5.184932E-3,-9.349924E-1,1.4763772E0,3.1133184E0,8.4540206E-1,1.3647951E-1,5.68902E0,-1.1514204E0,1.3729602E0,-3.9899972E-1,-9.869875E-3,7.5780463E-1,4.8005214E-1,1.2248672E0,3.9589503E-1,-1.6810549E1,1.2284437E0,2.2954896E-1,2.1468641E1,1.3647951E-1,-2.1490753E-1,-4.8080027E-1,2.098815E0,-6.713905E-1,-3.179736E-1,9.851425E-1,3.8504985E-1,2.1644866E0,-6.957981E-1,4.1844967E1,9.489217E1,-1.2965616E0,1.5519239E0,-1.6067213E1,3.4563262E0,-2.112512E-1,-5.6923515E-1,-6.957981E-1,2.9921575E0,-7.651552E-1,1.00005E0,-5.752083E-1,-7.434946E-4,2.0876591E-1,1.3026885E0,8.6893517E-1,1.1617186E0,-7.076068E-1,2.063552E0,1.0120738E0,2.8821865E-1,1.0839914E-1,9.992568E-1,-1.4169782E1,5.674767E-1,-6.335364E0,-1.3894197E1,-4.5038114E0,-1.2410796E1,-1.155693E1,-8.727972E0,-7.104974E0,-3.207524E0,-1.2923494E1,-6.699241E0,-3.110491E0,8.049819E0,-7.0955987E0,-1.6644331E0,1.0772481E1,-2.1281335E0,-5.103637E0,6.1818295E0,8.127173E0,2.2578352E1,2.5943341E0,-1.989958E1,1.5514565E-1,1.2154558E1,1.6600227E-1,1.575606E1,8.474901E0,1.5834712E1,8.71865E0,3.6705387E0,1.576812E1,3.0302921E1,9.680744E0,1.6262362E1,1.15063505E1,2.0067627E1,1.46381445E1,2.5601355E1,3.8172253E1,9.289994E0,6.9909577E0,1.6340063E1],"split_indices":[9,9,9,1,1,1,10,9,3,9,10,9,9,5,1,0,3,10,0,1,1,7,1,1,1,1,10,9,1,0,0,7,1,0,0,1,9,1,8,9,5,9,4,7,8,8,8,5,10,8,1,1,4,0,8,0,0,0,0,0,0,0,0,0,0,0,0,0,0,0,0,0,0,0,0,0,0,0,0,0,0,0,0,0,0,0,0,0,0,0,0,0,0,0,0,0,0],"split_type":[0,0,0,0,0,0,0,0,0,0,0,0,0,0,0,0,0,0,0,0,0,0,0,0,0,0,0,0,0,0,0,0,0,0,0,0,0,0,0,0,0,0,0,0,0,0,0,0,0,0,0,0,0,0,0,0,0,0,0,0,0,0,0,0,0,0,0,0,0,0,0,0,0,0,0,0,0,0,0,0,0,0,0,0,0,0,0,0,0,0,0,0,0,0,0,0,0],"sum_hessian":[3.237E3,1.88E3,1.357E3,4.82E2,1.398E3,1.107E3,2.5E2,4.75E2,7E0,1.208E3,1.9E2,5.7E2,5.37E2,2.39E2,1.1E1,3.93E2,8.2E1,5E0,2E0,6.45E2,5.63E2,8.3E1,1.07E2,3.6E2,2.1E2,2.21E2,3.16E2,1.75E2,6.4E1,6E0,5E0,7.1E1,1.1E1,4E0,1E0,3.82E2,2.63E2,1.37E2,4.26E2,7.3E1,1E1,9.1E1,1.6E1,1.9E1,3.41E2,5.1E1,1.59E2,1.92E2,2.9E1,1.67E2,1.49E2,1.23E2,5.2E1,2E0,6.2E1,3E0,6.8E1,8E0,3E0,1.78E2,2.04E2,1.76E2,8.7E1,1.4E1,1.23E2,4.18E2,8E0,2.4E1,4.9E1,6E0,4E0,9E0,8.2E1,7E0,9E0,4E0,1.5E1,3.26E2,1.5E1,4.7E1,4E0,1.35E2,2.4E1,5.4E1,1.38E2,2.3E1,6E0,1.18E2,4.9E1,3.1E1,1.18E2,3.3E1,9E1,4.6E1,6E0,2.6E1,3.6E1],"tree_param":{"num_deleted":"0","num_feature":"13","num_nodes":"97","size_leaf_vector":"1"}},{"base_weights":[3.2109275E0,-5.428196E1,1.2915808E2,-1.24119194E2,-2.257708E1,1.024687E2,3.0477838E2,-1.5129654E1,-8.6813484E1,-3.6197746E1,5.278231E1,6.107032E2,9.828093E1,2.7551785E2,8.78206E2,-1.0886209E2,-6.578265E1,-6.013768E1,-6.4794216E0,-2.6620111E1,7.617982E1,1.1230127E1,6.750533E1,6.3413273E1,1.4119057E2,3.2967426E2,1.8728815E2,1.0467234E2,3.6078068E1,-1.3882613E1,-1.0094924E2,-6.9513535E1,3.7209538E1,-8.927597E1,-4.728741E1,-1.206059E1,6.503408E1,-4.4296886E1,1.2217691E2,5.1847134E1,1.2204662E2,2.6316433E1,8.966821E1,1.0651673E2,1.9329706E2,-8.541053E0,3.361742E2,1.9477525E2,5.062079E0,-6.5182085E0,-1.048307E1,-7.5543056E0,-2.4600358E0,6.07525E0,-6.584259E-1,-1.8355005E1,-8.386111E0,9.05096E-2,-6.305492E0,7.471525E-2,-4.2243505E0,9.922975E0,-3.133435E-1,-3.3638775E0,-1.9650837E1,1.4820033E1,-3.9700928E-1,-1.683793E1,5.511273E0,7.651662E0,1.8637037E1,8.79571E0,2.6918968E-2,1.3681052E1,6.5118594E0,9.603309E0,1.756528E1,1.684857E1,2.24202E1,3.5651688E1,1.6422653E1,1.7312056E1,3.1750483E1],"categories":[],"categories_nodes":[],"categories_segments":[],"categories_sizes":[],"default_left":[0,0,0,0,0,0,0,0,0,0,0,0,0,0,0,0,0,0,0,0,0,0,0,0,0,0,0,0,0,0,0,0,0,0,0,0,0,0,0,0,0,0,0,0,0,0,0,0,0,0,0,0,0,0,0,0,0,0,0,0,0,0,0,0,0,0,0,0,0,0,0,0,0,0,0,0,0,0,0,0,0,0,0],"id":13,"left_children":[1,3,5,7,9,11,13,-1,15,17,19,21,23,25,27,29,31,33,35,37,39,-1,-1,41,43,45,47,-1,-1,-1,49,51,53,55,57,59,61,63,65,67,69,71,73,75,77,-1,79,81,-1,-1,-1,-1,-1,-1,-1,-1,-1,-1,-1,-1,-1,-1,-1,-1,-1,-1,-1,-1,-1,-1,-1,-1,-1,-1,-1,-1,-1,-1,-1,-1,-1,-1,-1],"loss_changes":[2.3381172E7,4.9060375E6,4.712212E6,6.88464E5,1.5682656E6,1.812945E6,1.989616E6,0E0,1.291665E5,9.195215E5,4.367573E5,1.486965E5,1.298689E6,5.49866E5,1.455335E5,1.9654E4,6.1377125E4,2.6387375E5,2.3148088E5,1.4744566E5,1.9567962E5,0E0,0E0,4.6904412E5,6.85843E5,2.39159E5,4.2325625E4,0E0,0E0,0E0,9.271125E3,3.822075E4,6.5862246E3,9.5892125E4,3.7923525E5,2.0762233E5,9.821434E4,7.288175E4,2.0285023E4,9.558028E4,1.673165E5,3.243013E5,3.1861425E5,1.5490875E5,8.1078E4,0E0,2.10787E5,7.260175E4,0E0,0E0,0E0,0E0,0E0,0E0,0E0,0E0,0E0,0E0,0E0,0E0,0E0,0E0,0E0,0E0,0E0,0E0,0E0,0E0,0E0,0E0,0E0,0E0,0E0,0E0,0E0,0E0,0E0,0E0,0E0,0E0,0E0,0E0,0E0],"parents":[2147483647,0,0,1,1,2,2,3,3,4,4,5,5,6,6,8,8,9,9,10,10,11,11,12,12,13,13,14,14,15,15,16,16,17,17,18,18,19,19,20,20,23,23,24,24,25,25,26,26,30,30,31,31,32,32,33,33,34,34,35,35,36,36,37,37,38,38,39,39,40,40,41,41,42,42,43,43,44,44,46,46,47,47],"right_children":[2,4,6,8,10,12,14,-1,16,18,20,22,24,26,28,30,32,34,36,38,40,-1,-1,42,44,46,48,-1,-1,-1,50,52,54,56,58,60,62,64,66,68,70,72,74,76,78,-1,80,82,-1,-1,-1,-1,-1,-1,-1,-1,-1,-1,-1,-1,-1,-1,-1,-1,-1,-1,-1,-1,-1,-1,-1,-1,-1,-1,-1,-1,-1,-1,-1,-1,-1,-1,-1],"split_conditions":[3.5202715E-1,-2.9201865E-1,1.8475103E0,-9.274317E-1,2.850045E-1,-1.2254117E0,7.1478814E-1,-1.5129654E1,-3.9899972E-1,-3.504179E-1,3.613449E-1,-3.2822385E-1,1.659129E-1,1.00005E0,1.5519239E0,-8.730705E-1,1.0081506E0,-7.573901E-1,7.9489434E-1,1.7513578E0,1.0595105E0,1.1230127E1,6.750533E1,7.713438E-1,1.0339643E0,-5.2539015E-1,3.173134E-1,1.0467234E2,3.6078068E1,-1.3882613E1,2.1682844E-1,2.4052793E-1,1.985166E-1,-1.0756159E0,-1.2254117E0,-7.2204515E-2,1.5174767E0,1.4462147E0,9.636831E-1,-1.5500894E-1,-7.434946E-4,4.115795E-1,1.00005E0,1.6619933E0,3.8179126E-1,-8.541053E0,9.992568E-1,2.2685911E-1,5.062079E0,-6.5182085E0,-1.048307E1,-7.5543056E0,-2.4600358E0,6.07525E0,-6.584259E-1,-1.8355005E1,-8.386111E0,9.05096E-2,-6.305492E0,7.471525E-2,-4.2243505E0,9.922975E0,-3.133435E-1,-3.3638775E0,-1.9650837E1,1.4820033E1,-3.9700928E-1,-1.683793E1,5.511273E0,7.651662E0,1.8637037E1,8.79571E0,2.6918968E-2,1.3681052E1,6.5118594E0,9.603309E0,1.756528E1,1.684857E1,2.24202E1,3.5651688E1,1.6422653E1,1.7312056E1,3.1750483E1],"split_indices":[9,1,9,1,12,5,1,0,9,9,3,8,1,5,1,9,12,9,3,12,12,0,0,9,9,1,1,0,0,0,3,9,9,12,5,3,3,12,7,1,4,7,5,3,1,0,4,1,0,0,0,0,0,0,0,0,0,0,0,0,0,0,0,0,0,0,0,0,0,0,0,0,0,0,0,0,0,0,0,0,0,0,0],"split_type":[0,0,0,0,0,0,0,0,0,0,0,0,0,0,0,0,0,0,0,0,0,0,0,0,0,0,0,0,0,0,0,0,0,0,0,0,0,0,0,0,0,0,0,0,0,0,0,0,0,0,0,0,0,0,0,0,0,0,0,0,0,0,0,0,0,0,0,0,0,0,0,0,0,0,0,0,0,0,0,0,0,0,0],"sum_hessian":[3.227E3,2.216E3,1.011E3,6.91E2,1.525E3,8.79E2,1.32E2,3.98E2,2.93E2,1.292E3,2.33E2,6E0,8.73E2,1.27E2,5E0,1.41E2,1.52E2,7.15E2,5.77E2,5.3E1,1.8E2,1E0,5E0,4.83E2,3.9E2,7.7E1,5E1,3E0,2E0,2.6E1,1.15E2,1.47E2,5E0,2.17E2,4.98E2,5.36E2,4.1E1,4.8E1,5E0,1.19E2,6.1E1,2.01E2,2.82E2,2.36E2,1.54E2,1E0,7.6E1,4.7E1,3E0,1.3E1,1.02E2,1.29E2,1.8E1,3E0,2E0,1E1,2.07E2,1.23E2,3.75E2,3.77E2,1.59E2,2.7E1,1.4E1,4.6E1,2E0,4E0,1E0,1E0,1.18E2,3.7E1,2.4E1,5.9E1,1.42E2,9.5E1,1.87E2,2.07E2,2.9E1,8.9E1,6.5E1,6.7E1,9E0,4.2E1,5E0],"tree_param":{"num_deleted":"0","num_feature":"13","num_nodes":"83","size_leaf_vector":"1"}},{"base_weights":[2.620927E0,-6.1824623E1,9.2699005E1,-1.24453316E2,-3.6163883E1,6.1921875E1,2.1615068E2,-1.3612514E2,-9.2440994E1,-4.416566E1,3.834619E1,3.971539E1,1.2989983E2,1.8932211E2,6.8937463E2,-1.3343188E2,-1.7609024E2,-9.381366E1,5.535727E0,-7.219684E1,-2.92592E1,-6.216811E1,6.6547844E1,9.875959E0,8.086841E1,2.849158E2,1.20772354E2,2.179693E2,1.03984436E2,4.1084103E1,8.469197E1,-1.1187154E2,-1.3669005E2,-1.8095333E1,-3.698279E0,-9.937921E1,-4.5080383E1,-1.662366E1,-6.82841E1,-5.1265488E1,-1.6156158E1,-5.0038223E1,-2.0090246E1,5.186435E1,2.3259586E1,-1.6831189E2,1.648278E1,8.667257E0,9.437603E1,1.3087453E1,3.150294E2,1.0232178E2,1.7939336E2,2.0144284E2,3.646974E2,1.1517688E2,-5.5598705E1,-6.2683063E0,-1.3410693E1,-1.3752283E1,-6.9771113E0,-8.486307E0,-1.1029735E1,-7.492836E0,-1.6693966E0,-8.176918E0,-3.7283242E0,-6.573761E0,-1.6076218E0,-2.9082553E0,-5.844396E-2,-8.542338E0,1.2413694E0,-1.5309827E1,5.7918367E0,-3.031632E1,-1.1776066E1,-1.2551969E0,3.932863E0,4.554729E0,-3.4219983E0,9.123635E0,2.944845E1,7.2010684E0,3.321302E1,9.350394E0,1.743617E1,6.122012E0,2.0226095E1,1.874924E1,2.642488E1,1.5384613E1,3.9661125E1,5.892931E0,1.541632E1,-1.1193545E1,1.9270935E0],"categories":[],"categories_nodes":[],"categories_segments":[],"categories_sizes":[],"default_left":[0,0,0,0,0,0,0,0,0,0,0,0,0,0,0,0,0,0,0,0,0,0,0,0,0,0,0,0,0,0,0,0,0,0,0,0,0,0,0,0,0,0,0,0,0,0,0,0,0,0,0,0,0,0,0,0,0,0,0,0,0,0,0,0,0,0,0,0,0,0,0,0,0,0,0,0,0,0,0,0,0,0,0,0,0,0,0,0,0,0,0,0,0,0,0,0,0],"id":14,"left_children":[1,3,5,7,9,11,13,15,17,19,21,23,25,27,29,31,33,35,-1,37,39,41,43,45,47,49,51,53,55,-1,-1,57,59,-1,-1,61,63,-1,65,67,69,71,-1,73,-1,75,77,79,81,-1,83,85,87,89,91,93,95,-1,-1,-1,-1,-1,-1,-1,-1,-1,-1,-1,-1,-1,-1,-1,-1,-1,-1,-1,-1,-1,-1,-1,-1,-1,-1,-1,-1,-1,-1,-1,-1,-1,-1,-1,-1,-1,-1,-1,-1],"loss_changes":[1.8721476E7,3.0168445E6,5.096928E6,1.91425E5,7.97638E5,1.622138E6,3.271993E6,1.93435E4,3.5422125E4,5.018095E5,3.726442E5,9.9877925E5,3.405395E5,6.00729E5,2.66393E5,1.11915E4,8.190625E3,3.5661625E4,0E0,1.42453E5,2.2667938E5,3.874932E4,2.366294E5,5.59616E5,3.32723E5,2.3713E4,2.54205E5,3.87263E5,1.24287875E5,0E0,0E0,5.1748688E4,8.405E3,0E0,0E0,1.1560375E4,1.3152863E4,0E0,1.6542512E5,1.4866656E5,9.982094E4,6.2936812E4,0E0,1.2674767E5,0E0,8.018659E4,3.036325E5,8.855119E4,1.54076E5,0E0,2.1797125E4,1.0693225E5,1.4705538E5,1.02033E5,6.010625E4,1.2687419E5,2.3246656E4,0E0,0E0,0E0,0E0,0E0,0E0,0E0,0E0,0E0,0E0,0E0,0E0,0E0,0E0,0E0,0E0,0E0,0E0,0E0,0E0,0E0,0E0,0E0,0E0,0E0,0E0,0E0,0E0,0E0,0E0,0E0,0E0,0E0,0E0,0E0,0E0,0E0,0E0,0E0,0E0],"parents":[2147483647,0,0,1,1,2,2,3,3,4,4,5,5,6,6,7,7,8,8,9,9,10,10,11,11,12,12,13,13,14,14,15,15,16,16,17,17,19,19,20,20,21,21,22,22,23,23,24,24,25,25,26,26,27,27,28,28,31,31,32,32,35,35,36,36,38,38,39,39,40,40,41,41,43,43,45,45,46,46,47,47,48,48,50,50,51,51,52,52,53,53,54,54,55,55,56,56],"right_children":[2,4,6,8,10,12,14,16,18,20,22,24,26,28,30,32,34,36,-1,38,40,42,44,46,48,50,52,54,56,-1,-1,58,60,-1,-1,62,64,-1,66,68,70,72,-1,74,-1,76,78,80,82,-1,84,86,88,90,92,94,96,-1,-1,-1,-1,-1,-1,-1,-1,-1,-1,-1,-1,-1,-1,-1,-1,-1,-1,-1,-1,-1,-1,-1,-1,-1,-1,-1,-1,-1,-1,-1,-1,-1,-1,-1,-1,-1,-1,-1,-1],"split_conditions":[4.7196243E-2,-4.2433095E-1,1.4763772E0,-9.274317E-1,3.6562288E-1,6.5037787E-1,5.68902E0,1.0586998E-1,1.0081506E0,-6.3494E-1,5.058614E-1,7.5780463E-1,-1.2254117E0,1.2248672E0,-1.6357942E-1,-1.2233361E0,1.3661932E0,-1.4713097E-1,5.535727E0,-1.0756159E0,-9.986634E-1,1.3241426E0,2.063552E0,-6.713905E-1,-3.179736E-1,-7.434946E-4,9.35407E-1,1.7513578E0,1.5694467E0,4.1084103E1,8.469197E1,7.231196E-2,-1.1954845E0,-1.8095333E1,-3.698279E0,-4.735312E-1,-5.861319E-1,-1.662366E1,5.984548E-1,-1.7122276E-1,2.8045583E-1,5.766177E-3,-2.0090246E1,-1.5500894E-1,2.3259586E1,1.0081506E0,-3.5332546E-2,1.1566677E0,7.6650935E-1,1.3087453E1,1.06471576E-1,1.5508784E0,-4.8654377E-1,1.5174767E0,2.508368E-1,5.479578E-1,-1.237644E-1,-6.2683063E0,-1.3410693E1,-1.3752283E1,-6.9771113E0,-8.486307E0,-1.1029735E1,-7.492836E0,-1.6693966E0,-8.176918E0,-3.7283242E0,-6.573761E0,-1.6076218E0,-2.9082553E0,-5.844396E-2,-8.542338E0,1.2413694E0,-1.5309827E1,5.7918367E0,-3.031632E1,-1.1776066E1,-1.2551969E0,3.932863E0,4.554729E0,-3.4219983E0,9.123635E0,2.944845E1,7.2010684E0,3.321302E1,9.350394E0,1.743617E1,6.122012E0,2.0226095E1,1.874924E1,2.642488E1,1.5384613E1,3.9661125E1,5.892931E0,1.541632E1,-1.1193545E1,1.9270935E0],"split_indices":[9,1,9,1,12,3,12,12,12,9,3,9,5,5,1,6,5,9,0,12,6,12,12,1,1,4,9,12,8,0,0,3,1,0,0,8,1,0,1,9,1,8,0,1,0,12,1,12,1,0,1,12,8,3,8,8,1,0,0,0,0,0,0,0,0,0,0,0,0,0,0,0,0,0,0,0,0,0,0,0,0,0,0,0,0,0,0,0,0,0,0,0,0,0,0,0,0],"split_type":[0,0,0,0,0,0,0,0,0,0,0,0,0,0,0,0,0,0,0,0,0,0,0,0,0,0,0,0,0,0,0,0,0,0,0,0,0,0,0,0,0,0,0,0,0,0,0,0,0,0,0,0,0,0,0,0,0,0,0,0,0,0,0,0,0,0,0,0,0,0,0,0,0,0,0,0,0,0,0,0,0,0,0,0,0,0,0,0,0,0,0,0,0,0,0,0,0],"sum_hessian":[3.223E3,1.879E3,1.344E3,5.45E2,1.334E3,1.077E3,2.67E2,3.97E2,1.48E2,1.205E3,1.29E2,8.13E2,2.64E2,2.54E2,1.3E1,3.76E2,2.1E1,1.47E2,1E0,4.17E2,7.88E2,2.8E1,1.01E2,4.72E2,3.41E2,1.3E1,2.51E2,1.89E2,6.5E1,6E0,7E0,5.4E1,3.22E2,2E1,1E0,1.31E2,1.6E1,1.5E1,4.02E2,2.93E2,4.95E2,2.7E1,1E0,9.4E1,7E0,1.6E1,4.56E2,5.4E1,2.87E2,3E0,1E1,1.93E2,5.8E1,1.72E2,1.7E1,6.1E1,4E0,1.8E1,3.6E1,3.17E2,5E0,6E1,7.1E1,7E0,9E0,2.79E2,1.23E2,2.07E2,8.6E1,2.7E2,2.25E2,1.7E1,1E1,2E0,9.2E1,3E0,1.3E1,2.01E2,2.55E2,2.9E1,2.5E1,2.84E2,3E0,1E0,9E0,1.74E2,1.9E1,1E1,4.8E1,1.44E2,2.8E1,3E0,1.4E1,2.6E1,3.5E1,2E0,2E0],"tree_param":{"num_deleted":"0","num_feature":"13","num_nodes":"97","size_leaf_vector":"1"}},{"base_weights":[8.0907255E-1,-4.3554195E1,1.0667617E2,-9.330319E1,-1.28841505E1,8.779648E1,3.2081345E2,-1.2342423E2,-6.9533646E1,-4.9196896E1,1.2893276E1,6.3223106E1,1.412549E2,2.2545592E2,6.2084894E2,-1.2166457E1,-1.5224929E1,-7.867165E1,-9.913776E0,-6.804934E1,-3.024124E1,1.6446407E0,8.385462E1,3.8081413E1,1.16974655E2,1.04752914E2,2.0154701E2,-5.7251344E0,2.3121794E2,3.8035382E2,8.1908246E2,-8.997823E1,-6.5117714E1,-2.2416792E1,8.353519E1,-6.058554E1,-9.9245705E1,-2.3943787E1,-1.5448003E2,-1.1300428E1,4.0111126E1,7.463608E1,2.1278751E1,-1.8979456E1,5.1214348E1,1.7655669E2,1.0529099E2,7.233714E1,1.7357365E2,2.1659135E2,1.1269974E2,1.3761092E2,2.5468056E2,4.1042244E1,5.486829E0,9.483525E1,4.2040688E1,-1.1467813E1,-8.146279E0,-8.039543E0,-4.901964E0,6.1788943E-2,-6.1185026E0,1.5383449E1,-2.5222726E0,-6.5836716E0,-2.4559588E0,-1.0303134E1,5.25894E0,-2.5732267E0,1.5036609E1,-1.8731628E1,-5.7911506E0,2.010891E0,-2.3703864E0,2.9456346E0,9.689936E0,5.5866866E0,1.3096066E1,-8.829897E-1,-1.3930254E1,7.581407E0,2.3680813E0,1.2665893E1,2.6368635E1,-1.1447181E1,1.0735417E1,-1.8249544E0,8.257131E0,-1.0947382E1,1.8084257E1,1.9049198E1,2.8093344E1,-1.0903565E0,1.21106415E1,1.8458044E1,4.4221478E0,1.2096172E1,2.7964869E1],"categories":[],"categories_nodes":[],"categories_segments":[],"categories_sizes":[],"default_left":[0,0,0,0,0,0,0,0,0,0,0,0,0,0,0,0,0,0,0,0,0,0,0,0,0,0,0,0,0,0,0,0,0,0,0,0,0,0,0,0,0,0,0,0,0,0,0,0,0,0,0,0,0,0,0,0,0,0,0,0,0,0,0,0,0,0,0,0,0,0,0,0,0,0,0,0,0,0,0,0,0,0,0,0,0,0,0,0,0,0,0,0,0,0,0,0,0,0,0],"id":15,"left_children":[1,3,5,7,9,11,13,15,17,19,21,23,25,27,29,-1,-1,31,33,35,37,39,41,43,45,47,49,-1,51,53,55,57,59,61,63,65,67,69,71,73,75,77,-1,79,81,83,85,87,89,91,93,95,97,-1,-1,-1,-1,-1,-1,-1,-1,-1,-1,-1,-1,-1,-1,-1,-1,-1,-1,-1,-1,-1,-1,-1,-1,-1,-1,-1,-1,-1,-1,-1,-1,-1,-1,-1,-1,-1,-1,-1,-1,-1,-1,-1,-1,-1,-1],"loss_changes":[1.5188788E7,3.4761055E6,3.832751E6,6.135895E5,1.3213996E6,1.145771E6,2.063046E6,8.525E2,2.65086E5,2.0735538E5,6.591904E5,8.1179425E5,5.863035E5,1.1097525E5,5.465945E5,0E0,0E0,5.8965E4,7.898659E4,6.2210375E4,2.2632319E5,3.5599053E5,1.1842731E5,3.1046462E5,1.1506825E5,3.7561675E5,1.13265E5,0E0,9.4533E4,7.5349625E4,6.5137E4,3.86135E4,4.4263625E4,5.2725633E4,6.5044953E4,4.3596812E4,3.7031938E4,9.147092E4,3.3545562E4,2.0890394E5,1.06057625E5,1.05800625E5,0E0,9.402561E4,2.2578325E5,9.702906E4,8.6194875E4,1.127565E5,1.3295712E5,9.25825E4,1.8985094E4,5.324797E4,1.19754E5,0E0,0E0,0E0,0E0,0E0,0E0,0E0,0E0,0E0,0E0,0E0,0E0,0E0,0E0,0E0,0E0,0E0,0E0,0E0,0E0,0E0,0E0,0E0,0E0,0E0,0E0,0E0,0E0,0E0,0E0,0E0,0E0,0E0,0E0,0E0,0E0,0E0,0E0,0E0,0E0,0E0,0E0,0E0,0E0,0E0,0E0],"parents":[2147483647,0,0,1,1,2,2,3,3,4,4,5,5,6,6,7,7,8,8,9,9,10,10,11,11,12,12,13,13,14,14,17,17,18,18,19,19,20,20,21,21,22,22,23,23,24,24,25,25,26,26,28,28,29,29,30,30,31,31,32,32,33,33,34,34,35,35,36,36,37,37,38,38,39,39,40,40,41,41,43,43,44,44,45,45,46,46,47,47,48,48,49,49,50,50,51,51,52,52],"right_children":[2,4,6,8,10,12,14,16,18,20,22,24,26,28,30,-1,-1,32,34,36,38,40,42,44,46,48,50,-1,52,54,56,58,60,62,64,66,68,70,72,74,76,78,-1,80,82,84,86,88,90,92,94,96,98,-1,-1,-1,-1,-1,-1,-1,-1,-1,-1,-1,-1,-1,-1,-1,-1,-1,-1,-1,-1,-1,-1,-1,-1,-1,-1,-1,-1,-1,-1,-1,-1,-1,-1,-1,-1,-1,-1,-1,-1,-1,-1,-1,-1,-1,-1],"split_conditions":[4.1952398E-1,-6.3494E-1,6.510537E0,-1.0756159E0,8.416145E-3,2.8045583E-1,3.3624537E0,-1.1954845E0,9.851425E-1,-2.2358757E-1,8.020475E-1,1.3395916E0,1.0339643E0,-2.0186658E-1,3.9589503E-1,-1.2166457E1,-1.5224929E1,1.0193664E-1,3.1133184E0,1.8189874E-2,1.6479223E0,5.184932E-3,2.3317368E0,-3.3750492E-1,-1.0050337E-1,7.605762E-1,1.6323409E0,-5.7251344E0,2.0492046E0,-5.3630885E-2,1.5519239E0,-8.587349E-1,-7.970121E-1,-1.2254117E0,-3.6641553E-1,1.4890476E-1,7.6988345E-1,2.7817872E0,9.77204E-1,-1.0005944E0,6.6242474E-1,6.1952704E-1,2.1278751E1,8.277286E-1,8.37488E-1,1.9677702E0,-9.274317E-1,4.8005214E-1,-1.2109292E0,1.5406884E0,2.9890528E-1,9.446915E-1,2.508368E-1,4.1042244E1,5.486829E0,9.483525E1,4.2040688E1,-1.1467813E1,-8.146279E0,-8.039543E0,-4.901964E0,6.1788943E-2,-6.1185026E0,1.5383449E1,-2.5222726E0,-6.5836716E0,-2.4559588E0,-1.0303134E1,5.25894E0,-2.5732267E0,1.5036609E1,-1.8731628E1,-5.7911506E0,2.010891E0,-2.3703864E0,2.9456346E0,9.689936E0,5.5866866E0,1.3096066E1,-8.829897E-1,-1.3930254E1,7.581407E0,2.3680813E0,1.2665893E1,2.6368635E1,-1.1447181E1,1.0735417E1,-1.8249544E0,8.257131E0,-1.0947382E1,1.8084257E1,1.9049198E1,2.8093344E1,-1.0903565E0,1.21106415E1,1.8458044E1,4.4221478E0,1.2096172E1,2.7964869E1],"split_indices":[9,9,0,12,1,1,12,1,1,9,12,9,9,1,1,0,0,1,1,12,12,9,12,1,8,12,8,0,9,1,1,9,9,5,5,8,7,8,7,5,1,8,0,8,7,9,1,9,7,9,7,12,8,0,0,0,0,0,0,0,0,0,0,0,0,0,0,0,0,0,0,0,0,0,0,0,0,0,0,0,0,0,0,0,0,0,0,0,0,0,0,0,0,0,0,0,0,0,0],"split_type":[0,0,0,0,0,0,0,0,0,0,0,0,0,0,0,0,0,0,0,0,0,0,0,0,0,0,0,0,0,0,0,0,0,0,0,0,0,0,0,0,0,0,0,0,0,0,0,0,0,0,0,0,0,0,0,0,0,0,0,0,0,0,0,0,0,0,0,0,0,0,0,0,0,0,0,0,0,0,0,0,0,0,0,0,0,0,0,0,0,0,0,0,0,0,0,0,0,0,0],"sum_hessian":[3.232E3,2.278E3,9.54E2,8.68E2,1.41E3,8.78E2,7.6E1,3.81E2,4.87E2,5.85E2,8.25E2,6.03E2,2.75E2,5.9E1,1.7E1,3.64E2,1.7E1,4.22E2,6.5E1,2.92E2,2.93E2,7.13E2,1.12E2,4.12E2,1.91E2,1.73E2,1.02E2,1E0,5.8E1,9E0,8E0,2.27E2,1.95E2,5.8E1,7E0,2.38E2,5.4E1,2.8E2,1.3E1,5.34E2,1.79E2,1.06E2,6E0,7.7E1,3.35E2,2.9E1,1.62E2,1.19E2,5.4E1,8.6E1,1.6E1,1.3E1,4.5E1,8E0,1E0,5E0,3E0,5.5E1,1.72E2,9.8E1,9.7E1,3.7E1,2.1E1,4E0,3E0,2.07E2,3.1E1,5.3E1,1E0,2.78E2,2E0,9E0,4E0,1.51E2,3.83E2,1.52E2,2.7E1,8.1E1,2.5E1,7.2E1,5E0,1.76E2,1.59E2,2E1,9E0,1E0,1.61E2,1.2E1,1.07E2,1E0,5.3E1,6.4E1,2.2E1,1E0,1.5E1,8E0,5E0,8E0,3.7E1],"tree_param":{"num_deleted":"0","num_feature":"13","num_nodes":"99","size_leaf_vector":"1"}},{"base_weights":[1.8812046E0,-3.75557E1,1.0072973E2,-9.301521E1,-1.5077561E1,9.1401566E1,4.436179E2,-1.07315796E2,-6.3597515E1,-2.9661228E1,3.4002655E1,6.3082386E1,1.4688953E2,6.9768304E2,2.4466656E2,-8.585113E1,-1.09821846E2,-8.165138E1,-3.579401E1,-5.18023E1,-6.319872E0,5.5373344E1,-2.9567513E1,8.59548E1,1.9046467E1,1.7577615E2,1.0481095E2,8.213182E1,1.3542839E1,3.1561954E2,8.563386E1,-3.7465725E1,-1.089419E1,-1.1057286E2,-5.2505306E1,-6.905351E1,-1.0447275E2,-4.405608E1,1.4872344E1,-3.7983948E1,-6.3419632E1,1.5415125E0,-3.746085E1,5.0880795E1,2.0232147E2,-2.3317698E1,-3.0852507E1,7.5253716E1,1.6063232E2,4.2357517E1,-2.7175987E1,1.5165198E2,2.5209895E2,1.1485947E2,1.693635E1,3.5153156E2,1.1464763E1,1.8770539E0,9.525242E0,4.4465904E0,-1.0745762E1,-1.0938305E1,-1.6809347E1,1.9199097E0,-6.765589E0,-4.253373E0,-7.890209E0,-6.5139017E0,-1.1000425E1,-8.076071E-1,-6.1588783E0,-3.3833015E0,-1.0460627E1,-7.267391E0,-4.0521755E0,1.0367875E0,-2.2608929E0,-4.140134E0,1.3527263E1,2.614773E0,6.887376E0,5.0198336E0,2.1688215E1,-4.391806E0,3.2249334E0,4.405315E0,9.707673E0,1.9562347E1,8.531768E0,2.7530367E0,1.1040379E1,1.066547E0,-6.6444116E0,1.3171051E1,1.9671728E1,2.8369375E1,1.2578567E1,8.346627E0,1.7148094E1,5.6604333E0,-9.638469E0,1.4309041E1,3.9716354E1],"categories":[],"categories_nodes":[],"categories_segments":[],"categories_sizes":[],"default_left":[0,0,0,0,0,0,0,0,0,0,0,0,0,0,0,0,0,0,0,0,0,0,0,0,0,0,0,0,0,0,0,0,0,0,0,0,0,0,0,0,0,0,0,0,0,0,0,0,0,0,0,0,0,0,0,0,0,0,0,0,0,0,0,0,0,0,0,0,0,0,0,0,0,0,0,0,0,0,0,0,0,0,0,0,0,0,0,0,0,0,0,0,0,0,0,0,0,0,0,0,0,0,0],"id":16,"left_children":[1,3,5,7,9,11,13,15,17,19,21,23,25,27,29,31,33,35,37,39,41,43,45,47,49,51,53,-1,-1,55,57,59,-1,61,63,65,67,69,-1,71,73,75,77,79,81,83,-1,85,87,89,91,93,95,97,99,101,-1,-1,-1,-1,-1,-1,-1,-1,-1,-1,-1,-1,-1,-1,-1,-1,-1,-1,-1,-1,-1,-1,-1,-1,-1,-1,-1,-1,-1,-1,-1,-1,-1,-1,-1,-1,-1,-1,-1,-1,-1,-1,-1,-1,-1,-1,-1],"loss_changes":[1.2521158E7,2.8608518E6,2.889292E6,2.716725E5,1.1712918E6,1.3939705E6,1.042419E6,1.44545E4,1.0700675E5,6.5136075E5,5.1108906E5,5.9563725E5,3.474445E5,5.839145E5,1.4222988E5,5.289847E4,1.1154E4,3.0735875E4,1.4070778E5,1.01455375E5,1.5061664E5,1.7521394E5,1.5843203E5,2.99573E5,2.2095984E5,2.87665E5,1.08430875E5,0E0,0E0,3.1870875E4,2.070836E3,1.0800009E5,0E0,8.168E3,8.903477E3,1.9628031E4,2.6252812E3,5.312289E4,0E0,7.887122E4,7.1221375E4,1.051094E5,9.000159E4,1.20134875E5,6.833E3,1.0901821E5,0E0,2.2926888E5,1.098065E5,1.3417536E5,1.0324011E5,9.720775E4,1.2794E5,1.8477038E5,6.8388836E4,1.9262375E4,0E0,0E0,0E0,0E0,0E0,0E0,0E0,0E0,0E0,0E0,0E0,0E0,0E0,0E0,0E0,0E0,0E0,0E0,0E0,0E0,0E0,0E0,0E0,0E0,0E0,0E0,0E0,0E0,0E0,0E0,0E0,0E0,0E0,0E0,0E0,0E0,0E0,0E0,0E0,0E0,0E0,0E0,0E0,0E0,0E0,0E0,0E0],"parents":[2147483647,0,0,1,1,2,2,3,3,4,4,5,5,6,6,7,7,8,8,9,9,10,10,11,11,12,12,13,13,14,14,15,15,16,16,17,17,18,18,19,19,20,20,21,21,22,22,23,23,24,24,25,25,26,26,29,29,30,30,31,31,33,33,34,34,35,35,36,36,37,37,39,39,40,40,41,41,42,42,43,43,44,44,45,45,47,47,48,48,49,49,50,50,51,51,52,52,53,53,54,54,55,55],"right_children":[2,4,6,8,10,12,14,16,18,20,22,24,26,28,30,32,34,36,38,40,42,44,46,48,50,52,54,-1,-1,56,58,60,-1,62,64,66,68,70,-1,72,74,76,78,80,82,84,-1,86,88,90,92,94,96,98,100,102,-1,-1,-1,-1,-1,-1,-1,-1,-1,-1,-1,-1,-1,-1,-1,-1,-1,-1,-1,-1,-1,-1,-1,-1,-1,-1,-1,-1,-1,-1,-1,-1,-1,-1,-1,-1,-1,-1,-1,-1,-1,-1,-1,-1,-1,-1,-1],"split_conditions":[4.7009686E-1,-7.506205E-1,3.0489216E0,-9.7103053E-1,9.394108E-1,1.3395916E0,1.3107197E0,-1.2233361E0,9.394108E-1,-2.2358757E-1,9.992568E-1,1.2248672E0,1.00005E0,4.9925664E-1,1.2248672E0,7.231196E-2,1.6670412E0,9.992568E-1,3.722997E-2,2.1682844E-1,7.231196E-2,2.063552E0,3.958304E-1,1.0081506E0,8.805568E-1,1.8921186E0,1.7513578E0,8.213182E1,1.3542839E1,1.5152276E0,-7.434946E-4,-1.1566926E0,-1.089419E1,-6.2953025E-1,1.7299354E0,-6.568133E-1,-9.2005944E-1,9.992568E-1,1.4872344E1,1.4143969E0,6.5037787E-1,1.3661932E0,7.9489434E-1,-6.6783947E-1,-6.5246135E-1,-3.9899972E-1,-3.0852507E1,7.713438E-1,3.658711E-1,6.953375E-1,4.9925664E-1,-1.2283363E0,9.992568E-1,1.8475103E0,2.3833039E0,-7.076068E-1,1.1464763E1,1.8770539E0,9.525242E0,4.4465904E0,-1.0745762E1,-1.0938305E1,-1.6809347E1,1.9199097E0,-6.765589E0,-4.253373E0,-7.890209E0,-6.5139017E0,-1.1000425E1,-8.076071E-1,-6.1588783E0,-3.3833015E0,-1.0460627E1,-7.267391E0,-4.0521755E0,1.0367875E0,-2.2608929E0,-4.140134E0,1.3527263E1,2.614773E0,6.887376E0,5.0198336E0,2.1688215E1,-4.391806E0,3.2249334E0,4.405315E0,9.707673E0,1.9562347E1,8.531768E0,2.7530367E0,1.1040379E1,1.066547E0,-6.6444116E0,1.3171051E1,1.9671728E1,2.8369375E1,1.2578567E1,8.346627E0,1.7148094E1,5.6604333E0,-9.638469E0,1.4309041E1,3.9716354E1],"split_indices":[9,9,10,9,3,9,7,6,3,9,4,5,5,4,5,3,8,4,10,3,3,10,9,10,10,7,10,0,0,8,4,8,0,7,8,10,9,4,0,5,3,5,3,7,9,9,0,9,5,10,4,3,4,9,9,5,0,0,0,0,0,0,0,0,0,0,0,0,0,0,0,0,0,0,0,0,0,0,0,0,0,0,0,0,0,0,0,0,0,0,0,0,0,0,0,0,0,0,0,0,0,0,0],"split_type":[0,0,0,0,0,0,0,0,0,0,0,0,0,0,0,0,0,0,0,0,0,0,0,0,0,0,0,0,0,0,0,0,0,0,0,0,0,0,0,0,0,0,0,0,0,0,0,0,0,0,0,0,0,0,0,0,0,0,0,0,0,0,0,0,0,0,0,0,0,0,0,0,0,0,0,0,0,0,0,0,0,0,0,0,0,0,0,0,0,0,0,0,0,0,0,0,0,0,0,0,0,0,0],"sum_hessian":[3.21E3,2.295E3,9.15E2,6.61E2,1.634E3,8.92E2,2.3E1,4.43E2,2.18E2,1.26E3,3.74E2,5.92E2,3E2,9E0,1.4E1,5E1,3.93E2,1.31E2,8.7E1,6.46E2,6.14E2,2.8E2,9.4E1,3.89E2,2.03E2,1.76E2,1.24E2,7E0,2E0,9E0,5E0,1.7E1,3.3E1,3.87E2,6E0,8.7E1,4.4E1,8.4E1,3E0,2.97E2,3.49E2,4.91E2,1.23E2,2.73E2,7E0,9.3E1,1E0,3.42E2,4.7E1,1.35E2,6.8E1,1.36E2,4E1,1.11E2,1.3E1,7E0,2E0,1E0,4E0,8E0,9E0,3.82E2,5E0,1E0,5E0,2.5E1,6.2E1,7E0,3.7E1,2.8E1,5.6E1,2.81E2,1.6E1,2.47E2,1.02E2,3.6E2,1.31E2,1.21E2,2E0,1.16E2,1.57E2,1E0,6E0,6.8E1,2.5E1,1.42E2,2E2,3.1E1,1.6E1,1.12E2,2.3E1,3.5E1,3.3E1,9.7E1,3.9E1,3.1E1,9E0,7.3E1,3.8E1,1E1,3E0,2E0,5E0],"tree_param":{"num_deleted":"0","num_feature":"13","num_nodes":"103","size_leaf_vector":"1"}},{"base_weights":[1.6651052E0,-3.5321594E1,9.052595E1,-9.074466E1,-1.757204E1,7.651092E1,2.4424936E2,-1.01233444E2,-6.451269E1,-2.3067657E1,8.045513E1,3.025621E1,9.954543E1,1.8521643E2,4.7983987E2,-9.7618225E1,-1.6305339E2,-6.6928474E1,4.5831356E1,-4.829981E1,-7.7404575E0,2.2279522E1,1.2365839E2,-2.1180819E1,4.446097E1,-8.5311874E1,1.0397329E2,2.3847217E2,1.473012E2,7.402042E1,3.1787067E2,-9.814187E1,4.7803164E0,-1.681913E1,-3.2716599E0,-8.717791E1,-5.7668007E1,5.072037E-1,8.405466E0,-5.973864E1,-3.1609947E1,-1.8071608E1,3.362246E1,-4.3900276E1,6.822856E1,9.567895E1,2.0894993E1,-4.8518234E1,3.58044E1,4.137269E1,2.6023252E1,-2.4137136E1,1.2490494E0,9.073406E1,1.4558267E2,1.8092863E1,2.9526135E2,2.459522E2,1.2950797E2,3.536259E1,1.6689255E1,-7.8589034E0,-1.008903E1,-7.297891E0,-1.1260385E1,-5.241528E0,-1.1079135E1,-7.18809E0,-4.430448E0,-6.697973E0,-1.9652771E0,-3.7573728E-1,-3.3328075E0,1.4292716E0,5.4816837E0,1.1921832E1,-6.1546335E0,-7.7675605E-1,9.399214E0,6.9853396E0,1.6875282E1,-1.8818344E0,-1.9857218E1,1.5075078E1,1.5770531E0,1.4853673E0,6.0787053E0,-1.0886734E1,6.3994265E0,7.7510796E0,1.219177E1,5.907171E0,1.6392078E1,3.4747456E1,1.1701957E1,2.8403889E1,4.6802735E0,-3.688034E-1,1.617859E1],"categories":[],"categories_nodes":[],"categories_segments":[],"categories_sizes":[],"default_left":[0,0,0,0,0,0,0,0,0,0,0,0,0,0,0,0,0,0,0,0,0,0,0,0,0,0,0,0,0,0,0,0,0,0,0,0,0,0,0,0,0,0,0,0,0,0,0,0,0,0,0,0,0,0,0,0,0,0,0,0,0,0,0,0,0,0,0,0,0,0,0,0,0,0,0,0,0,0,0,0,0,0,0,0,0,0,0,0,0,0,0,0,0,0,0,0,0,0,0],"id":17,"left_children":[1,3,5,7,9,11,13,15,17,19,21,23,25,27,29,31,33,35,37,39,41,43,45,47,49,51,53,55,57,-1,59,61,-1,-1,-1,63,65,-1,-1,67,69,71,73,75,77,79,-1,81,83,85,-1,-1,87,89,91,-1,93,95,97,-1,-1,-1,-1,-1,-1,-1,-1,-1,-1,-1,-1,-1,-1,-1,-1,-1,-1,-1,-1,-1,-1,-1,-1,-1,-1,-1,-1,-1,-1,-1,-1,-1,-1,-1,-1,-1,-1,-1,-1],"loss_changes":[1.0500818E7,2.217711E6,2.0043295E6,1.439715E5,9.2306675E5,9.1541E5,9.959185E5,7.102175E4,4.545175E4,6.261421E5,2.2596212E5,2.1136916E5,4.795205E5,9.410175E4,3.9727575E5,3.28665E4,7.8905625E3,2.4225625E4,5.805495E3,1.14950125E5,4.3178006E5,1.2463119E5,1.04101125E5,9.988036E4,1.3983172E5,1.8942262E5,2.963835E5,2.8274875E4,3.8360062E4,0E0,3.6325E2,1.1901E4,0E0,0E0,0E0,8.750375E3,2.4887469E4,0E0,0E0,6.4656125E4,1.0483728E5,1.7632953E5,8.197228E4,5.627025E4,4.7720445E4,6.558616E4,0E0,1.8789638E5,4.5981812E4,1.1442341E5,0E0,0E0,7.605965E4,1.674475E5,2.02901E5,0E0,6.1711062E4,2.4630906E4,1.5537125E5,0E0,0E0,0E0,0E0,0E0,0E0,0E0,0E0,0E0,0E0,0E0,0E0,0E0,0E0,0E0,0E0,0E0,0E0,0E0,0E0,0E0,0E0,0E0,0E0,0E0,0E0,0E0,0E0,0E0,0E0,0E0,0E0,0E0,0E0,0E0,0E0,0E0,0E0,0E0,0E0],"parents":[2147483647,0,0,1,1,2,2,3,3,4,4,5,5,6,6,7,7,8,8,9,9,10,10,11,11,12,12,13,13,14,14,15,15,16,16,17,17,18,18,19,19,20,20,21,21,22,22,23,23,24,24,25,25,26,26,27,27,28,28,30,30,31,31,35,35,36,36,39,39,40,40,41,41,42,42,43,43,44,44,45,45,47,47,48,48,49,49,52,52,53,53,54,54,56,56,57,57,58,58],"right_children":[2,4,6,8,10,12,14,16,18,20,22,24,26,28,30,32,34,36,38,40,42,44,46,48,50,52,54,56,58,-1,60,62,-1,-1,-1,64,66,-1,-1,68,70,72,74,76,78,80,-1,82,84,86,-1,-1,88,90,92,-1,94,96,98,-1,-1,-1,-1,-1,-1,-1,-1,-1,-1,-1,-1,-1,-1,-1,-1,-1,-1,-1,-1,-1,-1,-1,-1,-1,-1,-1,-1,-1,-1,-1,-1,-1,-1,-1,-1,-1,-1,-1,-1],"split_conditions":[4.1952398E-1,-4.3497518E-1,6.510537E0,-1.1954845E0,1.0595105E0,7.078949E-1,3.3624537E0,1.2218269E0,1.2253667E0,-4.913848E-1,1.0305057E0,-3.5286957E-1,-5.2539015E-1,-1.3728528E0,1.3729602E0,5.1510155E-1,-6.502704E-1,-6.9467175E-1,1.6619933E0,9.394108E-1,7.9489434E-1,1.5809815E-1,2.063552E0,1.018434E0,6.8619823E-1,1.0827936E0,8.4363437E-1,1.0595105E0,-3.2171753E-1,7.402042E1,1.539084E0,-1.2233361E0,4.7803164E0,-1.681913E1,-3.2716599E0,-1.0005944E0,2.3782417E-1,5.072037E-1,8.405466E0,-6.715755E-1,-9.2005944E-1,-2.16721E-1,7.2198623E-1,-1.2254117E0,-5.0575393E-1,6.563961E-1,2.0894993E1,9.483488E-1,7.605762E-1,6.7398113E-1,2.6023252E1,-2.4137136E1,-1.2283363E0,1.4190348E0,-5.2124405E-1,1.8092863E1,1.2723258E0,2.475013E0,2.508368E-1,3.536259E1,1.6689255E1,-7.8589034E0,-1.008903E1,-7.297891E0,-1.1260385E1,-5.241528E0,-1.1079135E1,-7.18809E0,-4.430448E0,-6.697973E0,-1.9652771E0,-3.7573728E-1,-3.3328075E0,1.4292716E0,5.4816837E0,1.1921832E1,-6.1546335E0,-7.7675605E-1,9.399214E0,6.9853396E0,1.6875282E1,-1.8818344E0,-1.9857218E1,1.5075078E1,1.5770531E0,1.4853673E0,6.0787053E0,-1.0886734E1,6.3994265E0,7.7510796E0,1.219177E1,5.907171E0,1.6392078E1,3.4747456E1,1.1701957E1,2.8403889E1,4.6802735E0,-3.688034E-1,1.617859E1],"split_indices":[11,1,0,1,10,6,10,10,6,11,1,1,1,3,3,10,3,11,3,3,3,11,10,11,1,10,10,10,8,0,8,6,0,0,0,5,8,0,0,11,11,3,1,5,3,8,0,11,10,11,0,0,3,11,8,0,8,10,8,0,0,0,0,0,0,0,0,0,0,0,0,0,0,0,0,0,0,0,0,0,0,0,0,0,0,0,0,0,0,0,0,0,0,0,0,0,0,0,0],"split_type":[0,0,0,0,0,0,0,0,0,0,0,0,0,0,0,0,0,0,0,0,0,0,0,0,0,0,0,0,0,0,0,0,0,0,0,0,0,0,0,0,0,0,0,0,0,0,0,0,0,0,0,0,0,0,0,0,0,0,0,0,0,0,0,0,0,0,0,0,0,0,0,0,0,0,0,0,0,0,0,0,0,0,0,0,0,0,0,0,0,0,0,0,0,0,0,0,0,0,0],"sum_hessian":[3.193E3,2.255E3,9.38E2,5.46E2,1.709E3,8.61E2,7.7E1,3.88E2,1.58E2,1.619E3,9E1,2.87E2,5.74E2,6.3E1,1.4E1,3.69E2,1.9E1,1.55E2,3E0,6.11E2,1.008E3,3.9E1,5.1E1,6.2E1,2.25E2,1.3E1,5.61E2,2.4E1,3.9E1,4E0,1E1,3.68E2,1E0,1.8E1,1E0,4.6E1,1.09E2,2E0,1E0,3.61E2,2.5E2,8.07E2,2.01E2,1.6E1,2.3E1,4E1,1.1E1,4.2E1,2E1,2.23E2,2E0,4E0,9E0,4.28E2,1.33E2,1.4E1,1E1,4E0,3.5E1,7E0,3E0,4.9E1,3.19E2,3.2E1,1.4E1,1.01E2,8E0,2E2,1.61E2,6.2E1,1.88E2,4.17E2,3.9E2,1.06E2,9.5E1,1E0,1.5E1,6E0,1.7E1,3.1E1,9E0,3.6E1,6E0,2E0,1.8E1,9.5E1,1.28E2,3E0,6E0,3.03E2,1.25E2,2.4E1,1.09E2,7E0,3E0,3E0,1E0,7E0,2.8E1],"tree_param":{"num_deleted":"0","num_feature":"13","num_nodes":"99","size_leaf_vector":"1"}},{"base_weights":[1.107187E0,-3.9833534E1,6.468067E1,-7.75308E1,-2.1112087E1,4.5349174E1,1.4772151E2,-8.871234E1,-5.5572166E1,-3.5219925E1,-2.7891874E0,3.0219693E2,4.2534786E1,1.2969296E2,4.5116446E2,-7.166903E1,-9.1118225E1,-8.483422E1,-4.4527683E1,-5.020595E1,-9.626933E0,-1.6486818E1,2.3917936E1,1.1564044E1,3.5770053E2,1.1910711E1,6.87862E1,1.4987805E2,7.707967E1,5.7022064E1,2.6765622E2,-4.5152058E1,-9.330794E0,-9.037687E1,-1.3709918E1,-6.226517E1,-9.377439E1,-2.2601763E1,-5.72935E1,-5.422952E1,-2.7267265E1,-2.8116543E1,5.6416726E0,-2.0063148E1,5.6551777E1,4.3644657E1,-1.4420347E1,1.5745349E1,4.4635807E1,2.3425026E1,-9.258694E0,-1.58214E2,7.074256E1,1.4158011E2,2.6267853E2,3.04674E1,1.13782135E2,2.7289064E0,3.0316923E1,3.470075E1,-7.252861E0,-9.06225E0,2.5219727E-2,2.891012E0,-7.400188E0,-9.769763E0,-1.1514134E0,3.3418638E-1,-4.7028346E0,-7.6040344E0,-4.2023983E0,-4.968536E0,-6.8007135E0,8.595484E0,-3.1730108E0,-4.128862E0,-6.8437594E-1,-2.9888954E0,1.1565583E0,-1.2513832E0,-4.4988694E0,-2.5886872E-1,1.1597987E1,3.0755553E0,1.1664709E1,1.298956E1,-2.3214777E0,6.0404116E-1,5.2246075E0,1.7779163E0,-4.6979427E0,-6.1403093E0,-2.7272882E1,7.392826E0,-2.6634777E0,1.4355804E1,-8.052203E0,9.587833E0,2.923938E1,9.331893E0,-4.8028564E0,1.2812761E1,-3.3013535E0],"categories":[],"categories_nodes":[],"categories_segments":[],"categories_sizes":[],"default_left":[0,0,0,0,0,0,0,0,0,0,0,0,0,0,0,0,0,0,0,0,0,0,0,0,0,0,0,0,0,0,0,0,0,0,0,0,0,0,0,0,0,0,0,0,0,0,0,0,0,0,0,0,0,0,0,0,0,0,0,0,0,0,0,0,0,0,0,0,0,0,0,0,0,0,0,0,0,0,0,0,0,0,0,0,0,0,0,0,0,0,0,0,0,0,0,0,0,0,0,0,0,0,0],"id":18,"left_children":[1,3,5,7,9,11,13,15,17,19,21,23,25,27,29,31,33,35,37,39,41,43,45,-1,47,49,51,53,55,-1,57,59,-1,61,-1,63,65,67,69,71,73,75,77,79,81,83,85,-1,-1,87,89,91,93,95,97,99,101,-1,-1,-1,-1,-1,-1,-1,-1,-1,-1,-1,-1,-1,-1,-1,-1,-1,-1,-1,-1,-1,-1,-1,-1,-1,-1,-1,-1,-1,-1,-1,-1,-1,-1,-1,-1,-1,-1,-1,-1,-1,-1,-1,-1,-1,-1],"loss_changes":[8.425057E6,1.38798E6,2.028826E6,1.5540175E5,3.4034175E5,7.31701E5,1.2489685E6,1.11425E4,6.8292625E4,2.8486825E5,2.1037752E5,7.25355E4,8.191845E5,2.295225E5,1.3139825E5,2.9067312E4,3.5825E2,6.2674062E3,4.460903E4,4.1807875E4,7.807633E4,1.0039445E5,1.4810564E5,0E0,7.1746625E4,1.15267445E5,2.5499975E5,1.1537975E5,1.0773441E5,0E0,5.1479906E4,3.257753E5,0E0,8.2815E3,0E0,2.354136E4,1.2106875E4,3.9447445E4,2.6288812E4,2.1539E4,3.910842E4,3.4743266E4,3.2338674E4,6.774303E4,6.3563125E4,1.1779322E5,8.805031E4,0E0,0E0,1.530035E5,1.711565E5,3.8685023E4,1.7103625E5,7.921225E4,2.1530812E4,1.5248972E5,8.0040625E4,0E0,0E0,0E0,0E0,0E0,0E0,0E0,0E0,0E0,0E0,0E0,0E0,0E0,0E0,0E0,0E0,0E0,0E0,0E0,0E0,0E0,0E0,0E0,0E0,0E0,0E0,0E0,0E0,0E0,0E0,0E0,0E0,0E0,0E0,0E0,0E0,0E0,0E0,0E0,0E0,0E0,0E0,0E0,0E0,0E0,0E0],"parents":[2147483647,0,0,1,1,2,2,3,3,4,4,5,5,6,6,7,7,8,8,9,9,10,10,11,11,12,12,13,13,14,14,15,15,16,16,17,17,18,18,19,19,20,20,21,21,22,22,24,24,25,25,26,26,27,27,28,28,30,30,31,31,33,33,35,35,36,36,37,37,38,38,39,39,40,40,41,41,42,42,43,43,44,44,45,45,46,46,49,49,50,50,51,51,52,52,53,53,54,54,55,55,56,56],"right_children":[2,4,6,8,10,12,14,16,18,20,22,24,26,28,30,32,34,36,38,40,42,44,46,-1,48,50,52,54,56,-1,58,60,-1,62,-1,64,66,68,70,72,74,76,78,80,82,84,86,-1,-1,88,90,92,94,96,98,100,102,-1,-1,-1,-1,-1,-1,-1,-1,-1,-1,-1,-1,-1,-1,-1,-1,-1,-1,-1,-1,-1,-1,-1,-1,-1,-1,-1,-1,-1,-1,-1,-1,-1,-1,-1,-1,-1,-1,-1,-1,-1,-1,-1,-1,-1,-1],"split_conditions":[1.0414049E-1,-7.7371675E-1,1.5096279E0,-1.0371337E0,-3.648925E-1,-1.2254117E0,5.68902E0,-1.2233361E0,-3.648925E-1,3.658711E-1,-7.308476E-2,-3.2822385E-1,7.078949E-1,1.2248672E0,1.3107197E0,-1.1566926E0,-6.2953025E-1,-8.870079E-1,9.992568E-1,-1.6226299E-1,-1.2652858E-1,2.7817872E0,-1.0005944E0,1.1564044E1,-3.6812606E-1,4.9925664E-1,-5.6153715E-1,2.3317368E0,5.674767E-1,5.7022064E1,2.466757E0,3.6069956E0,-9.330794E0,-7.579788E-1,-1.3709918E1,-9.044553E-1,-3.0953547E-1,-8.1951106E-1,3.6692312E-1,9.992568E-1,-1.0005944E0,1.00005E0,-5.3588504E-1,1.2248672E0,-5.0784206E-1,-4.1804023E-2,-1.2965616E0,1.5745349E1,4.4635807E1,5.764193E-1,1.015306E-3,9.992568E-1,3.6069956E0,2.413097E0,-2.722255E-4,6.2154103E-2,1.5694467E0,2.7289064E0,3.0316923E1,3.470075E1,-7.252861E0,-9.06225E0,2.5219727E-2,2.891012E0,-7.400188E0,-9.769763E0,-1.1514134E0,3.3418638E-1,-4.7028346E0,-7.6040344E0,-4.2023983E0,-4.968536E0,-6.8007135E0,8.595484E0,-3.1730108E0,-4.128862E0,-6.8437594E-1,-2.9888954E0,1.1565583E0,-1.2513832E0,-4.4988694E0,-2.5886872E-1,1.1597987E1,3.0755553E0,1.1664709E1,1.298956E1,-2.3214777E0,6.0404116E-1,5.2246075E0,1.7779163E0,-4.6979427E0,-6.1403093E0,-2.7272882E1,7.392826E0,-2.6634777E0,1.4355804E1,-8.052203E0,9.587833E0,2.923938E1,9.331893E0,-4.8028564E0,1.2812761E1,-3.3013535E0],"split_indices":[11,11,11,11,6,5,10,6,6,5,10,8,6,5,7,8,7,11,4,11,8,8,5,0,7,4,10,10,8,0,7,2,0,7,0,7,7,11,6,4,5,5,10,5,7,11,7,0,0,11,6,4,2,8,5,8,8,0,0,0,0,0,0,0,0,0,0,0,0,0,0,0,0,0,0,0,0,0,0,0,0,0,0,0,0,0,0,0,0,0,0,0,0,0,0,0,0,0,0,0,0,0,0],"split_type":[0,0,0,0,0,0,0,0,0,0,0,0,0,0,0,0,0,0,0,0,0,0,0,0,0,0,0,0,0,0,0,0,0,0,0,0,0,0,0,0,0,0,0,0,0,0,0,0,0,0,0,0,0,0,0,0,0,0,0,0,0,0,0,0,0,0,0,0,0,0,0,0,0,0,0,0,0,0,0,0,0,0,0,0,0,0,0,0,0,0,0,0,0,0,0,0,0,0,0,0,0,0,0],"sum_hessian":[3.235E3,1.968E3,1.267E3,6.52E2,1.316E3,1.029E3,2.38E2,4.3E2,2.22E2,7.43E2,5.73E2,1E1,1.019E3,2.26E2,1.2E1,5.7E1,3.73E2,5.9E1,1.63E2,4.68E2,2.75E2,3.79E2,1.94E2,3E0,7E0,4.71E2,5.48E2,1.62E2,6.4E1,6E0,6E0,2.7E1,3E1,3.7E2,3E0,1.9E1,4E1,6.1E1,1.02E2,3.97E2,7.1E1,1.24E2,1.51E2,3.62E2,1.7E1,1.28E2,6.6E1,3E0,4E0,3.05E2,1.66E2,4E0,5.44E2,1.53E2,9E0,2.9E1,3.5E1,1E0,5E0,1E0,2.6E1,3.69E2,1E0,2E0,1.7E1,3.8E1,2E0,3E1,3.1E1,4.4E1,5.8E1,3.02E2,9.5E1,2E0,6.9E1,7.6E1,4.8E1,2.1E1,1.3E2,2.79E2,8.3E1,9E0,8E0,1.1E2,1.8E1,3E0,6.3E1,1.91E2,1.14E2,9.7E1,6.9E1,3E0,1E0,5.27E2,1.7E1,1.52E2,1E0,2E0,7E0,1.6E1,1.3E1,