tree
version=v4
num_class=1
num_tree_per_iteration=1
label_index=0
max_feature_idx=12
objective=regression
feature_names=is_burst burst_ratio is_event hour_of_day day_of_week hour_sin hour_cos lag_requests_5m lag_requests_15m rolling_max_1h rolling_mean_1h lag_requests_6h lag_requests_1d
feature_infos=[0:1] [0:59.999929411847752] [0:1] [0:23] [0:6] [-1:1] [-1:1] [0:405] [0:405] [0:405] [0:248.66666666666666] [0:405] [0:405]
tree_sizes=4802 4830 4928 5004 4983 4910 4912 4644 4756 4911 4905 5016 4980 4771 4947 4857 5165 4643 4773 4743 4612 4760 4916 4744 4874 4858 4869 4946 4942 5020 5115 4628 4467 4458 4778 4674 4790 4776 4437 4627 4727 4351 4714 4703 4606 5161 4876 4521 4797 4882 3920 3662 4362 4276 4353 4014 4119 4786 4011 4348 3241 4264 4271 3774 3581 3941 4831 3584 4081 2985 3441 3162 3153 3857 2917 2908 3213 3245 3744 3323 3694 2175 4020 3334 3439 2971 4210 3153 3840 1834 2397 3032 2092 1814 2721 1717 2395 1915 1571 1828 2113 4365 1389 1582 1589 2074 2418 2155 3363 1553 1217 1208 1402 1537 2991 1651 1662 1747 1909 3521 1986 956 1799 1785 1806 867 1644 1561 778 2280 864 1896 781

Tree=0
num_leaves=55
num_cat=0
split_feature=10 10 10 10 1 10 10 10 1 1 1 1 1 1 10 1 1 1 1 1 10 10 1 10 10 10 10 10 1 1 1 10 10 1 10 1 1 1 1 1 1 1 1 1 1 1 1 7 7 10 10 10 6 5
split_gain=2.74457e+07 4.67818e+06 4.37194e+06 1.73597e+06 955053 855220 702648 571233 327656 301223 267035 266322 226083 162130 158670 103306 88571.6 86416.8 85399.1 75706.9 69615.5 69410.6 68005.4 59617.1 57138.4 55626.4 53925.5 43579.3 42326.9 41013.2 40737.2 39763.4 39696 30552.4 25947.7 25763.3 24509.9 21277.6 20631.4 18858.2 14546.1 14245.2 13570.4 13357.7 12636.2 11694.6 7634.08 5507.86 5266.53 4179.24 1227.85 248.36 72.2112 2.34858
threshold=44.82500000000001 77.675000000000026 20.258333333333336 147.16666666666671 0.10256439438222155 58.291666666666671 31.358333333333338 109.75833333333334 0.94049113954058394 1.1236339406811473 0.9187051780113461 0.76131491028766296 1.0491529676085372 1.115733609133376 89.458333333333357 0.27639157632905592 1.2906076689991759 0.42894345910171189 1.3030601592915039 0.27639157632905592 36.308333333333344 65.791666666666671 0.37707850423669026 66.75833333333334 26.025000000000002 13.741666666666669 50.925000000000004 25.275000000000002 1.4257317485398338 0.83499003059179833 0.9970727936246403 52.07500000000001 36.808333333333344 1.320914437312201 68.825000000000003 0.90405632316101581 0.62254884748755746 1.4611512771399515 0.63898935490947772 1.5977884662791519 1.3342991693614701 0.10256439438222155 1.8947367550742935 0.27639157632905592 1.0759372468711796 1.8202274383007999 0.50730205777971371 26.500000000000004 2.5000000000000004 9.8083333333333353 10.708333333333334 1.0000000180025095e-35 -0.12940952255126037 0.78656609248549325
decision_type=10 10 8 10 10 10 8 10 10 10 8 10 10 10 10 10 10 10 10 10 8 10 10 10 10 10 10 10 10 10 10 10 10 10 10 10 10 10 10 10 10 10 10 10 10 10 10 10 10 10 10 10 2 2
left_child=2 5 4 7 48 12 13 11 17 35 19 22 15 24 -13 -2 29 43 21 41 33 -10 -3 -19 36 44 40 42 -22 -9 46 -17 -21 -12 -20 -5 -4 -28 -26 -29 -14 -8 -15 -7 49 -32 -27 -46 51 -6 -50 53 -53 -1
right_child=1 3 6 9 25 8 10 16 18 -11 20 14 26 27 -16 31 -18 23 34 32 28 -23 -24 -25 38 30 37 39 -30 -31 45 -33 -34 -35 -36 -37 -38 -39 -40 -41 -42 -43 -44 -45 47 -47 -48 -49 50 -51 -52 52 -54 -55
leaf_value=36.469386136068024 37.154168753315652 38.529912482757801 37.343766614895699 43.728910104915997 36.823491708439917 37.720155379858582 36.664122981310378 41.474236976992415 39.679503557058524 48.679870197770633 38.248717174403083 40.721176749258028 39.011972370245694 37.796810646476501 41.416553142627457 38.710552547824882 44.213830753082107 39.268573395882768 40.255767232950618 37.952994333639509 38.600704209601211 40.13924375341935 40.106140168859639 39.682467710194835 37.607195052831209 37.128243837061248 39.469561593386651 38.068316649677627 39.035842745648388 42.483056236170896 37.444569055002013 39.02078853479653 38.234200235417056 38.576122154906791 40.735749813098288 45.117977868039446 37.602798826380841 39.912949028343682 37.852887030878158 38.371210987539172 39.347250235681699 37.498214982509758 38.186777473681367 38.672327337923178 37.173375263186941 37.695940332982204 37.289520374148481 37.637033212071721 36.580676459417766 37.027319333868476 36.861290898881052 36.52568243236432 36.471855271870496 36.471873698296619
leaf_weight=4450 92 76 1372 63 341 65 95 134 1448 62 2003 2206 870 1887 1306 2332 63 1661 782 2547 2572 1896 687 1827 1214 1033 1425 2057 714 406 2597 1854 2474 1106 440 71 2731 334 2885 685 515 111 253 85 1103 563 2533 68 62 958 105 270 81 1206
leaf_count=4450 92 76 1372 63 341 65 95 134 1448 62 2003 2206 870 1887 1306 2332 63 1661 782 2547 2572 1896 687 1827 1214 1033 1425 2057 714 406 2597 1854 2474 1106 440 71 2731 334 2885 685 515 111 253 85 1103 563 2533 68 62 958 105 270 81 1206
internal_value=38.3869 39.8653 37.6233 41.1844 36.9612 39.437 38.0352 40.999 39.7888 45.7982 38.3181 40.7958 39.0481 37.7839 40.9798 38.8115 42.4397 39.4348 40.0709 38.053 38.5348 39.9402 39.9491 39.4854 37.6481 37.2841 39.37 38.012 38.6953 42.2327 37.3586 38.848 38.0916 38.3652 40.4286 44.4649 37.5162 39.5538 37.7801 38.144 39.1366 37.1136 37.8429 38.2597 37.0812 37.4894 37.2428 37.2003 36.4801 36.9738 36.7571 36.4724 36.5133 36.4699
internal_weight=60776 20700 40076 5074 15370 15626 24706 4878 8204 196 11622 4275 7422 13084 3512 4278 603 3638 4566 5227 6395 3344 763 3488 8202 9196 3144 4882 3286 540 6726 4186 5021 3109 1222 134 4103 1759 4099 2742 1385 206 2140 150 2470 3160 3566 1171 6174 1299 167 6007 351 5656
internal_count=60776 20700 40076 5074 15370 15626 24706 4878 8204 196 11622 4275 7422 13084 3512 4278 603 3638 4566 5227 6395 3344 763 3488 8202 9196 3144 4882 3286 540 6726 4186 5021 3109 1222 134 4103 1759 4099 2742 1385 206 2140 150 2470 3160 3566 1171 6174 1299 167 6007 351 5656
is_linear=0
shrinkage=1


Tree=1
num_leaves=54
num_cat=0
split_feature=10 10 10 10 1 10 10 10 1 1 1 1 1 1 10 1 1 1 1 10 10 1 1 10 10 10 10 10 1 1 10 1 10 1 10 6 1 1 1 1 1 1 1 1 1 1 10 10 5 7 10 8 10
split_gain=2.47697e+07 4.22957e+06 3.94707e+06 1.5191e+06 882323 851020 616307 476661 302960 271853 243199 231630 220410 146865 116260 100466 95164.6 79935.9 77023 74083.5 64804.8 62582.1 59021 54834 53462.4 53330.5 48653.4 40321.3 37014.4 35323.4 34198.9 33641.3 30847.8 28205.8 27958.3 25633.3 23251.3 23020.3 17602.9 17166.4 15653.6 15488.4 13066.8 10816 10797.2 9123.68 7904.01 6893.82 6547.54 4804.33 1085.1 268.982 75.5497
threshold=44.82500000000001 78.858333333333334 20.475000000000005 147.16666666666671 0.10256439438222155 59.141666666666673 31.358333333333338 109.75833333333334 0.84974166226595338 1.1236339406811473 1.0491529676085372 0.74871642184972531 0.9731413746034695 0.83849014022980117 90.841666666666683 1.2615955122004963 0.27639157632905592 1.2906076689991759 0.27639157632905592 69.77500000000002 53.908333333333339 0.37707850423669026 0.46239344665326004 35.558333333333344 24.725000000000005 15.208333333333334 37.375000000000007 66.75833333333334 0.83499003059179833 1.4711032695274546 51.69166666666667 0.93700081294198811 68.825000000000003 1.2787077210656606 26.025000000000002 -0.70710678118654757 0.90405632316101581 1.2499999640757149 1.6675681817211789 0.27639157632905592 1.5553574456121326 1.0721512594239988 1.0000000180025095e-35 0.40592900149188782 1.8202274383007999 0.49851038966178268 10.708333333333334 9.8083333333333353 0.37940952255126054 2.5000000000000004 10.708333333333334 1.5000000000000002 1.0000000180025095e-35
decision_type=10 10 8 10 10 10 8 10 10 10 8 10 10 10 10 10 10 10 10 10 10 10 10 10 10 10 10 10 10 10 10 10 10 10 10 2 10 10 8 10 10 10 10 10 10 10 10 10 2 10 10 10 10
left_child=2 5 4 7 49 12 13 11 22 36 18 21 16 34 -13 19 -2 28 42 -10 33 -3 39 38 40 41 -20 -24 -9 -26 -18 48 -17 -14 43 -25 -5 -22 -12 -7 -15 47 -8 -4 -33 -36 -43 -6 -27 51 -51 52 -1
right_child=1 3 6 9 25 8 10 17 15 -11 23 14 20 24 -16 32 30 -19 26 -21 37 -23 27 35 29 31 -28 -29 -30 -31 -32 44 -34 -35 45 -37 -38 -39 -40 -41 -42 46 -44 -45 -46 -47 -48 -49 -50 50 -52 -53 -54
leaf_value=-1.8229654589923472 -1.1943915330893116 0.11017105356852214 -1.1261048138478003 5.07307821985275 -1.4873510362317459 -0.57633030195870716 -1.7787944117013148 2.9311389403556714 1.2863626200118805 9.7764903406943056 -0.047637222877987967 2.2836053091145354 0.62360375992272665 -0.66739141656525947 2.9103291231285633 1.7477606494224547 0.25785791021942711 5.5337528698028082 -0.35358891847501805 1.7181728442549415 1.0039705010053825 1.6475298725649823 0.76378711944370603 0.62351318269878142 -0.40894909849218303 -0.89496337152390848 -0.081051874645724442 1.1772622716710681 3.8895171856645292 -0.090303880091666539 0.56411839487036297 -0.87023893250376705 2.2178726910031989 0.96372587606219351 -0.82891047676836238 0.2659229677814684 6.3926925142046436 1.407693875410071 0.36054476189997892 0.41671405271308065 -0.37920333396951222 -1.2451886328036832 -0.93196854111940974 -0.8536200196060485 -0.60311681951976681 -0.60672480135743312 -1.0100874641313664 -1.2410395790057578 -1.1081972337115003 -1.7177435282737978 -1.4553086801811501 -1.7231193270002092 -1.7964033829359822
leaf_weight=5656 95 75 443 63 340 62 68 134 2526 62 1785 2053 1649 2294 1157 852 1852 63 3603 1637 893 564 1038 663 3929 428 3002 1365 406 1117 1795 2492 591 967 621 2053 71 584 310 146 593 505 138 2047 446 1805 1224 1727 2266 62 108 70 281
leaf_count=5656 95 75 443 63 340 62 68 134 2526 62 1785 2053 1649 2294 1157 852 1852 63 3603 1637 893 564 1038 663 3929 428 3002 1365 406 1117 1795 2492 591 967 621 2053 71 584 310 146 593 505 138 2047 446 1805 1224 1727 2266 62 108 70 281
internal_value=-0.00182211 1.40268 -0.727273 2.73088 -1.34865 1.01808 -0.331021 2.54122 1.37358 7.03892 -0.0671832 2.33644 0.645254 -0.569664 2.5095 1.58078 0.367899 3.84833 -0.259414 1.45616 0.898823 1.46709 0.928718 0.204961 -0.436593 -1.04433 -0.22972 0.998658 3.6517 -0.338413 0.408595 -0.946705 1.9403 0.749329 -0.784401 0.353214 5.77228 1.1636 0.012762 0.12071 -0.608197 -1.18918 -1.2115 -0.902098 -0.829689 -0.663599 -1.07875 -1.28156 -1.07432 -1.81314 -1.55102 -1.82056 -1.82171
internal_weight=60776 20700 40076 4648 15605 16052 24471 4452 8217 196 11622 3849 7835 12849 3210 5606 3742 603 6811 4163 4093 639 2611 4811 7933 9428 6605 2403 540 5046 3647 5632 1443 2616 4916 2716 134 1477 2095 208 2887 3796 206 2490 2938 2426 1729 2067 2694 6177 170 6007 5937
internal_count=60776 20700 40076 4648 15605 16052 24471 4452 8217 196 11622 3849 7835 12849 3210 5606 3742 603 6811 4163 4093 639 2611 4811 7933 9428 6605 2403 540 5046 3647 5632 1443 2616 4916 2716 134 1477 2095 208 2887 3796 206 2490 2938 2426 1729 2067 2694 6177 170 6007 5937
is_linear=0
shrinkage=0.05


Tree=2
num_leaves=55
num_cat=0
split_feature=10 10 10 10 1 10 10 10 1 3 1 1 1 1 10 1 1 10 1 1 1 10 10 10 1 10 10 1 1 10 1 10 1 1 1 1 1 1 10 1 10 1 1 1 5 10 10 5 1 7 10 10 6 5
split_gain=2.23549e+07 3.71024e+06 3.67119e+06 1.37099e+06 796296 718804 601400 430187 258870 247098 234224 215910 205538 134808 106773 106020 102166 89490.6 83201.7 76526 72142.1 56083.6 48870.3 48130.8 46065.2 45959.8 44533.1 43668 33981.2 32900 30396.3 28977.8 25059.4 24484.7 24295 24235.4 19630.3 18524.9 17608.8 16918.4 14980.8 14680.4 14369.2 11519.3 10047.5 7326.1 6977.72 6285.48 4797.88 4344.43 1205.12 147.447 49.7405 2.11963
threshold=45.50833333333334 78.858333333333334 20.475000000000005 147.16666666666671 0.10256439438222155 63.225000000000009 31.358333333333338 109.75833333333334 0.95846641233451579 13.500000000000002 1.056553076997409 0.9731413746034695 0.78199050186990482 1.115733609133376 53.908333333333339 0.48147881167295564 0.42894345910171189 85.308333333333351 1.1759011615140169 0.63898935490947772 1.2906076689991759 36.308333333333344 56.241666666666674 15.208333333333334 0.10256439438222155 39.225000000000009 26.025000000000002 1.2844741990312818 0.88518278394276784 26.208333333333336 0.96930530377569835 70.641666666666694 0.37707850423669026 0.10256439438222155 1.4257317485398338 1.2787077210656606 0.62857140462585159 1.6675681817211789 71.141666666666694 0.69614655050515806 72.791666666666671 1.6290597533122553 1.2844741990312818 1.8947367550742935 0.37940952255126054 9.8083333333333353 10.708333333333334 0.37940952255126054 0.92943199091635154 1.5000000000000002 10.708333333333334 1.0000000180025095e-35 -0.12940952255126037 0.78656609248549325
decision_type=10 10 8 10 10 10 8 10 10 2 8 10 10 10 10 10 10 10 10 10 10 10 10 10 10 10 10 10 10 10 10 10 10 10 10 10 10 10 10 10 10 10 10 10 2 10 10 2 10 10 10 10 2 2
left_child=2 5 4 7 49 8 13 11 16 -5 19 15 32 26 35 -3 33 -13 31 24 28 37 -18 42 -8 -21 36 -16 -9 43 47 -14 -7 -2 -23 -10 -4 -12 -20 -28 -34 -31 45 -15 -32 -6 -44 -25 -11 51 -51 53 -53 -1
right_child=1 3 6 9 23 12 10 20 14 48 21 17 18 29 27 -17 22 -19 38 25 -22 34 -24 30 -26 -27 39 -29 -30 41 44 -33 40 -35 -36 -37 -38 -39 -40 -41 -42 -43 46 -45 -46 -47 -48 -49 -50 50 -52 52 -54 -55
leaf_value=-1.7323209762573251 -1.2294770448204178 0.50398990398814492 -0.9393652081116759 9.1226908461135974 -1.3930125072890638 -0.054206074730438349 -1.5448534009432553 2.9174051723888388 0.60060961584582373 5.0820539671277247 -0.022139297489663066 2.1752359057831936 1.2884256045154248 -0.49711643965590169 1.033128007175087 1.9320861678000494 0.36024633461538402 2.8469648955670954 1.73738498182745 -0.23948185934359825 5.2570652356223455 0.27671223820825658 0.71634794814649849 -0.84362369637994183 -0.43885057818843054 0.074470201352215382 -0.68399987339595292 1.4653479968847698 3.7542645659339566 -0.26104631189131566 -0.62150231145839729 1.5902765051197039 0.82035335392168118 -0.19603265854530039 0.61204098981681132 0.92750697264308757 -0.70501105347630411 0.37357493305214867 2.0896684601449884 -0.47311762973190324 1.1823405001695042 0.045934494686943876 -1.1632807843514332 -0.16320392941808132 -0.83823962841484134 -1.1615505028970012 -0.91303878129557448 -1.0471819887584153 5.6943656539916994 -1.6429367361841978 -1.3838197189464905 -1.6866247964283776 -1.7316654205322266 -1.729957773357284
leaf_weight=4450 81 141 1359 68 408 68 99 184 1581 63 1970 842 1756 2180 1780 1660 2568 1206 885 3332 63 1832 1542 451 1920 1793 1500 870 356 1813 720 1453 949 196 766 884 2609 348 592 2599 409 496 410 293 2078 2109 869 2383 65 74 114 252 81 1206
leaf_count=4450 81 141 1359 68 408 68 99 184 1581 63 1970 842 1756 2180 1780 1660 2568 1206 885 3332 63 1832 1542 451 1920 1793 1500 870 356 1813 720 1453 949 196 766 884 2609 348 592 2599 409 496 410 293 2078 2109 869 2383 65 74 114 252 81 1206
internal_value=-0.001731 1.35424 -0.679886 2.59434 -1.28122 0.985093 -0.303161 2.41416 0.713009 6.68697 -0.0495698 2.21962 1.40809 -0.541181 0.954702 1.82028 0.431208 2.5708 1.56804 -0.232358 3.65591 0.21606 0.493849 -0.992118 -0.493083 -0.129645 -0.665874 1.17503 3.46911 -0.330829 -0.89937 1.4251 0.882473 -0.498231 0.375581 0.717842 -0.785275 0.0372691 1.87858 -0.550288 0.929376 -0.195103 -1.12972 -0.457555 -0.782467 -1.19907 -0.993257 -1.01479 5.39299 -1.72248 -1.48581 -1.72991 -1.69758 -1.73182
internal_weight=60776 20262 40514 4648 15605 15614 24909 4452 9502 196 12060 3849 6112 12849 5115 1801 4387 2048 4686 7144 603 4916 4110 9428 2019 5125 8067 2650 540 4782 5632 3209 1426 277 2598 2465 3968 2318 1477 4099 1358 2309 3796 2473 2798 2517 1279 2834 128 6177 188 5989 333 5656
internal_count=60776 20262 40514 4648 15605 15614 24909 4452 9502 196 12060 3849 6112 12849 5115 1801 4387 2048 4686 7144 603 4916 4110 9428 2019 5125 8067 2650 540 4782 5632 3209 1426 277 2598 2465 3968 2318 1477 4099 1358 2309 3796 2473 2798 2517 1279 2834 128 6177 188 5989 333 5656
is_linear=0
shrinkage=0.05


Tree=3
num_leaves=56
num_cat=0
split_feature=10 10 10 10 1 10 0 10 1 1 1 1 1 10 1 10 10 1 1 1 1 1 10 10 10 1 1 1 10 1 10 1 1 10 10 10 1 10 1 1 1 1 6 1 1 1 5 1 7 7 10 7 10 1 10
split_gain=2.01845e+07 3.54947e+06 3.1189e+06 1.30786e+06 702609 629099 538340 479613 267316 230934 204126 148914 143487 135499 114780 81259.9 74622.1 70913 70005.1 55513.7 53621.6 48969.7 46136.6 42137.4 40614 39627.7 37415.4 37081.9 33598.6 32393.8 31463.9 29364 29317.4 28295.1 26474.4 20449.6 20214.6 20093.1 19226.5 14305.1 11843.7 11567.2 11316.6 9433.57 9194.2 8657.84 7286 6015.92 4901.13 4031.06 2647.79 845.838 488.034 133.625 114.221
threshold=44.125000000000007 76.27500000000002 20.258333333333336 147.16666666666671 0.16507618434683199 56.241666666666674 1.0000000180025095e-35 30.775000000000002 0.94420597481380641 1.1236339406811473 0.90405632316101581 0.56777615153773697 1.0491529676085372 96.40000000000002 0.82753426381959339 102.05833333333335 64.791666666666671 0.46239344665326004 0.27639157632905592 1.2906076689991759 1.3641192329232086 0.21105084893662898 66.75833333333334 24.541666666666671 13.741666666666669 0.30150752210442106 1.2844741990312818 1.3713938498597458 40.108333333333341 0.64420794734204323 50.541666666666671 1.4177113273140287 1.2667079032123747 36.808333333333344 36.308333333333344 85.308333333333351 0.90405632316101581 24.158333333333335 0.21105084893662898 1.3567838650539155 1.9382021791361599 0.21105084893662898 1.0000000180025095e-35 1.0000000180025095e-35 0.69097885359986322 1.0759372468711796 0.37940952255126054 0.34149705337048603 26.500000000000004 16.500000000000004 9.0083333333333346 2.5000000000000004 13.741666666666669 0.10256439438222155 1.0000000180025095e-35
decision_type=10 10 8 10 10 10 2 8 10 10 8 10 10 10 10 10 10 10 10 8 10 10 10 10 10 10 10 10 10 10 10 10 10 10 10 10 10 10 10 10 10 10 2 10 10 10 2 10 10 10 10 10 10 10 10
left_child=2 5 4 6 43 12 11 14 17 36 21 25 18 -13 37 35 26 38 -2 28 -17 49 -19 40 45 -3 -10 -18 -12 -20 42 -25 44 -23 -21 -8 -5 47 -7 -32 -16 -39 -14 51 -26 50 -34 -4 -47 -9 -6 54 -45 -54 -1
right_child=1 3 7 9 24 8 15 10 16 -11 19 13 30 -15 23 20 27 22 29 34 -22 33 -24 31 32 -27 -28 -29 -30 -31 39 -33 46 -35 -36 -37 -38 41 -40 -41 -42 -43 -44 52 -46 48 -48 -49 -50 -51 -52 -53 53 -55 -56
leaf_value=-1.6452263130325577 -1.082989360911123 -0.17717027720333875 -1.1078176500765902 4.5332531115365411 -1.3682772828472984 -0.75701766077369925 2.3248381144102708 -1.5245572070000879 1.0494767670370375 8.8757676770610185 -0.090433436643198264 1.8929133987928255 0.76300928571618598 2.6649589244276286 -0.58952179761527246 3.484758314673984 1.4833017760280103 0.72979025344559278 0.050065748329241266 0.13573340218747373 5.0466790282537071 -0.40443846160519148 1.0849339087590992 -0.3968710917475316 -1.0334794323510312 1.1870054376179697 1.4745542070594631 1.9728881387587855 0.24989383215070668 0.41001270632430531 0.83208969822860901 -0.11695251054562764 -0.55708381559861131 -0.1659341313570738 0.46365114720813899 2.9984503633267172 5.7636801326778579 -1.1943228647583408 0.26476707084877799 1.1790527731474749 -0.18140064766532496 -0.63357591940344149 0.48648379114713319 -1.4118397308798398 -0.89001162924703214 -1.0452274009125841 -0.77430509853965834 -0.83099547931673468 -0.60785183501155948 -0.97510185686368789 -1.175783729765272 -1.483775338956288 -1.315616025030613 -1.2194671406803361 -1.6151783057824891
leaf_weight=5656 89 69 228 63 216 63 162 71 1619 62 3281 3267 665 688 2761 430 2063 2064 788 1374 63 2780 1642 3580 1828 233 761 476 931 3023 961 1269 531 2250 1115 370 71 95 171 430 190 2881 834 85 2870 1103 1414 1410 68 63 1033 84 64 83 335
leaf_count=5656 89 69 228 63 216 63 162 71 1619 62 3281 3267 665 688 2761 430 2063 2064 788 1374 63 2780 1642 3580 1828 233 761 476 931 3023 961 1269 531 2250 1115 370 71 95 171 430 190 2881 834 85 2870 1103 1414 1410 68 63 1033 84 64 83 335
internal_value=-0.00164446 1.24663 -0.666788 2.34201 -1.22414 0.863187 2.19319 -0.31395 1.14073 6.35262 -0.0866378 1.9455 0.501074 2.02722 -0.531209 3.22189 1.38654 0.833841 0.303214 0.0954198 3.68435 -0.322883 0.887142 -0.414275 -0.942134 0.875323 1.18539 1.57509 -0.0152092 0.335587 0.768083 -0.323615 -0.87825 -0.297752 0.282631 2.79333 5.1852 -0.728886 -0.0103288 0.939346 -0.563245 -0.651476 0.609159 -1.62939 -0.945835 -1.1175 -0.715002 -0.869528 -1.01983 -1.26623 -1.20907 -1.64134 -1.31647 -1.26133 -1.64355
internal_weight=60776 21127 39649 5478 15370 15649 5282 24279 8859 196 11865 4257 6790 3955 12414 1025 4919 3940 3900 6701 493 5164 3706 7800 9063 302 2380 2539 4212 3811 2890 4849 6643 5030 2489 532 134 4614 234 1391 2951 2976 1499 6307 4698 2420 1945 1638 1171 134 1249 6075 232 147 5991
internal_count=60776 21127 39649 5478 15370 15649 5282 24279 8859 196 11865 4257 6790 3955 12414 1025 4919 3940 3900 6701 493 5164 3706 7800 9063 302 2380 2539 4212 3811 2890 4849 6643 5030 2489 532 134 4614 234 1391 2951 2976 1499 6307 4698 2420 1945 1638 1171 134 1249 6075 232 147 5991
is_linear=0
shrinkage=0.05


Tree=4
num_leaves=56
num_cat=0
split_feature=10 10 10 9 9 10 10 0 3 10 6 10 5 10 10 10 6 6 9 6 6 6 10 7 5 10 9 0 10 0 7 10 7 7 7 10 3 9 9 12 9 4 12 7 12 7 9 9 10 7 10 5 9 3 9
split_gain=1.82289e+07 3.31199e+06 2.75615e+06 1.04991e+06 833352 697930 468647 255233 253102 121949 117413 90397.2 81120.8 71997.9 59147.9 49063.7 46782.8 46434.7 41004.2 40927.2 40843.5 39603.7 31419 27560.6 26629.7 21946.4 19320.2 18583.3 18053.7 17987.1 14539.3 13360.2 13057.4 12910.4 12174.6 10568.8 10160.9 9336.15 8688.12 8131.79 7869.53 7334.21 6589.32 6443.08 6321.36 4909.73 4906.7 4219.72 4071.97 3915.26 2962.82 1982.02 157.619 58.5046 4.58219
threshold=48.208333333333343 23.041666666666671 85.308333333333351 216.00000000000003 21.500000000000004 64.25833333333334 35.108333333333341 1.0000000180025095e-35 13.500000000000002 73.408333333333346 -0.5 55.82500000000001 0.78656609248549325 17.408333333333335 109.75833333333334 42.108333333333341 0.37940952255126048 0.37940952255126048 169.50000000000003 0.25881904510252057 -0.3794095225512602 -0.9159756150367534 30.208333333333336 62.500000000000007 0.37940952255126054 27.991666666666671 98.500000000000014 1.0000000180025095e-35 26.925000000000004 1.0000000180025095e-35 26.500000000000004 13.741666666666669 16.500000000000004 20.500000000000004 49.500000000000007 39.225000000000009 13.500000000000002 141.50000000000003 103.50000000000001 1.0000000180025095e-35 135.50000000000003 4.5000000000000009 93.500000000000014 17.500000000000004 60.500000000000007 96.500000000000014 175.50000000000003 87.500000000000014 31.991666666666671 17.500000000000004 5.741666666666668 0.98296291314453421 9.5000000000000018 12.500000000000002 2.0000000000000004
decision_type=10 8 10 10 10 10 8 2 2 10 2 10 2 10 10 8 2 2 10 2 2 2 10 10 2 10 10 2 10 2 8 10 8 8 8 10 2 10 10 10 10 2 10 10 10 10 10 10 10 10 10 2 10 2 10
left_child=1 4 5 7 50 11 12 14 -5 16 35 20 21 31 23 30 27 29 37 38 26 28 -23 -4 41 51 -2 -7 -3 -11 -12 39 -17 -22 -21 36 -8 -9 -13 -6 -18 -15 -10 -26 -20 -19 -16 -37 -27 -33 52 -14 54 -54 -1
right_child=2 6 3 8 13 9 10 18 42 17 15 19 25 24 46 32 40 45 44 34 33 22 -24 -25 43 48 -28 -29 -30 -31 -32 49 -34 -35 -36 47 -38 -39 -40 -41 -42 -43 -44 -45 -46 -47 -48 -49 -50 -51 -52 -53 53 -55 -56
leaf_value=-1.5629692453010204 0.65211313236858337 -0.28671431177015444 1.4249955652004227 8.1792779131633484 -0.49885811744228248 1.3078171307087905 0.41239693230114532 2.4772368405546463 5.0773010410959758 1.6820066139283683 -0.26016664540400497 0.91696405837595985 -0.62390003460393639 -0.43223928965029024 3.1031344058562298 -0.50602219081011368 0.93829650899889061 1.2429063070244404 3.8659816004566312 0.5272061755687617 -0.17330085466425105 -0.41440537442490666 -0.22307661844775459 2.0667801366696854 -0.85891065487253049 -0.48121875079875986 1.0512927302797188 2.1516560269825495 0.079446959914609649 2.1998021798239229 -0.047185384633451566 -0.94783120905145213 0.19074825063631032 0.4599538919770309 0.79856388079366625 0.46489490760190011 -0.047819089144468307 2.9694280082932569 1.1095851034418713 -1.0744962664720601 1.3350061219671501 -0.63991567807124883 4.3936366450786597 -0.73796555058752056 3.4006938998628473 1.602627759748096 2.6451285865389069 0.65585107724459357 -0.33470543489009708 -0.84051099341313484 -1.2567153277220551 -0.73462731028047323 -1.5003165141173773 -1.5519871531592475 -1.5542555086074339
leaf_weight=5663 1057 515 188 82 63 2490 386 140 63 2286 1043 1086 1814 628 98 69 1328 731 97 627 83 4682 3961 1518 2080 1171 425 67 972 181 3458 2260 2634 2658 1213 856 174 309 1270 2345 138 1316 80 2340 295 109 145 437 797 1362 81 520 140 90 155
leaf_count=5663 1057 515 188 82 63 2490 386 140 63 2286 1043 1086 1814 628 98 69 1328 731 97 627 83 4682 3961 1518 2080 1171 425 67 972 181 3458 2260 2634 2658 1213 856 174 309 1270 2345 138 1316 80 2340 295 109 145 437 797 1362 81 520 140 90 155
internal_value=-0.00156223 -0.580272 1.29415 2.67912 -1.0802 1.02901 -0.18604 2.41416 5.96472 1.38573 0.0958834 0.718431 -0.362965 -0.844356 2.10001 0.00458002 1.20082 1.61067 3.14218 0.882796 0.555116 -0.285714 -0.326721 1.99606 -0.72705 -0.544869 0.766588 1.32993 -0.0473675 1.72 -0.0965387 -0.968159 0.172962 0.440778 0.706096 0.450848 0.269401 2.81596 1.0208 -1.05944 0.97564 -0.572827 4.69483 -0.794881 3.51583 1.28958 2.82984 0.529433 -0.421884 -0.907475 -1.55711 -0.648569 -1.56113 -1.52054 -1.56274
internal_weight=60776 42012 18764 3015 18523 15749 23489 2790 225 7330 9057 8419 14432 12394 1949 7204 4023 3307 841 4196 4223 10130 8643 1706 6364 4302 1482 2557 1487 2467 4501 6030 2703 2741 1840 1853 560 449 2356 2408 1466 1944 143 4420 392 840 243 1293 1968 3622 6129 2334 6048 230 5818
internal_count=60776 42012 18764 3015 18523 15749 23489 2790 225 7330 9057 8419 14432 12394 1949 7204 4023 3307 841 4196 4223 10130 8643 1706 6364 4302 1482 2557 1487 2467 4501 6030 2703 2741 1840 1853 560 449 2356 2408 1466 1944 143 4420 392 840 243 1293 1968 3622 6129 2334 6048 230 5818
is_linear=0
shrinkage=0.05


Tree=5
num_leaves=55
num_cat=0
split_feature=9 9 0 9 9 9 9 1 7 9 1 1 9 1 1 1 9 9 7 1 7 1 9 1 1 7 9 9 1 1 7 1 3 1 9 1 5 1 1 9 7 9 7 1 3 1 1 7 7 7 4 9 8 9
split_gain=1.57798e+07 2.73548e+06 2.59203e+06 1.15573e+06 855713 741576 421314 373141 221019 208598 176816 148028 128011 122781 108359 81732.9 67837.3 67230.8 65566.6 56417.1 40195.4 40170.9 40018.3 38827.1 35902.9 34995.2 32508.6 31005.2 30406.4 27485.2 24644.2 24171 24123.7 19893.9 18771.2 15906.4 14586 13612.2 11492.7 9644.16 9540.29 9403.24 9134.41 9110.62 7105.89 6892.34 6796.71 3523.07 3090.6 1857.3 706.145 262.859 142.674 0.411846
threshold=85.500000000000014 48.500000000000007 1.0000000180025095e-35 119.50000000000001 227.00000000000003 21.500000000000004 71.500000000000014 0.74055924148259422 83.500000000000014 97.500000000000014 0.10256439438222155 0.83849014022980117 165.00000000000003 0.76551125752579641 0.78199050186990482 1.0799845311384251 150.50000000000003 58.500000000000007 51.500000000000007 0.76551125752579641 42.500000000000007 0.84243367960553106 216.00000000000003 1.1953238570516853 0.48147881167295564 50.500000000000007 137.50000000000003 40.500000000000007 0.48147881167295564 0.46239344665326004 27.500000000000004 0.73599062953273964 20.500000000000004 1.1904761525145788 58.500000000000007 1.0840614451797921 0.78656609248549325 0.34149705337048603 1.6675681817211789 39.500000000000007 29.500000000000004 33.500000000000007 21.500000000000004 0.10256439438222155 18.500000000000004 1.2615955122004963 0.21105084893662898 6.5000000000000009 2.5000000000000004 2.5000000000000004 5.5000000000000009 9.5000000000000018 1.0000000180025095e-35 2.0000000000000004
decision_type=10 8 2 10 10 10 8 10 10 10 10 10 10 8 10 10 10 10 10 10 10 10 10 10 10 10 10 10 10 10 8 10 2 10 10 8 2 10 10 10 10 10 10 10 2 10 10 10 10 10 2 10 10 10
left_child=1 5 3 7 12 49 11 10 14 23 48 28 26 29 24 -6 21 36 -11 37 35 -10 45 -9 -5 -12 38 41 43 46 -19 -18 -16 -22 -30 -15 -13 47 -4 -39 -31 -21 -29 -3 -28 -14 -8 -7 -2 51 -51 53 -53 -1
right_child=2 6 4 8 15 19 13 9 16 18 25 17 22 20 32 -17 31 30 -20 27 33 -23 -24 -25 -26 -27 44 42 34 40 -32 -33 -34 -35 -36 -37 -38 39 -40 -41 -42 -43 -44 -45 -46 -47 -48 -49 -50 50 -52 52 -54 -55
leaf_value=-1.4852720208818866 -1.5641876414557485 -1.3087423330461476 2.2654506337561022 0.19720692584363139 5.8082295817595266 -1.2851693872965224 -1.0685102864223368 0.44863955969112634 1.3591271148786204 0.76267143508020041 0.072561107680488401 -0.31414029599599785 3.1177144185487742 -0.021263537273824865 1.4967987178464019 8.3061315160809155 1.7495158631842409 -0.26145335071937231 1.1515823468119566 -0.93278174559724913 0.25524484928254071 1.8460796769708396 4.4911531972257714 0.78759128182036819 0.9709716443565567 0.45911595890091528 2.9095844330357727 -0.68277740073150794 -0.59471864492092963 -0.33703509528089759 -0.042025118316067152 2.4356405245489441 1.1272380145295917 0.54270072674661474 -0.39538828494390077 0.21487280439286263 -0.49937000266169362 -1.0080843531453325 1.6637950961196095 -0.82366783088238482 -0.068206617454347016 -0.7614978053501269 -0.52374629614620205 -0.72736529380676063 2.4356209253653507 3.5477124211503503 -0.51837547035968823 -1.062163635266772 -1.1249420512234793 -1.40644403886104 -1.1767825042284452 -1.4578215839145903 -1.371518369846874 -1.482536790049668
leaf_weight=5744 107 71 292 181 65 241 68 2594 590 1510 1172 2917 306 1477 2403 66 168 2021 3839 1218 1560 1501 76 1253 873 1170 244 2056 2277 465 3488 544 541 980 2454 1379 1672 1207 109 1718 1137 2342 1610 1324 117 134 322 668 64 69 65 143 72 141
leaf_count=5744 107 71 292 181 65 241 68 2594 590 1510 1172 2917 306 1477 2403 66 168 2021 3839 1218 1560 1501 76 1253 873 1170 244 2056 2277 465 3488 544 541 980 2454 1379 1672 1207 109 1718 1137 2342 1610 1324 117 134 322 668 64 69 65 143 72 141
internal_value=-0.00332776 -0.565307 1.15076 0.993397 3.21806 -1.04307 -0.215382 0.69229 1.5118 0.839841 0.152345 -0.357907 2.82356 0.0976021 1.27314 7.06671 1.85221 -0.240273 1.04179 -0.797256 0.221448 1.70868 3.43167 0.559039 0.838096 0.265673 2.41177 -0.714998 -0.551814 -0.237875 -0.122523 2.27375 1.42889 0.366153 -0.491325 0.0927533 -0.381629 -0.952288 2.10191 -0.899767 -0.146237 -0.8201 -0.612936 -0.756955 2.75597 3.24867 -0.614296 -1.12129 -1.39979 -1.47918 -1.29504 -1.48322 -1.42892 -1.48521
internal_weight=60825 40906 19919 18510 1409 17294 23612 11709 6801 9196 2513 16224 1278 7388 3998 131 2803 10098 5349 11060 5396 2091 516 3847 1054 2342 762 7226 6126 1992 5509 712 2944 2540 4731 2856 4589 3834 401 2925 1602 3560 3666 1395 361 440 390 909 171 6234 134 6100 215 5885
internal_count=60825 40906 19919 18510 1409 17294 23612 11709 6801 9196 2513 16224 1278 7388 3998 131 2803 10098 5349 11060 5396 2091 516 3847 1054 2342 762 7226 6126 1992 5509 712 2944 2540 4731 2856 4589 3834 401 2925 1602 3560 3666 1395 361 440 390 909 171 6234 134 6100 215 5885
is_linear=0
shrinkage=0.05


Tree=6
num_leaves=55
num_cat=0
split_feature=9 9 0 9 9 9 9 1 7 9 1 1 9 1 1 1 9 9 6 1 1 1 1 9 1 7 7 9 1 9 7 1 1 1 6 1 1 7 1 9 1 1 1 3 1 12 6 1 7 7 4 9 3 6
split_gain=1.42413e+07 2.46877e+06 2.33931e+06 1.04304e+06 772281 669273 380236 336759 199469 192024 159576 134127 115530 110848 98979.7 73776.4 65371.4 61312 60182.5 50916.4 49275.9 37073.9 36183.9 36116.5 32181.7 31708.3 30830.3 29339 28706.3 27982.2 24771.1 22248.3 17506.6 17005.1 16128.3 15993.4 15679.2 12529.3 10372.1 8486.42 8257.88 6927.28 6459.72 6413.06 6220.33 5571.14 5430.1 3945.64 2789.26 1676.21 637.296 237.23 135.81 0.432612
threshold=85.500000000000014 48.500000000000007 1.0000000180025095e-35 119.50000000000001 227.00000000000003 21.500000000000004 71.500000000000014 0.74055924148259422 83.500000000000014 103.50000000000001 0.10256439438222155 0.76986817580321532 165.00000000000003 0.90405632316101581 0.62857140462585159 1.0878750218962854 58.500000000000007 149.50000000000003 0.37940952255126048 0.76551125752579641 1.1904761525145788 0.84243367960553106 0.47154838891464673 216.00000000000003 0.9109609681579689 46.500000000000007 31.500000000000004 137.50000000000003 1.1953238570516853 40.500000000000007 34.500000000000007 0.62254884748755746 0.37707850423669026 1.2048930713261299 -0.78656609248549325 0.37707850423669026 1.1904761525145788 17.500000000000004 1.6675681817211789 33.500000000000007 1.0265273327845168 0.16507618434683199 0.21105084893662898 18.500000000000004 1.2615955122004963 24.500000000000004 -0.78656609248549325 0.41811844608668786 2.5000000000000004 2.5000000000000004 5.5000000000000009 9.5000000000000018 12.500000000000002 -0.78656609248549325
decision_type=10 8 2 10 10 10 8 10 10 10 10 10 10 8 10 10 10 10 2 10 10 10 10 10 10 10 10 10 10 10 10 10 10 10 2 10 10 10 10 10 10 10 10 2 10 10 2 10 10 10 2 10 2 2
left_child=1 5 3 7 12 49 11 10 14 20 48 30 27 22 32 -6 33 21 -11 37 -9 -10 42 44 -16 -12 46 38 -18 39 35 -19 -5 -13 -24 -3 -28 41 -4 -21 -31 -7 -8 -29 -14 -32 -15 -39 -2 51 -51 53 -53 -1
right_child=2 6 4 8 15 19 13 9 17 18 25 16 23 26 24 -17 28 31 -20 29 -22 -23 34 -25 -26 -27 36 43 -30 40 45 -33 -34 -35 -36 -37 -38 47 -40 -41 -42 -43 -44 -45 -46 -47 -48 -49 -50 50 -52 52 -54 -55
leaf_value=-1.4100230592877472 -1.4859782477405585 -0.86280955822215766 2.1521781273288272 -0.12157941770904204 5.5536783215270118 -1.2139258842468263 -1.0150847754495984 0.495344179849527 1.2744124686079366 1.2157782553164855 0.036259686123632749 -0.45629467337156754 2.9618287130898122 0.29724089033460538 1.1099600796600406 7.9274400725960739 -0.22342635384149837 1.4195450866849799 0.80494818488153452 -0.88614266548941922 0.8166072034513312 1.7491671263879358 0.27274951912269818 4.2665955117658561 1.4201029791070232 0.40899660818529793 0.23103624140845921 2.7641051982269911 -0.0026125835680906695 -0.68986444377619771 -0.51883500833064322 2.2361226597582999 0.67125112293263922 -0.27226865258415012 -0.11104140689881095 -0.5758200444230569 0.45179208504777935 -0.93078966964539911 1.5806053322560469 -0.72342291448561979 -0.52994056964377723 -0.94648754733186191 -0.48188773446513911 2.3138398695195845 3.3703268069607106 -0.29849106582324153 -0.026255676839132349 -0.7469183336806261 -1.0686949335969984 -1.3361218459364297 -1.1179433740102327 -1.3243947789424988 -1.4052134253761985 -1.4111452710798422
leaf_weight=1044 107 574 292 85 67 275 68 3539 574 2457 984 2859 306 152 1363 64 3583 95 1399 1218 1801 1450 309 76 2165 1358 1716 244 2498 1200 420 684 385 2238 2399 3147 1514 392 109 2342 2466 2026 345 117 134 905 885 1141 64 69 65 127 88 4841
leaf_count=1044 107 574 292 85 67 275 68 3539 574 2457 984 2859 306 152 1363 64 3583 95 1399 1218 1801 1450 309 76 2165 1358 1716 244 2498 1200 420 684 385 2238 2399 3147 1514 392 109 2342 2466 2026 345 117 134 905 885 1141 64 69 65 127 88 4841
internal_value=-0.00316138 -0.537042 1.09322 0.943727 3.05716 -0.990916 -0.204613 0.657676 1.43621 0.797849 0.144728 -0.340012 2.68238 0.092722 1.20948 6.71338 -0.24342 1.7596 1.06672 -0.757393 0.603695 1.61453 -0.133735 3.26009 1.30028 0.25239 0.258359 2.29118 -0.132719 -0.679248 -0.553984 2.13654 0.527867 -0.375492 -0.0672484 -0.620091 0.334511 -0.904673 1.99681 -0.779095 -0.582289 -0.97845 -0.569678 2.61817 3.08623 -0.368336 0.0211614 -0.793936 -1.3298 -1.40522 -1.23029 -1.40906 -1.35747 -1.41095
internal_weight=60825 40906 19919 18510 1409 17294 23612 11709 6801 9196 2513 16224 1278 7388 3998 131 11178 2803 3856 11060 5340 2024 3121 516 3528 2342 4267 762 6081 7226 5046 779 470 5097 2708 3721 3230 3834 401 3560 3666 2301 413 361 440 1325 1037 1533 171 6234 134 6100 215 5885
internal_count=60825 40906 19919 18510 1409 17294 23612 11709 6801 9196 2513 16224 1278 7388 3998 131 11178 2803 3856 11060 5340 2024 3121 516 3528 2342 4267 762 6081 7226 5046 779 470 5097 2708 3721 3230 3834 401 3560 3666 2301 413 361 440 1325 1037 1533 171 6234 134 6100 215 5885
is_linear=0
shrinkage=0.05


Tree=7
num_leaves=52
num_cat=0
split_feature=7 1 0 7 7 7 5 4 5 7 4 5 6 1 4 3 1 7 6 1 12 1 12 5 1 7 6 7 7 12 12 3 1 1 1 6 11 7 4 12 11 5 4 4 7 1 7 11 11 12 11
split_gain=1.15224e+07 2.22804e+06 2.20866e+06 931815 766094 590154 230395 209442 201577 199975 187914 179066 145215 98409 88624.6 86705 77902.1 67131.5 65839.2 63036.7 47440.2 39029 37875.9 37628.6 33683.5 33338.2 30592 26868.5 26753.9 25363.1 24748.7 18829.3 18321.8 17830.5 15710.2 14566.6 11777.7 11219.9 10195.2 8398.15 7978.09 5684.51 6454.22 3232.21 2100.09 955.531 581.797 483.637 320.566 102.084 47.8793
threshold=45.500000000000007 0.30150752210442106 1.0000000180025095e-35 70.500000000000014 27.500000000000004 180.00000000000003 -0.37940952255126065 4.5000000000000009 0.25881904510252091 96.500000000000014 4.5000000000000009 0.25881904510252091 0.78656609248549303 0.90756296419744897 4.5000000000000009 5.5000000000000009 1.0000000180025095e-35 109.50000000000001 0.60355339059327384 0.86767463766483288 34.500000000000007 0.67632847518806471 46.500000000000007 -0.60355339059327362 0.45267906450372108 13.500000000000002 -0.9159756150367534 144.50000000000003 129.50000000000003 135.50000000000003 156.50000000000003 4.5000000000000009 0.83106434335659862 1.3419570425006879 0.99036086206838447 -0.9159756150367534 76.500000000000014 21.500000000000004 1.5000000000000002 86.500000000000014 52.500000000000007 0.37940952255126054 4.5000000000000009 2.5000000000000004 9.5000000000000018 0.10256439438222155 4.5000000000000009 23.500000000000004 44.500000000000007 91.500000000000014 9.5000000000000018
decision_type=8 10 2 8 10 10 2 2 2 10 2 2 2 10 2 2 10 10 2 10 8 10 8 2 10 10 2 10 10 8 8 2 10 10 10 2 10 10 2 10 10 2 2 2 10 10 10 10 10 8 10
left_child=1 16 3 6 11 17 7 13 10 18 12 14 -6 -2 23 34 46 33 21 35 31 -5 -21 -3 -11 -17 -16 38 -26 -12 -9 -10 -22 43 -13 -8 -20 44 -19 -35 -29 42 -39 -4 47 -46 49 -18 -43 50 -1
right_child=2 4 5 9 8 -7 19 30 20 24 29 15 -14 -15 26 25 37 27 36 22 32 -23 -24 -25 28 -27 -28 40 -30 -31 -32 -33 -34 39 -36 -37 -38 41 -40 -41 -42 48 -44 -45 45 -47 -48 -49 -50 -51 -52
leaf_value=-1.3394163276331268 0.6449067109279335 0.62074057925492532 2.3950735147859232 0.75131672412277772 0.61506842909938453 6.3387901364202088 0.34222260758976142 0.046290236008013221 -0.2130953769702385 0.55633996139827468 -0.18782739337948554 -0.49658158272853942 0.057634585881805145 1.0953782993296555 -0.66739548694157846 -0.8125315190454665 -1.0085311232729162 2.2508967584457951 0.60152559649376647 0.29219614366921443 -0.26201611495479032 1.2560235559976505 0.61618138044925574 -0.08351366420278783 1.6616915945164945 -0.6242577775700151 -0.34384314793845838 4.0234942826442426 2.2276447469259013 0.3585960471486962 0.62163027056648756 -0.44155698998493725 0.038586681109200167 1.9157227627707252 -0.2757476048185955 -0.0091478751306488595 0.91649006473163652 -0.15083988891406494 2.9134900908001136 2.4084547924213724 3.245705159271465 -0.87575171792496609 -0.80213672616588549 2.7459848529436219 -1.1112936223998215 -0.90687053238480098 -1.2276031733082053 -1.1456063630598068 -0.74082237196853384 -1.4054280880958805 -1.3536906002321505
leaf_weight=5480 2125 216 122 427 2293 115 375 945 1403 63 3294 2014 2382 2823 969 4053 94 69 504 2126 793 3721 1567 1556 1703 5600 2969 64 238 227 233 2525 1405 297 1342 1382 722 88 366 122 68 141 67 142 66 427 114 204 64 62 658
leaf_count=5480 2125 216 122 427 2293 115 375 945 1403 63 3294 2014 2382 2823 969 4053 94 69 504 2126 793 3721 1567 1556 1703 5600 2969 64 238 227 233 2525 1405 297 1342 1382 722 88 366 122 68 141 67 142 66 427 114 204 64 62 658
internal_value=-0.00300331 -0.490411 0.968646 0.828752 -0.314148 2.91117 0.54887 0.759266 -0.0389005 1.26788 0.123272 -0.524742 0.331045 0.901916 -0.291321 -0.627197 -1.27057 2.59583 1.10892 0.312377 -0.255871 1.20407 0.429668 0.00233223 1.69416 -0.703308 -0.423458 2.99799 1.73109 -0.152599 0.160088 -0.359955 -0.0698656 2.26198 -0.408274 0.0658458 0.78701 -0.892264 2.80839 2.05919 3.62282 -0.660863 -0.432368 2.58382 -0.997579 -0.934238 -1.33953 -1.10237 -0.833627 -1.34159 -1.34095
internal_weight=60825 40506 20319 18954 33041 1365 11576 6126 14322 7378 8196 18719 4675 4948 5710 13009 7465 1250 5374 5450 6126 4148 3693 1772 2004 9653 3938 567 1941 3521 1178 3928 2198 683 3356 1757 1226 1151 435 419 132 360 155 264 791 493 6314 298 205 6200 6138
internal_count=60825 40506 20319 18954 33041 1365 11576 6126 14322 7378 8196 18719 4675 4948 5710 13009 7465 1250 5374 5450 6126 4148 3693 1772 2004 9653 3938 567 1941 3521 1178 3928 2198 683 3356 1757 1226 1151 435 419 132 360 155 264 791 493 6314 298 205 6200 6138
is_linear=0
shrinkage=0.05


Tree=8
num_leaves=53
num_cat=0
split_feature=10 10 10 9 1 10 10 0 1 1 1 1 1 1 1 10 10 1 9 1 1 1 10 1 10 10 10 10 10 10 1 1 1 1 1 1 3 1 10 10 9 9 10 1 1 1 1 10 8 8 9 11
split_gain=1.24371e+07 2.2433e+06 1.94072e+06 839332 565428 420278 311104 250333 154235 146799 125435 124236 120368 87077.4 64499.8 55746.2 54973.1 47589.8 47498.8 38833.8 33242.7 32430.7 32294.5 31184.9 30675.5 29863.8 27970.6 25891.6 22030.6 22009 19212.4 18611.1 18508.4 18071.9 18000.3 15746.7 15295.1 13196.4 13009.6 12922.3 12598.4 12516.6 12412.6 12039.8 10438.5 10159.6 9059.81 5331.5 2131.22 147.596 116.323 78.5843
threshold=48.608333333333341 23.275000000000002 83.391666666666694 227.00000000000003 0.10256439438222155 64.25833333333334 35.558333333333344 1.0000000180025095e-35 1.015215945533718 0.87834425061812682 0.90405632316101581 1.0605775375507063 0.44083429998959256 1.0265273327845168 0.50730205777971371 109.75833333333334 16.841666666666672 1.1357241588346623 193.50000000000003 1.115733609133376 1.2048930713261299 0.10256439438222155 73.408333333333346 1.3941174005778729 28.358333333333338 28.69166666666667 76.27500000000002 56.658333333333339 55.82500000000001 41.358333333333341 0.70496080099735059 0.40592900149188782 0.21105084893662898 1.503264698986033 0.27639157632905592 0.58739201667530427 16.500000000000004 0.89656806549775547 58.708333333333343 71.141666666666694 141.50000000000003 23.500000000000004 41.708333333333343 1.759230304579124 0.63368966100872637 1.9382021791361599 0.58101999603234378 13.391666666666667 9.5000000000000018 1.5000000000000002 35.500000000000007 29.500000000000004
decision_type=10 8 10 10 10 10 8 2 10 10 8 10 10 10 10 10 10 10 10 10 10 10 10 10 10 10 10 10 10 10 10 10 10 10 10 10 2 10 10 10 10 10 10 10 10 10 10 10 10 10 10 10
left_child=1 4 5 7 48 8 11 12 14 22 21 24 -4 -5 34 -14 37 26 40 46 29 -8 31 28 44 43 -11 -16 -10 -12 -23 -7 -26 -27 -2 -24 -20 47 -25 -19 -9 -39 -22 -13 -3 -21 -18 -6 49 50 -1 -50
right_child=2 6 3 13 16 9 10 18 23 17 20 25 15 -15 27 -17 19 39 36 45 42 30 35 38 32 33 -28 -29 -30 -31 -32 -33 -34 -35 -36 -37 -38 41 -40 -41 -42 -43 -44 -45 -46 -47 -48 -49 51 -51 -52 -53
leaf_value=-1.2723423344760469 -0.76292730767350159 -0.64061414832737873 -0.036382816829963735 4.582056102477587 -0.99061293036552378 -0.18529426448401953 -1.2654848115578776 2.1131833563070921 0.6017289566204671 1.0348465750550346 -0.007958200451474523 -0.2813966786352779 1.6947522745730905 7.0747494873247652 0.33378487350611374 2.5024995512543367 -0.79581136384907203 1.335541848438919 3.9357502844426544 -0.48888497984510143 0.28413294975269221 -0.22682599782716562 0.59687092637793082 0.94657073831599969 -1.0120091136012759 -0.085842436949702089 1.3961193185719925 0.58964255368650176 0.87879502792011788 0.27321677520198911 0.00031574644191811484 0.6938518152104447 -0.31805081919851247 0.17682197857163928 -0.0090645906476738355 1.1214171712674339 2.9919289551137651 -1.1013777459180192 1.3468424816209763 1.5939813107189686 2.6004110074600595 -0.71231958587973476 0.51908544190281924 0.017958021934118131 -0.46123546276799721 -0.20760196640653336 -0.64182246087170214 -0.83601733011622115 -1.0390111323905318 -1.2071524780850078 -1.3350007667541506 -1.1140011015223032
leaf_weight=5977 106 1239 95 65 942 63 62 168 1389 1711 1382 2311 2010 76 2132 239 1377 880 77 2425 1229 1849 174 607 98 2376 780 1844 1484 1402 1875 1354 4909 904 313 805 97 223 305 1074 631 2833 1036 393 2348 370 3118 1367 73 86 75 67
leaf_count=5977 106 1239 95 65 942 63 62 168 1389 1711 1382 2311 2010 76 2132 239 1377 880 77 2425 1229 1849 174 607 98 2376 780 1844 1484 1402 1875 1354 4909 904 313 805 97 223 305 1074 631 2833 1036 393 2348 370 3118 1367 73 86 75 67
internal_value=-0.00285314 -0.475157 1.07947 2.14741 -0.879851 0.833614 -0.147901 1.98681 0.59175 1.12282 0.0862201 -0.28979 1.70695 5.92564 0.390267 1.78059 -0.687396 1.29287 2.66099 -0.597996 0.249361 -0.131344 0.807345 0.825704 -0.411588 -0.114867 1.14797 0.452447 0.744843 0.133639 -0.112462 0.654765 -0.331633 -0.0134496 -0.199779 1.02819 3.4096 -0.808873 1.08043 1.47759 2.49797 -0.74071 0.391599 -0.237888 -0.523195 -0.451649 -0.688995 -0.899088 -1.26779 -1.27219 -1.27312 -1.0749
internal_weight=60825 42346 18479 3458 18933 15021 23413 3317 8180 6841 8835 14578 2344 141 4395 2249 12655 4445 973 7290 5049 3786 2396 3785 8594 5984 2491 3976 2873 2784 3724 1417 5007 3280 419 979 174 5365 912 1954 799 3056 2265 2704 3587 2795 4495 2309 6278 6138 6052 140
internal_count=60825 42346 18479 3458 18933 15021 23413 3317 8180 6841 8835 14578 2344 141 4395 2249 12655 4445 973 7290 5049 3786 2396 3785 8594 5984 2491 3976 2873 2784 3724 1417 5007 3280 419 979 174 5365 912 1954 799 3056 2265 2704 3587 2795 4495 2309 6278 6138 6052 140
is_linear=0
shrinkage=0.05


Tree=9
num_leaves=55
num_cat=0
split_feature=10 10 10 10 10 1 10 0 1 1 3 1 1 1 1 1 10 1 7 10 10 1 10 1 10 10 10 10 5 1 10 1 1 1 1 10 1 6 1 1 1 1 6 10 1 1 7 7 10 10 10 10 8 10
split_gain=1.12274e+07 1.89806e+06 1.848e+06 680675 448410 377271 319195 206607 147292 135314 132102 131714 104881 91219.9 61246.1 60086.2 54361.9 49306.6 45247 36219 35483.5 28971 28220.5 27955.6 27760.4 27620.6 26142.3 25732.3 24392 21062.3 18272.1 17248.3 15112.3 14722.6 14079.2 13562.6 13370.3 11212.4 11028.3 9334.57 7985.09 7678.38 6541.65 6073.9 5597.39 5536.22 5027.8 4040.99 3635.26 2494.04 618.776 168.515 94.6275 18.0458
threshold=46.241666666666674 82.50833333333334 20.258333333333336 147.16666666666671 63.225000000000009 0.16507618434683199 31.791666666666671 1.0000000180025095e-35 1.015215945533718 0.78199050186990482 13.500000000000002 1.115733609133376 0.37707850423669026 1.0526315073868935 0.61696654132605799 1.1759011615140169 109.75833333333334 0.70496080099735059 152.50000000000003 55.44166666666667 74.075000000000003 0.27639157632905592 41.00833333333334 0.10256439438222155 38.391666666666673 54.25833333333334 27.458333333333336 14.508333333333335 0.78656609248549325 1.2844741990312818 72.241666666666688 1.2787077210656606 1.9382021791361599 0.39193710218533168 1.2966426202242229 102.05833333333335 1.759230304579124 0.37940952255126048 0.62254884748755746 1.5977884662791519 0.54628222717549324 1.4811082787658074 0.37940952255126048 7.8416666666666677 0.5611022991066078 2.2423158663440339 4.5000000000000009 163.50000000000003 9.8083333333333353 23.94166666666667 10.708333333333334 15.208333333333334 6.5000000000000009 5.741666666666668
decision_type=10 10 8 10 8 10 8 2 10 10 2 8 10 10 10 10 10 10 10 10 10 10 10 10 10 10 10 10 2 10 10 10 10 10 10 10 10 2 10 10 10 10 2 10 10 10 10 10 10 10 10 10 10 10
left_child=2 4 5 7 8 46 13 12 14 30 -5 17 -3 26 21 20 -14 23 35 31 -11 -2 -19 -8 36 -16 38 41 32 44 33 -10 -15 -6 -21 -9 -13 -17 -4 -26 -28 48 -32 -43 -29 -31 52 -12 -7 -30 -48 -52 53 -1
right_child=1 3 6 10 9 27 11 18 19 15 47 24 16 28 25 37 -18 22 -20 34 -22 -23 -24 -25 39 -27 40 29 49 45 42 -33 -34 -35 -36 -37 -38 -39 -40 -41 -42 43 -44 -45 -46 -47 50 -49 -50 -51 51 -53 -54 -55
leaf_value=-1.2089456649574892 -0.76075842802723248 -0.21362030553546818 -0.6643932293605137 6.5615813157927825 -0.24227223766501993 -0.99334768127311368 -1.1819439073185345 2.1777493058513193 0.48178074287876105 0.93107825523788168 3.6120131236403736 0.050014497404931219 1.5831388472053021 -0.19060564162563065 0.27609319913039693 1.4721475759043989 2.3784871247824002 -0.12777199229862121 3.7780736615580901 0.7897228323910449 1.2514899861323407 0.069775507943150364 0.13321605388660368 -0.29018991601278177 0.30289428729776285 0.54092329135828165 -0.53883356137142113 -0.79728381425997863 -0.45115162514024842 -0.51818472118725967 0.9564737940098621 0.75863381364351834 0.14132398297140342 0.54414627756132938 1.0768987448741041 2.5716114750968089 0.42792509471848894 1.1656647387853203 -0.50615662021439844 0.61634290450558649 -0.33517172230166498 -0.95338316633866693 0.63540906734735703 -0.62185879490846019 -0.66439361431250377 -0.21332408844973105 -1.1106389317909877 4.1675619810819624 -0.83289108757648356 -0.32994036745331001 -0.9871901723477059 -0.89444707917670407 -1.1499236808103674 -1.2348489635130939
leaf_weight=5990 120 77 1708 71 64 440 91 425 1355 2388 67 2126 2208 3601 1928 1339 238 3764 62 1182 1354 840 1429 2568 1478 2012 599 1045 773 1528 412 962 379 849 668 450 263 384 3099 283 2449 173 258 686 3278 165 75 64 1785 941 100 96 68 68
leaf_count=5990 120 77 1708 71 64 440 91 425 1355 2388 67 2126 2208 3601 1928 1339 238 3764 62 1182 1354 840 1429 2568 1478 2012 599 1045 773 1528 412 962 379 849 668 450 263 384 3099 283 2449 173 258 686 3278 165 75 64 1785 941 100 96 68 68
internal_value=-0.00271049 0.975954 -0.474233 2.0035 0.742453 -0.905012 -0.21296 1.83879 0.509916 1.0416 4.82476 -0.025192 1.60333 -0.379289 0.324075 1.15952 1.66053 -0.14561 2.4728 0.728447 1.04702 -0.0340412 -0.0559538 -0.320709 0.202645 0.411331 -0.489747 -0.69817 -0.22691 -0.63797 0.63454 0.596728 -0.158997 0.489019 0.893417 2.38031 0.0916179 1.40384 -0.56238 0.353267 -0.375196 -0.815601 0.83284 -0.688627 -0.696517 -0.488473 -1.19925 3.88343 -0.864622 -0.384606 -0.988501 -0.941765 -1.20858 -1.20924
internal_weight=60825 19777 41048 3662 16115 15497 25551 3460 9067 7048 202 12002 2523 13549 4900 5465 2446 7852 937 4167 3742 960 5193 2659 4150 3940 7855 9100 5694 6016 1583 2317 3980 913 1850 875 2389 1723 4807 1761 3048 3084 670 859 4323 1693 6397 131 2225 1714 271 196 6126 6058
internal_count=60825 19777 41048 3662 16115 15497 25551 3460 9067 7048 202 12002 2523 13549 4900 5465 2446 7852 937 4167 3742 960 5193 2659 4150 3940 7855 9100 5694 6016 1583 2317 3980 913 1850 875 2389 1723 4807 1761 3048 3084 670 859 4323 1693 6397 131 2225 1714 271 196 6126 6058
is_linear=0
shrinkage=0.05


Tree=10
num_leaves=55
num_cat=0
split_feature=10 10 10 9 10 9 10 0 10 10 5 7 10 9 8 10 10 7 0 10 7 7 7 11 11 11 5 7 10 11 7 7 10 2 10 7 5 10 7 7 10 9 5 9 7 7 4 12 5 10 9 5 12 9
split_gain=1.02267e+07 1.6885e+06 1.6785e+06 578306 477844 360586 267093 170067 80820.8 59303.2 56123.6 43679.9 36789.1 36547.8 24917.8 22260 20989.8 20793.3 20010.1 19875.4 16971.2 16424.8 14980.6 13260.1 13177 12262.4 11737.8 11725.4 11237.2 11157.9 11014.2 8960.43 8524.19 8089.37 7753.5 7683.58 6926.88 6472.65 5561.54 5555.89 4888.91 4172.13 3426.4 3352.64 2839.58 2588.36 2026.04 1843.77 1453.43 100.685 94.6307 50.2785 32.1281 15.12
threshold=46.241666666666674 85.308333333333351 21.091666666666672 227.00000000000003 65.791666666666671 23.500000000000004 33.375000000000007 1.0000000180025095e-35 54.25833333333334 73.408333333333346 0.78656609248549325 35.500000000000007 99.075000000000003 170.50000000000003 215.50000000000003 16.575000000000003 39.225000000000009 41.500000000000007 1.0000000180025095e-35 28.525000000000002 55.500000000000007 149.50000000000003 21.500000000000004 51.500000000000007 43.500000000000007 45.500000000000007 0.60355339059327384 78.500000000000014 27.275000000000002 40.500000000000007 4.5000000000000009 140.50000000000003 41.358333333333341 1.0000000180025095e-35 23.275000000000002 36.500000000000007 0.37940952255126054 13.391666666666667 22.500000000000004 25.500000000000004 5.741666666666668 137.50000000000003 -0.5 131.50000000000003 16.500000000000004 23.500000000000004 1.5000000000000002 13.500000000000002 0.98296291314453421 1.0583333333333336 22.500000000000004 0.37940952255126054 11.500000000000002 2.0000000000000004
decision_type=10 10 8 10 10 10 8 2 10 10 2 8 10 10 10 10 10 10 2 10 10 10 8 8 10 8 2 10 10 8 10 10 10 2 10 10 2 10 10 10 10 10 2 10 10 10 2 8 2 10 10 2 10 10
left_child=2 4 5 7 8 40 10 12 22 27 19 30 20 41 -5 33 36 38 24 34 -3 -15 42 -19 -11 -24 45 35 48 -18 -8 -14 -32 37 -4 -6 -13 -7 -10 -21 49 -9 -2 -29 -28 -17 -20 -30 -12 53 52 -51 -42 -1
right_child=1 3 6 14 9 15 11 13 17 18 28 16 31 21 -16 26 29 23 46 39 -22 -23 25 -25 -26 -27 44 43 47 -31 32 -33 -34 -35 -36 -37 -38 -39 -40 -41 50 -43 -44 -45 -46 -47 -48 -49 -50 51 -52 -53 -54 -55
leaf_value=-1.1488940636429266 -0.37904136894723855 0.8358317772356364 -0.43091014361165964 4.4936157596645065 0.50499726556697666 -0.80815319534829655 -0.76638047437346168 1.860701774319093 0.046893286541268064 1.2718400826653904 -0.49710604715404116 0.053296056837568086 1.845816586455673 2.5789646208038626 5.8425753747991154 -0.52588095399473012 0.29763054102882797 0.74767543669490621 1.4798621248595323 -0.25764554581964827 1.5007748593860679 3.3118124293297839 0.45582049972629479 0.57677395287665456 1.0637057822773455 0.28661215307409321 -0.68694393772853435 1.0193102704279107 -0.50413857008985219 0.1045820104871857 -0.13556916292915147 2.4772972842858687 0.039186681717109338 -0.2446168832835697 -0.28829582898962169 0.87819878073572133 -0.11963054624839964 -0.69167442089841036 0.46017247537709532 -0.13954128622846759 -0.86429388061646495 2.1971083235441808 0.10544674065377978 1.2676392706533883 -0.59238838546750361 -0.40173274484648741 1.798663821882672 -0.34377058131834087 -0.57192986636503107 -1.132465946674347 -0.95486176097393027 -1.0771749591126161 -0.91265305590319956 -1.1617072786887488
leaf_weight=5660 74 104 1249 67 147 2022 63 124 91 1743 2314 1748 598 361 70 1133 1333 3002 79 1493 1241 97 2239 1825 1349 2052 1589 818 202 1707 3477 62 873 84 4022 2232 866 2908 772 2990 62 359 72 163 1587 667 135 1590 902 104 100 68 77 240
leaf_count=5660 74 104 1249 67 147 2022 63 124 91 1743 2314 1748 598 361 70 1133 1333 3002 79 1493 1241 97 2239 1825 1349 2052 1589 818 202 1707 3477 62 873 84 4022 2232 866 2908 772 2990 62 359 72 163 1587 667 135 1590 902 104 100 68 77 240
internal_value=0.000516355 0.931765 -0.449508 2.00732 0.734305 -0.843715 -0.190699 1.85965 0.517913 1.06305 -0.326124 0.00788502 1.59939 2.41418 5.18287 -0.656804 0.0998982 0.642646 1.2134 -0.256267 1.44936 2.73417 0.357957 0.683061 1.18103 0.374903 -0.581884 0.915118 -0.462184 0.189231 -0.110004 1.90514 -0.100497 -0.731157 -0.322089 0.855138 -0.00399332 -0.739447 0.416594 -0.178874 -1.13959 2.11074 -0.140116 1.06057 -0.639696 -0.479877 1.68098 -0.361848 -0.518092 -1.14832 -0.917769 -1.11061 -0.891083 -1.14942
internal_weight=61006 19876 41130 3083 16793 16301 24829 2946 10127 6666 14762 10067 2005 941 137 9990 5654 5690 3306 9754 1345 458 4437 4827 3092 4291 4976 3360 5008 3040 4413 660 4350 5014 5271 2379 2614 4930 863 4483 6311 483 146 981 3176 1800 214 1792 3216 6072 239 172 139 5900
internal_count=61006 19876 41130 3083 16793 16301 24829 2946 10127 6666 14762 10067 2005 941 137 9990 5654 5690 3306 9754 1345 458 4437 4827 3092 4291 4976 3360 5008 3040 4413 660 4350 5014 5271 2379 2614 4930 863 4483 6311 483 146 981 3176 1800 214 1792 3216 6072 239 172 139 5900
is_linear=0
shrinkage=0.05


Tree=11
num_leaves=56
num_cat=0
split_feature=10 10 10 10 1 10 10 1 1 1 3 1 10 1 1 1 1 10 7 1 1 1 10 1 1 1 10 6 1 10 10 6 1 1 10 10 7 1 10 10 3 1 10 1 1 10 7 5 7 1 1 8 11 7 10
split_gain=9.23212e+06 1.58404e+06 1.46814e+06 460741 400458 391679 209464 149651 141838 134287 125951 115686 88708 80543.8 57834.6 55139.3 38413.2 37611.7 37452.4 36138.8 33876.9 31904 31841.4 28927.5 28610.2 28437.8 27466.7 24776.1 23480.8 21206.1 19738.1 16671.1 16619.8 13186.9 12857.3 11994.4 11862 11860.3 10942.8 9902.76 9680.84 8183.62 7663.75 7109.65 5828.35 5573.78 5271 4537.75 3763.66 3353.83 1137.02 446.249 171.741 53.6166 142.574
threshold=47.358333333333341 23.041666666666671 85.308333333333351 147.16666666666671 0.16507618434683199 65.791666666666671 33.375000000000007 1.056553076997409 0.88162078248329523 0.73599062953273964 13.500000000000002 0.92943199091635154 99.075000000000003 1.115733609133376 0.37707850423669026 0.42894345910171189 0.5937624786796446 16.841666666666672 157.50000000000003 1.1759011615140169 0.47154838891464673 1.1904761525145788 56.241666666666674 1.6479399823254701 1.115733609133376 1.4711032695274546 41.708333333333343 -0.60355339059327384 0.48147881167295564 76.27500000000002 56.241666666666674 0.37940952255126048 1.5977884662791519 0.10256439438222155 71.141666666666694 26.725000000000005 76.500000000000014 1.2844741990312818 52.07500000000001 30.208333333333336 15.500000000000002 1.9382021791361599 10.708333333333334 0.71856285986452073 0.21105084893662898 13.391666666666667 78.500000000000014 0.78656609248549325 3.5000000000000004 1.9382021791361599 0.93700081294198811 9.5000000000000018 33.500000000000007 1.0000000180025095e-35 5.741666666666668
decision_type=10 8 10 10 10 10 8 10 10 10 2 8 10 10 10 10 10 10 10 10 10 10 10 10 10 10 10 2 10 10 10 2 10 10 10 10 10 10 10 10 2 10 10 10 10 10 10 2 10 10 10 10 10 10 10
left_child=1 4 5 9 48 7 13 15 16 14 -5 20 21 28 -4 40 46 37 -14 29 33 -11 -17 26 43 30 -13 -22 44 -10 -9 -18 39 -8 -21 -30 -16 45 -27 -15 -2 -26 -39 -19 -3 -6 -7 -34 53 -25 -12 -50 -53 54 -1
right_child=2 6 3 10 17 8 11 25 19 12 50 23 18 32 36 22 31 24 -20 34 27 -23 -24 49 41 38 -28 -29 35 -31 -32 -33 47 -35 -36 -37 -38 42 -40 -41 -42 -43 -44 -45 -46 -47 -48 -49 51 -51 -52 52 -54 -55 -56
leaf_value=-1.0904199542747068 0.059175429477666824 -0.89003113952176338 -0.33429120947917301 5.9526235587355023 -0.82463103480340139 0.19609082398473185 -1.1025511928093739 0.56199383423083049 0.95783311723578413 1.4788860727189563 3.1698088718183115 0.055825926243577899 2.1550668545448728 -0.22557582950813881 0.71471697948080426 0.25929679519616083 0.91159314356944243 -0.66563036778544737 3.4024863243103027 1.1876879751220419 0.22179800017195556 2.0211699215624783 0.5037533573079066 0.44161924643358463 -0.42322879978611827 0.72795843111257996 0.29904840088687451 -0.14900769458466834 -0.43810044417844929 1.2478770421591461 0.810942415905616 0.60355962702070443 0.091218342880281647 -0.40937550786960247 1.4782382517767636 -0.29666755993574018 1.3711221254100945 -0.76922907687295439 1.1668388137327772 -0.040555605014679842 -0.56316876374549296 -0.16735209258598305 -0.52726169936944089 -0.53614936784060729 -0.54913965139634502 -0.69605929744649175 0.57163629201095323 -0.17570436514521903 -0.99475868916270704 0.71592969082486935 3.4633011196598869 -0.82881586268063523 -0.92548042454131663 -1.0517771211163751 -1.1580385292632671
leaf_weight=5899 96 145 75 69 1380 346 78 1604 1649 1016 66 3459 1006 2406 94 2695 1218 2008 64 613 511 370 2634 390 2325 200 1747 3804 2239 1020 1581 687 983 570 1005 4536 257 435 490 1034 179 361 1321 2246 927 2166 128 190 99 156 66 124 73 87 79
leaf_count=5899 96 145 75 69 1380 346 78 1604 1649 1016 66 3459 1006 2406 94 2695 1218 2008 64 613 511 370 2634 390 2325 200 1747 3804 2239 1020 1581 687 983 570 1005 4536 257 435 490 1034 179 361 1321 2246 927 2166 128 190 99 156 66 124 73 87 79
internal_value=0.000490539 -0.416789 0.907144 1.90696 -0.760424 0.716222 -0.140947 0.5097 1.0099 1.74553 4.22147 0.0211504 1.88768 -0.280344 0.926033 0.344498 0.700287 -0.593202 2.22968 1.18171 -0.155718 1.62365 0.380126 0.173758 -0.516599 0.748614 0.137445 -0.105095 -0.377813 1.06868 0.685569 0.800507 -0.114543 -0.492813 1.36816 -0.343408 1.19533 -0.693471 1.03963 -0.169962 -0.345914 -0.388839 -0.587202 -0.597268 -0.595249 -0.746096 0.297504 0.0479828 -1.08225 0.519994 3.31655 -0.908157 -0.864636 -1.09075 -1.09131
internal_weight=61006 41778 19228 3083 18603 16145 23175 9479 6666 2882 201 10715 2456 12460 426 5604 2379 12242 1070 4287 4963 1386 5329 5752 6940 3875 5206 4315 7847 2669 3185 1905 4613 648 1618 6775 351 5302 690 3440 275 2686 1756 4254 1072 3546 474 1173 6361 546 132 296 197 6065 5978
internal_count=61006 41778 19228 3083 18603 16145 23175 9479 6666 2882 201 10715 2456 12460 426 5604 2379 12242 1070 4287 4963 1386 5329 5752 6940 3875 5206 4315 7847 2669 3185 1905 4613 648 1618 6775 351 5302 690 3440 275 2686 1756 4254 1072 3546 474 1173 6361 546 132 296 197 6065 5978
is_linear=0
shrinkage=0.05


Tree=12
num_leaves=56
num_cat=0
split_feature=10 10 10 9 10 9 10 0 6 6 6 6 10 10 10 9 9 3 10 11 10 10 5 5 3 0 10 10 5 10 3 5 4 5 11 10 9 11 10 10 11 3 4 9 9 3 10 8 12 10 11 3 10 6 9
split_gain=8.33341e+06 1.47437e+06 1.29375e+06 451667 368145 358986 206634 118894 68676.1 56900.8 49111.2 47851.9 42571.7 33622 30374 27418.3 27043.1 22679.8 23127 22048.6 19060.4 19060.1 15732.5 14203.8 13465.8 13337.2 13166.2 11630.1 10885.7 8949.92 7994.31 7611.7 6454.54 6370.96 5520.98 5170.19 4772.98 4529.77 4375.19 3876.42 3698.45 3559.7 3311.88 3274.45 2799.81 2339.68 2287.65 2244.4 2119.88 2055.78 1582.7 89.9385 65.3996 63.5616 24.9444
threshold=48.208333333333343 23.041666666666671 87.966666666666683 227.00000000000003 65.791666666666671 23.500000000000004 36.308333333333344 1.0000000180025095e-35 0.37940952255126048 -0.5 -0.9159756150367534 0.25881904510252057 75.475000000000009 30.025000000000002 16.841666666666672 98.500000000000014 170.50000000000003 20.500000000000004 99.075000000000003 40.500000000000007 56.241666666666674 42.108333333333341 0.78656609248549325 0.60355339059327384 13.500000000000002 1.0000000180025095e-35 70.641666666666694 28.525000000000002 -0.78656609248549292 54.658333333333339 3.5000000000000004 -0.37940952255126065 5.5000000000000009 0.60355339059327384 1.5000000000000002 13.741666666666669 93.500000000000014 109.50000000000001 33.558333333333344 5.741666666666668 1.5000000000000002 5.5000000000000009 4.5000000000000009 127.50000000000001 81.500000000000014 12.500000000000002 102.05833333333335 66.500000000000014 95.500000000000014 39.225000000000009 60.500000000000007 10.500000000000002 1.0583333333333336 -0.9159756150367534 2.0000000000000004
decision_type=10 8 10 10 10 10 8 2 2 2 2 2 10 10 10 10 10 2 10 10 10 8 2 2 2 2 10 10 2 10 2 2 2 2 10 10 10 10 10 10 10 2 2 10 10 2 10 10 10 10 10 2 10 2 10
left_child=1 5 4 7 11 39 10 17 12 36 27 15 24 22 35 29 46 18 -4 -5 31 44 -12 50 -6 -14 43 42 -18 -2 -22 -13 -23 -15 -17 40 49 -19 -29 52 -7 -25 -3 -10 -11 -37 -9 -38 -28 -8 -16 -41 54 -54 -1
right_child=2 6 3 19 8 14 9 16 26 21 13 20 25 33 23 34 28 37 -20 -21 30 32 -24 41 -26 -27 48 38 -30 -31 -32 -33 -34 -35 -36 45 47 -39 -40 51 -42 -43 -44 -45 -46 -47 -48 -49 -50 -51 -52 -53 53 -55 -56
leaf_value=-1.0369283558960096 0.38636889107404204 -0.072998781606078825 1.3891849609220113 4.0713144901820595 1.3753724892482613 -0.3697885174500315 0.19552848204646422 1.8351137141003111 0.53572242277630466 -0.040682225040003711 -0.27747693032215826 0.15188624946752013 1.1939147592296961 -0.14271352499164827 -0.41391985308120777 1.1281175016814584 2.3813274161914215 1.1522570201942512 1.7925658939695492 5.3402341472568802 0.64575914974116921 0.073481746406857867 -0.42552602961299701 -0.44855254449674509 0.90863199778065951 1.6111420615797951 0.81486269965154889 0.076671218170105415 3.0852773636579514 0.59677033033938365 0.42659986465753763 0.34355393213061514 0.27251061335403332 -0.24715405047026062 0.703573472866723 -0.62075587887234684 0.44570803264422082 0.62918498823137003 0.31932312588577799 -0.86095910980816814 -0.72453511044728347 -0.57323570656253175 -0.35070036786391323 0.82849703020340693 -0.14412871875905361 -0.37105382297034423 2.0664259539200711 0.77936823479239914 1.0371671738702868 0.3336578949424554 -0.16230854995083066 -0.79957131996102959 -1.0343342499066426 -0.97334173797052126 -1.0533860328793527
leaf_weight=5660 1230 557 857 70 165 76 368 259 684 2742 4625 779 2179 4170 2666 79 387 111 607 67 579 2238 2932 679 2436 210 1176 657 64 858 1479 1546 498 2247 2499 2853 252 66 259 124 2209 3648 133 111 859 97 182 63 118 1005 64 115 93 79 240
leaf_count=5660 1230 557 857 70 165 76 368 259 684 2742 4625 779 2179 4170 2666 79 387 111 607 67 579 2238 2932 679 2436 210 1176 657 64 858 1479 1546 498 2247 2499 2853 252 66 259 124 2209 3648 133 111 859 97 182 63 118 1005 64 115 93 79 240
internal_value=0.000466011 -0.389524 0.876128 1.8956 0.707354 -0.722403 -0.127183 1.74436 0.977441 0.0789414 -0.233355 0.496066 1.07821 -0.26345 -0.565021 0.607504 2.20899 1.4918 1.55643 4.69188 0.377433 0.0102265 -0.334918 -0.497326 0.938241 1.23059 0.736746 0.028502 2.48122 0.472827 0.488258 0.279335 0.109708 -0.179285 0.716583 -0.656277 0.336907 0.957213 0.145281 -1.02894 -0.712736 -0.55367 -0.126527 0.5766 -0.0653589 -0.612545 1.93058 0.51244 0.835135 0.296636 -0.408021 -0.831421 -1.03671 -1.00632 -1.0376
internal_weight=61006 42208 18798 2670 16128 18603 23605 2533 7079 8025 15580 9049 4990 13974 12292 4666 892 1641 1464 137 4383 6337 7557 7057 2601 2389 2089 1606 451 2088 2058 2325 2736 6417 2578 5235 1688 177 916 6311 2285 4327 690 795 3601 2950 441 315 1294 1373 2730 239 6072 172 5900
internal_count=61006 42208 18798 2670 16128 18603 23605 2533 7079 8025 15580 9049 4990 13974 12292 4666 892 1641 1464 137 4383 6337 7557 7057 2601 2389 2089 1606 451 2088 2058 2325 2736 6417 2578 5235 1688 177 916 6311 2285 4327 690 795 3601 2950 441 315 1294 1373 2730 239 6072 172 5900
is_linear=0
shrinkage=0.05


Tree=13
num_leaves=53
num_cat=0
split_feature=9 9 0 9 9 9 1 9 1 9 1 1 9 1 9 6 1 1 1 9 1 1 6 8 5 1 4 1 1 9 9 9 12 1 5 12 6 1 1 1 9 9 5 6 1 9 1 1 1 1 9 11
split_gain=7.08657e+06 1.25273e+06 1.1174e+06 505417 363942 316501 213710 210925 123083 93905.6 86914.2 84017 80812.9 75835.1 67276.7 41655.6 39309.6 34880.7 31948.7 31854.6 28008.9 22766.7 22421.2 19966.5 19713.4 16259.9 15694.3 15070.5 14320 14162.9 13958.1 13690.5 13088.1 11925.5 7645.41 6914.32 6889.45 6697.73 6237.83 6085.74 4249.76 2939.71 2902.46 2662.14 2598.84 2369.04 2138.63 2010.06 788.652 221.691 174.221 173.448
threshold=86.500000000000014 48.500000000000007 1.0000000180025095e-35 119.50000000000001 248.00000000000003 23.500000000000004 0.74871642184972531 70.500000000000014 0.62857140462585159 148.50000000000003 0.10256439438222155 0.76551125752579641 98.500000000000014 0.72289153541878493 169.50000000000003 0.37940952255126048 0.99036086206838447 0.70051648119334253 0.21105084893662898 58.500000000000007 1.1904761525145788 1.2345678652475076 0.25881904510252057 92.500000000000014 -0.70710678118654735 1.115733609133376 1.5000000000000002 0.39193710218533168 0.34149705337048603 137.50000000000003 40.500000000000007 78.500000000000014 46.500000000000007 1.3030601592915039 0.37940952255126054 86.500000000000014 1.0000000180025095e-35 1.0526315073868935 1.1033537880989186 0.34149705337048603 33.500000000000007 39.500000000000007 -0.78656609248549292 -0.12940952255126037 0.21105084893662898 18.500000000000004 0.10256439438222155 0.10256439438222155 1.1444545724670181 2.1279311537340289 11.000000000000002 15.500000000000002
decision_type=10 8 2 10 10 10 10 8 10 10 10 10 10 8 10 2 10 10 10 10 10 10 2 10 2 10 2 10 10 10 10 8 8 10 2 10 2 10 10 10 10 10 2 2 10 10 10 10 10 10 10 10
left_child=1 5 3 6 14 45 10 11 18 16 42 28 21 27 29 -14 -10 39 -5 33 31 -8 -12 -20 38 -21 -11 44 46 35 40 -15 -22 -13 -30 -4 -29 -32 -16 47 -19 -41 -2 -31 -9 49 -3 -7 51 50 -1 -47
right_child=2 7 4 8 -6 17 12 13 9 26 22 19 15 20 24 -17 -18 30 23 25 32 -23 -24 -25 -26 -27 -28 36 34 43 37 -33 -34 -35 -36 -37 -38 -39 -40 41 -42 -43 -44 -45 -46 48 -48 -49 -50 -51 -52 -53
leaf_value=-0.98479907008784129 -1.2143109538940469 -0.91278438615798962 1.2769061066966128 -0.64212100767728053 4.9465914686149528 -0.91997385709592605 0.33070770035393765 -0.81050571313459585 0.86931431480473731 1.209138397290709 0.33225942241793532 -0.31386750909548444 0.82579227056261895 -0.024762018920095143 2.0181854687786354 0.5315464543816516 1.1469438154517488 -0.62014997737688482 0.32694778175423966 -0.17476940522488577 0.18755891892021387 0.61346621797818823 0.015944444464387152 0.91748338392129747 3.0941417901943891 -0.0074444653076054055 1.6506872181686629 0.066338141830442662 -0.31338443477586742 1.9642533438791538 -0.48725563470217809 0.15437363654412314 0.43035233686872998 -0.15315604867123039 -0.44792022330061632 1.7251426461011172 -0.20377624763610511 -0.35493956642707575 2.4016196000802368 -0.69413779844022816 -0.50637620163345809 -0.57957164305524467 -0.78624977306886157 1.7037965638612314 -0.46331572547301803 -0.96779027197729151 -0.62457569760438636 -0.74090383638613178 -0.73753816174194886 -1.0785223114875055 -0.92775263491555726 -0.86923927426338199
leaf_weight=5801 99 75 276 66 107 202 2595 73 2602 276 944 3441 3266 2092 192 1904 2500 1228 459 2846 1428 981 1378 208 78 2964 743 286 1860 204 1618 2176 908 1737 2443 125 1352 2339 237 966 2475 1332 66 189 206 68 454 699 113 62 137 130
leaf_count=5801 99 75 276 66 107 202 2595 73 2602 276 944 3441 3266 2092 192 1904 2500 1228 459 2846 1428 981 1378 208 78 2964 743 286 1860 204 1618 2176 908 1737 2443 125 1352 2339 237 966 2475 1332 66 189 206 68 454 699 113 62 137 130
internal_value=0.000442712 -0.36886 0.786804 0.681187 2.14354 -0.6959 0.474727 -0.138167 1.01955 1.09288 0.0657479 -0.246188 0.591024 0.0623831 1.913 0.717428 1.00535 -0.532246 0.407265 -0.169777 0.142748 0.408277 0.144541 0.511103 2.36296 -0.0894078 1.53109 -0.214472 -0.419946 1.62569 -0.474335 0.0665686 0.281932 -0.259956 -0.389766 1.41663 -0.156613 -0.409043 2.23001 -0.670914 -0.544106 -0.627731 -1.04309 1.839 -0.554158 -0.977491 -0.665437 -0.781051 -0.842935 -0.984465 -0.983483 -0.903085
internal_weight=61006 41511 19495 18087 1408 17170 11233 24341 6854 6121 2487 15820 8746 8521 1301 5170 5102 10859 733 10988 6604 3576 2322 667 507 5810 1019 1917 4832 794 7660 4268 2336 5178 4303 401 1638 3957 429 3199 3703 2298 165 393 279 6311 529 901 311 6000 5938 198
internal_count=61006 41511 19495 18087 1408 17170 11233 24341 6854 6121 2487 15820 8746 8521 1301 5170 5102 10859 733 10988 6604 3576 2322 667 507 5810 1019 1917 4832 794 7660 4268 2336 5178 4303 401 1638 3957 429 3199 3703 2298 165 393 279 6311 529 901 311 6000 5938 198
is_linear=0
shrinkage=0.05


Tree=14
num_leaves=55
num_cat=0
split_feature=10 10 10 10 1 10 10 1 1 1 3 1 10 1 1 1 1 1 10 1 1 1 1 7 1 10 10 10 10 10 6 1 10 10 1 7 10 10 1 6 1 3 10 1 1 7 10 1 8 10 3 10 1 10
split_gain=6.82789e+06 1.20577e+06 1.06862e+06 328836 311048 285189 156811 121462 118640 111432 103345 95757.6 72330.2 67846.6 43155.7 38807 33400.3 32875.5 29053.3 27647.2 25601.6 25093 24302.5 22949.1 20934.9 17928.2 17540.4 16973.5 15955.2 14779.4 14769 14710.1 13079.5 11072.2 10336.5 10088.6 9920.97 9694.64 8694.45 8630.78 7111.24 7006.61 6331.48 5545.8 4985.97 4748.91 3886.16 2315.51 1105.83 1024.97 566.376 319.333 99.7964 131.788
threshold=48.208333333333343 23.708333333333336 86.591666666666683 147.16666666666671 0.30150752210442106 65.791666666666671 37.375000000000007 0.88162078248329523 1.015215945533718 0.37707850423669026 13.500000000000002 1.056553076997409 109.75833333333334 0.94757725339436893 0.39193710218533168 1.1953238570516853 0.59973923207811175 1.1759011615140169 16.841666666666672 1.2844741990312818 0.48147881167295564 1.6479399823254701 1.115733609133376 154.50000000000003 0.53883109242540439 30.025000000000002 76.27500000000002 56.241666666666674 31.791666666666671 73.408333333333346 -0.60355339059327384 1.434090317028111 53.908333333333339 71.141666666666694 1.0000000180025095e-35 3.5000000000000004 52.07500000000001 33.375000000000007 1.3858481046715425 1.0000000180025095e-35 1.9382021791361599 15.500000000000002 10.708333333333334 0.24478272136095058 0.71388526222526372 78.500000000000014 13.391666666666667 1.7352587902021923 166.50000000000003 15.208333333333334 10.500000000000002 7.8416666666666677 0.10256439438222155 5.741666666666668
decision_type=10 8 10 10 10 10 8 10 10 10 2 10 10 10 10 10 10 10 10 10 10 10 10 10 8 10 10 10 10 10 2 10 10 10 10 10 10 10 10 2 10 2 10 10 10 10 10 10 10 10 2 10 10 10
left_child=1 4 5 9 35 8 11 16 14 -4 -5 20 15 24 41 -11 45 26 38 36 34 25 44 -14 43 -13 -9 -16 -22 -18 -26 39 -21 -19 -3 52 -10 -23 46 -15 -24 -2 -40 -8 -20 -7 -6 -33 -12 51 -51 -37 53 -1
right_child=2 6 3 10 18 7 13 17 19 12 48 21 23 31 27 -17 29 33 22 32 28 37 40 -25 30 -27 -28 -29 -30 -31 -32 47 -34 -35 -36 49 -38 -39 42 -41 -42 -43 -44 -45 -46 -47 -48 -49 -50 50 -52 -53 -54 -55
leaf_value=-0.93490884760065363 0.005405805382179097 -1.0816230332529224 -0.43528423075165068 5.1984513296597248 -0.6964507730379037 0.13975731668582142 -0.73294962315182943 0.82262953150483153 0.34996162201928083 1.3257031458257744 2.9598014127463106 -0.18907258225821172 1.9566418174972764 0.31173247974446938 0.21524025484383094 1.8604297680887836 0.5495633371210934 1.0385012196969441 -0.56602356114233621 0.61571332896404618 -0.32312763004448658 0.084903560807705294 -0.34981101974018791 2.9379428489884334 0.26049303640070826 -0.0070362200660776635 1.0796554585605269 0.40551380137660908 -0.17812551909819113 0.82586066476170306 -0.061447435866765689 0.37564251145706812 0.91352108905458462 1.305836594311216 -0.47263441551820207 -0.90851014606536384 0.59306619616372269 0.43518067885426776 -0.65515547921352191 0.12648198655457119 -0.11853885428840721 -0.62540843736723817 -0.4239133977332068 -0.27752810357088176 -0.45868404448446509 0.48152133886303217 -0.5886142819118263 0.56690199164999444 2.6702293276786806 -0.71528954947498491 -0.55679037406373388 -0.78371044091744857 -0.87410031719641257 -0.98989682047216743
leaf_weight=5938 64 74 70 69 1347 371 76 1649 530 1568 64 2620 538 920 2289 433 967 613 1916 573 4833 914 2559 67 418 2796 1111 2402 3123 969 2411 545 1034 1052 1193 63 2016 252 405 1986 382 141 1100 555 2485 140 2200 223 68 355 67 275 66 111
leaf_count=5938 64 74 70 69 1347 371 76 1649 530 1568 64 2620 538 920 2289 433 967 613 1916 573 4833 914 2559 67 418 2796 1111 2402 3123 969 2411 545 1034 1052 1193 63 2016 252 405 1986 382 141 1100 555 2485 140 2200 223 68 355 67 275 66 111
internal_value=0.000420575 -0.352588 0.793047 1.67988 -0.644171 0.632792 -0.107655 0.875626 0.448379 1.53338 3.63033 -0.195484 1.58626 0.0869268 0.281637 1.44141 0.59295 1.03194 -0.494553 0.644952 -0.299453 -0.0497989 -0.431051 2.06531 -0.0719641 -0.0950966 0.926092 0.312669 -0.266209 0.687855 -0.013879 0.236563 0.807333 1.20741 -0.508203 -0.913898 0.542459 0.160607 -0.58684 0.18513 -0.319772 -0.428471 -0.486141 -0.332381 -0.505415 0.233391 -0.629566 0.431177 2.81063 -0.742091 -0.690125 -0.806972 -0.935251 -0.935918
internal_weight=61006 42208 18798 2877 19269 15921 22939 6872 9049 2676 201 15805 2606 7134 4896 2001 2447 4425 12394 4153 9223 6582 7342 605 3460 5416 2760 4691 7956 1936 2829 3674 1607 1665 1267 6875 2546 1166 5052 2906 2941 205 1505 631 4401 511 3547 768 132 760 422 338 6115 6049
internal_count=61006 42208 18798 2877 19269 15921 22939 6872 9049 2676 201 15805 2606 7134 4896 2001 2447 4425 12394 4153 9223 6582 7342 605 3460 5416 2760 4691 7956 1936 2829 3674 1607 1665 1267 6875 2546 1166 5052 2906 2941 205 1505 631 4401 511 3547 768 132 760 422 338 6115 6049
is_linear=0
shrinkage=0.05


Tree=15
num_leaves=54
num_cat=0
split_feature=10 10 10 10 10 1 10 1 1 5 1 1 1 10 10 1 1 6 1 1 1 1 10 10 1 1 10 10 10 1 10 1 1 1 1 1 5 10 10 1 1 1 10 1 1 1 10 8 4 7 11 8 10
split_gain=6.14893e+06 1.11829e+06 966371 322049 240176 221655 196648 105107 103562 92566.7 87149.9 82986.9 81730.2 43134.9 41503.8 38788.3 37137 34146.4 30619.3 29629.2 29110.5 24470 24279 22148.5 20467 19446.9 17307.5 17145.8 17000.2 14120.6 13164.3 12259.6 11988.3 11356 10737.3 10729.1 10291.4 9993.81 9040.36 8987.06 8032.18 7808.5 7731.67 6732.18 5940.42 5188.93 2653.99 1791.91 951.974 732.955 386.027 150.229 80.322
threshold=49.00833333333334 21.291666666666671 87.966666666666683 147.16666666666671 65.791666666666671 0.30150752210442106 35.108333333333341 0.84243367960553106 0.78199050186990482 -0.25881904510252113 0.86767463766483288 1.0526315073868935 0.78947365767644329 96.40000000000002 78.858333333333334 0.39193710218533168 1.3567838650539155 1.0000000180025095e-35 1.2615955122004963 1.1357241588346623 0.24478272136095058 0.48962819997027046 55.82500000000001 27.458333333333336 0.10256439438222155 1.6122747523691132 58.708333333333343 27.275000000000002 109.75833333333334 1.2555484740014706 15.691666666666668 0.70496080099735059 1.503264698986033 0.98360651618896455 1.2844741990312818 1.1953238570516853 -0.25881904510252113 10.708333333333334 42.808333333333344 0.61105691015087438 1.0000000180025095e-35 1.6675681817211789 73.408333333333346 0.72289153541878493 0.76131491028766296 0.34149705337048603 11.441666666666668 166.50000000000003 4.5000000000000009 22.500000000000004 16.500000000000004 8.5000000000000018 7.8416666666666677
decision_type=10 10 10 10 8 10 10 10 10 2 10 10 10 10 10 10 10 2 10 10 10 10 10 10 10 10 10 10 10 10 10 10 10 10 10 10 2 10 10 10 10 10 10 10 10 10 10 10 2 10 10 10 10
left_child=1 5 4 10 7 40 11 20 21 47 15 23 24 35 19 -4 22 34 -15 -10 -2 45 -9 43 -8 30 -18 41 -17 -19 46 -25 -29 -16 -14 -12 -27 -38 -26 -22 51 -13 -23 -3 -32 -6 -7 -5 49 -42 -50 52 -1
right_child=2 6 3 9 8 25 12 16 14 -11 13 27 17 18 33 28 26 29 -20 -21 39 42 -24 31 38 36 -28 32 -30 -31 44 -33 -34 -35 -36 -37 37 -39 -40 -41 48 -43 -44 -45 -46 -47 -48 -49 50 -51 -52 -53 -54
leaf_value=-0.88840864086785665 -0.65979910631372474 -0.4779005899839473 -0.15132149297278374 2.9960979895158246 -0.36467890633294664 -0.69658019497094315 -1.0181066803310228 0.36503255534674217 0.73811912463055007 5.1011161217048988 1.247554339708622 -0.22892415154927384 0.23456524066735529 1.7556621784142288 0.96979918538600585 1.0022207173270237 0.66314159275268969 0.025730301559139242 2.452667509034737 1.0244322572037905 0.067411852482403722 0.43248024064339757 0.59169819680112867 -0.3518235119549431 -0.2131415185276837 0.24548096146801829 1.0654112131560551 -0.082641884525163245 1.6201750797408445 0.22339665997988273 -0.55270837000867012 -0.19676857117816299 0.11339227534314707 1.2434924081142751 0.47310076853953709 1.6623309349390152 -0.63263623088093135 -0.31062233367513431 -0.024470295437108557 0.27207493328573218 -0.68047621162490557 -0.027528466216121979 0.67082667028124499 -0.35036325416408104 -0.4396216733347067 0.15402859743605829 -0.58663776821665814 2.6247867280617356 -0.66431673384598788 -0.48977620351699092 -0.79403191495175462 -0.8125829916733962 -0.94472032748162749
leaf_weight=6007 99 2014 64 66 73 718 69 2048 2443 67 484 2369 1236 839 595 502 721 3396 194 1434 751 679 2792 2112 1793 71 425 2834 143 1231 1826 3216 1076 1044 763 230 295 1315 983 1877 269 604 682 2128 3190 142 2331 64 74 62 255 65 64
leaf_count=6007 99 2014 64 66 73 718 69 2048 2443 67 484 2369 1236 839 595 502 721 3396 194 1434 751 679 2792 2112 1793 71 425 2834 143 1231 1826 3216 1076 1044 763 230 295 1315 983 1877 269 604 682 2128 3190 142 2331 64 74 62 255 65 64
internal_value=0.00160887 -0.330221 0.763247 1.64628 0.615022 -0.651185 -0.124623 0.439174 0.831064 3.59139 1.49026 -0.229626 0.0566797 1.68001 0.933194 1.02273 0.556387 0.152925 1.88656 0.844019 0.181881 0.473609 0.495787 -0.325652 -0.167475 -0.498348 0.812325 -0.0975077 1.13922 0.0783189 -0.530593 -0.258232 -0.0286949 1.14413 0.325612 1.38117 -0.343645 -0.369625 -0.146332 0.213589 -0.870365 -0.188008 0.551916 -0.412377 -0.480789 -0.0220907 -0.612528 2.8133 -0.704624 -0.644756 -0.764856 -0.888193 -0.889002
internal_weight=60824 42366 18458 2653 15805 16542 25824 8713 7092 197 2456 16353 9471 1747 5516 709 5986 6626 1033 3877 2727 1576 4840 9470 2845 9746 1146 6883 645 4627 8065 5328 3910 1639 1999 714 1681 1610 2776 2628 6796 2973 1361 4142 5016 215 3049 130 660 331 329 6136 6071
internal_count=60824 42366 18458 2653 15805 16542 25824 8713 7092 197 2456 16353 9471 1747 5516 709 5986 6626 1033 3877 2727 1576 4840 9470 2845 9746 1146 6883 645 4627 8065 5328 3910 1639 1999 714 1681 1610 2776 2628 6796 2973 1361 4142 5016 215 3049 130 660 331 329 6136 6071
is_linear=0
shrinkage=0.05


Tree=16
num_leaves=58
num_cat=0
split_feature=10 10 10 10 10 10 10 0 3 6 6 6 5 10 10 10 3 10 10 10 10 3 6 3 11 10 3 10 4 4 10 5 4 5 11 3 11 6 4 3 11 5 11 10 3 8 11 12 12 6 11 8 11 12 5 3 10
split_gain=5.55032e+06 1.05489e+06 824697 350995 230891 153336 129575 109897 83541.4 54429.1 47228.3 38826.3 34993.1 31557.6 25145.1 19763 17137.9 14137.2 14013.2 13958.8 13531.8 13415.7 12819.6 11645.1 8416.53 7480.74 7070.92 6893.79 6557.92 6206.97 5576.34 5525.57 5509 6103.6 5088.87 4732.82 3908.29 3422.93 3389.24 3262.37 3117.65 2795.52 2539 2531.95 2359.92 1617.2 1313.99 1131.37 1020.59 973.819 3450.85 891.007 659.305 473.362 6.49973 21.2514 18.2314
threshold=43.808333333333344 80.375000000000014 18.241666666666671 147.16666666666671 57.858333333333341 30.575000000000003 7.8416666666666677 1.0000000180025095e-35 13.500000000000002 0.25881904510252057 -0.9159756150367534 -0.5 0.78656609248549325 96.40000000000002 71.141666666666694 115.20000000000002 20.500000000000004 38.141666666666673 70.641666666666694 23.041666666666671 50.141666666666673 13.500000000000002 -0.9159756150367534 20.500000000000004 67.500000000000014 61.658333333333339 20.500000000000004 52.458333333333343 1.5000000000000002 4.5000000000000009 25.275000000000002 0.60355339059327384 4.5000000000000009 0.25881904510252091 88.500000000000014 2.5000000000000004 37.500000000000007 -0.5 3.5000000000000004 10.500000000000002 20.500000000000004 0.37940952255126054 42.500000000000007 1.0583333333333336 5.5000000000000009 166.50000000000003 8.5000000000000018 19.500000000000004 32.500000000000007 -0.78656609248549325 31.500000000000004 65.500000000000014 8.5000000000000018 9.5000000000000018 0.78656609248549325 4.5000000000000009 1.0000000180025095e-35
decision_type=10 10 10 10 10 10 10 2 2 2 2 2 2 10 10 10 2 10 10 10 10 2 2 2 10 10 2 10 2 2 10 2 2 2 10 2 10 2 2 2 10 2 10 10 2 10 10 10 10 2 10 10 10 10 2 2 10
left_child=2 4 6 7 11 12 43 13 -5 14 29 27 19 23 25 28 -15 31 34 41 35 -16 -21 -3 -17 -6 -22 51 -9 38 44 -12 39 46 -11 -13 -29 -19 -7 52 -41 -4 -20 54 -14 -10 -34 -35 -32 53 -51 -2 -8 -45 56 -56 -1
right_child=1 3 5 8 9 10 32 15 45 18 17 20 30 16 21 24 -18 37 42 22 26 -23 -24 -25 -26 -27 -28 36 -30 -31 48 -33 33 47 -36 -37 -38 -39 -40 40 -42 -43 -44 49 -46 -47 -48 -49 -50 50 -52 -53 -54 -55 55 -57 -58
leaf_value=-0.84513042408138173 0.37854061133562045 1.0530909229405638 -0.29218941231557916 4.8460603422193387 0.55199129837039451 0.20640224371082 -0.39416812399585299 1.3371295453907877 2.8462930878229216 0.37490840318950291 -0.10016832210446019 0.21363861796830316 -0.36737229283538214 1.4476536433267544 1.4083538427948952 2.5524097721917292 0.6119466955982038 0.26243040455424266 0.83613252136727856 -0.016000556630110588 0.33861110974126185 0.84745409452770903 -0.22163370029595733 0.70698903233582244 1.912399904653816 0.70541959351507988 0.16961972296104666 0.49880561490168374 1.6715084961215849 -0.25644946662279278 -0.34361304955405148 -0.19392981084492544 -0.56795575299570644 -0.62747511908687215 0.53181812929242944 0.067108540138782424 0.88453950090067723 -0.015271904557973618 0.41568582934047238 -0.012348802052438261 -0.42354090442260112 -0.40123919806955438 0.6100482166574116 -0.83862336691544981 -0.451097835799396 2.4935473987832668 -0.40404419480730092 -0.56147872894998918 -0.26106354969585255 -0.33637078600004316 -0.8038722599594339 0.28182918207246371 -0.49459757169067003 -0.70286206899766335 -0.82833330988883969 -0.84491418472701507 -0.86106241699208563
leaf_weight=4516 1236 2035 1734 67 1125 1073 173 205 66 1740 4771 800 1213 727 113 70 67 115 145 893 1622 1884 5011 276 193 2704 1001 1061 515 65 1482 2343 155 1631 735 1771 70 3161 236 70 135 889 865 147 2749 64 579 1079 501 64 103 295 2951 114 240 992 187
leaf_count=4516 1236 2035 1734 67 1125 1073 173 205 66 1740 4771 800 1213 727 113 70 67 115 145 893 1622 1884 5011 276 193 2704 1001 1061 515 65 1482 2343 155 1631 735 1771 70 3161 236 70 135 889 865 147 2749 64 579 1079 501 64 103 295 2951 114 240 992 187
internal_value=0.00152843 0.648599 -0.35103 1.35039 0.473425 -0.189108 -0.674431 1.25106 3.41182 0.641859 -0.0550385 0.273796 -0.298091 1.10519 0.735357 1.7118 1.37713 -0.0914702 0.485555 -0.233171 0.19422 0.879193 -0.190531 1.01176 2.08274 0.660341 0.27412 0.429063 1.5763 0.220453 -0.391206 -0.131049 -0.522223 -0.566557 0.421506 0.112703 0.52268 -0.0055235 0.244134 -0.476357 -0.283134 -0.329149 0.642506 -0.836447 -0.425465 2.67263 -0.438658 -0.601198 -0.322757 -0.718996 -0.62471 0.359906 -0.489036 -0.779325 -0.844917 -0.841684 -0.845764
internal_weight=60824 21452 39372 4285 17167 26236 13136 4088 197 9311 11764 7856 14472 3105 5826 983 794 10390 3485 8527 5194 1997 5904 2311 263 3829 2623 2662 720 1374 5945 7114 6773 3444 2475 2571 1131 3276 1309 3329 205 2623 1010 6363 3962 130 734 2710 1983 428 167 1531 3124 261 5935 1232 4703
internal_count=60824 21452 39372 4285 17167 26236 13136 4088 197 9311 11764 7856 14472 3105 5826 983 794 10390 3485 8527 5194 1997 5904 2311 263 3829 2623 2662 720 1374 5945 7114 6773 3444 2475 2571 1131 3276 1309 3329 205 2623 1010 6363 3962 130 734 2710 1983 428 167 1531 3124 261 5935 1232 4703
is_linear=0
shrinkage=0.05


Tree=17
num_leaves=52
num_cat=0
split_feature=10 10 10 9 10 10 9 0 6 6 3 6 10 10 5 9 10 3 10 3 3 10 10 9 12 6 9 2 3 5 10 10 9 6 10 12 9 10 10 9 5 3 12 5 11 10 3 9 10 8 9
split_gain=5.00916e+06 952037 744289 372736 208828 138457 119819 108366 50724.6 49473.3 42109.6 33572.6 28396.2 27373 26296.8 23937.2 16804.2 15393.2 13625.1 12107.6 10509.7 10230 9980.61 8437.95 7698.35 7305.06 6978.09 6798.27 6767.17 6149.59 5796.04 5474.45 5341.78 5176.63 4540.69 4202.16 4124.04 4034.12 3801.03 3770.92 3123.92 2678.75 2531.78 2522.95 2291.45 1531.41 1145.89 914.019 551.581 45.0798 17.15
threshold=43.808333333333344 80.375000000000014 18.241666666666671 227.00000000000003 56.241666666666674 29.291666666666671 21.500000000000004 1.0000000180025095e-35 0.25881904510252057 -0.9159756150367534 13.500000000000002 -0.5 96.40000000000002 71.141666666666694 0.78656609248549325 169.50000000000003 38.141666666666673 20.500000000000004 70.641666666666694 13.500000000000002 20.500000000000004 61.658333333333339 23.041666666666671 216.00000000000003 46.500000000000007 -0.9159756150367534 102.50000000000001 1.0000000180025095e-35 3.5000000000000004 0.78656609248549325 34.108333333333341 11.441666666666668 94.500000000000014 -0.5 50.141666666666673 5.5000000000000009 81.500000000000014 21.875000000000004 51.69166666666667 141.50000000000003 0.37940952255126054 11.500000000000002 129.50000000000003 0.37940952255126054 42.500000000000007 27.991666666666671 5.5000000000000009 38.500000000000007 5.741666666666668 1.0000000180025095e-35 13.500000000000002
decision_type=10 10 10 10 10 10 10 2 2 2 2 2 10 10 2 10 10 2 10 2 2 10 10 10 8 2 10 2 2 2 10 10 10 2 10 10 10 10 10 10 2 2 8 2 10 10 2 10 10 10 10
left_child=2 4 6 7 11 14 48 12 13 30 -5 26 20 21 22 39 29 -14 28 -15 -3 -6 43 -17 32 -24 38 31 -10 -11 42 47 -13 -29 -26 -28 -18 46 -2 -9 -33 -32 -7 -4 -20 -39 -16 -8 49 50 -1
right_child=1 3 5 10 8 9 27 15 18 16 -12 24 17 19 37 23 36 -19 44 -21 -22 -23 25 -25 34 -27 35 33 -30 -31 41 40 -34 -35 -36 -37 -38 45 -40 -41 -42 -43 -44 -45 -46 -47 -48 -49 -50 -51 -52
leaf_value=-0.8025829021969314 0.30993868061706065 1.0004363788932753 -0.27757994056198071 4.610636447660335 0.51000835308136094 0.11869411834045603 -0.59523475593060859 1.2548638710108673 0.52677461911534362 -0.11513497344532364 2.8598758063008711 0.13346466478977895 1.3731028038860993 1.3379361548807176 -0.35807511336446773 1.8064245462353534 0.0311104497596368 0.58134935507689833 0.79432589315199131 0.80508138985296951 0.67163957858566148 0.67014861456808461 -0.045618645549585973 2.3772043005212562 0.15776697711052218 -0.21764564497979855 0.25433788255211853 0.13836061746721537 0.35150369260309366 -0.21568352541232461 0.46696327240413926 -0.40907435976075579 -0.06244156576778697 -0.4154567813930603 0.2916497636871484 0.71238537762069809 -0.091808104490374978 -0.35793658248099891 0.45361522868563792 1.5219457234286919 -0.50460365804291285 0.24037729109102624 -0.18978179063844056 -0.38117723787524005 0.57954580725962035 -0.25565589109564829 -0.45185700887204733 -0.7469394868558592 -0.67376516624575578 -0.83509272606867668 -0.78356580327857628
leaf_weight=5865 1264 2035 1734 77 1580 533 941 220 743 6555 62 1739 733 113 404 407 2307 67 145 1884 276 2704 730 77 1310 3991 63 71 2128 1980 157 1047 435 104 1226 244 969 3043 724 331 4686 771 76 889 865 416 1681 111 84 106 121
leaf_count=5865 1264 2035 1734 77 1580 533 941 220 743 6555 62 1739 733 113 404 407 2307 67 145 1884 276 2704 730 77 1310 3991 63 71 2128 1980 157 1047 435 104 1226 244 969 3043 724 331 4686 771 76 889 865 416 1681 111 84 106 121
internal_value=0.001452 0.616169 -0.333479 1.28288 0.449754 -0.179653 -0.640709 1.19749 0.594542 -0.0667867 3.82972 0.239714 1.05005 0.682352 -0.296547 1.64067 -0.101512 1.30679 0.452429 0.835233 0.961169 0.611087 -0.234493 1.89723 0.163306 -0.191045 0.396525 -0.49846 0.396863 -0.138461 0.200055 -0.506396 0.0942654 -0.190765 0.222491 0.618389 -0.00524733 -0.37875 0.362264 1.41531 -0.487157 0.278711 0.0801979 -0.312692 0.610381 -0.345636 -0.433685 -0.611242 -0.801016 -0.802771 -0.802198
internal_weight=60824 21452 39372 4285 17167 26236 13136 4146 10162 13348 139 7005 3111 6281 12888 1035 11811 800 3881 1997 2311 4284 7344 484 4710 4721 2295 6960 2871 8535 1537 6785 2174 175 2536 307 3276 5544 1988 551 5733 928 609 2623 1010 3459 2085 1052 6176 6092 5986
internal_count=60824 21452 39372 4285 17167 26236 13136 4146 10162 13348 139 7005 3111 6281 12888 1035 11811 800 3881 1997 2311 4284 7344 484 4710 4721 2295 6960 2871 8535 1537 6785 2174 175 2536 307 3276 5544 1988 551 5733 928 609 2623 1010 3459 2085 1052 6176 6092 5986
is_linear=0
shrinkage=0.05


Tree=18
num_leaves=53
num_cat=0
split_feature=10 10 10 9 1 1 10 10 1 1 1 1 1 10 1 1 1 10 10 1 1 1 1 10 1 1 10 7 1 10 1 9 10 3 7 10 7 10 10 7 1 1 1 6 1 10 9 10 9 9 10 10
split_gain=4.52299e+06 822679 715673 290140 186067 166688 147018 139960 78692 75084 74452.6 63535.9 50476 41512.4 39476.7 32136.2 31513.9 29947.3 28784.3 21294 21120.3 17087.4 17054.7 16663.7 16265.6 15777.8 15427.1 14487.2 12781.1 12493.3 12311.2 11732.2 10960.4 10788.9 10353 9671.06 7475.18 7397.13 6834.35 6772.55 6536.07 6247.66 4945.66 4799.33 4668.45 2228.19 1904.64 866.362 604.843 439.102 280.022 123.602
threshold=49.00833333333334 21.291666666666671 87.966666666666683 227.00000000000003 0.78573298435987093 0.34149705337048603 33.375000000000007 63.69166666666667 1.1111110889522009 1.0265273327845168 0.72741298738691584 1.0526315073868935 0.10256439438222155 109.75833333333334 1.1807161889241622 0.63368966100872637 1.2844741990312818 66.75833333333334 75.475000000000009 0.41811844608668786 1.1953238570516853 0.10256439438222155 1.6122747523691132 41.708333333333343 0.5937624786796446 0.70051648119334253 41.708333333333343 151.50000000000003 1.759230304579124 58.708333333333343 1.5553574456121326 27.500000000000004 56.241666666666674 13.500000000000002 62.500000000000007 15.691666666666668 53.500000000000007 29.291666666666671 27.458333333333336 89.500000000000014 0.45267906450372108 1.0000000180025095e-35 0.10256439438222155 1.0000000180025095e-35 0.78573298435987093 11.441666666666668 19.500000000000004 18.658333333333335 46.500000000000007 47.500000000000007 12.058333333333335 5.741666666666668
decision_type=10 10 10 10 10 10 10 10 10 10 10 10 10 10 10 10 10 10 10 10 10 10 10 10 10 10 10 10 10 10 10 10 10 2 10 10 10 10 10 10 10 10 10 2 10 10 10 10 10 10 10 10
left_child=1 5 4 10 12 41 11 16 15 -5 19 25 -2 20 18 21 32 40 -9 -4 -12 -8 35 -17 -19 42 28 -15 -10 -18 37 46 -6 -33 -16 45 -32 -13 -27 -21 -14 49 -3 -28 -37 -7 -24 50 -49 51 -43 -1
right_child=2 6 3 9 7 22 8 14 26 -11 13 30 17 27 34 23 29 24 -20 39 -22 -23 31 -25 -26 38 43 -29 -30 -31 36 33 -34 -35 -36 44 -38 -39 -40 -41 -42 47 -44 -45 -46 -47 -48 48 -50 -51 -52 -53
leaf_value=-0.76138902138788034 -0.90002243482336708 -0.793028335687187 -0.17632297510146233 2.3431879326701166 0.30512155775586669 -0.60305530004054952 -0.95721496304115627 0.5991243196393693 0.093115124104970845 4.6810011780252321 1.1576483764824077 -0.17903499258589398 -0.13091368813399978 1.6463952814710048 0.78418033261787135 -0.079712378226280689 0.55541327853417266 0.17235111292102376 0.86549829510964715 0.51483063207104285 1.5808535973205784 -0.22199022967756463 -0.83040583436305715 0.094416127822377585 0.5333553654428006 -0.30728396128638474 0.44600364923018576 2.3190006389115987 0.46285598502704928 0.87618397051293739 0.0050628447739988411 -0.25341710969924425 0.46159024281786226 0.41574198945410673 1.0487686375210479 -0.47383190153973831 0.50115556589094923 -0.04358655140391262 -0.18743320705866007 1.0166088456753641 0.1606493034734755 -0.69747793893971133 -0.37436357518973828 0.26128701640959157 -0.37335986159156781 -0.5011678345533056 -0.51463888211382758 -0.43977768200163087 -0.63329825934135553 -0.88234026463826509 -0.62244835341888538 -0.69502818887974593
leaf_weight=5990 98 72 69 62 2225 703 83 2552 2237 77 1171 2925 213 509 502 3519 994 448 1683 116 394 1651 65 2254 1028 2241 593 95 261 437 1494 1373 2252 63 1403 1851 80 1538 2535 160 1970 167 3477 864 3080 2267 180 104 66 75 487 71
leaf_count=5990 98 72 69 62 2225 703 83 2552 2237 77 1171 2925 213 509 502 3519 994 448 1683 116 394 1651 65 2254 1028 2241 593 95 261 437 1494 1373 2252 63 1403 1851 80 1538 2535 160 1970 167 3477 864 3080 2267 180 104 66 75 487 71
internal_value=0.0013794 -0.283217 0.654603 1.41452 0.527045 -0.558509 -0.106873 0.622846 0.0266696 3.63824 1.29156 -0.213451 0.219828 1.40008 0.790013 -0.0684226 0.449115 0.249822 0.704982 0.609309 1.26419 -0.257183 -0.423238 -0.0117259 0.423782 -0.303006 0.207165 1.75219 0.131747 0.653371 -0.0899548 -0.278621 0.383828 -0.22406 0.979045 -0.454007 0.0302772 -0.132358 -0.24367 0.805717 0.132201 -0.74474 -0.382857 0.336467 -0.411075 -0.525285 -0.598414 -0.615468 -0.514909 -0.7621 -0.641607 -0.760612
internal_weight=60824 42366 18458 2653 15805 16542 25824 12048 11462 139 2514 14362 3757 2169 6140 7507 5908 3659 4235 345 1565 1734 9582 5773 1476 8325 3955 604 2498 1431 6037 1681 4477 1436 1905 7901 1574 4463 4776 276 2183 6960 3549 1457 4931 2970 245 824 170 6136 654 6061
internal_count=60824 42366 18458 2653 15805 16542 25824 12048 11462 139 2514 14362 3757 2169 6140 7507 5908 3659 4235 345 1565 1734 9582 5773 1476 8325 3955 604 2498 1431 6037 1681 4477 1436 1905 7901 1574 4463 4776 276 2183 6960 3549 1457 4931 2970 245 824 170 6136 654 6061
is_linear=0
shrinkage=0.05


Tree=19
num_leaves=53
num_cat=0
split_feature=9 9 0 7 9 9 1 1 9 1 9 9 1 1 9 1 7 7 7 9 1 7 6 9 1 7 1 1 12 1 7 7 9 7 9 5 8 9 1 1 9 1 12 6 7 9 9 7 9 7 1 9
split_gain=3.84693e+06 676490 624972 264788 234895 162967 151241 120430 92775.1 67786.7 58494.5 58086.9 43715.6 36454.4 33743.5 30932.4 28173.5 26782.9 21948.6 21577.4 20865.8 16925 16763.2 15324 14977.8 14976 13480.3 12998.1 12715.2 9994.68 8701.82 8684.67 8553.09 7096.9 7068.39 6451.98 5552.65 5171.23 5084.36 4718.08 4584.75 4481.4 4198.08 3399.62 3329.39 2699.42 2588.99 1878.14 692.667 218.989 175.378 50.8957
threshold=86.500000000000014 47.500000000000007 1.0000000180025095e-35 73.500000000000014 227.00000000000003 21.500000000000004 0.77803695936562278 0.76986817580321532 72.500000000000014 0.10256439438222155 103.50000000000001 131.50000000000003 1.0799845311384251 0.60541507513721482 167.50000000000003 1.1357241588346623 36.500000000000007 38.500000000000007 102.50000000000001 56.500000000000007 0.93700081294198811 49.500000000000007 0.78656609248549303 103.50000000000001 0.32063479201277062 50.500000000000007 1.2615955122004963 1.2048930713261299 54.500000000000007 1.2844741990312818 144.50000000000003 19.500000000000004 97.500000000000014 62.500000000000007 68.500000000000014 0.60355339059327384 112.50000000000001 64.500000000000014 0.42894345910171189 0.10256439438222155 137.50000000000003 1.1953238570516853 24.500000000000004 -0.5 13.500000000000002 35.500000000000007 40.500000000000007 2.5000000000000004 33.500000000000007 3.5000000000000004 0.95134898673302093 2.0000000000000004
decision_type=10 10 2 10 10 10 10 10 10 10 10 10 10 10 10 10 10 10 10 10 10 10 2 10 10 10 10 10 10 10 10 8 10 10 10 2 10 10 10 10 10 10 10 2 10 10 10 10 10 10 10 10
left_child=1 5 3 6 14 49 9 16 19 47 22 15 -6 28 33 23 24 -12 -15 35 38 -11 -8 -5 39 29 30 -21 -13 -10 -16 45 -17 -4 42 -9 -28 -26 48 -3 -35 -27 -18 -36 -40 -22 -33 -2 -7 50 51 -1
right_child=2 7 4 11 12 20 10 8 25 21 17 13 -14 18 26 32 34 -19 -20 27 31 -23 -24 -25 37 41 36 -29 -30 -31 -32 46 -34 40 43 -37 -38 -39 44 -41 -42 -43 -44 -45 -46 -47 -48 -49 -50 -51 -52 -53
leaf_value=-0.72425968093665405 -0.99533303624107727 -0.82806838587136333 0.79171461492557738 0.2938832698516548 2.6613080574620156 -0.61929065410573825 0.40498388676234898 -0.14514045149449314 0.033196800641041545 0.0019847293618172612 0.25892638098901971 0.8797196037952717 4.4970404726617472 0.89060732258042441 1.410946612110809 0.49452421166841565 -0.39148083481145529 0.63543572902650414 1.2127802218256014 -0.11567476477985431 -0.44554048092577397 0.23910303232265964 0.18985022505700719 0.60228137693421391 -0.35128845273774173 0.19539959954898806 1.7893040947976613 0.01784855123269213 0.028534834798839361 0.21786534828603299 1.9649939018801641 -0.32200187448340523 0.89625533541705849 1.1091151991853485 0.14088659745454787 -0.26715421937966177 2.4348254917913845 -0.24289290593654758 -0.50180002352692288 -0.49696316970596177 1.3724871996619807 0.36396168312823229 -0.15969941376035746 -0.083831290098921388 -0.40527621278888804 -0.34884448852382383 -0.20843883896480442 -0.67599332067297735 -0.53616303161959555 -0.6534246319049114 -0.79560921865351064 -0.70155698745403183
leaf_weight=5722 105 142 102 500 62 347 2637 2345 2803 1442 534 65 68 1435 279 151 281 4090 837 4525 1093 1574 1379 2072 2811 1000 62 3052 135 992 95 809 1081 333 200 2014 72 1808 1462 444 328 651 641 1062 2297 2125 1322 82 902 111 85 258
leaf_count=5722 105 142 102 500 62 347 2637 2345 2803 1442 534 65 68 1435 279 151 281 4090 837 4525 1093 1574 1379 2072 2811 1000 62 3052 135 992 95 809 1081 333 200 2014 72 1808 1462 444 328 651 641 1062 2297 2125 1322 82 902 111 85 258
internal_value=0.00131043 -0.272049 0.579734 0.501063 1.59717 -0.519734 0.36192 -0.106735 -0.0348548 0.0684573 0.470711 0.763631 3.62154 0.952327 1.39012 0.641008 -0.275827 0.591955 1.0093 -0.112882 -0.398512 0.125733 0.331112 0.542328 -0.33907 0.136157 1.70585 -0.0618918 0.30517 0.0814685 1.55168 -0.329842 0.847017 1.1799 -0.125103 -0.201515 2.13615 -0.30886 -0.471858 -0.577197 1.23981 0.261865 -0.23034 -0.0482183 -0.442818 -0.381687 -0.251551 -0.855302 -0.559258 -0.72302 -0.724294 -0.72328
internal_weight=60824 41304 19520 18119 1401 16533 11843 24771 17382 3203 8640 6276 130 2472 1271 3804 7389 4624 2272 11936 10357 3016 4016 2572 5205 5446 508 7577 200 3795 374 5349 1232 763 2184 4359 134 4619 5008 586 661 1651 922 1262 3759 3218 2131 187 1249 6176 6065 5980
internal_count=60824 41304 19520 18119 1401 16533 11843 24771 17382 3203 8640 6276 130 2472 1271 3804 7389 4624 2272 11936 10357 3016 4016 2572 5205 5446 508 7577 200 3795 374 5349 1232 763 2184 4359 134 4619 5008 586 661 1651 922 1262 3759 3218 2131 187 1249 6176 6065 5980
is_linear=0
shrinkage=0.05


Tree=20
num_leaves=51
num_cat=0
split_feature=9 9 9 9 1 9 9 9 1 1 1 1 1 7 9 7 7 1 1 7 1 7 8 1 8 1 1 1 1 1 9 7 6 11 7 1 11 1 1 1 7 7 3 1 7 7 1 1 12 9
split_gain=3.50733e+06 644697 550401 270081 231365 144365 127941 125503 80825.4 56986.8 56643.5 55208.7 50218.4 44034.7 39133.8 35192.7 33136.5 25755.8 22424.3 17919.7 17788.3 16331 15277.5 14987.9 14402.6 13985.7 13872.5 13869.9 13751.8 12522.4 10373.9 9374.75 8315.58 8164.67 6088.3 5662.15 4987.7 4895.46 4792.84 3066.64 2983.59 2834.65 2339.5 2246.44 1603.18 1522.73 536.07 222.774 146.887 81.2372
