tree
version=v4
num_class=1
num_tree_per_iteration=1
label_index=0
max_feature_idx=12
objective=regression
feature_names=is_burst burst_ratio is_event hour_of_day day_of_week hour_sin hour_cos lag_requests_5m lag_requests_15m rolling_max_1h rolling_mean_1h lag_requests_6h lag_requests_1d
feature_infos=[0:1] [0:11.999999345454581] [0:1] [0:23] [0:6] [-1:1] [-1:1] [0:1497] [0:1497] [0:1497] [0:1242.25] [0:1497] [0:1497]
tree_sizes=4501 4503 4473 4492 4329 4400 4148 4314 4246 4151 4252 4328 4417 4096 4314 4259 4493 4333 4252 4169 3694 3852 3448 3682 3846 4257 3930 3835 3839 4087 3764 3623 3779 3874 3858 3291 3636 3694 3463 3460 3367 3291 3453 3623 3324 3724 3467 3150 3313 3391 3453 3536 3036 2956 3304 2955 3208 2949 3394 3618 2543 3400 2378 2878 3154 2878 2368 2986 2706 3474 1861 2552 1620 1778 1691 2045 2027 1349 1869 1356 2104 2536 2197 2035 1454 1621 2479 1869 2045 1186 1019 1018 1771 1110 1014 2283 1959 2185 1775 1867 2526 2014 1878 2014 1522 940 1442 1101 1359 1187 1267 1262 1096

Tree=0
num_leaves=53
num_cat=0
split_feature=10 10 10 10 7 7 7 7 7 7 7 10 7 7 7 10 10 7 10 10 7 7 6 6 10 10 10 6 6 5 3 6 10 5 6 10 5 10 7 10 7 7 10 7 1 12 6 10 4 2 4 11
split_gain=1.35693e+08 2.30805e+07 2.23791e+07 9.43408e+06 5.36834e+06 4.20004e+06 3.6637e+06 2.26492e+06 885819 880447 599153 535861 433068 431648 367763 268523 262804 225537 213492 211581 194209 173804 163935 150419 147981 137973 129031 122129 111534 109295 100997 95517 91948.1 82711.5 77614.6 75762.6 68456 62854 40664.3 40574.9 39576.6 35366.6 34380.2 32614.1 27577.2 24328.6 19334.8 13704.1 10628 189.895 351.092 6.5334
threshold=230.50000000000003 105.70833333333336 382.12500000000006 609.66666666666686 21.500000000000004 178.50000000000003 287.50000000000006 497.50000000000006 133.50000000000003 360.50000000000006 240.50000000000003 278.20833333333343 353.50000000000006 93.500000000000014 549.50000000000011 152.12500000000003 315.12500000000006 79.500000000000014 434.70833333333343 178.12500000000003 230.50000000000003 193.50000000000003 1.0000000180025095e-35 0.37940952255126048 139.12500000000003 315.12500000000006 67.125000000000014 1.0000000180025095e-35 -0.70710678118654757 -0.78656609248549292 18.500000000000004 -0.9159756150367534 528.08333333333337 0.78656609248549325 0.37940952255126048 265.20833333333343 0.37940952255126054 184.45833333333334 118.50000000000001 193.70833333333334 67.500000000000014 275.50000000000006 352.20833333333343 75.500000000000014 1.0000000180025095e-35 431.50000000000006 0.60355339059327384 79.708333333333357 4.5000000000000009 1.0000000180025095e-35 1.5000000000000002 111.50000000000001
decision_type=8 10 10 10 10 10 8 10 10 10 8 10 10 10 10 10 10 10 10 10 10 10 2 2 10 10 10 2 2 2 2 2 10 2 2 8 2 10 10 10 10 10 10 10 10 10 2 10 2 2 2 10
left_child=1 4 6 7 44 8 11 12 17 16 19 21 30 26 45 33 35 48 -14 31 46 -2 41 25 -19 -11 40 -23 -21 -22 -4 -7 -16 -10 -18 -8 38 -17 -15 -24 -6 -12 -25 -28 49 -9 -13 -38 -3 51 -51 -1
right_child=2 5 3 -5 13 10 9 14 15 23 22 20 18 36 32 37 34 24 -20 28 29 27 39 42 -26 -27 43 -29 -30 -31 -32 -33 -34 -35 -36 -37 47 -39 -40 -41 -42 -43 -44 -45 -46 -47 -48 -49 -50 50 -52 -53
leaf_value=182.34693087107499 192.68109753712233 186.6503791468343 201.84763495673397 222.47962271904737 184.98384843379901 192.49933087036123 196.31403613423291 205.86036322850191 189.82956139286489 199.33121657082853 194.62818087056911 195.41825440027037 202.84377997920922 187.68736565358003 208.95829387165577 190.49179220804507 199.46748420663423 188.32824096713952 204.82702308219785 194.05943087058964 198.22249476933186 195.65600260071923 192.21308471640643 198.43840814366681 189.37567866622172 201.4216162929047 186.14702145078513 194.22825765194048 192.27985769965957 196.4625797259117 199.18998635245589 190.94827941824488 211.60769936237983 188.66729286191733 198.08361725257868 197.61390978305022 186.7418803660245 191.40389057709658 189.05173856309614 193.73359753734567 186.05741474204274 196.04980442538695 199.91735335255814 186.75873642659744 183.33978801393215 207.22349276310763 194.20248642653596 187.40438344560076 187.38634263564063 182.48443087107501 182.36804524057646 182.36386635494597
leaf_weight=699 120 116 71 78 279 125 152 67 498 105 88 68 365 115 66 613 253 832 216 104 133 237 65 88 567 318 552 407 574 262 72 482 65 221 169 427 99 273 104 135 124 87 71 360 77 64 63 369 85 80 341 62
leaf_count=699 120 116 71 78 279 125 152 67 498 105 88 68 365 115 66 613 253 832 216 104 133 237 65 88 567 318 552 407 574 262 72 482 65 221 169 427 99 273 104 135 124 87 71 360 77 64 63 369 85 80 341 62
internal_value=191.927 188.236 199.546 205.74 184.981 190.418 197.252 204.416 189.36 198.863 192.459 195.274 202.974 186.59 208.4 190.19 197.964 188.528 203.581 191.946 196.502 194.428 194.217 200.41 188.753 200.903 186.059 194.754 192.553 197.055 200.51 191.268 210.273 189.472 198.913 197.273 187.606 190.773 188.335 193.239 185.314 195.335 199.099 186.388 182.423 206.526 194.834 187.264 186.962 182.363 182.39 182.348
internal_weight=12063 8126 3937 1064 3261 4865 2873 986 3205 1583 1660 1290 724 2002 262 1605 1001 1600 581 1285 526 764 375 582 1399 423 1315 644 678 395 143 607 131 719 422 579 687 886 219 200 403 175 159 912 1259 131 131 468 201 1182 421 761
internal_count=12063 8126 3937 1064 3261 4865 2873 986 3205 1583 1660 1290 724 2002 262 1605 1001 1600 581 1285 526 764 375 582 1399 423 1315 644 678 395 143 607 131 719 422 579 687 886 219 200 403 175 159 912 1259 131 131 468 201 1182 421 761
is_linear=0
shrinkage=1


Tree=1
num_leaves=52
num_cat=0
split_feature=10 10 10 10 7 7 7 7 7 7 7 7 10 7 10 10 10 6 7 10 7 6 7 10 11 10 7 7 5 5 10 6 6 10 5 10 8 10 6 7 10 12 7 7 7 1 8 7 2 5 11
split_gain=1.22463e+08 2.08302e+07 2.02058e+07 8.22744e+06 4.84492e+06 3.79329e+06 3.69074e+06 1.916e+06 888578 835604 514150 488369 462841 389563 387406 252959 207752 203948 203547 187062 160886 147951 137977 134070 123860 116451 105639 100280 98910.2 98723.7 97981.4 87033.1 85490.9 80813.3 61781.5 59978.4 54650.8 48456.2 36999.1 36699.5 36618.8 36107.5 35717.9 31918.3 29434.2 24888.4 13192.9 12617.4 171.378 316.909 5.89633
threshold=230.50000000000003 105.70833333333336 389.95833333333343 609.66666666666686 21.500000000000004 180.50000000000003 315.50000000000006 525.50000000000011 242.50000000000003 133.50000000000003 240.50000000000003 428.50000000000006 327.62500000000006 93.500000000000014 296.95833333333337 155.87500000000003 485.62500000000006 0.37940952255126048 79.500000000000014 178.12500000000003 353.50000000000006 1.0000000180025095e-35 193.50000000000003 140.79166666666671 197.50000000000003 67.125000000000014 366.50000000000006 421.50000000000006 -0.78656609248549292 0.78656609248549325 286.79166666666669 -0.70710678118654757 -0.9159756150367534 423.45833333333343 0.37940952255126054 352.20833333333343 309.50000000000006 184.45833333333334 -0.3794095225512602 118.50000000000001 193.70833333333334 203.50000000000003 67.500000000000014 275.50000000000006 75.500000000000014 1.0000000180025095e-35 103.50000000000001 106.50000000000001 1.0000000180025095e-35 0.78656609248549325 111.50000000000001
decision_type=8 10 10 10 10 10 10 10 8 10 10 10 10 10 8 10 10 2 10 10 10 2 10 10 8 10 10 10 2 2 10 2 2 10 2 10 10 10 2 10 10 10 10 10 10 10 10 10 2 2 10
left_child=1 4 6 7 45 9 8 11 22 18 19 20 26 25 24 29 -9 27 46 32 -4 43 41 -20 -10 42 36 -14 -16 -11 -24 -21 -7 -13 39 -19 -8 -17 -28 -15 -23 -2 -6 -12 -27 48 -3 -36 50 -50 -1
right_child=2 5 3 -5 13 10 12 16 14 15 21 33 17 34 28 37 -18 35 23 31 -22 40 30 -25 -26 44 38 -29 -30 -31 -32 -33 -34 -35 47 -37 -38 -39 -40 -41 -42 -43 -44 -45 -46 -47 -48 -49 49 -51 -52
leaf_value=-9.1173461914062504 -0.020959569159008207 -5.2420875573769594 8.1791539905485049 29.008711570348495 -6.6122746553045024 0.59811038400372885 5.2190042918701787 14.349588875543503 4.4465093692327722 -1.9081653637039224 2.5498409633609382 11.164430381371096 8.3739605424849977 -4.0439334052541982 6.5118250219772271 -1.3124630939872828 17.900457186658844 5.8650648994879298 -3.4158122843806797 1.9671264877214154 10.394469055416078 0.25549961198980992 2.1801326297711783 -2.407902141337547 3.066091873985858 -5.5072603512501379 7.8999343437083231 10.188031196594238 5.0351446444377146 -3.1036607224931601 3.7694361014597457 0.37691618399186572 -0.91494647127644724 12.798137746538435 -4.7517401478120256 7.6026627018786321 6.4589948003292079 -0.5157650029426124 6.362215427854168 -2.7477791636627025 1.699986818543187 1.5397530524598229 -5.5923868010121005 3.9003833294043257 -4.926131279667219 -8.1741320201328822 -4.4108236737367585 -4.2255224194596792 -9.099376966895127 -8.9948087610224245 -9.1012575703282508
leaf_weight=699 63 78 121 78 279 117 218 63 324 574 88 111 369 115 192 544 119 88 866 102 254 65 351 533 326 552 94 96 277 247 134 550 462 238 196 114 150 294 67 104 135 90 124 87 360 77 123 272 328 93 62
leaf_count=699 63 78 121 78 279 117 218 63 324 574 88 111 369 115 192 544 119 88 866 102 254 65 351 533 326 552 94 96 277 247 134 550 462 238 196 114 150 294 67 104 135 90 124 87 360 77 123 272 328 93 62
internal_value=-0.0161921 -3.52282 7.22151 13.4268 -6.61485 -1.45023 5.15379 12.0853 3.69539 -2.43032 0.538636 10.9324 7.29626 -5.08651 4.54443 -1.64407 16.6713 8.17222 -3.24557 0.0448615 9.67966 2.15953 2.20625 -3.03181 3.75418 -5.59064 6.19179 8.74848 5.63967 -2.26783 2.61924 0.625691 -0.609199 12.2785 -4.12155 6.84569 5.72444 -1.03295 7.26001 -3.42841 1.23053 0.897107 -6.29846 3.22125 -5.27787 -9.04513 -4.7334 -4.4459 -9.10187 -9.07628 -9.11604
internal_weight=12063 8126 3937 984 3261 4865 2953 906 1757 3259 1606 724 1196 2002 1119 1659 182 667 1600 1231 375 375 638 1399 650 1315 529 465 469 821 485 652 579 349 687 202 368 838 161 219 200 153 403 175 912 1259 201 468 1182 421 761
internal_count=12063 8126 3937 984 3261 4865 2953 906 1757 3259 1606 724 1196 2002 1119 1659 182 667 1600 1231 375 375 638 1399 650 1315 529 465 469 821 485 652 579 349 687 202 368 838 161 219 200 153 403 175 912 1259 201 468 1182 421 761
is_linear=0
shrinkage=0.05


Tree=2
num_leaves=52
num_cat=0
split_feature=10 10 7 7 7 7 7 7 7 7 10 10 8 10 10 7 6 6 10 10 10 7 10 7 6 7 10 6 5 5 10 7 5 4 7 10 10 7 10 10 5 10 6 10 5 10 6 8 7 10 5
split_gain=1.10587e+08 2.01809e+07 1.71502e+07 7.84423e+06 3.73459e+06 3.42404e+06 3.06578e+06 1.54099e+06 787682 787042 770788 599828 326739 299884 256993 255009 245448 223256 191301 180679 177221 158967 146704 131515 123204 120350 115754 100645 99812.7 90920 80333.8 75434.5 70548.5 58180.6 56073.8 54325.4 39611.8 38039.6 36734.7 35566.1 34577.6 34014.2 33104.8 27807.8 23207.4 23165.2 17375.1 11196.1 4041.68 3575.13 171.074
threshold=218.79166666666671 382.12500000000006 84.500000000000014 634.50000000000011 287.50000000000006 153.50000000000003 21.500000000000004 490.50000000000006 360.50000000000006 195.50000000000003 122.62500000000001 278.20833333333343 459.50000000000006 553.16666666666674 278.20833333333343 355.50000000000006 -0.5 -0.70710678118654757 151.29166666666671 90.208333333333357 441.62500000000006 230.50000000000003 157.95833333333334 201.50000000000003 0.37940952255126048 252.50000000000003 315.12500000000006 0.25881904510252057 0.37940952255126054 -0.78656609248549292 178.12500000000003 540.50000000000011 0.78656609248549325 4.5000000000000009 43.500000000000007 101.45833333333336 185.95833333333334 242.50000000000003 243.79166666666671 29.708333333333336 0.60355339059327384 119.79166666666667 -0.9159756150367534 352.20833333333343 0.60355339059327384 67.125000000000014 0.60355339059327384 65.500000000000014 75.500000000000014 1.0000000180025095e-35 0.78656609248549325
decision_type=8 10 10 10 8 10 10 10 10 10 10 10 10 10 10 10 2 2 10 10 10 10 10 10 2 10 10 2 2 2 10 10 2 2 10 10 10 10 8 10 2 10 2 10 2 10 2 10 10 10 2
left_child=2 4 6 7 11 10 39 12 14 18 28 16 15 31 38 -3 37 25 42 34 -14 46 32 -18 26 -11 -10 -16 33 -23 -19 -9 -12 -4 47 -30 -20 -2 -6 49 -24 44 -7 -26 -21 -36 -13 -8 -43 50 -1
right_child=1 3 5 -5 8 9 19 13 24 17 22 21 20 -15 27 -17 23 30 36 41 -22 29 40 -25 43 -27 -28 -29 35 -31 -32 -33 -34 -35 45 -37 -38 -39 -40 -41 -42 48 -44 -45 -46 -47 -48 -49 -50 -51 -52
leaf_value=-8.6626744118411985 2.6851752150237562 7.1474681279192795 -2.31521833226329 26.664277918954912 3.1709758403032655 -1.182529788547092 -6.677400668600332 12.680235166102648 6.6594063279763702 1.2070890520628845 -2.2803763737941938 3.1578266781919146 9.8724447654641203 17.32243861271785 6.3135417106178373 9.8414316832378361 0.52190801885640503 -0.46436777198211338 -0.99691072619220478 -4.0015923332922236 12.763850523376465 5.6782011949926394 -1.2934830002135849 1.9873475206247271 5.8643308376724077 3.5281399645656353 8.5672980948814068 5.1343960188646784 -4.4927169923182921 4.0730280137926576 0.63876919562558099 14.652822426037913 -3.1741530455826039 -3.6030137360872083 -5.7726019971952667 -3.7259130438526231 -0.28017758681470978 3.87351640263853 4.4286608112403538 -7.4297101416954634 -2.12537485765225 -3.9950947467594933 -2.2076869402303325 7.194421577453614 -4.9107392465035744 -5.1743926146405963 2.0053183275555808 -5.8564179405799281 -3.4573004649646246 -8.3050011695185795 -8.6143774140399429
leaf_weight=904 125 115 122 89 81 99 115 128 106 185 607 68 92 65 445 372 214 274 575 97 125 133 361 538 88 80 318 305 529 262 415 78 347 312 254 410 290 146 205 65 191 73 385 71 254 446 63 65 67 79 230
leaf_count=904 125 115 122 89 81 99 115 128 106 185 607 68 92 65 445 372 214 274 575 97 125 133 361 538 88 80 318 305 529 262 415 78 347 312 254 410 290 146 205 65 191 73 385 71 254 446 63 65 67 79 230
internal_value=-0.0153826 6.49685 -3.5347 12.4547 4.49585 -1.86173 -6.80738 11.1576 6.17505 -0.424703 -3.01125 2.74078 9.92431 14.3614 5.34772 9.20528 2.03525 0.674439 -1.20201 -5.1651 11.538 4.11293 -2.23009 1.57032 7.64522 1.90778 8.09033 5.83402 -3.86808 4.6135 0.200076 13.4271 -2.60547 -3.24101 -5.59385 -4.1579 -0.756619 3.32539 4.07246 -8.56916 -1.58133 -4.39667 -1.998 6.45827 -4.65949 -5.39146 2.60357 -6.38093 -3.73772 -8.63022 -8.65288
internal_weight=12063 4232 7831 1064 3168 5182 2649 975 1619 2303 2879 1549 704 271 1036 487 1023 954 1349 1371 217 526 1506 752 583 265 424 750 1373 395 689 206 954 434 880 939 865 271 286 1278 552 491 484 159 351 700 131 180 140 1213 1134
internal_count=12063 4232 7831 1064 3168 5182 2649 975 1619 2303 2879 1549 704 271 1036 487 1023 954 1349 1371 217 526 1506 752 583 265 424 750 1373 395 689 206 954 434 880 939 865 271 286 1278 552 491 484 159 351 700 131 180 140 1213 1134
is_linear=0
shrinkage=0.05


Tree=3
num_leaves=52
num_cat=0
split_feature=10 10 7 7 7 7 7 7 7 7 10 10 7 10 10 6 6 10 10 3 7 7 10 6 10 10 7 10 10 5 10 5 6 7 7 5 10 11 5 10 5 10 5 5 10 6 10 11 5 5 6
split_gain=9.98082e+07 1.79505e+07 1.57049e+07 7.13126e+06 3.2712e+06 3.21469e+06 2.76687e+06 1.72764e+06 763540 699814 698099 517716 456441 230506 213390 210681 209404 175167 163063 161695 143468 126180 116501 111191 110308 104468 103219 87866.2 87313.2 82055.3 75115.3 60883.4 57476.4 50606.6 48065.8 46168.5 37017.9 33561.7 32408 32320 30940.6 30697.8 30494.3 20944.7 20906.6 15681 5613.12 5275.01 143.929 309.523 55.3084
threshold=219.95833333333334 382.12500000000006 84.500000000000014 654.50000000000011 287.50000000000006 153.50000000000003 21.500000000000004 525.50000000000011 195.50000000000003 360.50000000000006 127.12500000000001 278.20833333333343 428.50000000000006 315.12500000000006 497.04166666666669 -0.70710678118654757 1.0000000180025095e-35 151.29166666666671 90.208333333333357 19.500000000000004 230.50000000000003 269.50000000000006 101.45833333333336 0.37940952255126048 157.95833333333334 315.12500000000006 224.50000000000003 195.04166666666671 265.20833333333343 -0.78656609248549292 423.45833333333343 0.60355339059327384 0.37940952255126048 43.500000000000007 216.50000000000003 0.78656609248549325 185.95833333333334 379.50000000000006 0.37940952255126054 5.291666666666667 0.78656609248549325 119.79166666666667 0.60355339059327384 0.60355339059327384 67.125000000000014 0.60355339059327384 53.875000000000007 203.50000000000003 0.78656609248549325 0.91597561503675362 -0.60355339059327384
decision_type=8 10 10 10 8 10 10 10 10 10 10 10 10 10 10 2 2 10 10 2 10 10 10 2 10 10 10 10 8 2 10 2 2 10 10 2 10 10 2 10 2 10 2 2 10 2 10 10 2 2 2
left_child=2 4 6 7 11 10 39 12 17 13 22 16 19 28 -9 21 34 40 33 -3 45 -10 38 25 35 -11 -18 -17 -6 -22 -14 -24 -15 46 -2 -12 -19 -25 -4 48 -7 43 -26 -20 -35 -13 -8 -43 50 -50 -1
right_child=1 3 5 -5 9 8 18 14 15 23 24 20 30 32 -16 27 26 36 41 -21 29 -23 31 37 42 -27 -28 -29 -30 -31 -32 -33 -34 44 -36 -37 -38 -39 -40 -41 -42 47 -44 -45 -46 -47 -48 -49 49 -51 -52
leaf_value=-8.2040515340500626 2.0114004457200116 9.3183611145341096 -3.5007817494612867 27.497930661369772 3.5471549743413924 -1.6761929175136865 -6.4038529263602362 12.874866886138916 1.2838245795296392 6.3264359631839229 -2.14269184977644 2.9999352763680851 10.069279082489015 6.4691763310564374 16.353955033246208 -0.20625820196360298 0.81945177982403683 -0.94706520707160236 -3.8015127398304105 7.2546296121417617 5.3942910762321681 3.8310076713562013 -2.6784973581396159 5.4745113672881294 -1.2359051375997838 8.1389333236142516 2.0683335220380425 0.93480784809891737 4.860122566242687 3.8693765962453748 11.580819917122524 -3.5685358215848475 5.2782981755112761 -5.483971939312192 3.3813805020763041 -2.9265995870344343 -0.26116354296538347 6.9338795555962465 -4.2680811384900528 -7.2633415369643375 -2.618307485915067 -3.2732208490371706 -2.0146863394601193 -4.6652022271644418 -4.9156729912009478 1.9050524387094712 -5.8339114639494163 -3.8901426890539748 -8.1055570832975619 -8.2232005730990707 -8.229880187653448
leaf_weight=307 88 304 186 68 180 370 72 70 213 106 540 68 125 253 119 434 325 575 97 138 133 63 337 87 364 318 337 276 427 262 240 447 169 254 235 288 299 72 529 97 114 77 192 254 446 63 108 63 91 145 638
leaf_count=307 88 304 186 68 180 370 72 70 213 106 540 68 125 253 119 434 325 575 97 138 133 63 337 87 364 318 337 276 427 262 240 447 169 254 235 288 299 72 529 97 114 77 192 254 446 63 108 63 91 145 638
internal_value=-0.0146134 6.22312 -3.33069 11.832 4.3122 -1.74122 -6.46701 10.7624 -0.366054 5.87891 -2.8593 2.64077 9.75462 5.09475 15.0654 0.693001 1.96444 -1.135 -4.90684 8.67403 3.90728 1.86525 -3.6069 7.26296 -2.04957 7.68581 1.45521 0.237311 4.47077 4.38283 11.0632 -3.18596 5.99226 -5.31416 3.00814 -2.41536 -0.712415 6.13536 -4.06848 -8.14071 -1.8981 -4.17683 -1.50484 -4.42652 -5.12188 2.47339 -6.06189 -3.55084 -8.21277 -8.17784 -8.22149
internal_weight=12063 4187 7876 1064 3123 5227 2649 996 2344 1612 2883 1511 807 1029 189 986 985 1358 1371 442 526 276 1499 583 1384 424 662 710 607 395 365 784 422 880 323 828 874 159 715 1278 484 491 556 351 700 131 180 140 1181 236 945
internal_count=12063 4187 7876 1064 3123 5227 2649 996 2344 1612 2883 1511 807 1029 189 986 985 1358 1371 442 526 276 1499 583 1384 424 662 710 607 395 365 784 422 880 323 828 874 159 715 1278 484 491 556 351 700 131 180 140 1181 236 945
is_linear=0
shrinkage=0.05


Tree=4
num_leaves=50
num_cat=0
split_feature=10 7 10 9 7 7 7 7 7 10 7 10 10 10 7 9 9 7 9 6 10 7 10 7 6 9 5 6 7 10 5 7 6 3 9 10 10 10 10 5 7 10 12 6 7 5 5 9 5
split_gain=9.00913e+07 1.53699e+07 1.48668e+07 6.61577e+06 3.65585e+06 2.74814e+06 2.67616e+06 1.42371e+06 700127 675266 411257 324394 306742 299456 280599 276753 156692 151520 138445 134817 125994 109787 107642 104916 98127.6 93576.9 89209.1 82230.9 78255.3 73157.6 71804.2 63811.5 63750 55351.9 51838.6 39791.9 37781.4 36991.4 36770.8 34388.6 34097.9 33057.3 32853.1 31177.3 26701.7 20819 7836.71 2855.74 139.759
threshold=230.50000000000003 101.50000000000001 389.95833333333343 773.50000000000011 21.500000000000004 320.50000000000006 180.50000000000003 497.50000000000006 242.50000000000003 134.45833333333334 222.50000000000003 105.70833333333336 327.62500000000006 296.95833333333337 353.50000000000006 660.50000000000011 311.50000000000006 135.50000000000003 225.50000000000003 0.37940952255126048 434.70833333333343 193.50000000000003 72.458333333333357 540.50000000000011 -0.12940952255126037 151.50000000000003 -0.78656609248549292 -0.78656609248549325 421.50000000000006 286.79166666666669 0.78656609248549325 366.50000000000006 -0.9159756150367534 10.500000000000002 201.50000000000003 278.20833333333343 352.20833333333343 119.79166666666667 29.708333333333336 0.60355339059327384 39.500000000000007 157.95833333333334 203.50000000000003 -0.3794095225512602 78.500000000000014 0.60355339059327384 0.60355339059327384 1.0000000180025095e-35 0.78656609248549325
decision_type=8 10 10 10 10 10 10 10 8 10 10 10 10 8 10 10 10 10 10 2 10 10 10 10 2 10 2 2 10 10 2 10 2 2 10 10 10 10 10 2 10 10 10 2 10 2 2 10 2
left_child=1 4 5 7 38 8 9 14 21 25 18 22 31 24 -4 23 27 41 34 28 -16 42 40 -9 -10 45 -15 -12 -14 -23 -19 35 -20 -27 -8 -7 -21 46 47 -24 -6 -11 -2 -33 -39 -3 -13 48 -1
right_child=2 6 3 -5 11 12 10 15 13 17 16 37 19 26 20 -17 -18 30 32 36 -22 29 39 -25 -26 33 -28 -29 -30 -31 -32 43 -34 -35 -36 -37 -38 44 -40 -41 -42 -43 -44 -45 -46 -47 -48 -49 -50
leaf_value=-7.8184282952705324 -0.15814554767003136 -3.1336082283188316 6.9373993290357348 26.331107886178156 -6.0345139374604102 4.1591459038331342 -1.8077173784375191 11.205135770188164 3.9291599255519283 -2.4124034433444934 2.0986369558243916 -3.349308504574541 7.2064442615777686 5.6402963644619675 8.9594934622188678 15.757352561512214 3.1781515794897199 -0.90571866354582964 1.6384103497127436 5.1370399898290637 10.534595816002952 1.8743108702988029 -3.8955290715122937 13.611328878963697 2.7153767008658765 -2.9237649453057495 4.298510924865802 0.68668074221585051 8.8154792606830608 3.2476087088905161 -1.8135393906754596 6.8121091193341208 0.10039439790351715 -2.121251816765811 -0.54096223180340297 5.3690230904377811 6.5597139366503274 -3.7205733803815622 -6.5774599060867773 -4.5674407153244481 -5.0573178809985784 -1.6568991015968368 1.3305714146296186 5.4005440930822006 -2.6986621278596212 -3.8246647090993378 -3.9905245087363506 -7.4986610943758043 -7.7747749104707147
leaf_weight=904 63 204 121 70 111 97 114 97 297 335 145 69 355 211 308 87 110 957 77 80 216 351 267 85 379 554 300 357 96 134 282 94 539 351 277 227 112 86 66 664 456 255 90 67 249 234 154 79 230
leaf_count=904 63 204 121 70 111 97 114 97 297 335 145 69 355 211 308 87 110 957 77 80 216 351 267 85 379 554 300 357 96 134 282 94 539 351 277 227 112 86 66 664 456 255 90 67 249 234 154 79 230
internal_value=-0.0138828 -3.02154 6.19394 11.5166 -5.62789 4.42032 -1.20727 10.382 3.22115 -2.05152 0.446812 -4.3222 6.36047 3.93913 9.10763 13.4377 1.46903 -1.42638 -0.174435 7.07656 9.60877 1.88535 -4.70551 12.3289 3.24865 -2.90287 4.85256 1.09452 7.54894 2.25374 -1.11234 5.41109 0.292646 -2.61251 -0.910297 5.00681 5.96693 -3.29315 -7.72679 -4.37474 -5.24862 -2.08587 0.71757 6.22469 -2.961 -3.5028 -3.79212 -7.78933 -7.80957
internal_weight=12063 8126 3937 984 3335 2953 4791 914 1825 3172 1619 2056 1128 1187 645 269 612 1829 1007 643 524 638 1498 182 676 1343 511 502 451 485 1239 485 616 905 391 324 192 558 1279 931 567 590 153 161 335 438 223 1213 1134
internal_count=12063 8126 3937 984 3335 2953 4791 914 1825 3172 1619 2056 1128 1187 645 269 612 1829 1007 643 524 638 1498 182 676 1343 511 502 451 485 1239 485 616 905 391 324 192 558 1279 931 567 590 153 161 335 438 223 1213 1134
is_linear=0
shrinkage=0.05


Tree=5
num_leaves=51
num_cat=0
split_feature=7 7 7 7 9 9 8 9 9 9 7 7 9 7 9 9 7 8 9 8 1 3 8 11 7 3 11 7 12 3 8 8 8 7 3 11 7 5 1 9 1 8 1 1 8 7 8 5 4 4
split_gain=8.07945e+07 1.38027e+07 1.22675e+07 5.53959e+06 2.58414e+06 2.42611e+06 2.27107e+06 1.4743e+06 681780 630316 347803 342844 301442 282945 281540 223679 157880 148003 130229 120612 117194 105071 94064.4 89572.4 83098.1 76141 74335.1 59663.4 59463.2 56924.4 52478.8 48629.8 47047.6 46489 44292.7 42450.3 41562.8 36239.3 27165.1 24728.8 23601.6 22799.1 22344.1 19089.9 16890.4 11454.2 4001.69 110.317 283.951 5.3836
threshold=218.50000000000003 376.50000000000006 84.500000000000014 634.50000000000011 342.50000000000006 195.50000000000003 21.500000000000004 555.50000000000011 298.50000000000006 438.50000000000006 540.50000000000011 142.50000000000003 478.50000000000006 313.50000000000006 163.50000000000003 286.50000000000006 146.50000000000003 343.50000000000006 136.50000000000003 424.50000000000006 0.81371087473708548 20.500000000000004 190.50000000000003 214.50000000000003 140.50000000000003 19.500000000000004 303.50000000000006 117.50000000000001 248.50000000000003 19.500000000000004 303.50000000000006 301.50000000000006 159.50000000000003 39.500000000000007 4.5000000000000009 329.50000000000006 271.50000000000006 0.60355339059327384 1.0678610976631278 21.500000000000004 1.3810483349976947 101.50000000000001 1.165117986344401 1.2502505349521387 73.500000000000014 75.500000000000014 57.500000000000007 0.78656609248549325 2.5000000000000004 2.5000000000000004
decision_type=8 10 10 10 8 10 10 10 10 10 10 10 10 10 10 10 10 10 10 10 10 2 10 10 10 2 10 10 8 2 10 10 10 10 2 8 10 2 10 10 10 10 10 10 10 10 10 2 2 2
left_child=2 4 6 7 15 14 39 12 11 13 25 35 31 21 27 32 -10 26 33 -14 -18 -6 -13 36 37 -9 -11 42 -25 -19 -15 -3 -2 46 -20 -7 -17 -16 -12 47 -34 -29 -4 -26 -35 -36 -8 49 -49 -1
right_child=1 3 5 -5 9 8 18 10 16 17 38 22 19 30 24 23 20 29 34 -21 -22 -23 -24 28 43 -27 -28 41 -30 -31 -32 -33 40 44 45 -37 -38 -39 -40 -41 -42 -43 -44 -45 -46 -47 -48 48 -50 -51
leaf_value=-7.4284850345958366 -0.060201669433741889 5.9324741920622266 -3.5006388798713171 21.926735357220252 3.8854803866996499 -2.1122633011807399 -5.9096629168536214 11.101019647736338 -1.0854217423924379 5.83294803074428 14.484920304821385 -0.92031064203334678 7.9714015625525212 4.5373147931060585 -2.3056264860072218 2.3161362120459752 1.9711037084802816 7.0858948779555995 -2.6759781981857733 9.7136281851698598 0.36928557699059916 2.5247919923197184 -0.13101321019681877 1.1951018147812835 -1.4961914158666567 9.1297800789416677 4.117272665010435 -3.3768721498311707 2.5615197289308522 5.8244759908870414 5.62689343326893 7.1904271411747205 1.3952850802835213 -4.8790766467493052 -4.1758270107451443 -1.1355194153702435 3.3735325663501676 -3.0362238463901341 13.037825763576173 -6.4493574987139031 0.34425297015730072 -2.5753471093599263 -4.0786497999960032 -2.1555066913848524 -4.3770857767409259 -3.6657792058459089 -5.374152660369873 -7.3175083616505505 -7.4295135446146237 -7.4208874194852772
leaf_weight=440 103 101 459 89 569 611 74 158 84 154 62 1081 207 202 343 181 261 265 71 191 203 189 580 203 248 71 107 157 131 135 244 321 249 378 339 136 191 336 68 70 68 204 263 197 301 163 66 92 147 496
leaf_count=440 103 101 459 89 569 611 74 158 84 154 62 1081 207 202 343 181 261 265 71 191 203 189 580 203 248 71 107 157 131 135 244 321 249 378 339 136 191 336 68 70 68 204 263 197 301 163 66 92 147 496
internal_value=-0.0119904 5.52659 -3.0362 9.89825 3.67328 -1.61908 -5.81078 8.99025 -0.682551 4.81523 11.6624 -1.0448 7.82035 4.13416 -2.87345 1.78185 0.909211 6.05581 -4.42308 8.8075 1.27031 3.54621 -0.644698 2.3254 -2.31912 10.4898 5.12959 -3.44877 1.73103 6.66017 5.13341 6.88935 0.868177 -4.8276 -3.84489 -1.93444 2.85905 -2.66716 13.728 -7.36233 1.16983 -2.92393 -3.71119 -1.78807 -4.65654 -4.01021 -5.65721 -7.41672 -7.3864 -7.42446
internal_weight=12059 4259 7800 1268 2991 5163 2637 1179 2956 1865 359 2408 820 1204 2207 1126 548 661 1392 398 464 758 1661 706 1124 229 261 1083 334 400 446 422 420 819 573 747 372 679 130 1245 317 361 722 445 679 502 140 1175 239 936
internal_count=12059 4259 7800 1268 2991 5163 2637 1179 2956 1865 359 2408 820 1204 2207 1126 548 661 1392 398 464 758 1661 706 1124 229 261 1083 334 400 446 422 420 819 573 747 372 679 130 1245 317 361 722 445 679 502 140 1175 239 936
is_linear=0
shrinkage=0.05


Tree=6
num_leaves=48
num_cat=0
split_feature=7 7 7 8 9 9 9 7 7 9 9 9 7 9 6 7 7 9 9 9 8 1 7 6 6 6 9 7 6 8 7 7 7 8 3 8 7 12 8 6 9 8 11 9 3 4 3
split_gain=7.29316e+07 1.21753e+07 1.14452e+07 3.93297e+06 3.64176e+06 2.27965e+06 2.17444e+06 1.00563e+06 704899 626922 321064 300382 296849 281667 208051 146872 142706 135479 131464 113105 100902 92677.7 92393.3 81287.3 80267.9 71204.6 68798.5 65817.6 62024.2 54364 52570.7 50380.6 44856.6 44201.5 40762.2 24883 23694.5 22249.5 20576.1 20317.3 16047.6 15722.7 7157.11 4214.97 121.252 389.426 2.8518
threshold=222.50000000000003 434.50000000000006 86.500000000000014 654.50000000000011 355.50000000000006 201.50000000000003 57.000000000000007 332.50000000000006 540.50000000000011 298.50000000000006 300.50000000000006 163.50000000000003 152.50000000000003 473.50000000000006 0.60355339059327384 315.50000000000006 146.50000000000003 487.50000000000006 456.50000000000006 136.50000000000003 451.50000000000006 0.81371087473708548 140.50000000000003 -0.9159756150367534 0.37940952255126048 0.1294095225512602 673.50000000000011 246.50000000000003 -0.78656609248549325 437.50000000000006 126.50000000000001 117.50000000000001 39.500000000000007 163.50000000000003 4.5000000000000009 59.500000000000007 254.50000000000003 78.500000000000014 101.50000000000001 -0.9159756150367534 113.50000000000001 73.500000000000014 140.50000000000003 1.0000000180025095e-35 4.5000000000000009 1.5000000000000002 7.5000000000000009
decision_type=8 10 10 10 8 10 10 10 10 10 10 10 10 10 2 10 10 10 10 10 10 10 10 2 2 2 10 10 2 10 10 10 10 10 2 10 10 8 10 2 10 10 10 10 2 2 2
left_child=2 4 6 8 10 11 43 14 17 12 28 31 30 24 18 25 -11 -3 -6 32 -15 -18 37 -14 -9 -12 -10 -16 36 -19 -7 40 42 -30 -21 -36 -2 -13 -33 -24 -4 -34 -8 44 45 -1 -46
right_child=1 3 5 -5 7 9 19 13 26 16 15 22 23 20 27 -17 21 29 -20 34 -22 -23 39 -25 -26 -27 -28 -29 33 -31 -32 38 41 -35 35 -37 -38 -39 -40 -41 -42 -43 -44 -45 46 -47 -48
leaf_value=-6.9304644910026996 1.356195390851874 7.5747026884667221 -4.0194354204904466 22.813023303536809 4.4104442410112137 -2.0807467554674859 -4.992823993625926 6.1085953508154001 12.143145265311839 -0.99341863373794215 2.8678964620935705 -3.1378032069339934 0.55546688032002078 6.869396847064678 1.8863256598092044 4.248275731734144 1.8724650273671113 8.8881532775958387 6.087272478757721 -2.6235824891552331 8.4790390942594129 0.52095179042627671 -0.90073646675972707 -0.58038019385937556 4.9203722795388973 1.8138911396168269 14.236366481165732 3.6301348554552897 -0.25201931963364282 10.147365952491761 -1.2873566552250115 -3.2080285462473705 -4.6055996856689454 1.0195617246428428 -4.7579681128263474 -3.7105154240565748 2.667563021372235 -2.358855238568649 -2.4465797598163288 -1.7455322700572626 -3.3926673930407896 -4.1361985492410129 -5.7038982798258466 -6.6890971069986165 -7.0642546888710802 -7.0588080180060011 -7.056404817037742
leaf_weight=85 76 107 126 68 506 354 67 474 107 82 334 107 181 325 65 123 277 150 152 80 139 234 84 1214 203 308 62 323 90 200 509 157 400 284 64 497 63 640 204 466 539 322 75 88 138 194 716
leaf_count=85 76 107 126 68 506 354 67 474 107 82 334 107 181 325 65 123 277 150 152 80 139 234 84 1214 203 308 62 323 90 200 509 157 400 284 64 497 63 640 204 466 539 322 75 88 138 194 716
internal_value=-0.0113909 5.3477 -2.83272 11.3926 4.13698 -1.45132 -5.45463 5.37611 10.152 -0.503955 2.01651 -2.61401 -0.88392 6.40267 4.2563 2.66548 0.942859 9.13171 4.7978 -4.18268 7.3516 1.25357 -2.10832 -0.433005 5.7523 2.36224 12.9111 3.338 1.04874 9.6077 -1.6128 -3.25327 -4.55603 0.713566 -3.67944 -3.83001 1.95056 -2.47043 -2.77774 -1.61651 -3.51142 -4.39625 -5.36839 -7.02243 -7.04832 -7.01971 -7.05767
internal_weight=12059 4159 7900 694 3465 5174 2726 2187 626 2851 1278 2323 2258 1141 1046 765 593 457 658 1505 464 511 1297 1395 677 642 169 388 513 350 863 1026 864 374 641 561 139 747 361 550 665 722 142 1221 1133 279 854
internal_count=12059 4159 7900 694 3465 5174 2726 2187 626 2851 1278 2323 2258 1141 1046 765 593 457 658 1505 464 511 1297 1395 677 642 169 388 513 350 863 1026 864 374 641 561 139 747 361 550 665 722 142 1221 1133 279 854
is_linear=0
shrinkage=0.05


Tree=7
num_leaves=50
num_cat=0
split_feature=7 7 7 7 7 7 7 1 7 1 7 7 7 7 7 7 1 1 1 1 7 1 1 1 1 1 6 6 7 3 7 1 1 6 1 5 11 6 5 1 5 1 12 7 1 11 5 12 2
split_gain=6.58343e+07 1.13073e+07 9.99527e+06 3.53196e+06 3.25264e+06 2.14023e+06 1.6703e+06 566818 555187 489664 331894 325921 258326 233058 228126 187216 183062 163926 144714 125694 119647 118884 117636 112067 93276.9 86052.8 80383.5 70301.6 68808.4 68585.2 68019 65492.5 62295.1 59849.4 54221.5 50619.4 43159.1 37704.3 27726 25126.5 24829.6 17933.2 15553.4 11406.6 10681.8 4021.84 4335.35 479.243 269.744
threshold=218.50000000000003 428.50000000000006 80.500000000000014 634.50000000000011 313.50000000000006 140.50000000000003 7.5000000000000009 1.0251151125361686 497.50000000000006 0.90637794878546962 360.50000000000006 273.50000000000006 260.50000000000006 110.50000000000001 187.50000000000003 181.50000000000003 0.95254061450074801 1.039008923605474 1.0106547810794433 0.91054254993638351 540.50000000000011 0.83141460155697089 1.0318081841709719 0.79553391902618842 1.3031222140214489 0.76351303373177815 0.37940952255126048 -0.3794095225512602 447.50000000000006 20.500000000000004 39.500000000000007 0.81371087473708548 1.3706005969914496 -0.5 1.116279066148022 0.60355339059327384 291.50000000000006 0.25881904510252057 0.60355339059327384 1.1585189298137226 0.60355339059327384 0.78132329585677773 421.50000000000006 384.50000000000006 0.61110749778387075 176.50000000000003 -0.60355339059327362 293.50000000000006 1.0000000180025095e-35
decision_type=8 10 10 10 10 10 10 10 10 10 10 8 10 10 10 10 10 10 10 10 10 8 10 10 10 10 2 2 10 2 10 10 10 2 10 2 10 2 2 10 2 10 10 10 10 10 2 10 2
left_child=2 4 6 8 7 13 45 11 22 15 18 19 33 23 32 25 43 35 29 -2 42 -13 -3 38 -18 -7 30 -14 -24 -6 44 -17 -11 -9 -16 -15 -22 -20 -4 -25 -19 -32 -10 -12 -8 47 -47 48 -1
right_child=1 3 5 -5 10 9 26 12 20 14 16 21 27 17 34 31 24 40 37 -21 36 -23 28 39 -26 -27 -28 -29 -30 -31 41 -33 -34 -35 -36 -37 -38 -39 -40 -41 -42 -43 -44 -45 -46 46 -48 -49 -50
leaf_value=-6.6988905406343768 3.2523714857411918 9.3787916392814825 -1.9271379225224869 19.908581268653442 6.080297563788684 0.87510832838819064 -4.7756056095424446 1.6716077734895103 9.3930709417049698 -1.2237609847691167 7.6100928463152986 5.8713487098433754 3.1314884201512427 -1.363350523870031 0.24294660614444791 2.1121507091666847 6.2217008782540368 -2.448356794274928 4.5684037445424659 1.8418175121329048 11.094853068131668 3.9362164593788616 6.5653879929866115 -3.2039302178181837 4.3510436619582924 -0.61498020469165249 -2.5063623162059043 1.967988557452075 8.1876015095194443 4.2065246400333223 -3.7992514177435832 0.70045574446085768 -2.2631868729670814 0.47095899667463925 -0.64271089064741349 -2.1448939849333519 12.844492248436076 3.5518116918055043 -2.7703121638115573 -3.8125368999833817 -3.1591020300067392 -4.2212995881787014 10.495526698279003 8.5511364713791878 -5.5748966968420781 -6.6840266458449822 -6.0927356312351844 -6.8237041596443424 -6.6453527616519557
leaf_weight=690 371 123 194 89 230 142 114 151 65 1095 67 110 218 512 322 170 541 233 269 275 65 285 112 590 76 305 77 321 157 62 496 159 166 332 373 348 77 138 196 238 260 511 63 62 66 62 62 62 357
leaf_count=690 371 123 194 89 230 142 114 151 65 1095 67 110 218 512 322 170 541 233 269 275 65 285 112 590 76 305 77 321 157 62 496 159 166 332 373 348 77 138 196 238 260 511 63 62 66 62 62 62 357
internal_value=-0.0108213 4.98876 -2.74072 10.5568 3.79674 -1.51252 -5.34911 2.52252 9.29959 -0.538095 5.61591 3.34371 1.68607 -2.54797 -0.959719 0.524658 6.34942 -2.0963 4.83308 2.6519 11.0443 4.47511 8.09788 -3.04971 5.99128 -0.141619 -4.07189 2.43857 7.51218 5.68244 -4.17344 1.4299 -1.36059 0.846317 -0.232377 -1.6796 12.0436 4.22371 -2.35089 -3.37887 -2.82319 -4.01342 9.93569 8.06238 -5.06868 -6.65844 -6.38838 -6.68863 -6.68064
internal_weight=12059 4259 7800 751 3508 5303 2497 2063 662 2732 1445 1041 1022 2571 1956 776 746 1353 699 646 270 395 392 1218 617 447 1264 539 269 292 1187 329 1261 483 695 860 142 407 390 828 493 1007 128 129 180 1233 124 1109 1047
internal_count=12059 4259 7800 751 3508 5303 2497 2063 662 2732 1445 1041 1022 2571 1956 776 746 1353 699 646 270 395 392 1218 617 447 1264 539 269 292 1187 329 1261 483 695 860 142 407 390 828 493 1007 128 129 180 1233 124 1109 1047
is_linear=0
shrinkage=0.05


Tree=8
num_leaves=49
num_cat=0
split_feature=10 10 10 8 10 9 10 10 0 1 1 1 3 1 3 10 1 10 10 11 1 8 9 11 10 1 1 1 10 10 11 1 3 1 10 9 3 3 3 1 1 4 1 8 9 3 4 11
split_gain=5.95082e+07 1.00738e+07 9.26163e+06 3.31415e+06 2.81669e+06 2.33617e+06 1.21597e+06 680020 601162 389782 326485 300142 182885 166868 161375 145055 143431 142201 132625 110493 103816 103497 102246 96261.3 87653.7 82444.9 75573.2 71697.1 70700.9 67663.5 60842.1 57782.6 56191.8 43789.9 42592 40633.7 35554.7 34072.6 32405.6 28415.8 24541.9 18014.2 9330.68 8282.3 3211.8 106.888 357.649 7.15653
threshold=219.95833333333334 413.87500000000006 106.62500000000001 654.50000000000011 286.79166666666669 57.000000000000007 155.87500000000003 352.20833333333343 1.0000000180025095e-35 1.2233960563974027 0.99699997558002218 1.0434782456998724 20.500000000000004 0.93866771975438856 19.500000000000004 72.458333333333357 0.82557640475676231 178.12500000000003 257.62500000000006 234.50000000000003 0.65429483451241544 218.50000000000003 194.50000000000003 170.50000000000003 327.62500000000006 0.89311723158363743 0.90874959206412298 1.039008923605474 553.16666666666674 139.95833333333334 116.50000000000001 0.57686790419803402 10.500000000000002 1.175249852463333 127.12500000000001 501.50000000000006 8.5000000000000018 9.5000000000000018 10.500000000000002 0.70104967166872678 0.65429483451241544 4.5000000000000009 0.82821786559743638 57.500000000000007 1.0000000180025095e-35 4.5000000000000009 1.5000000000000002 180.50000000000003
decision_type=8 10 10 10 8 10 10 10 2 10 10 10 2 10 2 10 10 10 10 8 10 10 10 8 10 10 10 10 10 10 10 10 2 10 10 10 2 2 2 10 10 2 10 10 10 2 2 10
left_child=2 4 5 8 10 44 13 11 12 16 20 19 26 29 25 39 31 -18 33 -6 -2 36 34 -22 -13 -9 -3 37 -10 40 -20 -8 -24 -12 -15 -16 -11 -17 -29 43 -4 -41 -31 -7 45 46 -1 -47
right_child=1 3 6 -5 7 15 9 14 28 21 18 24 -14 22 35 27 17 -19 30 -21 23 -23 32 -25 -26 -27 -28 38 -30 42 -32 -33 -34 -35 -36 -37 -38 -39 -40 41 -42 -43 -44 -45 -46 47 -48 -49
leaf_value=-6.250161814970129 -0.68585320214831069 7.6374860048294071 -3.2809255349008661 20.403542746437921 4.1614085123107056 -5.2560909982937494 -2.5223949242889145 5.3647295845479803 10.797906423750378 0.034078772278393017 1.6863462419261763 4.6385780672537038 5.7001410332937095 -2.2550778993519773 5.449956617386718 -3.8089352163196821 -0.893627354457037 0.14606780989812765 4.3581953148278156 2.9393921004309456 2.3633401737391657 2.4491510503837524 -1.5322504748473074 1.0530744532538034 6.0181732183761811 6.8686572892806117 9.0645141892108452 -3.124989700912078 12.933108605278864 -2.0418342487195904 2.966846271600593 -1.0755342332806135 -0.52200617826053208 2.7200422369372781 -1.5325319345245456 4.0577921250462534 1.1352669937524407 -3.084438822305362 -2.3257152530082155 -3.5395452787033252 -2.5559242096590715 -4.2271682035615594 -1.4684818975532714 -4.4699091982485646 -6.0489761757579714 -6.3698407089154339 -6.3731575897059498 -6.3853765441150205
leaf_weight=85 62 139 152 72 366 67 81 116 84 136 221 326 63 456 152 589 604 722 129 374 202 106 290 458 178 425 279 441 72 178 201 466 262 191 369 80 159 224 178 131 503 349 118 67 88 772 194 82
leaf_count=85 62 139 152 72 366 67 81 116 84 136 221 326 63 456 152 589 604 722 129 374 202 106 290 458 178 425 279 441 72 178 201 466 262 191 369 80 159 224 178 131 503 349 118 67 88 772 194 82
internal_value=-0.0102803 4.80316 -2.57329 10.2355 3.69671 -4.60917 -1.128 4.90844 9.08623 -0.305651 2.02728 4.18474 8.21147 -1.93127 6.0731 -3.57628 -0.608544 -0.327519 2.76382 3.54379 1.27033 1.10911 -1.57948 1.4541 5.12582 6.54619 8.58998 -3.30061 11.7834 -2.44065 3.51074 -1.28979 -1.05275 2.16556 -1.9319 4.9699 0.627601 -3.60932 -2.89515 -4.21922 -2.72417 -4.0395 -1.81327 -4.863 -6.33995 -6.36255 -6.33569 -6.37133
internal_weight=12059 4190 7869 709 3481 3267 4602 2017 637 2274 1464 1244 481 2328 773 2046 1873 1326 742 740 722 401 1377 660 504 541 418 1432 156 951 330 547 552 412 825 232 295 813 619 614 655 480 296 134 1221 1133 279 854
internal_count=12059 4190 7869 709 3481 3267 4602 2017 637 2274 1464 1244 481 2328 773 2046 1873 1326 742 740 722 401 1377 660 504 541 418 1432 156 951 330 547 552 412 825 232 295 813 619 614 655 480 296 134 1221 1133 279 854
is_linear=0
shrinkage=0.05


Tree=9
num_leaves=48
num_cat=0
split_feature=7 10 10 8 7 7 10 7 7 10 10 7 7 6 6 10 10 10 7 10 10 10 6 6 8 8 10 10 3 5 8 7 7 7 12 5 7 3 4 3 12 5 5 3 7 10 5
split_gain=5.37958e+07 9.9195e+06 8.13923e+06 2.94638e+06 2.54134e+06 1.97037e+06 1.5231e+06 557746 522924 476341 336573 216351 203089 180869 163229 132915 127537 111902 106489 102711 97002.3 89806.2 84589 79084.6 76407.9 67730.9 65508.8 62716.1 61995.9 51850 46867.5 46572 41222.7 40411.9 36461.8 31743.7 29030.1 28032.8 26653.5 26175.3 26170.6 24688.8 23637.9 18703.5 12884.6 561.769 117.57
threshold=240.50000000000003 116.37500000000001 413.87500000000006 654.50000000000011 29.500000000000004 320.50000000000006 209.83333333333334 143.50000000000003 497.50000000000006 284.79166666666669 322.87500000000006 96.500000000000014 140.50000000000003 0.37940952255126048 -0.9159756150367534 261.20833333333343 155.87500000000003 553.16666666666674 447.50000000000006 221.79166666666671 139.95833333333334 368.20833333333343 0.25881904510252057 1.0000000180025095e-35 443.50000000000006 311.50000000000006 73.708333333333357 169.87500000000003 8.5000000000000018 0.78656609248549325 21.500000000000004 289.50000000000006 434.50000000000006 366.50000000000006 348.50000000000006 0.37940952255126054 109.50000000000001 20.500000000000004 4.5000000000000009 16.500000000000004 464.50000000000006 0.60355339059327384 -0.70710678118654735 5.5000000000000009 67.500000000000014 1.0000000180025095e-35 0.78656609248549325
decision_type=8 10 10 10 10 10 10 10 10 8 10 10 10 2 2 10 10 10 10 10 10 10 2 2 10 10 10 10 2 2 10 10 10 10 10 2 10 2 2 2 10 2 2 2 10 10 2
left_child=1 4 5 8 30 9 7 20 24 19 25 26 -8 18 27 23 -16 39 -12 28 29 22 -11 -14 32 33 44 -9 -2 -3 45 -21 -4 -7 -15 38 -22 -17 -13 -10 -26 -28 -27 -37 -6 46 -1
right_child=2 6 3 -5 11 10 12 14 17 21 13 35 15 34 16 37 -18 -19 -20 31 36 -23 -24 -25 40 42 41 -29 -30 -31 -32 -33 -34 -35 -36 43 -38 -39 -40 -41 -42 -43 -44 -45 -46 -47 -48
leaf_value=-6.0526661751795992 0.27987553086774103 -1.8975460244342686 6.1268454693493091 19.672991633760759 -4.2175921546587025 3.2870822657010343 -1.520015568966451 -0.042889797188264807 10.626888714414655 4.0591880283427315 5.9512612526069351 -1.6392783666044719 1.8608711265563187 4.2218166997065092 -1.3846535064660286 2.5705592552848286 -0.50637284206780808 12.124954443711502 7.6974841043787094 2.0275765803565302 -2.0154261460870653 5.2687157532572755 2.8650296986650132 0.54385148476855105 7.8678361932859362 5.6832930862903597 -2.9291179910302163 1.5251094158621212 1.7687482220628725 -2.7287813703219097 -4.7391680815735375 2.9453151730049143 7.700842123096054 4.560934664971299 5.4702815201547415 -2.1863995366199043 -1.3215761870775946 1.5099465926697382 -2.5583101425895638 9.3607676911576885 9.0805094917003935 -3.4946428978731134 4.4881199205023616 -2.9604736470223703 -3.7157097314412781 -5.9104159304073889 -6.0129414870891171
leaf_weight=898 116 403 95 69 332 202 69 194 66 308 573 123 153 167 627 181 1213 78 103 458 201 80 286 447 141 64 269 95 176 351 74 198 74 90 90 93 603 95 220 107 65 683 117 485 208 84 235
leaf_count=898 116 403 95 69 332 202 69 194 66 308 573 123 153 167 627 181 1213 78 103 458 201 80 286 447 141 64 269 95 176 351 74 198 74 90 90 93 603 95 220 107 65 683 117 485 208 84 235
internal_value=-0.00976626 -2.24157 4.98737 9.86715 -4.17036 3.86734 -0.699205 -1.15822 8.78632 2.67984 5.23727 -3.21239 1.09169 5.78808 -0.632148 1.29741 -0.805657 10.5527 6.21733 1.95735 -1.8771 3.69603 3.48422 0.879691 7.60403 4.15077 -3.58437 0.472542 1.17728 -2.2845 -5.96089 2.30458 6.81605 3.67971 4.65902 -2.6098 -1.49504 2.20549 -2.22874 9.8438 8.25048 -3.33485 4.91072 -2.83593 -4.02427 -6.03518 -6.04443
internal_weight=12059 8336 3723 695 3704 3028 4632 3687 626 1622 1406 2413 945 933 2129 876 1840 251 676 948 1558 674 594 600 375 473 1492 289 292 754 1291 656 169 292 257 921 804 276 343 173 206 952 181 578 540 1217 1133
internal_count=12059 8336 3723 695 3704 3028 4632 3687 626 1622 1406 2413 945 933 2129 876 1840 251 676 948 1558 674 594 600 375 473 1492 289 292 754 1291 656 169 292 257 921 804 276 343 173 206 952 181 578 540 1217 1133
is_linear=0
shrinkage=0.05


Tree=10
num_leaves=49
num_cat=0
split_feature=10 10 7 9 7 7 7 7 10 10 7 7 10 7 7 10 10 9 8 10 7 7 7 8 7 5 10 10 9 7 8 8 7 11 5 11 10 5 10 11 5 7 10 11 10 5 12 4
split_gain=5.01211e+07 9.25587e+06 7.46461e+06 4.1779e+06 1.80711e+06 1.74598e+06 1.04843e+06 850958 460214 455342 396206 187549 184747 164919 145003 122202 94242.6 90676.1 89611 77231.4 76781 75041.4 74882.6 63157.9 62157.8 61910.7 61620.1 59932.8 52796 45258.8 39941.3 38905.1 37594.9 32998.6 27947.6 26986.1 25567.1 22091.8 18652.8 17499.2 16155.1 13610.7 9101.2 6414.05 2566.03 463.828 767.17 228.154
threshold=218.79166666666671 382.12500000000006 75.500000000000014 773.50000000000011 150.50000000000003 320.50000000000006 21.500000000000004 478.50000000000006 278.20833333333343 122.62500000000001 213.50000000000003 379.50000000000006 553.16666666666674 345.50000000000006 220.50000000000003 152.12500000000003 434.70833333333343 311.50000000000006 238.50000000000003 330.62500000000006 447.50000000000006 242.50000000000003 158.50000000000003 185.50000000000003 100.50000000000001 0.60355339059327384 472.58333333333343 76.041666666666671 335.00000000000006 182.50000000000003 307.50000000000006 301.50000000000006 133.50000000000003 195.50000000000003 0.60355339059327384 267.50000000000006 87.125000000000014 0.37940952255126054 53.875000000000007 254.50000000000003 0.25881904510252091 1.0000000180025095e-35 108.62500000000001 167.50000000000003 45.291666666666679 -0.9159756150367534 291.50000000000006 4.5000000000000009
decision_type=8 10 10 10 10 10 10 10 8 10 10 10 10 10 10 10 10 10 10 10 10 10 10 10 10 2 10 10 10 10 10 10 10 10 2 10 10 2 10 10 2 10 10 10 10 2 10 2
left_child=2 5 6 7 9 8 41 13 14 24 15 19 26 39 22 37 -15 23 -10 30 31 -20 -2 -12 36 32 -9 38 -16 -17 -7 -13 -11 -21 -26 -27 -4 -6 44 -3 -29 45 -42 -40 -8 47 -47 -1
right_child=1 3 4 -5 10 11 27 12 18 25 17 20 -14 16 28 29 -18 -19 21 33 -22 -23 -24 -25 34 35 -28 40 -30 -31 -32 -33 -34 -35 -36 -37 -38 -39 43 -41 42 -43 -44 -45 -46 46 -48 -49
leaf_value=-5.8692038370215371 -0.79536033821484409 5.489098464289019 -3.3900639168331121 20.158508641379221 -1.0370396175243435 3.2224582494218961 -4.6083857077139392 8.2327194455925756 1.6071861619449626 -1.5204613927252797 -0.038652704346192175 4.2499448453202664 11.780900878410835 6.4346344409109921 1.6053952049527442 -0.71269774620251902 7.7962912342400132 2.4409391675144434 2.181457355679298 5.3567366985174329 7.0358783501645794 3.4320372872557381 1.070181353147263 1.0645821844089765 -2.1492129704751677 -2.0743496232476959 9.8151147480668701 -2.4846571167026248 2.4394961724584068 -0.096713734724297867 4.2512328122074114 5.5152633308873753 -0.84677574307083381 4.2666642613058929 -2.7129388912083798 -1.3424612543758858 -2.8106422568526535 -1.6457170435894839 -3.5904114557279123 4.3058729707721684 -3.4081469300150875 -5.0872167481932529 -2.8507353689644361 -4.0370581857741827 -4.1966191345537212 -5.73722578562223 -5.5585954010486605 -5.745698529198056
leaf_weight=92 63 62 330 70 376 212 81 131 99 545 244 81 77 372 477 616 193 72 147 130 69 652 368 277 422 522 116 70 315 578 170 243 334 149 459 166 450 247 222 63 375 86 91 126 71 988 64 63
leaf_count=92 63 62 330 70 376 212 81 131 99 545 244 81 77 372 477 616 193 72 147 130 69 652 368 277 422 522 116 70 315 578 170 243 334 149 459 166 450 247 222 63 375 86 91 126 71 988 64 63
internal_value=-0.0234251 4.35514 -2.36412 8.34431 -1.38045 2.99317 -4.74536 7.52873 2.16662 -2.15392 -0.344455 4.65646 9.6425 6.53618 1.53551 -0.7107 6.89977 0.77775 3.02614 4.14218 5.52145 3.20196 0.797492 0.547904 -2.73071 -1.54252 8.97587 -3.56021 1.93714 -0.414508 3.68029 5.19893 -1.26448 4.77458 -2.44291 -1.89776 -3.05578 -1.27836 -3.95396 4.89275 -3.19291 -5.69495 -3.2993 -3.75213 -4.41605 -5.73826 -5.72636 -5.819
internal_weight=12226 4259 7967 1084 5638 3175 2329 1014 2121 3228 2410 1054 324 690 1223 1817 565 593 898 661 393 799 431 521 1661 1567 247 1036 792 1194 382 324 879 279 881 688 780 623 500 125 536 1293 466 348 152 1207 1052 155
internal_count=12226 4259 7967 1084 5638 3175 2329 1014 2121 3228 2410 1054 324 690 1223 1817 565 593 898 661 393 799 431 521 1661 1567 247 1036 792 1194 382 324 879 279 881 688 780 623 500 125 536 1293 466 348 152 1207 1052 155
is_linear=0
shrinkage=0.05


Tree=11
num_leaves=50
num_cat=0
split_feature=10 10 7 7 7 7 7 7 7 10 7 7 8 10 7 3 10 8 10 6 10 7 6 6 6 6 5 10 10 6 5 11 10 10 5 7 10 5 10 5 10 8 8 1 7 4 3 11 4
split_gain=4.52364e+07 7.74449e+06 7.29545e+06 3.30395e+06 1.78497e+06 1.66048e+06 1.30331e+06 590831 358555 342813 229966 226266 178983 169366 134383 131712 121485 96212.6 89058.6 88023.4 86141.2 83703 71227.2 66604.9 61221.8 60554.7 55659.5 52289 51662.9 50977.6 48446.8 45739.9 42238.8 40821.1 29823.3 29425.1 28064.1 23220.1 23139 16048.6 14343.1 13838.4 12898.4 12283.7 10438.3 9638.44 586.272 824.043 330.836
threshold=228.79166666666671 395.54166666666669 100.50000000000001 654.50000000000011 21.500000000000004 320.50000000000006 180.50000000000003 478.50000000000006 242.50000000000003 142.37500000000003 252.50000000000003 379.50000000000006 289.50000000000006 87.125000000000014 540.50000000000011 20.500000000000004 434.70833333333343 157.50000000000003 330.62500000000006 0.60355339059327384 115.37500000000001 170.50000000000003 0.1294095225512602 -0.3794095225512602 -0.60355339059327384 -0.9159756150367534 -0.78656609248549292 119.79166666666667 364.95833333333343 0.78656609248549303 0.78656609248549325 218.50000000000003 158.95833333333334 300.58333333333343 0.37940952255126054 55.500000000000007 553.16666666666674 -0.9159756150367534 136.12500000000003 0.37940952255126054 206.29166666666671 224.50000000000003 63.500000000000007 1.0000000180025095e-35 86.500000000000014 4.5000000000000009 4.5000000000000009 145.50000000000003 4.5000000000000009
decision_type=8 10 10 10 10 10 10 10 8 10 10 10 10 10 10 2 10 10 10 2 10 10 2 2 2 2 2 10 10 2 2 10 10 8 2 10 10 2 10 2 10 10 10 10 10 2 2 10 2
left_child=2 5 4 7 43 8 9 15 21 20 17 18 33 35 37 16 -3 38 29 28 34 -2 41 -20 -19 -11 -14 39 -13 -7 -22 -23 -27 -10 -4 42 -16 -9 -8 -15 -24 -12 -6 46 -29 -37 48 -48 -1
right_child=1 3 6 -5 13 11 10 14 12 25 22 19 26 27 36 -17 -18 24 23 -21 30 31 40 -25 -26 32 -28 44 -30 -31 -32 -33 -34 -35 -36 45 -38 -39 -40 -41 -42 -43 -44 -45 -46 -47 47 -49 -50
leaf_value=-5.3477588653564458 -0.17176178809474496 6.0849462287987865 -1.9632900135092815 18.416953623453775 -4.1471344059392026 3.7667482674217072 -1.3958221250131162 8.8387721729278574 1.9423766179589845 0.3460840364764719 1.9532047328749493 5.2655063283248031 3.9727657017474236 -2.3321848074885181 9.6335398255324947 4.3322923138737677 7.7216158192819329 1.0213314297297147 5.724846014042491 3.9092673855647448 -1.3799727399462842 2.0719206981260681 0.26469881433633063 4.1655937510754422 0.05284836542141931 -1.3972055261855081 2.9753116554181496 -2.3467641161503017 6.4194357420809531 2.2376509883187032 -2.1267779427217293 1.1667428776462021 -0.83332075013769513 2.9504115921020508 -2.5993633989282636 -3.1060845060756916 10.991399751582616 7.6023690878626811 -0.44942920580506329 -2.935401267855041 1.2925374111334484 3.009614303035121 -3.5120110804619999 -4.8328558278638267 -1.7692470495095365 -3.4800487207086839 -5.4534906545692605 -5.6010329950635684 -5.4610745697021486
leaf_weight=181 85 279 295 75 190 313 79 70 511 85 62 244 222 137 82 64 191 215 97 80 598 223 62 233 677 505 378 148 161 66 341 373 970 125 491 324 71 83 354 565 75 62 138 86 166 368 819 107 100
leaf_count=181 85 279 295 75 190 313 79 70 511 85 62 244 222 137 82 64 191 215 97 80 598 223 62 233 677 505 378 148 161 66 341 373 970 125 491 324 71 83 354 565 75 62 138 86 166 368 819 107 100
internal_value=-0.0222539 4.31827 -2.15334 8.36188 -3.95736 3.12897 -0.920419 7.4641 2.21732 -1.48871 0.256648 4.59265 2.7249 -3.03471 9.21585 6.46029 6.75006 -0.0105685 4.02337 5.42485 -1.97444 1.29608 1.6132 4.62392 0.286283 -0.951598 3.34437 -2.57778 5.72423 3.50047 -1.65118 1.50543 -1.02638 2.1405 -2.36063 -3.48985 10.2637 8.16804 -0.622097 -2.81768 0.827384 2.48141 -3.87992 -5.41021 -2.04145 -3.30496 -5.45134 -5.47054 -5.38808
internal_weight=12226 4026 8200 915 3329 3111 4871 840 1917 3285 1586 1194 1236 2036 306 534 470 1325 709 485 1725 681 261 330 892 1560 600 1016 405 379 939 596 1475 636 786 1020 153 153 433 702 137 124 328 1293 314 692 1207 926 281
internal_count=12226 4026 8200 915 3329 3111 4871 840 1917 3285 1586 1194 1236 2036 306 534 470 1325 709 485 1725 681 261 330 892 1560 600 1016 405 379 939 596 1475 636 786 1020 153 153 433 702 137 124 328 1293 314 692 1207 926 281
is_linear=0
shrinkage=0.05


Tree=12
num_leaves=51
num_cat=0
split_feature=10 10 10 9 10 10 9 10 6 6 10 6 0 5 3 10 3 10 10 9 10 10 9 10 10 5 3 10 12 4 11 10 12 8 9 5 5 3 10 4 12 4 11 9 12 4 9 5 5 3
split_gain=4.08482e+07 7.54588e+06 6.07769e+06 3.5028e+06 1.29936e+06 1.19928e+06 1.05514e+06 603166 316441 275013 180509 178743 168658 147787 135928 97086.4 93195.1 90431.3 89984.7 89072.5 59335.9 58463.4 58194.5 57213.7 48619.8 45567.8 42267.8 40920.6 40874.7 39739.5 37090.8 32482.5 31838.2 30743.7 20900.4 20703.6 19698 14329.5 14201.8 11365.3 11654 11275.2 9768.73 9662.55 8959.74 8856.65 3313.19 97.1267 266.999 5.60404
threshold=218.79166666666671 382.12500000000006 90.208333333333357 773.50000000000011 292.70833333333343 142.37500000000003 57.000000000000007 472.58333333333343 -0.9159756150367534 -0.3794095225512602 187.12500000000003 0.25881904510252057 1.0000000180025095e-35 0.60355339059327384 19.500000000000004 257.62500000000006 17.500000000000004 428.00000000000006 330.62500000000006 335.00000000000006 434.70833333333343 116.37500000000001 275.50000000000006 354.08333333333343 117.45833333333336 0.78656609248549325 14.500000000000002 72.458333333333357 248.50000000000003 4.5000000000000009 369.50000000000006 255.45833333333334 213.50000000000003 139.50000000000003 440.50000000000006 0.91597561503675362 0.37940952255126054 5.5000000000000009 169.87500000000003 4.5000000000000009 75.500000000000014 4.5000000000000009 161.50000000000003 667.00000000000011 155.50000000000003 4.5000000000000009 1.0000000180025095e-35 0.78656609248549325 0.91597561503675362 8.5000000000000018
decision_type=8 10 10 10 8 10 10 10 2 2 10 2 2 2 2 10 2 10 10 10 10 10 10 10 10 2 2 10 8 2 10 10 8 10 10 2 2 2 10 2 10 2 10 10 10 2 10 2 2 2
left_child=2 4 6 7 9 13 46 14 22 19 25 18 16 24 20 28 -9 -16 34 44 -3 37 38 30 41 -10 -20 39 -11 -26 -13 -21 -17 -12 -6 -23 -29 -15 -7 42 -41 -4 -8 -14 -2 -38 47 49 -49 -1
right_child=1 3 5 -5 11 8 27 12 10 15 33 23 43 21 17 32 -18 -19 26 31 -22 35 -24 -25 29 -27 -28 36 -30 -31 -32 -33 -34 -35 -36 -37 45 -39 -40 40 -42 -43 -44 -45 -46 -47 -48 48 -50 -51
leaf_value=-5.1971130959262934 2.3343097528963184 6.1818182320697304 -1.6665197788909856 18.351200882026131 3.4542165244207581 0.30041085008644697 -2.7282744139090354 8.9368676058233607 -0.78796010648890924 0.49909248486540075 -1.0464758630503308 2.4188374667339905 9.6554615318775188 -2.16758704079214 3.906786614926089 1.1839070536144849 6.4806656744421991 6.0300174057483673 5.7253508215149251 2.2796813216554113 7.4997853613623953 -1.684593093950953 2.287504684116159 4.016986360280745 -0.72227172599362099 -1.3697525074705483 4.4247705031841429 -2.3192867402155257 1.3265797172059386 -1.5509520261426624 3.3288362707847208 3.4184721511018044 2.0732134988106856 0.082596574202340262 4.4528899704256366 -2.2715420072710755 -2.9077371043531519 -2.749683760152335 1.0604832251110803 -3.8789428851183723 -3.3680779985142095 -2.1512749373912814 -3.5249235713395524 10.524303871393204 1.6472340877933107 -3.347335984848983 -4.8756770876834272 -5.0910793927251081 -5.1983728113308763 -5.1880515491424521
leaf_weight=227 68 423 211 70 338 132 87 73 1353 354 66 263 64 129 105 145 82 96 72 83 107 303 70 124 213 448 472 122 258 451 195 255 329 697 62 298 475 586 115 187 277 278 69 64 157 151 95 98 142 687
leaf_count=227 68 423 211 70 338 132 87 73 1353 354 66 263 64 129 105 145 82 96 72 83 107 303 70 124 213 448 472 122 258 451 195 255 329 697 62 298 475 586 115 187 277 278 69 64 157 151 95 98 142 687
internal_value=-0.0211412 3.93168 -2.13424 7.53356 2.70194 -1.16838 -4.10879 6.78678 -0.475363 1.7289 -0.659617 3.75341 8.74668 -1.97703 6.02802 1.26399 7.63746 4.92087 4.17831 2.62571 6.4479 -2.33912 1.01494 3.06423 -1.56376 -0.932681 4.59691 -3.14947 0.847935 -1.28513 2.80628 3.13883 1.80117 -0.0150689 3.60901 -1.97563 -2.9005 -2.64466 0.654291 -3.44984 -3.57397 -1.94211 -3.08064 10.0899 1.85488 -3.01377 -5.1595 -5.18287 -5.15456 -5.1903
internal_weight=12226 4259 7967 1084 3175 5350 2617 1014 2881 1649 2564 1526 283 2469 731 1086 155 201 944 563 530 1316 317 582 1153 1801 544 1368 612 664 458 338 474 763 400 601 748 715 247 620 464 489 156 128 225 626 1249 1154 240 914
internal_count=12226 4259 7967 1084 3175 5350 2617 1014 2881 1649 2564 1526 283 2469 731 1086 155 201 944 563 530 1316 317 582 1153 1801 544 1368 612 664 458 338 474 763 400 601 748 715 247 620 464 489 156 128 225 626 1249 1154 240 914
is_linear=0
shrinkage=0.05


Tree=13
num_leaves=47
num_cat=0
split_feature=9 9 0 9 5 9 8 6 6 9 9 8 9 1 1 8 1 1 8 1 1 5 8 8 5 12 12 6 5 8 5 6 1 1 9 4 4 12 4 9 1 1 1 2 4 5
split_gain=3.64154e+07 7.04577e+06 5.2374e+06 1.94995e+06 1.82863e+06 1.43132e+06 1.31382e+06 432889 323327 293278 289682 214899 184742 152747 139567 118358 116415 109087 97590.9 82663.4 79714.7 77754.9 76009.9 75415.5 63744.2 62826.6 61496.5 57132.5 53165.4 50078.5 47256.1 38400.6 38012.1 35864.3 29951.6 26524.2 24873.5 22918.2 18682.8 14409.5 14280.8 8072.51 3185.03 83.2361 375.124 6.24492
threshold=335.00000000000006 157.50000000000003 1.0000000180025095e-35 473.50000000000006 -0.78656609248549292 57.000000000000007 185.50000000000003 0.60355339059327384 0.37940952255126048 278.50000000000006 195.50000000000003 275.50000000000006 562.00000000000011 0.94801246241163672 0.80696182394205718 455.50000000000006 1.0696903748556379 0.87202762432794523 297.50000000000006 0.94024932417531304 0.87934756224140276 -0.9159756150367534 69.500000000000014 88.500000000000014 0.37940952255126054 213.50000000000003 222.50000000000003 -0.9159756150367534 0.60355339059327384 447.50000000000006 0.37940952255126054 0.1294095225512602 0.76351303373177815 1.1533681295827174 111.50000000000001 3.5000000000000004 5.5000000000000009 84.500000000000014 4.5000000000000009 246.50000000000003 0.83436139824382272 0.77769619133222656 1.0000000180025095e-35 1.0000000180025095e-35 1.5000000000000002 0.78656609248549325
decision_type=8 10 2 10 2 10 8 2 2 10 10 10 10 10 10 10 10 10 10 8 10 2 10 10 2 8 8 2 2 10 2 2 10 10 10 2 2 8 2 10 10 10 10 2 2 2
left_child=1 5 3 7 33 42 10 11 12 27 28 19 21 23 26 20 25 -13 -16 -2 -10 -5 36 -12 -15 -11 -9 39 35 -14 34 -18 -29 -4 -24 -3 40 -30 -32 -8 -7 -38 43 45 -45 -1
right_child=2 6 4 8 -6 22 9 14 15 16 13 17 29 24 18 -17 31 -19 -20 -21 -22 -23 30 -25 -26 -27 -28 32 37 -31 38 -33 -34 -35 -36 -37 41 -39 -40 -41 -42 -43 -44 44 -46 -47
leaf_value=-4.9282131433105469 1.3095918106704447 -0.93628336339006357 9.4356497261011718 5.1651121192914582 18.920423243122716 -3.3478377839793332 0.13619082687156542 -0.56804120095949329 2.6229465887095165 0.11056064358886133 -2.8949138659929883 2.8107036018290597 6.3703324168069031 -0.12933437521390859 1.7386421573276243 5.8559527445407147 2.3271453592997449 4.0360083887577742 3.1083894079018917 2.8899089893386685 4.4555126029678753 6.3969996637642668 -2.8368959774076941 -1.1754285449747941 -0.9042863066214214 1.0860763054493574 1.3943065045623606 -1.2447553369351942 -2.5281032930838094 8.0383073957193467 -2.5661052246033496 1.2626161768855324 -0.26495140796964683 7.9243280445375746 -1.7197648868833981 -1.6206968979903413 -3.9986370702333094 -1.8847689844224265 -3.0533831297243399 1.0595877463414389 -2.7734342082273784 -3.37895786990026 -4.5713400108226834 -4.7989723258548311 -4.9248685135898818 -4.9395432958539756
leaf_weight=625 118 189 107 326 62 161 84 63 103 319 69 230 70 678 310 84 157 864 224 277 140 211 80 841 436 342 109 117 185 126 732 184 643 62 240 564 79 550 269 85 330 157 69 72 332 151
leaf_count=625 118 189 107 326 62 161 84 63 103 319 69 230 70 678 310 84 157 864 224 277 140 211 80 841 436 342 109 117 185 126 732 184 643 62 240 564 79 550 269 85 330 157 69 72 332 151
internal_value=-0.0200841 -1.74345 4.3007 3.78441 11.5757 -3.56751 -0.638563 2.93397 5.54545 0.40906 -1.21458 3.41747 6.12871 -0.825218 1.91424 4.23803 1.00239 3.7784 2.31322 2.41781 3.67875 5.64915 -2.75394 -1.30581 -0.432637 0.61529 0.67554 -0.230888 -1.74419 7.4426 -2.52797 1.75274 -0.41579 8.8812 -1.99905 -1.44891 -3.16454 -2.0467 -2.69705 0.600621 -2.96178 -3.58639 -4.90153 -4.92084 -4.90243 -4.93042
internal_weight=12226 8740 3486 3255 231 3297 5443 2195 1060 1931 3512 1489 733 2024 706 327 1002 1094 534 395 243 537 2048 910 1114 661 172 929 1488 196 1321 341 760 169 320 753 727 735 1001 169 491 236 1249 1180 404 776
internal_count=12226 8740 3486 3255 231 3297 5443 2195 1060 1931 3512 1489 733 2024 706 327 1002 1094 534 395 243 537 2048 910 1114 661 172 929 1488 196 1321 341 760 169 320 753 727 735 1001 169 491 236 1249 1180 404 776
is_linear=0
shrinkage=0.05


Tree=14
num_leaves=50
num_cat=0
split_feature=7 10 10 8 7 7 10 7 7 8 7 10 7 6 1 10 8 6 10 5 5 10 6 10 3 3 7 6 8 8 6 7 10 5 4 7 7 4 5 10 10 3 10 10 7 1 5 2 5
split_gain=3.33994e+07 6.05397e+06 5.3501e+06 2.41784e+06 1.54875e+06 1.22733e+06 1.02082e+06 359334 309729 290915 148676 141996 122655 119811 128677 104600 100114 90672.7 88742.5 59903.7 56755.7 51845.7 51423.9 50654.8 47257.7 46027 45146.3 43624.4 39770.3 38761.8 32171.6 28328.2 27731 26042.7 29981.2 25594.5 25028.6 21797.3 17325.4 14959.5 12839.9 12463.1 10127 8481.8 6844.23 5895.18 112.666 181.125 47.8513
threshold=240.50000000000003 116.37500000000001 407.37500000000006 654.50000000000011 21.500000000000004 334.50000000000006 209.83333333333334 133.50000000000003 478.50000000000006 311.50000000000006 96.500000000000014 341.20833333333343 189.50000000000003 -0.5 0.58993608973910872 257.62500000000006 478.50000000000006 -0.3794095225512602 553.16666666666674 0.60355339059327384 -0.78656609248549292 255.45833333333334 -0.9159756150367534 78.541666666666671 18.500000000000004 19.500000000000004 376.50000000000006 -0.3794095225512602 146.50000000000003 279.50000000000006 0.25881904510252057 78.500000000000014 261.20833333333343 0.37940952255126054 4.5000000000000009 275.50000000000006 381.50000000000006 2.5000000000000004 0.60355339059327384 53.875000000000007 364.95833333333343 5.5000000000000009 139.95833333333334 284.79166666666669 211.50000000000003 1.0000000180025095e-35 1.0000000180025095e-35 1.0000000180025095e-35 -0.9159756150367534
decision_type=8 10 10 10 10 10 10 10 10 10 10 10 10 2 10 8 10 2 10 2 2 10 2 10 2 2 10 2 10 10 2 10 10 2 2 10 10 2 2 10 10 2 10 10 10 10 2 2 2
left_child=1 4 5 8 45 9 7 28 16 15 23 29 19 32 -15 27 25 40 24 -9 37 -16 -14 39 -10 -4 -19 -2 31 43 -17 -3 44 34 -12 -22 -31 -11 -25 -6 -13 -35 -30 -7 -8 46 48 -48 -1
right_child=2 6 3 -5 10 11 13 12 18 20 33 17 22 14 21 30 -18 26 -20 -21 35 -23 -24 38 -26 -27 -28 -29 42 36 -32 -33 -34 41 -36 -37 -38 -39 -40 -41 -42 -43 -44 -45 -46 -47 47 -49 -50
leaf_value=-4.7193582009949138 1.8042596874548043 -2.7813951526139236 5.7271224180573519 16.200379341276918 -3.5262719169605612 2.5190026430469574 1.2349645883721465 -0.59154863515561384 7.9083285258120348 3.2334864219315622 -1.023570727614256 5.1263443247477216 0.8368804719956483 -1.4938169883733448 0.51659232512116426 2.5482992638286168 7.0557704218559794 3.6376291787566304 9.358084778785706 -1.2092380871638557 1.9966620005450204 1.4311480176001763 -0.23704583535157747 -2.1827778441199928 6.3176271158106196 4.3538286303364959 4.7179042249438004 0.93436281972135282 -1.5944045675269676 3.6059246286490692 1.8370550127020135 -1.7488469081076987 2.8460788855759001 -1.6713726759634235 -2.0038434226479795 2.959667753210764 4.5093340802192685 4.1708152137696741 -2.6888357994428911 -2.992358202739176 5.9095813000679023 -2.3161706815305911 -1.1329375711358127 3.2784474760653026 1.9583056814140745 -4.2387760303638604 -4.6858423240827936 -4.629098620331078 -4.6866939216260084
leaf_weight=149 230 74 210 74 172 66 68 1121 149 139 117 90 136 66 475 301 117 154 80 604 103 230 618 233 68 86 260 386 178 230 337 649 65 88 234 209 115 112 617 553 125 505 358 83 63 81 367 228 453
leaf_count=149 230 74 210 74 172 66 68 1121 149 139 117 90 136 66 475 301 117 154 80 604 103 230 618 233 68 86 260 386 178 230 337 649 65 88 234 209 115 112 617 553 125 505 358 83 63 81 367 228 453
internal_value=-0.0190799 -1.74866 3.92961 7.59957 -3.23388 2.95095 -0.550076 -0.924667 6.70315 2.14782 -2.51461 4.25042 -0.575306 0.897931 0.61732 1.7239 5.81755 4.74868 7.93463 -0.807829 3.09203 0.814958 -0.0433403 -2.81199 7.40986 5.32812 4.31606 1.25916 -1.61257 3.61599 2.17261 -1.85453 2.00177 -2.01844 -1.67709 2.64175 3.90706 3.65174 -2.55012 -3.11902 5.58171 -2.22048 -1.28619 2.94205 1.58283 -4.65159 -4.67953 -4.6641 -4.69478
internal_weight=12226 8502 3724 784 3797 2940 4705 3738 710 1817 2519 1123 2479 967 771 1254 413 629 297 1725 563 705 754 1575 217 296 414 616 1259 494 638 723 196 944 351 312 345 251 850 725 215 593 536 149 131 1278 1197 595 602
internal_count=12226 8502 3724 784 3797 2940 4705 3738 710 1817 2519 1123 2479 967 771 1254 413 629 297 1725 563 705 754 1575 217 296 414 616 1259 494 638 723 196 944 351 312 345 251 850 725 215 593 536 149 131 1278 1197 595 602
is_linear=0
shrinkage=0.05


Tree=15
num_leaves=49
num_cat=0
split_feature=10 10 7 7 8 7 7 10 7 10 7 6 10 10 7 5 10 5 6 11 10 5 1 8 10 10 6 6 6 6 4 6 7 7 8 6 10 11 1 5 7 10 1 10 8 5 11 4
split_gain=3.00087e+07 5.11561e+06 4.6108e+06 2.04161e+06 1.05571e+06 922576 781364 553827 251300 230191 152517 124060 121618 117250 102519 93407.3 80524.1 64496.6 58282.6 53888 52851.2 49862.8 47726.6 45746.7 43807.2 42896 40554.2 39837.1 37532.9 34252.2 33387.3 30614.8 29460.3 29364.5 21710.4 18918.9 14265.2 13118.2 11918.5 11055.6 10607.7 9832.61 7887.97 6337.08 6309.89 454.476 776.836 324.627
threshold=218.79166666666671 368.20833333333343 96.500000000000014 654.50000000000011 21.500000000000004 307.50000000000006 187.50000000000003 472.58333333333343 222.50000000000003 129.70833333333334 428.50000000000006 0.1294095225512602 278.20833333333343 327.62500000000006 246.50000000000003 0.60355339059327384 99.625000000000014 -0.78656609248549292 0.37940952255126048 103.50000000000001 257.62500000000006 0.37940952255126054 0.61110749778387075 136.50000000000003 187.12500000000003 413.87500000000006 1.0000000180025095e-35 1.0000000180025095e-35 0.37940952255126048 -0.78656609248549325 4.5000000000000009 -0.3794095225512602 49.500000000000007 549.50000000000011 150.50000000000003 0.25881904510252057 129.70833333333334 104.50000000000001 0.67575041284106097 0.37940952255126054 379.50000000000006 151.29166666666671 0.46976225575746761 49.208333333333336 129.50000000000003 -0.9159756150367534 263.50000000000006 4.5000000000000009
decision_type=10 10 10 10 10 10 10 10 10 10 10 2 10 10 10 2 10 2 2 8 10 2 10 10 10 10 2 2 2 2 2 2 10 10 10 2 10 10 10 2 10 10 10 10 10 2 10 2
left_child=2 5 4 7 42 8 9 10 19 21 18 33 26 20 23 24 32 -14 -3 -2 -7 30 -21 41 -11 -12 -10 -16 -22 -25 -4 37 43 -9 -17 -23 38 -15 -18 -34 -33 -8 45 -6 -38 47 -47 -1
right_child=1 3 6 -5 16 13 14 11 12 15 25 -13 17 31 27 34 36 -19 -20 22 28 35 -24 29 -26 -27 -28 -29 -30 -31 -32 40 39 -35 -36 -37 44 -39 -40 -41 -42 -43 -44 -45 -46 46 -48 -49
leaf_value=-4.5922843718796633 1.8333390993434329 4.7906392502606474 -0.80316634985307855 14.746135368943214 -3.639599875329246 1.6901190774184407 -1.1308491154114406 7.7072437148468174 1.960639613370101 -0.789104024692731 5.08673501484353 6.1619766164244272 3.1729058617140566 4.1586475050195739 1.9150984438170089 -1.6090633327928707 -2.5656568918607121 2.0875024172252297 3.6829493155909909 -0.78557532674991171 3.3913032009306812 -2.1177112521185064 0.67200440137802697 0.82292762654106744 -0.040799318913449636 6.201661698848989 1.1973894222710479 0.5501759332533066 2.530398337980202 0.025110283470423968 -1.631955005118952 3.4646840187531076 -2.3219587998558775 8.9913684893258008 -1.0881933588958537 -1.5826309000430383 -1.2886384346418911 5.0910903275012975 -2.0137867922724983 -2.7383470098854641 4.0500030238902376 -0.36501212497290814 -3.8927680919419476 -3.0957162308310151 -1.9238904185665466 -4.4492942600853365 -4.2722500136404333 -4.4439578828357513
leaf_weight=89 86 349 180 64 71 76 75 102 291 1166 145 114 210 94 110 388 162 393 180 65 368 614 413 173 235 213 433 104 193 605 374 206 198 79 413 226 63 63 247 818 124 95 67 218 103 1012 66 63
leaf_count=89 86 349 180 64 71 76 75 102 291 1166 145 114 210 94 110 388 162 393 180 65 368 614 413 173 235 213 433 104 193 605 374 206 198 79 413 226 63 63 247 818 124 95 67 218 103 1012 66 63
internal_value=-0.0312857 3.35328 -1.84876 6.04821 -3.32374 2.23955 -0.863881 5.57726 1.56523 -1.22811 4.95309 7.45397 1.94101 3.37401 0.263294 -0.90982 -2.56669 2.4655 4.41373 0.681104 2.9275 -1.7309 0.473798 0.0401565 -0.663585 5.75009 1.50417 1.25177 3.09513 0.202517 -1.36267 3.95806 -2.7839 8.26772 -1.3405 -1.97375 -2.07372 4.53281 -2.23238 -2.6572 3.68462 -0.702881 -4.42109 -3.22933 -1.6828 -4.44987 -4.43845 -4.53081
internal_weight=12196 4261 7935 1246 3177 3015 4758 1182 1891 3596 887 295 1327 1124 1162 2202 1880 603 529 564 637 1394 478 948 1401 358 724 214 561 778 554 487 1305 181 801 840 575 157 409 1016 330 170 1297 289 166 1230 1078 152
internal_count=12196 4261 7935 1246 3177 3015 4758 1182 1891 3596 887 295 1327 1124 1162 2202 1880 603 529 564 637 1394 478 948 1401 358 724 214 561 778 554 487 1305 181 801 840 575 157 409 1016 330 170 1297 289 166 1230 1078 152
is_linear=0
shrinkage=0.05


Tree=16
num_leaves=52
num_cat=0
split_feature=10 10 10 10 10 11 8 10 6 10 6 10 5 3 6 6 10 3 12 3 10 10 6 10 3 5 12 12 5 11 11 8 11 12 3 8 11 8 12 11 10 4 10 3 4 12 10 10 3 4 11
split_gain=2.70829e+07 4.61696e+06 4.07094e+06 1.44812e+06 1.05171e+06 1.02275e+06 895993 655510 179424 171562 166797 164485 154310 124371 115173 75435.5 75018.3 67047.9 61443.1 59943.9 53727.3 46915.1 56314.7 41483.9 36737.4 33465.9 30614.1 30589.4 29832.7 28461.4 28203.2 23428.4 21962.5 19790.7 19000.9 17677.1 16810.2 16022.7 15067 12988.3 11005.7 10396.9 8893.14 8169.56 7535.84 7436.18 4689.07 1589.53 18.1731 12.8423 11.4041
threshold=218.79166666666671 389.95833333333343 99.625000000000014 553.16666666666674 286.79166666666669 338.50000000000006 7.5000000000000009 155.87500000000003 -0.9159756150367534 449.00000000000006 -0.3794095225512602 349.95833333333343 0.78656609248549325 18.500000000000004 0.25881904510252057 -0.3794095225512602 187.12500000000003 19.500000000000004 216.50000000000003 18.500000000000004 72.458333333333357 115.37500000000001 -0.9159756150367534 261.20833333333343 3.5000000000000004 0.37940952255126054 325.50000000000006 404.50000000000006 0.37940952255126054 145.50000000000003 214.50000000000003 137.50000000000003 181.50000000000003 343.50000000000006 5.5000000000000009 111.50000000000001 265.50000000000006 197.50000000000003 199.50000000000003 95.500000000000014 45.291666666666679 2.5000000000000004 139.95833333333334 7.5000000000000009 4.5000000000000009 163.50000000000003 124.45833333333336 1.0000000180025095e-35 8.5000000000000018 2.5000000000000004 260.50000000000006
decision_type=10 10 10 10 10 10 10 10 2 10 2 10 2 2 2 2 10 2 8 2 10 10 2 10 2 2 8 10 2 10 10 10 10 8 2 10 10 10 10 10 10 2 10 2 2 10 10 10 2 2 10
left_child=2 4 6 9 10 -5 47 12 37 17 23 14 21 29 19 39 28 36 30 -6 40 41 -23 45 -20 35 -25 -15 -10 -11 -12 -18 -17 -16 42 -22 -3 -9 -39 -13 -8 -4 -14 -27 -42 -2 -36 48 49 -1 -50
right_child=1 3 7 5 11 -7 20 8 16 13 18 15 34 27 33 32 31 -19 24 -21 25 22 -24 26 -26 43 -28 -29 -30 -31 -32 -33 -34 -35 46 -37 -38 38 -40 -41 44 -43 -44 -45 -46 -47 -48 -49 50 -51 -52
leaf_value=-4.2475341576470269 2.0932289421194938 4.9232896030746574 -1.0506106255397405 15.60261461811681 3.0291942811364585 7.2757176977265026 -3.2988176326139262 0.57426557304318426 -0.39698491711945588 7.9065826877048524 1.3456812911470173 4.3761203379342053 -1.7761830903056106 4.2822972424328327 2.0496476214695321 4.1679287267492171 -0.89427582744568113 3.7586012231558565 1.7643496692143927 4.4273598655201925 -2.0134802293149554 -0.21167126719639998 -1.091345604193765 3.0673217488710698 0.96155992294778714 -2.2064435778274425 1.7763165913837058 5.8281932553276423 -0.895471969710953 6.6283135792007677 0.24254624312595718 0.11470334388001023 3.2913690006772947 2.8217537186159536 -2.1859996768687031 -1.0452173152966286 5.6837635803967714 0.94168428693532569 1.9694514894485473 5.3607465354835284 -2.4468640031417213 -1.7177479837115293 -1.3095263390412146 -2.5140144263153639 -2.8640309075942234 1.5363822807261363 -1.8680616476319054 -4.0074588871002197 -4.2239408937564571 -4.23133260385314 -4.2459804828350363
leaf_weight=225 82 299 73 62 645 91 109 97 687 66 71 66 370 64 396 94 63 120 222 87 159 219 1075 130 398 336 71 64 533 128 315 663 298 105 340 67 96 79 65 68 150 292 141 604 389 223 176 85 605 268 65
leaf_count=225 82 299 73 62 645 91 109 97 687 66 71 66 370 64 396 94 63 120 222 87 159 219 1075 130 398 336 71 64 533 128 315 663 298 105 340 67 96 79 65 68 150 292 141 604 389 223 176 85 605 268 65
internal_value=-0.0297214 3.18561 -1.75632 6.17729 2.28015 10.65 -3.18501 -0.858583 -0.21591 5.3597 1.31314 3.11138 -1.38186 6.265 2.79558 3.85165 -0.375286 4.79366 0.940688 3.19537 -2.47559 -1.08368 -0.942467 2.05361 1.24901 -2.27273 2.6113 5.05525 -0.614767 7.06319 0.445455 0.0271473 3.50156 2.21147 -1.86353 -1.72643 5.10811 1.071 1.40561 4.87578 -2.8406 -1.58432 -1.64742 -2.40407 -2.74794 1.68609 -2.07756 -4.21619 -4.23144 -4.23873 -4.22608
internal_weight=12196 4261 7935 990 3271 153 3062 4873 2187 837 1512 1759 2686 322 1233 526 1946 515 1006 732 1814 1659 1294 506 620 1166 201 128 1220 194 386 726 392 501 1027 226 395 241 144 134 648 365 511 940 539 305 516 1248 1163 493 670
internal_count=12196 4261 7935 990 3271 153 3062 4873 2187 837 1512 1759 2686 322 1233 526 1946 515 1006 732 1814 1659 1294 506 620 1166 201 128 1220 194 386 726 392 501 1027 226 395 241 144 134 648 365 511 940 539 305 516 1248 1163 493 670
is_linear=0
shrinkage=0.05


Tree=17
num_leaves=50
num_cat=0
split_feature=10 10 10 9 9 10 10 10 6 6 5 6 0 12 10 3 8 10 12 9 10 6 10 8 10 10 5 3 5 12 11 12 3 9 8 12 12 11 12 10 12 10 5 3 10 9 9 5 2
split_gain=2.44423e+07 4.1743e+06 3.67402e+06 1.52725e+06 817471 724562 591598 462163 161930 150535 139265 115677 95296.4 108164 81097.9 87413.8 77810.3 68994.5 55452.4 47828.1 42340.8 50824.1 41660.1 40573.4 39660.8 39368.2 36271.4 33155.5 29528.5 25590.1 25453.4 18793.7 17148.3 16642.7 16604.9 15802.4 14797.6 14082 12850.2 12087 8230 8026.06 7978.92 6631.77 4231.89 3955.05 1767.61 16.6678 14.1111
threshold=218.79166666666671 368.20833333333343 99.625000000000014 773.50000000000011 57.000000000000007 286.79166666666669 155.87500000000003 472.58333333333343 -0.9159756150367534 -0.3794095225512602 0.78656609248549325 0.25881904510252057 1.0000000180025095e-35 431.50000000000006 423.45833333333343 19.500000000000004 399.50000000000006 195.04166666666671 216.50000000000003 350.50000000000006 115.37500000000001 -0.9159756150367534 72.458333333333357 238.50000000000003 315.12500000000006 352.20833333333343 0.37940952255126054 3.5000000000000004 0.37940952255126054 390.50000000000006 214.50000000000003 390.50000000000006 5.5000000000000009 275.50000000000006 111.50000000000001 120.50000000000001 279.50000000000006 75.500000000000014 195.50000000000003 49.208333333333336 209.50000000000003 139.95833333333334 0.37940952255126054 7.5000000000000009 124.45833333333336 667.00000000000011 1.0000000180025095e-35 -0.9159756150367534 1.0000000180025095e-35
decision_type=10 10 10 10 10 10 10 10 2 2 2 2 2 10 10 2 10 10 8 10 10 2 10 10 10 10 2 2 2 10 10 8 2 10 10 10 8 10 10 10 8 10 2 2 10 10 10 2 2
left_child=2 5 4 7 46 9 10 14 33 19 20 24 13 -9 15 -3 -16 26 30 38 42 -22 37 -13 31 -25 -10 -20 34 -26 -11 -7 41 40 -24 -19 -21 -6 -2 -39 -8 -12 -4 -30 -34 -14 47 -1 -49
right_child=1 3 6 -5 22 11 8 12 17 18 32 23 45 -15 16 -17 -18 35 27 36 21 -23 28 25 29 -27 -28 -29 43 -31 -32 -33 44 -35 -36 -37 -38 39 -40 -41 -42 -43 -44 -45 -46 -47 -48 48 -50
leaf_value=-4.0034196881686936 2.0646948072464526 4.4945151367366956 -1.3792671681345563 12.581970740372027 -1.9599654566674005 2.9035907867582558 1.0135031803158447 4.7181780721767836 -0.31518967082965349 1.2783972115662525 -1.6873739413423718 1.0671729682013393 7.5355321853879902 7.3113891564882723 3.6363719509493921 3.1200979281942569 5.6544729734556043 0.89176393141669608 1.6761321905111004 3.1824307979681556 -0.20108770060280687 -1.0367783255355303 -1.9305270187556745 2.2200565816353488 3.2261034027500837 3.42964106798172 -0.82248253206480215 0.91348192673831741 -2.1117257523907007 4.0238827697818973 0.23041893303039529 1.9421224627283313 -2.0766996911431064 1.635604451497396 -0.99295646414827954 0.039958679582715304 2.1772306459537449 -3.208220273360872 1.4292279776806633 -2.6326066819918261 0.28800707170887602 -1.2440500232117773 -1.9393966737316877 -2.3883137057159121 -1.7746585736220535 8.0980479701872792 -3.7977050112694815 -4.0175363200579506 -4.0296624947592852
leaf_weight=136 119 465 283 71 63 282 103 83 818 71 370 64 63 78 62 154 208 62 222 78 219 1075 160 453 432 79 619 398 338 131 315 62 340 75 67 447 69 114 240 456 63 141 82 604 176 62 97 645 382
leaf_count=136 119 465 283 71 63 282 103 83 818 71 370 64 63 78 62 154 208 62 222 78 219 1075 160 453 432 79 619 398 338 131 315 62 340 75 67 447 69 114 240 456 63 141 82 604 176 62 97 645 382
internal_value=-0.0282353 3.02633 -1.6685 5.46073 -3.02576 2.02028 -0.815654 5.03042 -0.205114 1.24748 -1.31277 2.79771 6.77872 5.97452 4.46798 4.15258 5.19106 -0.356522 0.893653 1.95093 -1.0295 -0.895344 -2.34262 2.25659 3.15329 2.39968 -0.53371 1.18656 -2.16571 3.41173 0.423182 2.7303 -1.77036 1.01745 -1.6538 0.143715 2.7106 -2.66933 1.63987 -2.74773 0.738164 -1.56505 -1.5051 -2.28907 -1.97368 7.81454 -4.00277 -4.01987 -4.02205
internal_weight=12196 4261 7935 1246 3062 3015 4873 1175 2187 1512 2686 1503 286 161 889 619 270 1946 1006 506 1659 1294 1802 596 907 532 1437 620 1169 563 386 344 1027 241 227 509 147 633 359 570 166 511 365 942 516 125 1260 1163 1027
internal_count=12196 4261 7935 1246 3062 3015 4873 1175 2187 1512 2686 1503 286 161 889 619 270 1946 1006 506 1659 1294 1802 596 907 532 1437 620 1169 563 386 344 1027 241 227 509 147 633 359 570 166 511 365 942 516 125 1260 1163 1027
is_linear=0
shrinkage=0.05


Tree=18
num_leaves=49
num_cat=0
split_feature=7 7 7 7 7 8 10 9 10 7 10 3 10 10 6 9 8 10 12 12 8 7 8 8 8 7 6 9 11 7 11 11 10 1 8 3 3 12 10 11 12 1 7 8 3 1 3 11
split_gain=2.229e+07 3.58499e+06 3.55994e+06 1.19558e+06 1.14931e+06 856747 553140 313464 201273 183372 133637 125741 70577.6 69666.2 67301.1 65960.3 64240.7 67276.6 63029.7 61097.9 50577.5 47820.7 41453.9 38873.9 36868.1 35716.4 34417.7 29645.3 27924.9 27706.8 27616 27500.1 26634.1 23988.6 19876.9 19437.2 17758.7 14673.5 17097 14383.8 13799.7 12594.1 11478.3 9657.18 8417.07 5935.35 420.15 1528.87
threshold=222.50000000000003 447.50000000000006 101.50000000000001 320.50000000000006 654.50000000000011 21.500000000000004 187.12500000000003 350.50000000000006 349.95833333333343 141.50000000000003 472.58333333333343 20.500000000000004 209.83333333333334 99.625000000000014 -0.3794095225512602 456.50000000000006 517.50000000000011 553.16666666666674 285.50000000000006 459.50000000000006 232.50000000000003 195.50000000000003 147.50000000000003 277.50000000000006 299.50000000000006 258.50000000000006 0.37940952255126048 218.50000000000003 96.500000000000014 55.500000000000007 172.50000000000003 115.50000000000001 116.37500000000001 0.72496222889123396 256.50000000000006 1.5000000000000002 13.500000000000002 93.500000000000014 129.70833333333334 150.50000000000003 353.50000000000006 0.69006139708186898 125.50000000000001 65.500000000000014 10.500000000000002 0.46976225575746761 1.5000000000000002 111.50000000000001
decision_type=10 10 10 10 10 10 10 10 10 10 10 2 10 10 2 10 10 10 8 10 10 10 10 10 10 10 2 10 10 10 8 10 10 10 10 2 2 10 10 8 10 10 10 10 2 10 2 10
left_child=2 3 5 7 10 45 9 18 20 22 31 15 33 29 28 -9 -12 -18 24 -16 -5 32 36 30 -2 -20 -22 -23 -10 43 -14 -3 -11 -8 -13 -35 -4 41 -39 -25 -33 -15 -24 -7 -31 46 -1 -48
right_child=1 4 6 8 -6 13 12 11 14 21 16 34 23 37 19 -17 17 -19 25 -21 26 27 42 39 -26 -27 -28 -29 -30 44 -32 40 -34 35 -36 -37 -38 38 -40 -41 -42 -43 -44 -45 -46 -47 47 -49
leaf_value=-3.7290757986215448 0.6044977862224914 4.1821233671377689 -1.5902312802083844 1.5455437271599322 12.875557664036752 -2.9655316270449585 -1.0274757702375801 2.3112921207996187 4.1213618824672364 -1.3562508186543143 7.6485185859129601 0.51495441248019536 1.054945067273892 -2.5862733730248042 3.4895689698037495 3.5560887563020689 4.8558884537738303 7.0124139898701721 0.9852396489706422 4.9372058524988418 3.1997684763299485 -0.59466628762375984 -1.2008242066274948 0.68324934977751517 1.8422631427815017 2.0756396138281734 2.4187480974553237 0.37023961290329949 5.3065328538954795 -2.3040070466900082 0.19594862080641245 5.7790272584895499 -0.6611804273865568 0.70108340986677131 1.5087991529596065 -0.20025415505545263 -1.1050930912932779 -1.8524355326892914 -1.2585829132559276 1.6262714488205507 4.9856389174385676 -1.7983633798663505 -0.7295660521027707 -2.4615650837654979 -1.9466579006993829 -3.3393367301672701 -3.8089823642730716 -4.0030099142969187
leaf_weight=117 680 68 973 69 64 204 71 608 90 154 97 72 123 84 478 129 69 76 140 86 473 144 254 65 66 162 201 178 111 808 391 97 1312 74 167 312 234 303 202 107 126 128 263 178 207 68 1000 113
leaf_count=117 680 68 973 69 64 204 71 608 90 154 97 72 123 84 478 129 69 76 140 86 473 144 254 65 66 162 201 178 111 808 391 97 1312 74 167 312 234 303 202 107 126 128 263 178 207 68 1000 113
internal_value=-0.0268236 2.96097 -1.55609 2.35525 6.54453 -2.78294 -0.656839 1.56121 3.421 -0.967777 5.78433 2.20599 0.298553 -2.1621 3.99028 2.52917 6.6525 5.98621 0.96072 3.71031 2.83486 -0.613009 -1.33571 0.619237 0.714005 1.57016 2.96685 -0.0612711 4.77586 -2.36773 0.401506 5.06234 -0.734196 -0.182823 1.2094 -0.0274589 -1.49618 -1.76145 -1.61489 1.2699 5.33075 -2.11055 -0.961093 -2.7307 -2.23113 -3.79407 -3.81921 -3.82868
internal_weight=12196 4129 8067 3532 597 3412 4655 2024 1508 3512 533 976 1143 2114 765 737 242 145 1048 564 743 1788 1724 686 746 302 674 322 201 1397 514 291 1466 457 239 386 1207 717 505 172 223 212 517 382 1015 1298 1230 1113
internal_count=12196 4129 8067 3532 597 3412 4655 2024 1508 3512 533 976 1143 2114 765 737 242 145 1048 564 743 1788 1724 686 746 302 674 322 201 1397 514 291 1466 457 239 386 1207 717 505 172 223 212 517 382 1015 1298 1230 1113
is_linear=0
shrinkage=0.05


Tree=19
num_leaves=48
num_cat=0
split_feature=7 7 7 7 8 7 7 9 5 9 8 9 1 7 5 12 6 1 8 12 6 6 8 12 12 1 9 8 12 7 9 6 11 6 6 12 12 11 1 8 7 7 6 1 11 5 12
split_gain=2.01269e+07 3.88529e+06 2.75838e+06 1.03725e+06 907556 703895 618636 207184 176458 131959 117637 98733.3 91633.8 73206.6 70537.9 55744.7 52311.4 51523.5 46703.7 44077.3 50736.1 36967.3 35324.2 33478.9 30019.4 29872.3 29330.7 26031.2 25171.6 24726.9 24645.3 23812.8 21914.6 19739.3 18953.4 17791.4 17083.8 16609 16129.4 14744.9 14193.6 13134.5 8487.73 5893.13 5379.08 569.726 769.273
threshold=244.50000000000003 110.50000000000001 447.50000000000006 654.50000000000011 21.500000000000004 334.50000000000006 195.50000000000003 350.50000000000006 0.60355339059327384 244.50000000000003 329.50000000000006 587.50000000000011 1.102200366625391 75.500000000000014 -0.78656609248549292 287.50000000000006 -0.3794095225512602 1.0696903748556379 133.50000000000003 459.50000000000006 0.37940952255126048 0.25881904510252057 313.50000000000006 390.50000000000006 428.50000000000006 0.81371087473708548 335.00000000000006 242.50000000000003 222.50000000000003 141.50000000000003 218.50000000000003 -0.9159756150367534 211.50000000000003 -0.3794095225512602 0.1294095225512602 170.50000000000003 121.50000000000001 131.50000000000003 1.1617434703744038 240.50000000000003 46.500000000000007 91.500000000000014 -0.70710678118654757 0.46976225575746761 140.50000000000003 -0.9159756150367534 277.50000000000006
decision_type=10 10 10 10 10 10 10 10 2 10 10 10 10 10 2 8 2 10 10 10 2 2 10 10 10 10 10 10 10 10 10 2 10 2 2 10 10 10 10 10 10 10 2 10 10 2 10
left_child=1 4 5 11 43 7 8 15 9 29 23 24 26 28 22 27 -11 34 36 20 -12 -16 -9 39 37 42 33 -2 40 -3 44 -32 -28 -8 -13 -20 -10 -4 -17 -7 -6 -27 -15 45 -14 -1 -47
right_child=2 6 3 -5 13 10 12 14 18 16 19 17 30 25 21 38 -18 -19 35 -21 -22 -23 -24 -25 -26 41 32 -29 -30 -31 31 -33 -34 -35 -36 -37 -38 -39 -40 -41 -42 -43 -44 -45 -46 46 -48
leaf_value=-3.7188693598697058 0.58647764566520311 -0.96326714200814356 3.883889435298407 12.231779869459571 -2.6733723059181984 1.8455426312868413 1.1853791100525224 2.2297808749852956 -1.7560242709408955 1.2470932362287233 3.8427724282923004 6.2079056967006014 -0.22926178124088509 -0.90908851153922809 2.433356317677517 1.5014932721975398 -0.057244580777705459 7.2650821404284747 -1.1184837577394515 4.6224087029948073 2.9120959392657468 1.6499494857004575 3.2200591511117373 3.6749355501942826 5.5642028964568526 -2.1398989575428602 1.7543041624381381 1.3163857832551003 -1.3254752283945443 -0.55434855890354062 1.0031151750087737 0.0076829479698905887 0.90051274337054454 0.43616192353456618 5.0785762259454437 -0.57626597830054604 -1.2144984788276498 4.8595532015800487 2.401806863149007 2.6740382635742908 -2.2429235435479118 -1.7616230597603337 -1.5168745905295453 -3.1533811038818911 -0.84513008891580965 -3.6259024188274473 -3.4444858304915891
leaf_weight=152 292 649 67 64 260 65 113 148 357 89 519 85 65 66 253 122 564 83 428 118 204 372 230 77 107 381 118 210 63 859 75 302 207 396 66 234 246 125 84 309 727 577 443 69 78 1016 62
leaf_count=152 292 649 67 64 260 65 113 148 357 89 519 85 65 66 253 122 564 83 428 118 204 372 230 77 107 381 118 210 63 859 75 302 207 396 66 234 246 125 84 309 727 577 443 69 78 1016 62
internal_value=-0.0254824 -1.33996 3.1132 6.2173 -2.52968 2.4961 -0.390178 1.8309 -0.747771 -0.473226 3.37703 5.49511 0.514633 -1.97573 2.29316 1.17603 0.120529 6.26436 -1.21678 3.72641 3.58017 1.96707 2.83233 2.72552 4.89309 -1.7476 0.839427 0.891818 -2.29446 -0.730335 -0.00628514 0.205713 1.2105 0.602491 5.71429 -0.926824 -1.5351 4.51909 1.86861 2.53005 -2.35631 -1.91206 -1.43807 -3.60302 -0.56519 -3.62825 -3.61547
internal_weight=12196 8596 3600 597 3816 3003 4780 1711 3426 2161 1292 533 1354 2517 1003 708 653 234 1265 841 723 625 378 451 299 1467 834 502 1050 1508 520 377 325 509 151 662 603 192 206 374 987 958 509 1299 143 1230 1078
internal_count=12196 8596 3600 597 3816 3003 4780 1711 3426 2161 1292 533 1354 2517 1003 708 653 234 1265 841 723 625 378 451 299 1467 834 502 1050 1508 520 377 325 509 151 662 603 192 206 374 987 958 509 1299 143 1230 1078
is_linear=0
shrinkage=0.05


Tree=20
num_leaves=42
num_cat=0
split_feature=7 9 7 7 7 7 7 9 9 5 1 9 8 9 7 9 1 8 12 6 9 6 8 1 11 6 7 1 12 12 9 11 5 1 9 7 8 12 12 12 11
split_gain=1.83232e+07 3.74714e+06 2.75778e+06 2.2952e+06 621628 490124 457459 389250 193976 125031 111397 100696 73917.1 65418.2 62384.1 59414.1 54682.8 52446.8 45105.4 36189.3 32536.3 32492.5 32137.2 30821.7 30185.8 28830.6 27936.7 27207.5 24276.2 22071.8 18062.6 17817.7 11555.6 9577.11 9300.51 6129.05 5728.43 5591.45 4716.05 4168.05 442.984
threshold=222.50000000000003 773.50000000000011 82.500000000000014 355.50000000000006 142.50000000000003 447.50000000000006 21.500000000000004 347.50000000000006 220.50000000000003 -0.78656609248549292 0.95254061450074801 615.50000000000011 104.50000000000001 310.50000000000006 289.50000000000006 272.50000000000006 1.1585189298137226 311.50000000000006 99.500000000000014 -0.9159756150367534 140.50000000000003 1.0000000180025095e-35 437.50000000000006 1.4510647408970954 352.50000000000006 -0.9159756150367534 533.50000000000011 0.734732128162638 396.50000000000006 182.50000000000003 126.50000000000001 320.50000000000006 -0.37940952255126065 1.0000000180025095e-35 80.500000000000014 110.50000000000001 139.50000000000003 152.50000000000003 105.50000000000001 313.50000000000006 111.50000000000001
decision_type=8 10 10 8 10 10 10 10 10 2 8 10 10 10 10 10 10 10 8 2 10 2 10 10 10 2 10 10 10 8 10 10 2 10 10 10 10 10 10 10 10
left_child=2 3 6 7 12 10 33 15 24 17 28 22 30 19 -11 23 -12 -9 35 -10 34 -17 -7 -2 25 -6 -13 -15 -5 36 38 -20 -32 39 -8 -14 -22 -36 -4 40 -1
right_child=1 -3 4 5 8 11 20 9 13 14 16 26 18 27 -16 21 -18 -19 31 -21 29 -23 -24 -25 -26 -27 -28 -29 -30 -31 32 -33 -34 -35 37 -37 -38 -39 -40 -41 -42
leaf_value=-3.4334597136242557 0.5384200673713917 13.759074778874718 -1.8609065351920711 4.0375301943421364 -0.27504575653236846 4.3088600468567826 -2.7048699384537813 2.0407480994337486 0.73797356459119967 1.3214994015942865 3.4487805165336667 5.4545996558839001 -1.78536659006864 1.1791875057017349 2.138503230272164 1.4230288779237623 2.6034748324998529 3.0651080957667469 -1.0314907589776197 -0.15412177995379026 -1.973073874511756 0.80972365018151482 5.2912005301140539 -0.72607790559293739 0.17350265340632703 -0.94604410125080796 6.7380037490888078 0.33193428342437148 5.2368131284027886 -0.87551038984268426 -0.92476258536179867 -0.49216373924103529 -1.5822670318964158 -2.9456996522843841 -2.2519175879077284 -1.3824921980576639 -1.4677450369386111 -1.7938493225220089 -2.3194122362440748 -3.8608742184109164 -3.5529608840034124
leaf_weight=1010 205 75 214 100 198 176 107 190 126 427 541 69 183 157 516 401 296 365 1060 1163 320 468 158 63 83 836 110 239 73 63 75 179 613 96 668 195 68 74 76 63 84
leaf_count=1010 205 75 214 100 198 176 107 190 126 427 541 69 183 157 516 401 296 365 1060 1163 320 468 158 63 83 836 110 239 73 63 75 179 613 96 668 195 68 74 76 63 84
internal_value=0.0250671 2.68244 -1.38986 2.48265 -0.749366 4.02782 -2.74385 1.58955 -0.232957 2.11899 3.38857 5.28639 -1.30697 0.10576 1.76856 0.892013 3.14984 2.71443 -1.09943 -0.0669193 -2.08676 1.09273 4.77356 0.241169 -0.743913 -0.817555 6.24328 0.66784 4.54359 -1.74356 -1.6501 -0.953573 -1.51059 -3.42559 -2.26908 -1.57753 -1.88451 -2.20623 -1.98107 -3.46541 -3.44264
internal_weight=12183 4233 7950 4158 5397 1523 2553 2635 2802 1498 1010 513 2595 1685 943 1137 837 555 1617 1289 1300 869 334 268 1117 1034 179 396 173 451 978 1239 688 1253 849 378 388 742 290 1157 1094
internal_count=12183 4233 7950 4158 5397 1523 2553 2635 2802 1498 1010 513 2595 1685 943 1137 837 555 1617 1289 1300 869 334 268 1117 1034 179 396 173 451 978 1239 688 1253 849 378 388 742 290 1157 1094
is_linear=0
shrinkage=0.05


Tree=21
num_leaves=44
num_cat=0
split_feature=7 7 7 10 7 7 10 10 9 7 7 10 3 9 10 6 11 12 7 7 6 12 12 11 3 4 10 10 4 7 6 7 3 12 6 12 12 12 3 7 7 11 4
split_gain=1.65367e+07 3.39094e+06 2.49504e+06 2.14257e+06 743774 502610 358841 316151 148855 96293.5 86109.5 81840.8 71096.2 70831.8 68713.6 53714.5 61523.1 50186.4 45014 37220.8 36347.8 34841.3 33011.6 30170.3 29702.9 23877.6 21008.3 19306.4 18874.8 18520.8 17175.7 17156.5 16247.8 15507 15330.9 12880.3 11874.9 10587.7 9708.67 8451.4 6017.42 3834.21 93.9996
threshold=222.50000000000003 654.50000000000011 110.50000000000001 368.20833333333343 29.500000000000004 320.50000000000006 175.62500000000003 441.62500000000006 350.50000000000006 533.50000000000011 428.50000000000006 90.208333333333357 21.500000000000004 194.50000000000003 236.12500000000003 0.25881904510252057 377.50000000000006 283.50000000000006 404.50000000000006 145.50000000000003 -0.60355339059327384 376.50000000000006 189.50000000000003 397.50000000000006 19.500000000000004 4.5000000000000009 115.37500000000001 413.87500000000006 4.5000000000000009 153.50000000000003 -0.60355339059327384 1.0000000180025095e-35 9.5000000000000018 191.50000000000003 -0.9159756150367534 447.50000000000006 197.50000000000003 57.500000000000007 5.5000000000000009 69.500000000000014 46.500000000000007 111.50000000000001 1.5000000000000002
decision_type=8 10 10 8 10 10 10 10 10 10 10 10 2 10 10 2 8 8 10 10 2 10 8 10 2 2 10 10 2 10 2 10 2 10 2 10 8 8 2 10 10 10 2
left_child=2 3 4 5 31 8 13 10 17 21 24 28 -10 26 20 18 -17 -2 -7 33 -8 -9 38 -21 -5 -24 32 -12 40 -22 -16 41 -4 -15 -28 -11 -32 -33 -13 -30 -6 42 -1
right_child=1 -3 6 7 11 15 14 9 12 35 27 22 -14 19 30 16 -18 -19 -20 23 29 -23 25 -25 -26 -27 34 -29 39 -31 36 37 -34 -35 -36 -37 -38 -39 -40 -41 -42 -43 -44
leaf_value=-3.2361602981737558 0.58634842046076197 13.46171501500266 -1.6059169347443671 3.4285419979857075 -2.2979906471948777 2.5857808051658249 0.77141248075688473 4.0343176549878619 1.8377869386134962 6.7653021240234388 3.9232878956529831 -1.3493383666475616 0.45747711270485286 -1.105596513118696 1.5038370674476029 1.304903100484184 2.7300409137802637 1.3362631047287814 3.5421455697584081 -0.47664510731399057 -0.52844024205163809 5.1530153140596964 -0.08940993316711919 0.6082206095474354 2.5996215817341701 -1.2412750708711584 -0.20914450231669607 4.8272804198946275 -2.4073382532304581 -0.019378702414347779 0.13348133969070611 -3.1731736388573282 -1.0527563028177596 -0.49591394634980734 -0.99006311081402698 5.8310414683360321 0.82068102763792905 -2.3013103352387745 -1.6848239618882652 -2.0303069932930744 -1.7778715385855 -3.5635102492112383 -3.2704881336593132
leaf_weight=269 783 70 265 342 63 544 122 116 778 70 135 300 106 359 64 154 149 312 159 900 237 174 62 69 158 164 69 105 347 726 93 65 266 147 705 78 194 75 767 260 474 117 771
leaf_count=269 783 70 265 342 63 544 122 116 778 70 135 300 106 359 64 154 149 312 159 900 237 174 62 69 158 164 69 105 347 726 93 65 266 147 705 78 194 75 767 260 474 117 771
internal_value=0.0238138 2.54832 -1.32037 2.36481 -2.26158 1.65223 -0.486759 4.17047 1.18965 5.23516 3.54028 -1.74677 1.67227 -0.818291 0.155066 2.56222 2.00571 0.800023 2.80209 -0.580896 -0.0416562 4.70554 -1.47423 -0.399395 3.1666 -0.925277 -1.08661 4.31878 -2.05482 -0.144662 0.763167 -3.22888 -1.32882 -0.928475 -0.920446 6.27292 0.598 -2.7061 -1.5905 -2.24584 -1.83889 -3.29214 -3.26161
internal_weight=12183 4233 7950 4163 3734 2985 4216 1178 1979 438 740 2437 884 2780 1436 1006 303 1095 703 1475 1085 290 1293 969 500 226 1305 240 1144 963 351 1297 531 506 774 148 287 140 1067 607 537 1157 1040
internal_count=12183 4233 7950 4163 3734 2985 4216 1178 1979 438 740 2437 884 2780 1436 1006 303 1095 703 1475 1085 290 1293 969 500 226 1305 240 1144 963 351 1297 531 506 774 148 287 140 1067 607 537 1157 1040
is_linear=0
shrinkage=0.05


Tree=22
num_leaves=39
num_cat=0
split_feature=9 9 9 9 9 9 9 3 1 8 9 3 8 4 1 1 9 1 1 9 1 5 4 9 8 5 12 1 3 12 9 4 5 12 11 1 9 12
split_gain=1.47063e+07 3.54375e+06 2.73699e+06 1.21425e+06 576630 544354 352488 174350 174152 140778 110293 98837.9 94856.6 74559 73382.5 66390.8 62236.8 59029.2 47673.6 37261.7 37197.7 37104.3 40311.4 36518.6 30856.8 29983.8 28338.3 20001.4 19369.9 18270.9 16568 15795.5 14978.3 10513.3 1368.07 1215.93 644.808 102.113
threshold=335.00000000000006 830.50000000000011 157.50000000000003 528.50000000000011 244.50000000000003 80.500000000000014 435.50000000000006 20.500000000000004 0.53667740502884775 447.50000000000006 194.50000000000003 19.500000000000004 185.50000000000003 4.5000000000000009 0.89311723158363743 1.0063677000037055 579.50000000000011 0.73907832311197275 1.0818039900125449 615.50000000000011 0.86640995588141412 1.0000000180025095e-35 4.5000000000000009 504.50000000000006 123.50000000000001 0.78656609248549325 99.500000000000014 0.82351122549132394 10.500000000000002 145.50000000000003 57.000000000000007 1.5000000000000002 0.60355339059327384 59.500000000000007 1.0000000180025095e-35 1.0972960232912603 1.0000000180025095e-35 77.500000000000014
decision_type=8 8 10 10 10 10 10 2 10 10 10 2 8 2 10 10 10 10 10 10 10 2 2 10 10 2 10 10 2 8 10 2 2 8 10 10 10 10
left_child=2 3 5 6 10 30 7 13 -6 16 26 14 25 -2 -8 -14 31 -9 19 -11 29 35 28 -13 -22 -10 32 -28 -23 -12 34 -5 -4 -24 36 -7 -1 -36
right_child=1 -3 4 9 8 21 11 17 12 18 20 23 15 -15 -16 -17 -18 -19 -20 -21 24 22 33 -25 -26 -27 27 -29 -30 -31 -32 -33 -34 -35 37 -37 -38 -39
leaf_value=-3.1004067839072835 1.9825610924491646 14.584667612660319 -1.0909092917844847 3.6692221109481418 -2.2688360932118754 -1.1089045199867966 2.1528101198725844 -0.73119581612673679 -0.013963827073518979 4.1093868390531156 -1.2968730745315553 2.3100270559537264 0.19624090116969931 0.679370174353773 3.3334162047966025 0.87789129423480772 4.5037806543682164 0.92244061842069935 5.9032101825723116 5.2452081273580697 -0.91364272688570702 -1.6487579987886225 -2.4965361372857799 1.047001763443566 -0.29688488706297544 -0.8326118866708262 -1.3917248746372906 -0.88265836747154158 -0.87786337083645083 -0.68467369028665603 -2.4025222646429185 2.7324060967990333 -1.7048228195974868 -1.98488158254738 -2.8903890957908027 -0.82791278762863829 -3.2665047276404593 -2.9807746933352561
leaf_weight=1015 1181 62 154 68 68 77 170 66 541 148 200 279 722 121 583 707 116 296 106 141 253 965 122 72 1022 141 255 793 89 312 94 133 280 567 63 77 62 62
leaf_count=1015 1181 62 154 68 68 77 170 66 541 148 200 279 722 121 583 707 116 296 106 141 253 965 122 72 1022 141 255 793 89 312 94 133 280 567 63 77 62 62
internal_value=0.0226231 2.73595 -1.08959 2.52485 -0.408338 -2.25196 2.05117 1.59158 0.221717 4.36638 -0.828311 2.74388 0.301943 1.86145 3.06688 0.533489 3.58156 0.620949 4.99621 4.66354 -0.563828 -1.71235 -1.77808 2.05094 -0.419269 -0.183215 -1.14723 -1.00652 -1.58366 -0.923814 -3.0418 3.04934 -1.48698 -2.07548 -3.0918 -0.968409 -3.10997 -2.93522
internal_weight=12183 3542 8641 3480 5448 3193 2768 1664 2179 712 3269 1104 2111 1302 753 1429 317 362 395 289 1787 1897 1743 351 1275 682 1482 1048 1054 512 1296 201 434 689 1202 154 1077 125
internal_count=12183 3542 8641 3480 5448 3193 2768 1664 2179 712 3269 1104 2111 1302 753 1429 317 362 395 289 1787 1897 1743 351 1275 682 1482 1048 1054 512 1296 201 434 689 1202 154 1077 125
is_linear=0
shrinkage=0.05


Tree=23
num_leaves=42
num_cat=0
split_feature=7 9 7 10 10 7 7 7 10 9 7 10 10 7 6 11 12 6 8 6 7 6 12 11 10 5 4 10 5 6 12 11 12 4 7 12 7 4 11 8 4
split_gain=1.35262e+07 2.80344e+06 2.03979e+06 1.72745e+06 505947 415875 334100 252115 122128 117152 85408.3 69064.8 62946.8 45502.8 44747.8 54909.4 43853.2 43602.2 41265.3 40175.3 37795 33331.8 29823.5 29023.5 25731.9 25638.8 24541.1 23036.7 22519.4 20679 18117.3 15353.3 10383.9 8208.6 6704.64 6602.64 6450.93 5877.68 4012.5 3097.04 83.817
threshold=222.50000000000003 773.50000000000011 82.500000000000014 368.20833333333343 153.87500000000003 320.50000000000006 21.500000000000004 478.50000000000006 209.83333333333334 350.50000000000006 126.50000000000001 441.62500000000006 553.16666666666674 355.50000000000006 0.25881904510252057 377.50000000000006 283.50000000000006 0.1294095225512602 301.50000000000006 0.25881904510252057 153.50000000000003 -0.60355339059327384 189.50000000000003 269.50000000000006 91.375000000000014 0.78656609248549325 4.5000000000000009 100.54166666666667 0.78656609248549325 -0.9159756150367534 182.50000000000003 332.50000000000006 143.50000000000003 4.5000000000000009 1.0000000180025095e-35 161.50000000000003 46.500000000000007 4.5000000000000009 111.50000000000001 139.50000000000003 1.5000000000000002
decision_type=8 10 10 8 10 10 10 10 10 10 10 10 10 10 2 8 8 2 10 2 10 2 8 10 10 2 2 10 2 2 8 8 10 2 10 10 10 2 10 10 2
